network unknown {
}
variable Annual_Temperature {
  type discrete [ 3 ] { low, medium, high };
}
variable Crop_Specialisation {
  type discrete [ 2 ] { No, Yes };
}
variable CV_Annual_Precipitation {
  type discrete [ 3 ] { low, medium, high };
}
variable CV_Annual_Productivity {
  type discrete [ 3 ] { low, medium, high };
}
variable CV_Annual_Temperature {
  type discrete [ 3 ] { low, medium, high };
}
variable Distance_Coast {
  type discrete [ 3 ] { low, medium, high };
}
variable Elevation {
  type discrete [ 3 ] { low, medium, high };
}
variable Exchange_InSettlement {
  type discrete [ 2 ] { No, Yes };
}
variable Exchange_OutSettlement {
  type discrete [ 2 ] { No, Yes };
}
variable Foraging_Intensification {
  type discrete [ 2 ] { No, Yes };
}
variable Landscape {
  type discrete [ 5 ] { Aquatic, Tundra, Desert, Forest, Grassland };
}
variable Monthly_Precipitation {
  type discrete [ 3 ] { low, medium, high };
}
variable Monthly_Productivity {
  type discrete [ 3 ] { low, medium, high };
}
variable None {
  type discrete [ 2 ] { No, Yes };
}
variable Permanent_Migration {
  type discrete [ 2 ] { No, Yes };
}
variable Reciprocity {
  type discrete [ 2 ] { No, Yes };
}
variable Resource_Diversification {
  type discrete [ 2 ] { No, Yes };
}
variable Slope {
  type discrete [ 3 ] { low, medium, high };
}
variable Storage {
  type discrete [ 2 ] { No, Yes };
}
variable Temporal_Migration {
  type discrete [ 2 ] { No, Yes };
}
variable Transhumance {
  type discrete [ 2 ] { No, Yes };
}
probability ( Annual_Temperature | Elevation ) {
  (low) 0.04347826, 0.08695652, 0.86956522;
  (medium) 0.0000000, 0.2459016, 0.7540984;
  (high) 0.06976744, 0.72093023, 0.20930233;
}
probability ( Crop_Specialisation | Resource_Diversification ) {
  (No) 0.8867925, 0.1132075;
  (Yes) 0.98507463, 0.01492537;
}
probability ( CV_Annual_Precipitation | CV_Annual_Temperature ) {
  (low) 0.01666667, 0.00000000, 0.98333333;
  (medium) 0.0212766, 0.0000000, 0.9787234;
  (high) 0.0, 0.0, 1.0;
}
probability ( CV_Annual_Productivity | Monthly_Productivity ) {
  (low) 0.150, 0.025, 0.825;
  (medium) 0.0, 0.0, 1.0;
  (high) 0.0, 0.0, 1.0;
}
probability ( CV_Annual_Temperature | Annual_Temperature ) {
  (low) 0.6666667, 0.0000000, 0.3333333;
  (medium) 0.19230769, 0.09615385, 0.71153846;
  (high) 0.4000000, 0.3652174, 0.2347826;
}
probability ( Distance_Coast | CV_Annual_Productivity ) {
  (low) 0.0, 0.0, 1.0;
  (medium) 1.0, 0.0, 0.0;
  (high) 0.14457831, 0.07228916, 0.78313253;
}
probability ( Elevation ) {
  table 0.3988439, 0.3526012, 0.2485549;
}
probability ( Exchange_InSettlement | Temporal_Migration ) {
  (No) 0.8601399, 0.1398601;
  (Yes) 0.6666667, 0.3333333;
}
probability ( Exchange_OutSettlement | Temporal_Migration ) {
  (No) 0.6573427, 0.3426573;
  (Yes) 0.3333333, 0.6666667;
}
probability ( Foraging_Intensification ) {
  table 0.849711, 0.150289;
}
probability ( Landscape | Monthly_Productivity ) {
  (low) 0.000, 0.050, 0.275, 0.125, 0.550;
  (medium) 0.03296703, 0.00000000, 0.01098901, 0.56043956, 0.39560440;
  (high) 0.00000000, 0.00000000, 0.00000000, 0.97619048, 0.02380952;
}
probability ( Monthly_Precipitation | CV_Annual_Temperature ) {
  (low) 0.11666667, 0.06666667, 0.81666667;
  (medium) 0.1276596, 0.2765957, 0.5957447;
  (high) 0.4545455, 0.3787879, 0.1666667;
}
probability ( Monthly_Productivity | Monthly_Precipitation ) {
  (low) 0.744186, 0.255814, 0.000000;
  (medium) 0.1428571, 0.5714286, 0.2857143;
  (high) 0.02272727, 0.63636364, 0.34090909;
}
probability ( None ) {
  table 0.97109827, 0.02890173;
}
probability ( Permanent_Migration | Temporal_Migration ) {
  (No) 0.93006993, 0.06993007;
  (Yes) 0.7666667, 0.2333333;
}
probability ( Reciprocity | Exchange_InSettlement ) {
  (No) 0.93706294, 0.06293706;
  (Yes) 0.6666667, 0.3333333;
}
probability ( Resource_Diversification ) {
  table 0.6127168, 0.3872832;
}
probability ( Slope | Elevation ) {
  (low) 0.56521739, 0.36231884, 0.07246377;
  (medium) 0.2622951, 0.3606557, 0.3770492;
  (high) 0.09302326, 0.37209302, 0.53488372;
}
probability ( Storage ) {
  table 0.91907514, 0.08092486;
}
probability ( Temporal_Migration ) {
  table 0.8265896, 0.1734104;
}
probability ( Transhumance ) {
  table 0.91907514, 0.08092486;
}
