network unknown {
}
variable Annual_Temperature {
  type discrete [ 3 ] { low, medium, high };
}
variable Community_Size {
  type discrete [ 2 ] { <200, >=200 };
}
variable CV_Annual_Precipitation {
  type discrete [ 3 ] { low, medium, high };
}
variable CV_Annual_Productivity {
  type discrete [ 3 ] { low, medium, high };
}
variable CV_Annual_Temperature {
  type discrete [ 3 ] { low, medium, high };
}
variable Distance_Coast {
  type discrete [ 3 ] { low, medium, high };
}
variable Elevation {
  type discrete [ 3 ] { low, medium, high };
}
variable Landscape {
  type discrete [ 5 ] { Aquatic, Tundra, Desert, Forest, Grassland };
}
variable Monthly_Precipitation {
  type discrete [ 3 ] { low, medium, high };
}
variable Monthly_Productivity {
  type discrete [ 3 ] { low, medium, high };
}
variable Slope {
  type discrete [ 3 ] { low, medium, high };
}
probability ( Annual_Temperature | Community_Size, Elevation ) {
  (<200, low) 0.075, 0.050, 0.875;
  (>=200, low) 0.000000, 0.137931, 0.862069;
  (<200, medium) 0.0000000, 0.2162162, 0.7837838;
  (>=200, medium) 0.0000000, 0.2916667, 0.7083333;
  (<200, high) 0.0952381, 0.6190476, 0.2857143;
  (>=200, high) 0.04545455, 0.81818182, 0.13636364;
}
probability ( Community_Size ) {
  table 0.566474, 0.433526;
}
probability ( CV_Annual_Precipitation | Community_Size, Monthly_Precipitation ) {
  (<200, low) 0.04166667, 0.00000000, 0.95833333;
  (>=200, low) 0.0, 0.0, 1.0;
  (<200, medium) 0.0, 0.0, 1.0;
  (>=200, medium) 0.0, 0.0, 1.0;
  (<200, high) 0.0, 0.0, 1.0;
  (>=200, high) 0.02564103, 0.00000000, 0.97435897;
}
probability ( CV_Annual_Productivity | Community_Size, Monthly_Productivity ) {
  (<200, low) 0.19230769, 0.03846154, 0.76923077;
  (>=200, low) 0.07142857, 0.00000000, 0.92857143;
  (<200, medium) 0.0, 0.0, 1.0;
  (>=200, medium) 0.0, 0.0, 1.0;
  (<200, high) 0.0, 0.0, 1.0;
  (>=200, high) 0.0, 0.0, 1.0;
}
probability ( CV_Annual_Temperature | Community_Size ) {
  (<200) 0.3979592, 0.2346939, 0.3673469;
  (>=200) 0.28, 0.32, 0.40;
}
probability ( Distance_Coast | Community_Size, CV_Annual_Productivity ) {
  (<200, low) 0.0, 0.0, 1.0;
  (>=200, low) 0.0, 0.0, 1.0;
  (<200, medium) 1.0, 0.0, 0.0;
  (>=200, medium) 0.3333333, 0.3333333, 0.3333333;
  (<200, high) 0.13043478, 0.06521739, 0.80434783;
  (>=200, high) 0.16216216, 0.08108108, 0.75675676;
}
probability ( Elevation | Community_Size ) {
  (<200) 0.4081633, 0.3775510, 0.2142857;
  (>=200) 0.3866667, 0.3200000, 0.2933333;
}
probability ( Landscape | Community_Size, Monthly_Precipitation ) {
  (<200, low) 0.04166667, 0.08333333, 0.37500000, 0.04166667, 0.45833333;
  (>=200, low) 0.0000000, 0.0000000, 0.1052632, 0.2631579, 0.6315789;
  (<200, medium) 0.00, 0.00, 0.00, 0.72, 0.28;
  (>=200, medium) 0.05882353, 0.00000000, 0.00000000, 0.29411765, 0.64705882;
  (<200, high) 0.0000000, 0.0000000, 0.0000000, 0.7755102, 0.2244898;
  (>=200, high) 0.02564103, 0.00000000, 0.02564103, 0.76923077, 0.17948718;
}
probability ( Monthly_Precipitation | Community_Size, CV_Annual_Temperature ) {
  (<200, low) 0.12820513, 0.05128205, 0.82051282;
  (>=200, low) 0.0952381, 0.0952381, 0.8095238;
  (<200, medium) 0.1304348, 0.3043478, 0.5652174;
  (>=200, medium) 0.125, 0.250, 0.625;
  (<200, high) 0.4444444, 0.4444444, 0.1111111;
  (>=200, high) 0.4666667, 0.3000000, 0.2333333;
}
probability ( Monthly_Productivity | Community_Size, Monthly_Precipitation ) {
  (<200, low) 0.8333333, 0.1666667, 0.0000000;
  (>=200, low) 0.6315789, 0.3684211, 0.0000000;
  (<200, medium) 0.16, 0.48, 0.36;
  (>=200, medium) 0.1176471, 0.7058824, 0.1764706;
  (<200, high) 0.04081633, 0.61224490, 0.34693878;
  (>=200, high) 0.0000000, 0.6666667, 0.3333333;
}
probability ( Slope | Community_Size ) {
  (<200) 0.3163265, 0.4387755, 0.2448980;
  (>=200) 0.36, 0.28, 0.36;
}
