network unknown {
}
variable Agriculture {
  type discrete [ 3 ] { None, <55, >=55 };
}
variable Animal_Husbandry {
  type discrete [ 3 ] { None, <25, >=25 };
}
variable Annual_Temperature {
  type discrete [ 3 ] { low, medium, high };
}
variable CV_Annual_Precipitation {
  type discrete [ 3 ] { low, medium, high };
}
variable CV_Annual_Productivity {
  type discrete [ 3 ] { low, medium, high };
}
variable CV_Annual_Temperature {
  type discrete [ 3 ] { low, medium, high };
}
variable Distance_Coast {
  type discrete [ 3 ] { low, medium, high };
}
variable Elevation {
  type discrete [ 3 ] { low, medium, high };
}
variable Fishing {
  type discrete [ 3 ] { None, <25, >=25 };
}
variable Gathering {
  type discrete [ 3 ] { None, <25, >=25 };
}
variable Hunting {
  type discrete [ 3 ] { None, <25, >=25 };
}
variable Landscape {
  type discrete [ 5 ] { Aquatic, Tundra, Desert, Forest, Grassland };
}
variable Monthly_Precipitation {
  type discrete [ 3 ] { low, medium, high };
}
variable Monthly_Productivity {
  type discrete [ 3 ] { low, medium, high };
}
variable Slope {
  type discrete [ 3 ] { low, medium, high };
}
probability ( Agriculture | Fishing ) {
  (None) 0.06557377, 0.26229508, 0.67213115;
  (<25) 0.01136364, 0.39772727, 0.59090909;
  (>=25) 0.04166667, 0.87500000, 0.08333333;
}
probability ( Animal_Husbandry | Hunting ) {
  (None) 0.06122449, 0.59183673, 0.34693878;
  (<25) 0.2260870, 0.6086957, 0.1652174;
  (>=25) 0.7777778, 0.0000000, 0.2222222;
}
probability ( Annual_Temperature | Elevation ) {
  (low) 0.04347826, 0.08695652, 0.86956522;
  (medium) 0.0000000, 0.2459016, 0.7540984;
  (high) 0.06976744, 0.72093023, 0.20930233;
}
probability ( CV_Annual_Precipitation | CV_Annual_Temperature ) {
  (low) 0.01666667, 0.00000000, 0.98333333;
  (medium) 0.0212766, 0.0000000, 0.9787234;
  (high) 0.0, 0.0, 1.0;
}
probability ( CV_Annual_Productivity | Monthly_Productivity ) {
  (low) 0.150, 0.025, 0.825;
  (medium) 0.0, 0.0, 1.0;
  (high) 0.0, 0.0, 1.0;
}
probability ( CV_Annual_Temperature | Annual_Temperature ) {
  (low) 0.6666667, 0.0000000, 0.3333333;
  (medium) 0.19230769, 0.09615385, 0.71153846;
  (high) 0.4000000, 0.3652174, 0.2347826;
}
probability ( Distance_Coast | CV_Annual_Productivity ) {
  (low) 0.0, 0.0, 1.0;
  (medium) 1.0, 0.0, 0.0;
  (high) 0.14457831, 0.07228916, 0.78313253;
}
probability ( Elevation ) {
  table 0.3988439, 0.3526012, 0.2485549;
}
probability ( Fishing | Animal_Husbandry ) {
  (None) 0.08333333, 0.69444444, 0.22222222;
  (<25) 0.2828283, 0.5656566, 0.1515152;
  (>=25) 0.78947368, 0.18421053, 0.02631579;
}
probability ( Gathering ) {
  table 0.554913295, 0.439306358, 0.005780347;
}
probability ( Hunting ) {
  table 0.28323699, 0.66473988, 0.05202312;
}
probability ( Landscape | Monthly_Productivity ) {
  (low) 0.000, 0.050, 0.275, 0.125, 0.550;
  (medium) 0.03296703, 0.00000000, 0.01098901, 0.56043956, 0.39560440;
  (high) 0.00000000, 0.00000000, 0.00000000, 0.97619048, 0.02380952;
}
probability ( Monthly_Precipitation | CV_Annual_Temperature ) {
  (low) 0.11666667, 0.06666667, 0.81666667;
  (medium) 0.1276596, 0.2765957, 0.5957447;
  (high) 0.4545455, 0.3787879, 0.1666667;
}
probability ( Monthly_Productivity | Monthly_Precipitation ) {
  (low) 0.744186, 0.255814, 0.000000;
  (medium) 0.1428571, 0.5714286, 0.2857143;
  (high) 0.02272727, 0.63636364, 0.34090909;
}
probability ( Slope | Elevation ) {
  (low) 0.56521739, 0.36231884, 0.07246377;
  (medium) 0.2622951, 0.3606557, 0.3770492;
  (high) 0.09302326, 0.37209302, 0.53488372;
}
