network unknown {
}
variable Conclusion {
  type discrete [ 2 ] { NotSource, Source };
}
variable CCF {
  type discrete [ 10 ] { CCF_0_1, CCF_1_2, CCF_2_3, CCF_3_4, CCF_4_5, CCF_5_6, CCF_6_7, CCF_7_8, CCF_8_9, CCF_9_10 };
}
variable CMPS {
  type discrete [ 28 ] { CMPS_0, CMPS_1, CMPS_10, CMPS_11, CMPS_12, CMPS_13, CMPS_14, CMPS_15, CMPS_16, CMPS_17, CMPS_18, CMPS_19, CMPS_2, CMPS_20, CMPS_21, CMPS_22, CMPS_23, CMPS_24, CMPS_25, CMPS_26, CMPS_27, CMPS_3, CMPS_4, CMPS_5, CMPS_6, CMPS_7, CMPS_8, CMPS_9 };
}
variable RF {
  type discrete [ 10 ] { RF_0_1, RF_1_2, RF_2_3, RF_3_4, RF_4_5, RF_5_6, RF_6_7, RF_7_8, RF_8_9, RF_9_10 };
}
variable CMS {
  type discrete [ 30 ] { CMS_0, CMS_1, CMS_10, CMS_11, CMS_12, CMS_13, CMS_14, CMS_15, CMS_16, CMS_17, CMS_18, CMS_19, CMS_2, CMS_20, CMS_21, CMS_22, CMS_23, CMS_24, CMS_25, CMS_26, CMS_27, CMS_28, CMS_29, CMS_3, CMS_4, CMS_5, CMS_6, CMS_7, CMS_8, CMS_9 };
}
probability ( Conclusion ) {
  table 0.98248502, 0.01751498;
}
probability ( CCF | Conclusion ) {
  (NotSource) 0.00041872, 0.02690008, 0.24730447, 0.37895000, 0.21818094, 0.07828050, 0.02069025, 0.01098738, 0.01106202, 0.00722565;
  (Source) 0.00004186, 0.00590205, 0.03436584, 0.05027208, 0.06868983, 0.07036417, 0.08794475, 0.10385098, 0.17166178, 0.40690666;
}
probability ( CMPS | CCF, Conclusion ) {
  (CCF_0_1, NotSource) 0.0006265699, 0.4216791620, 0.0006265699, 0.0006265699, 0.0006265699, 0.0006265699, 0.0006265699, 0.0006265699, 0.0006265699, 0.0006265699, 0.0006265699, 0.0006265699, 0.4392230205, 0.0006265699, 0.0006265699, 0.0006265699, 0.0006265699, 0.0006265699, 0.0006265699, 0.0006265699, 0.0006265699, 0.1058897105, 0.0181704284, 0.0006265699, 0.0006265699, 0.0006265699, 0.0006265699, 0.0006265699;
  (CCF_1_2, NotSource) 1.674260e-03, 3.836437e-01, 9.909999e-06, 9.909999e-06, 9.909999e-06, 9.909999e-06, 9.909999e-06, 9.909999e-06, 9.909999e-06, 9.909999e-06, 9.909999e-06, 9.909999e-06, 4.879433e-01, 9.909999e-06, 9.909999e-06, 9.909999e-06, 9.909999e-06, 9.909999e-06, 9.909999e-06, 9.909999e-06, 9.909999e-06, 1.073608e-01, 1.831781e-02, 8.420799e-04, 9.909999e-06, 9.909999e-06, 9.909999e-06, 9.909999e-06;
  (CCF_2_3, NotSource) 0.00160059, 0.38744636, 0.00000108, 0.00000108, 0.00000108, 0.00000108, 0.00000108, 0.00000108, 0.00000108, 0.00000108, 0.00000108, 0.00000108, 0.48522816, 0.00000108, 0.00000108, 0.00000108, 0.00000108, 0.00000108, 0.00000108, 0.00000108, 0.00000108, 0.10774213, 0.01545302, 0.00217401, 0.00027269, 0.00006144, 0.00000108, 0.00000108;
  (CCF_3_4, NotSource) 0.00134000, 0.36180721, 0.00000070, 0.00000070, 0.00000070, 0.00000070, 0.00000070, 0.00000070, 0.00000070, 0.00000070, 0.00000070, 0.00000070, 0.49280203, 0.00000070, 0.00000070, 0.00000070, 0.00000070, 0.00000070, 0.00000070, 0.00000070, 0.00000070, 0.12148260, 0.01959773, 0.00254142, 0.00037492, 0.00004009, 0.00000070, 0.00000070;
  (CCF_4_5, NotSource) 0.00140375, 0.32836301, 0.00000122, 0.00000122, 0.00000122, 0.00000122, 0.00000122, 0.00000122, 0.00000122, 0.00000122, 0.00000122, 0.00000122, 0.49594759, 0.00000122, 0.00000122, 0.00000122, 0.00000122, 0.00000122, 0.00000122, 0.00000122, 0.00000122, 0.14329818, 0.02617028, 0.00434563, 0.00034330, 0.00010385, 0.00000122, 0.00000122;
  (CCF_5_6, NotSource) 6.707701e-04, 3.044176e-01, 3.400000e-06, 3.400000e-06, 3.400000e-06, 3.400000e-06, 3.400000e-06, 3.400000e-06, 3.400000e-06, 3.400000e-06, 3.400000e-06, 3.400000e-06, 4.875619e-01, 3.400000e-06, 3.400000e-06, 3.400000e-06, 3.400000e-06, 3.400000e-06, 3.400000e-06, 3.400000e-06, 3.400000e-06, 1.619826e-01, 3.527845e-02, 8.011791e-03, 1.624150e-03, 2.894200e-04, 9.874001e-05, 3.400000e-06;
  (CCF_6_7, NotSource) 0.00109474, 0.27732986, 0.00001288, 0.00001288, 0.00001288, 0.00001288, 0.00001288, 0.00001288, 0.00001288, 0.00001288, 0.00001288, 0.00001288, 0.48937458, 0.00001288, 0.00001288, 0.00001288, 0.00001288, 0.00001288, 0.00001288, 0.00001288, 0.00001288, 0.17996239, 0.03859925, 0.00902839, 0.00289784, 0.00073412, 0.00037350, 0.00037350;
  (CCF_7_8, NotSource) 0.00070313, 0.25732226, 0.00070313, 0.00002425, 0.00002425, 0.00070313, 0.00002425, 0.00002425, 0.00002425, 0.00002425, 0.00002425, 0.00070313, 0.49696923, 0.00002425, 0.00070313, 0.00002425, 0.00002425, 0.00002425, 0.00002425, 0.00002425, 0.00002425, 0.18196585, 0.05094074, 0.00749200, 0.00138202, 0.00002425, 0.00002425, 0.00002425;
  (CCF_8_9, NotSource) 0.00069839, 0.19422504, 0.00002408, 0.00069839, 0.00069839, 0.00069839, 0.00137270, 0.00002408, 0.00272132, 0.00272132, 0.00137270, 0.00204701, 0.44574223, 0.00002408, 0.00002408, 0.00002408, 0.00002408, 0.00002408, 0.00002408, 0.00002408, 0.00002408, 0.24210096, 0.07891822, 0.01890473, 0.00541855, 0.00069839, 0.00069839, 0.00002408;
  (CCF_9_10, NotSource) 0.00003686, 0.09498010, 0.00003686, 0.00003686, 0.00003686, 0.00003686, 0.00003686, 0.00003686, 0.00003686, 0.00003686, 0.00313283, 0.00726080, 0.41180154, 0.00313283, 0.00210084, 0.00106885, 0.00003686, 0.00003686, 0.00003686, 0.00003686, 0.00003686, 0.28177059, 0.13109980, 0.04441250, 0.01551673, 0.00210084, 0.00003686, 0.00106885;
  (CCF_0_1, Source) 0.03571429, 0.03571429, 0.03571429, 0.03571429, 0.03571429, 0.03571429, 0.03571429, 0.03571429, 0.03571429, 0.03571429, 0.03571429, 0.03571429, 0.03571429, 0.03571429, 0.03571429, 0.03571429, 0.03571429, 0.03571429, 0.03571429, 0.03571429, 0.03571429, 0.03571429, 0.03571429, 0.03571429, 0.03571429, 0.03571429, 0.03571429, 0.03571429;
  (CCF_1_2, Source) 0.00238095, 0.20238096, 0.06904762, 0.00238095, 0.00238095, 0.00238095, 0.00238095, 0.00238095, 0.00238095, 0.00238095, 0.00238095, 0.00238095, 0.26904763, 0.00238095, 0.00238095, 0.00238095, 0.00238095, 0.00238095, 0.00238095, 0.00238095, 0.00238095, 0.00238095, 0.13571430, 0.13571430, 0.06904762, 0.00238095, 0.06904762, 0.00238095;
  (CCF_2_3, Source) 0.00043029, 0.27753874, 0.02452668, 0.02452668, 0.01247849, 0.00043029, 0.00043029, 0.00043029, 0.00043029, 0.00043029, 0.00043029, 0.00043029, 0.28958693, 0.00043029, 0.00043029, 0.00043029, 0.00043029, 0.00043029, 0.00043029, 0.00043029, 0.00043029, 0.09681583, 0.00043029, 0.03657487, 0.04862306, 0.04862306, 0.09681583, 0.03657487;
  (CCF_3_4, Source) 0.00029516, 0.18211334, 0.03335301, 0.04988194, 0.03335301, 0.02508855, 0.00855962, 0.00855962, 0.00029516, 0.00029516, 0.00029516, 0.00029516, 0.23170012, 0.00029516, 0.00029516, 0.00029516, 0.00029516, 0.00029516, 0.00029516, 0.00029516, 0.00029516, 0.09946871, 0.06641086, 0.05814640, 0.05814640, 0.00855962, 0.09120425, 0.04161747;
  (CCF_4_5, Source) 0.00021645, 0.04870130, 0.06688312, 0.04870130, 0.04264069, 0.03051948, 0.02445887, 0.00627706, 0.01233766, 0.00021645, 0.00021645, 0.00021645, 0.10930736, 0.00021645, 0.00021645, 0.00021645, 0.00021645, 0.00021645, 0.00021645, 0.00021645, 0.00021645, 0.13354978, 0.09112554, 0.04870130, 0.07900433, 0.06688312, 0.10930736, 0.07900433;
  (CCF_5_6, Source) 0.00021133, 0.03571429, 0.07713440, 0.08896872, 0.03571429, 0.04754861, 0.02387997, 0.00021133, 0.00612849, 0.00021133, 0.00021133, 0.00021133, 0.11263736, 0.00021133, 0.00021133, 0.00021133, 0.00021133, 0.00021133, 0.00021133, 0.00021133, 0.00021133, 0.07713440, 0.08305156, 0.11855452, 0.06530008, 0.08305156, 0.05938292, 0.08305156;
  (CCF_6_7, Source) 0.00016926, 0.00964794, 0.11391334, 0.06178064, 0.06178064, 0.02386594, 0.04282329, 0.02386594, 0.01912661, 0.00016926, 0.00016926, 0.00016926, 0.04282329, 0.00016926, 0.00016926, 0.00016926, 0.00016926, 0.00016926, 0.00016926, 0.00016926, 0.00016926, 0.06178064, 0.09021666, 0.06651997, 0.09969533, 0.07125931, 0.11391334, 0.09495599;
  (CCF_7_8, Source) 0.00014343, 0.00014343, 0.11660929, 0.12865749, 0.10456110, 0.08448078, 0.06440046, 0.02022375, 0.04030407, 0.01620769, 0.01219162, 0.00817556, 0.00415950, 0.00415950, 0.00014343, 0.00014343, 0.00014343, 0.00014343, 0.00014343, 0.00014343, 0.00014343, 0.00817556, 0.02022375, 0.02423982, 0.06440046, 0.09251291, 0.08849684, 0.09652897;
  (CCF_8_9, Source) 8.689999e-05, 8.689999e-05, 8.524504e-02, 1.047098e-01, 1.241745e-01, 1.266076e-01, 1.144421e-01, 1.144421e-01, 5.848105e-02, 4.874870e-02, 4.144943e-02, 9.819259e-03, 8.689999e-05, 9.819259e-03, 4.953080e-03, 8.689999e-05, 8.689999e-05, 8.689999e-05, 8.689999e-05, 8.689999e-05, 8.689999e-05, 4.953080e-03, 4.953080e-03, 9.819259e-03, 2.198471e-02, 1.955162e-02, 2.198471e-02, 7.307959e-02;
  (CCF_9_10, Source) 0.00003671, 0.00003671, 0.00517545, 0.00209220, 0.01134195, 0.01236970, 0.01545294, 0.02881368, 0.02778593, 0.03086918, 0.03600793, 0.05656291, 0.00003671, 0.07506240, 0.11206137, 0.15214359, 0.10692263, 0.11720012, 0.17886507, 0.02161944, 0.00311995, 0.00003671, 0.00003671, 0.00003671, 0.00209220, 0.00106445, 0.00003671, 0.00311995;
}
probability ( RF | CCF, Conclusion ) {
  (CCF_0_1, NotSource) 0.73859648, 0.07192982, 0.07192982, 0.07192982, 0.00175439, 0.03684211, 0.00175439, 0.00175439, 0.00175439, 0.00175439;
  (CCF_1_2, NotSource) 0.54371705, 0.26410541, 0.11486824, 0.03830791, 0.03220527, 0.00668516, 0.00002774, 0.00002774, 0.00002774, 0.00002774;
  (CCF_2_3, NotSource) 0.28550174, 0.34350687, 0.21946884, 0.09078316, 0.03271767, 0.02619888, 0.00163271, 0.00012374, 0.00006338, 0.00000302;
  (CCF_3_4, NotSource) 0.13676757, 0.35070018, 0.29110157, 0.13562523, 0.04478955, 0.03616292, 0.00457133, 0.00023832, 0.00004136, 0.00000197;
  (CCF_4_5, NotSource) 0.10173776, 0.33496733, 0.34262990, 0.13868231, 0.04885232, 0.02771183, 0.00465570, 0.00041392, 0.00034550, 0.00000342;
  (CCF_5_6, NotSource) 0.07399180, 0.33350176, 0.40653065, 0.12547431, 0.04977596, 0.00725522, 0.00172562, 0.00096291, 0.00039089, 0.00039089;
  (CCF_6_7, NotSource) 0.01950956, 0.13202308, 0.37796610, 0.24742157, 0.10750090, 0.07143887, 0.03465561, 0.00580599, 0.00364226, 0.00003606;
  (CCF_7_8, NotSource) 0.00142566, 0.03536999, 0.20780720, 0.16028513, 0.15892736, 0.18608282, 0.13584521, 0.07746096, 0.02858113, 0.00821453;
  (CCF_8_9, NotSource) 0.00006743, 0.00276467, 0.00815914, 0.03917734, 0.04726905, 0.16190155, 0.40869858, 0.24551585, 0.05805799, 0.02838840;
  (CCF_9_10, NotSource) 0.00010320, 0.00010320, 0.00010320, 0.00216718, 0.00629515, 0.07027864, 0.44385965, 0.36542828, 0.06821465, 0.04344685;
  (CCF_0_1, Source) 0.1, 0.1, 0.1, 0.1, 0.1, 0.1, 0.1, 0.1, 0.1, 0.1;
  (CCF_1_2, Source) 0.80666665, 0.14000000, 0.00666667, 0.00666667, 0.00666667, 0.00666667, 0.00666667, 0.00666667, 0.00666667, 0.00666667;
  (CCF_2_3, Source) 0.36265061, 0.19397590, 0.26626507, 0.04939759, 0.02530120, 0.02530120, 0.02530120, 0.04939759, 0.00120482, 0.00120482;
  (CCF_3_4, Source) 0.16611570, 0.41404959, 0.18264463, 0.10000000, 0.01735537, 0.01735537, 0.05041322, 0.05041322, 0.00082645, 0.00082645;
  (CCF_4_5, Source) 0.08545455, 0.31575757, 0.26727272, 0.06121212, 0.03696970, 0.03696970, 0.04909091, 0.09757576, 0.04909091, 0.00060606;
  (CCF_5_6, Source) 0.10710059, 0.21360947, 0.17810651, 0.13076923, 0.03609467, 0.08343195, 0.04792899, 0.07159763, 0.11893491, 0.01242604;
  (CCF_6_7, Source) 0.00047393, 0.03838863, 0.07630332, 0.10473934, 0.08578199, 0.07630332, 0.06682464, 0.16161137, 0.17109005, 0.21848341;
  (CCF_7_8, Source) 0.00040161, 0.00040161, 0.01646586, 0.00843373, 0.00843373, 0.05662651, 0.05662651, 0.10481928, 0.18514056, 0.56265060;
  (CCF_8_9, Source) 0.00024331, 0.00024331, 0.00024331, 0.00024331, 0.00024331, 0.00510949, 0.02457421, 0.06350365, 0.08783455, 0.81776155;
  (CCF_9_10, Source) 0.00010277, 0.00010277, 0.00010277, 0.00010277, 0.00215827, 0.00010277, 0.00010277, 0.00010277, 0.00421377, 0.99290857;
}
probability ( CMS | RF, Conclusion ) {
  (RF_0_1, NotSource) 0.10012305, 0.33881211, 0.00018158, 0.00000150, 0.00000150, 0.00000150, 0.00000150, 0.00000150, 0.00000150, 0.00000150, 0.00000150, 0.00000150, 0.28650040, 0.00000150, 0.00000150, 0.00000150, 0.00000150, 0.00000150, 0.00000150, 0.00000150, 0.00000150, 0.00000150, 0.00000150, 0.17782530, 0.06239739, 0.02296103, 0.00747460, 0.00270262, 0.00045169, 0.00054172;
  (RF_1_2, NotSource) 0.01577931, 0.19777991, 0.00104962, 0.00031998, 0.00013757, 0.00004636, 0.00000076, 0.00000076, 0.00000076, 0.00000076, 0.00000076, 0.00000076, 0.33819079, 0.00000076, 0.00000076, 0.00000076, 0.00000076, 0.00000076, 0.00000076, 0.00000076, 0.00000076, 0.00000076, 0.00000076, 0.23335005, 0.11441807, 0.05490648, 0.02489986, 0.01213109, 0.00519947, 0.00177927;
  (RF_2_3, NotSource) 2.188088e-02, 3.316639e-01, 6.829801e-04, 1.582800e-04, 1.582800e-04, 5.334000e-05, 8.700001e-07, 8.700001e-07, 8.700001e-07, 8.700001e-07, 8.700001e-07, 8.700001e-07, 3.044320e-01, 8.700001e-07, 8.700001e-07, 8.700001e-07, 8.700001e-07, 8.700001e-07, 8.700001e-07, 8.700001e-07, 8.700001e-07, 8.700001e-07, 8.700001e-07, 1.695840e-01, 9.607350e-02, 4.806342e-02, 1.579435e-02, 7.241741e-03, 3.096610e-03, 1.102750e-03;
  (RF_3_4, NotSource) 0.09225904, 0.48532758, 0.00061220, 0.00000203, 0.00000203, 0.00000203, 0.00000203, 0.00000203, 0.00000203, 0.00000203, 0.00000203, 0.00000203, 0.20989893, 0.00000203, 0.00000203, 0.00000203, 0.00000203, 0.00000203, 0.00000203, 0.00000203, 0.00000203, 0.00000203, 0.00000203, 0.10311999, 0.05894401, 0.03343910, 0.00988671, 0.00329693, 0.00219863, 0.00097830;
  (RF_4_5, NotSource) 2.947179e-01, 5.513066e-01, 1.331570e-03, 6.685499e-04, 5.529999e-06, 5.529999e-06, 5.529999e-06, 5.529999e-06, 5.529999e-06, 5.529999e-06, 5.529999e-06, 5.529999e-06, 7.194319e-02, 5.529999e-06, 5.529999e-06, 5.529999e-06, 5.529999e-06, 5.529999e-06, 5.529999e-06, 5.529999e-06, 5.529999e-06, 5.529999e-06, 5.529999e-06, 2.420576e-02, 1.757556e-02, 1.127687e-02, 1.227140e-02, 9.619319e-03, 4.646669e-03, 3.370400e-04;
  (RF_5_6, NotSource) 0.70412402, 0.20469259, 0.00137215, 0.00000758, 0.00046244, 0.00046244, 0.00000758, 0.00046244, 0.00000758, 0.00000758, 0.00000758, 0.00000758, 0.02911834, 0.00000758, 0.00000758, 0.00000758, 0.00000758, 0.00000758, 0.00000758, 0.00000758, 0.00000758, 0.00000758, 0.00000758, 0.01501782, 0.01183383, 0.01183383, 0.00819498, 0.00501099, 0.00410128, 0.00319157;
  (RF_6_7, NotSource) 0.30120324, 0.41513443, 0.00114683, 0.00227486, 0.00114683, 0.00001880, 0.00001880, 0.00001880, 0.00001880, 0.00001880, 0.00001880, 0.00001880, 0.17147960, 0.00001880, 0.00001880, 0.00001880, 0.00001880, 0.00001880, 0.00001880, 0.00001880, 0.00001880, 0.00001880, 0.00001880, 0.03160368, 0.02483550, 0.01919534, 0.01355518, 0.00340290, 0.00904305, 0.00565896;
  (RF_7_8, NotSource) 0.00003758, 0.16463735, 0.00454716, 0.00229237, 0.00003758, 0.00003758, 0.00003758, 0.00003758, 0.00003758, 0.00003758, 0.00003758, 0.00003758, 0.46677941, 0.00003758, 0.00003758, 0.00003758, 0.00003758, 0.00003758, 0.00003758, 0.00003758, 0.00003758, 0.00003758, 0.00003758, 0.22551672, 0.06091695, 0.03836903, 0.00905675, 0.00905675, 0.00905675, 0.00905675;
  (RF_8_9, NotSource) 0.000149480, 0.000149480, 0.009118089, 0.027055308, 0.009118089, 0.000149480, 0.000149480, 0.000149480, 0.000149480, 0.000149480, 0.000149480, 0.000149480, 0.080866963, 0.000149480, 0.000149480, 0.000149480, 0.000149480, 0.000149480, 0.000149480, 0.000149480, 0.000149480, 0.000149480, 0.000149480, 0.394768274, 0.260239137, 0.098804181, 0.036023917, 0.027055308, 0.027055308, 0.027055308;
  (RF_9_10, NotSource) 0.00033003, 0.00033003, 0.02013201, 0.00033003, 0.02013201, 0.00033003, 0.02013201, 0.07953796, 0.02013201, 0.00033003, 0.00033003, 0.02013201, 0.00033003, 0.00033003, 0.00033003, 0.02013201, 0.00033003, 0.02013201, 0.00033003, 0.00033003, 0.00033003, 0.00033003, 0.00033003, 0.09933994, 0.25775580, 0.17854787, 0.05973598, 0.05973598, 0.05973598, 0.05973598;
  (RF_0_1, Source) 0.02140351, 0.40035085, 0.00035088, 0.00035088, 0.00035088, 0.00035088, 0.00035088, 0.00035088, 0.00035088, 0.00035088, 0.00035088, 0.00035088, 0.27403507, 0.00035088, 0.00035088, 0.00035088, 0.00035088, 0.00035088, 0.00035088, 0.00035088, 0.00035088, 0.00035088, 0.00035088, 0.21087718, 0.06350877, 0.00035088, 0.00035088, 0.00035088, 0.02140351, 0.00035088;
  (RF_1_2, Source) 0.03656566, 0.19414141, 0.00020202, 0.00020202, 0.00020202, 0.00020202, 0.00020202, 0.00020202, 0.00020202, 0.00020202, 0.00020202, 0.00020202, 0.32747475, 0.00020202, 0.00020202, 0.00020202, 0.00020202, 0.00020202, 0.00020202, 0.00020202, 0.00020202, 0.00020202, 0.00020202, 0.21838384, 0.08505051, 0.04868687, 0.06080808, 0.01232323, 0.00020202, 0.01232323;
  (RF_2_3, Source) 0.01462830, 0.30239806, 0.00023981, 0.01462830, 0.00023981, 0.00023981, 0.00023981, 0.00023981, 0.00023981, 0.00023981, 0.00023981, 0.00023981, 0.20167865, 0.00023981, 0.00023981, 0.00023981, 0.00023981, 0.00023981, 0.00023981, 0.00023981, 0.00023981, 0.00023981, 0.00023981, 0.18729016, 0.11534771, 0.05779376, 0.04340528, 0.01462830, 0.01462830, 0.02901679;
  (RF_3_4, Source) 0.08264840, 0.21963471, 0.00045662, 0.00045662, 0.00045662, 0.00045662, 0.00045662, 0.00045662, 0.00045662, 0.00045662, 0.00045662, 0.00045662, 0.05525114, 0.00045662, 0.00045662, 0.00045662, 0.00045662, 0.00045662, 0.00045662, 0.00045662, 0.00045662, 0.00045662, 0.00045662, 0.19223745, 0.13744293, 0.08264840, 0.08264840, 0.00045662, 0.08264840, 0.05525114;
  (RF_4_5, Source) 0.00085470, 0.10341880, 0.00085470, 0.00085470, 0.00085470, 0.00085470, 0.00085470, 0.00085470, 0.00085470, 0.00085470, 0.00085470, 0.00085470, 0.10341880, 0.00085470, 0.00085470, 0.00085470, 0.00085470, 0.00085470, 0.00085470, 0.00085470, 0.00085470, 0.00085470, 0.00085470, 0.10341880, 0.25726497, 0.00085470, 0.20598292, 0.05213675, 0.15470085, 0.00085470;
  (RF_5_6, Source) 0.07076023, 0.03567251, 0.00058480, 0.00058480, 0.00058480, 0.00058480, 0.00058480, 0.00058480, 0.00058480, 0.00058480, 0.00058480, 0.00058480, 0.14093566, 0.00058480, 0.00058480, 0.00058480, 0.00058480, 0.00058480, 0.00058480, 0.00058480, 0.00058480, 0.00058480, 0.00058480, 0.07076023, 0.17602338, 0.14093566, 0.10584794, 0.10584794, 0.07076023, 0.07076023;
  (RF_6_7, Source) 0.09576720, 0.06402116, 0.03227513, 0.00052910, 0.00052910, 0.00052910, 0.00052910, 0.00052910, 0.00052910, 0.00052910, 0.00052910, 0.00052910, 0.06402116, 0.00052910, 0.00052910, 0.00052910, 0.00052910, 0.00052910, 0.00052910, 0.00052910, 0.00052910, 0.00052910, 0.00052910, 0.09576720, 0.12751323, 0.22275132, 0.12751323, 0.06402116, 0.00052910, 0.09576720;
  (RF_7_8, Source) 0.00026667, 0.00026667, 0.09626666, 0.06426666, 0.08026666, 0.01626667, 0.01626667, 0.00026667, 0.00026667, 0.00026667, 0.00026667, 0.00026667, 0.01626667, 0.00026667, 0.00026667, 0.00026667, 0.00026667, 0.00026667, 0.00026667, 0.00026667, 0.00026667, 0.00026667, 0.00026667, 0.12826666, 0.12826666, 0.09626666, 0.20826665, 0.09626666, 0.01626667, 0.03226667;
  (RF_8_9, Source) 0.00022075, 0.00022075, 0.07969095, 0.09293598, 0.01346578, 0.03995585, 0.00022075, 0.00022075, 0.01346578, 0.00022075, 0.00022075, 0.00022075, 0.00022075, 0.00022075, 0.00022075, 0.00022075, 0.00022075, 0.00022075, 0.00022075, 0.00022075, 0.00022075, 0.00022075, 0.00022075, 0.07969095, 0.15916115, 0.11942605, 0.07969095, 0.05320088, 0.11942605, 0.14591611;
  (RF_9_10, Source) 0.00002236, 0.00002236, 0.05770177, 0.05770177, 0.03020344, 0.02148446, 0.03892242, 0.03489828, 0.04831209, 0.07379835, 0.06172591, 0.06306729, 0.00002236, 0.06575006, 0.04562933, 0.05300693, 0.03087413, 0.02684999, 0.01343617, 0.00941203, 0.00739996, 0.00605857, 0.00337581, 0.00538788, 0.02550861, 0.03355690, 0.05233624, 0.03489828, 0.04428795, 0.05434831;
}
