network unknown {
}
variable Age {
  type discrete [ 6 ] { 18-24, 24-34, 34-44, 44-54, 54-64, 64-74 };
}
variable Anxiety {
  type discrete [ 2 ] { No, Yes };
}
variable BodyMassIndex {
  type discrete [ 4 ] { Normal, Obese, Overweight, Underweight };
}
variable Depression {
  type discrete [ 2 ] { No, Yes };
}
variable Diabetes {
  type discrete [ 2 ] { No, Yes };
}
variable EducationLevel {
  type discrete [ 3 ] { 1, 2, 3 };
}
variable Hypercholesterolemia {
  type discrete [ 2 ] { No, Yes };
}
variable Hypertension {
  type discrete [ 2 ] { No, Yes };
}
variable PhysicalActivity {
  type discrete [ 2 ] { Insufficiently Active, Regularly Active };
}
variable Sex {
  type discrete [ 2 ] { Female, Male };
}
variable SleepDuration {
  type discrete [ 3 ] { 6-9hours, <6hours, >9hours };
}
variable SmokerProfile {
  type discrete [ 3 ] { Ex_Smoker, Non_Smoker, Smoker };
}
variable SocioeconomicStatus {
  type discrete [ 3 ] { 1, 2, 3 };
}
probability ( Age ) {
  table 0.007105080, 0.170966447, 0.368076956, 0.303675333, 0.148312757, 0.001863428;
}
probability ( Anxiety | Depression, Hypertension, Sex, SleepDuration ) {
  (No, No, Female, 6-9hours) 0.96296332, 0.03703668;
  (Yes, No, Female, 6-9hours) 0.98304023, 0.01695977;
  (No, Yes, Female, 6-9hours) 0.91467066, 0.08532934;
  (Yes, Yes, Female, 6-9hours) 0.96028037, 0.03971963;
  (No, No, Male, 6-9hours) 0.8763889, 0.1236111;
  (Yes, No, Male, 6-9hours) 0.8824503, 0.1175497;
  (No, Yes, Male, 6-9hours) 0.8409091, 0.1590909;
  (Yes, Yes, Male, 6-9hours) 0.75, 0.25;
  (No, No, Female, <6hours) 0.95059435, 0.04940565;
  (Yes, No, Female, <6hours) 0.97810495, 0.02189505;
  (No, Yes, Female, <6hours) 0.93518519, 0.06481481;
  (Yes, Yes, Female, <6hours) 0.97368421, 0.02631579;
  (No, No, Male, <6hours) 0.92391304, 0.07608696;
  (Yes, No, Male, <6hours) 0.9025974, 0.0974026;
  (No, Yes, Male, <6hours) 0.875, 0.125;
  (Yes, Yes, Male, <6hours) 0.75, 0.25;
  (No, No, Female, >9hours) 0.94337349, 0.05662651;
  (Yes, No, Female, >9hours) 0.97189947, 0.02810053;
  (No, Yes, Female, >9hours) 0.7, 0.3;
  (Yes, Yes, Female, >9hours) 0.91071429, 0.08928571;
  (No, No, Male, >9hours) 0.8298969, 0.1701031;
  (Yes, No, Male, >9hours) 0.7954545, 0.2045455;
  (No, Yes, Male, >9hours) 0.5, 0.5;
  (Yes, Yes, Male, >9hours) 0.5, 0.5;
}
probability ( BodyMassIndex | Age, Diabetes, PhysicalActivity, SmokerProfile ) {
  (18-24, No, Insufficiently Active, Ex_Smoker) 0.445, 0.165, 0.345, 0.045;
  (24-34, No, Insufficiently Active, Ex_Smoker) 0.52322933, 0.13557246, 0.31435878, 0.02683944;
  (34-44, No, Insufficiently Active, Ex_Smoker) 0.4334285, 0.1720267, 0.3770523, 0.0174925;
  (44-54, No, Insufficiently Active, Ex_Smoker) 0.205680875, 0.311271796, 0.480521727, 0.002525602;
  (54-64, No, Insufficiently Active, Ex_Smoker) 0.241017964, 0.241017964, 0.516467066, 0.001497006;
  (64-74, No, Insufficiently Active, Ex_Smoker) 0.8125, 0.0625, 0.0625, 0.0625;
  (18-24, Yes, Insufficiently Active, Ex_Smoker) 0.57645089, 0.11439732, 0.25502232, 0.05412946;
  (24-34, Yes, Insufficiently Active, Ex_Smoker) 0.371554082, 0.221617214, 0.398910985, 0.007917719;
  (34-44, Yes, Insufficiently Active, Ex_Smoker) 0.352821202, 0.211077435, 0.429800374, 0.006300989;
  (44-54, Yes, Insufficiently Active, Ex_Smoker) 0.359230647, 0.194050653, 0.437440268, 0.009278433;
  (54-64, Yes, Insufficiently Active, Ex_Smoker) 0.25, 0.25, 0.25, 0.25;
  (64-74, Yes, Insufficiently Active, Ex_Smoker) 0.32333333, 0.27000000, 0.39000000, 0.01666667;
  (18-24, No, Regularly Active, Ex_Smoker) 0.57622601, 0.13912580, 0.26918977, 0.01545842;
  (24-34, No, Regularly Active, Ex_Smoker) 0.52130465, 0.12826750, 0.31839761, 0.03203024;
  (34-44, No, Regularly Active, Ex_Smoker) 0.258695256, 0.281275608, 0.458094328, 0.001934808;
  (44-54, No, Regularly Active, Ex_Smoker) 0.284839925, 0.239642185, 0.471280603, 0.004237288;
  (54-64, No, Regularly Active, Ex_Smoker) 0.296875000, 0.234375000, 0.463541667, 0.005208333;
  (64-74, No, Regularly Active, Ex_Smoker) 0.37500000, 0.23214286, 0.37500000, 0.01785714;
  (18-24, Yes, Regularly Active, Ex_Smoker) 0.48588779, 0.14890523, 0.34733151, 0.01787547;
  (24-34, Yes, Regularly Active, Ex_Smoker) 0.44242430, 0.16975048, 0.37274915, 0.01507607;
  (34-44, Yes, Regularly Active, Ex_Smoker) 0.37315590, 0.19811603, 0.41754718, 0.01118089;
  (44-54, Yes, Regularly Active, Ex_Smoker) 0.256329114, 0.294303797, 0.446202532, 0.003164557;
  (54-64, Yes, Regularly Active, Ex_Smoker) 0.75000000, 0.08333333, 0.08333333, 0.08333333;
  (64-74, Yes, Regularly Active, Ex_Smoker) 0.48295455, 0.23295455, 0.23295455, 0.05113636;
  (18-24, No, Insufficiently Active, Non_Smoker) 0.203358209, 0.449626866, 0.345149254, 0.001865672;
  (24-34, No, Insufficiently Active, Non_Smoker) 0.157685512, 0.470406360, 0.369699647, 0.002208481;
  (34-44, No, Insufficiently Active, Non_Smoker) 0.1784467714, 0.4018324607, 0.4192844677, 0.0004363002;
  (44-54, No, Insufficiently Active, Non_Smoker) 0.6328125, 0.0078125, 0.3515625, 0.0078125;
  (54-64, No, Insufficiently Active, Non_Smoker) 0.59250440, 0.06187720, 0.32931565, 0.01630275;
  (64-74, No, Insufficiently Active, Non_Smoker) 0.47882087, 0.09878207, 0.41221168, 0.01018538;
  (18-24, Yes, Insufficiently Active, Non_Smoker) 0.262168142, 0.412610619, 0.319690265, 0.005530973;
  (24-34, Yes, Insufficiently Active, Non_Smoker) 0.1073600973, 0.4613746959, 0.4309610706, 0.0003041363;
  (34-44, Yes, Insufficiently Active, Non_Smoker) 0.05, 0.17, 0.77, 0.01;
  (44-54, Yes, Insufficiently Active, Non_Smoker) 0.68714286, 0.05857143, 0.21857143, 0.03571429;
  (54-64, Yes, Insufficiently Active, Non_Smoker) 0.45989144, 0.09873341, 0.43673100, 0.00464415;
  (64-74, Yes, Insufficiently Active, Non_Smoker) 0.448750361, 0.101307426, 0.445138688, 0.004803525;
  (18-24, No, Regularly Active, Non_Smoker) 0.217350746, 0.407649254, 0.366604478, 0.008395522;
  (24-34, No, Regularly Active, Non_Smoker) 0.189912281, 0.405701754, 0.402192982, 0.002192982;
  (34-44, No, Regularly Active, Non_Smoker) 0.02272727, 0.38636364, 0.56818182, 0.02272727;
  (44-54, No, Regularly Active, Non_Smoker) 0.68660714, 0.05803571, 0.24017857, 0.01517857;
  (54-64, No, Regularly Active, Non_Smoker) 0.58240741, 0.07414530, 0.32428775, 0.01915954;
  (64-74, No, Regularly Active, Non_Smoker) 0.353534538, 0.133715300, 0.510732731, 0.002017431;
  (18-24, Yes, Regularly Active, Non_Smoker) 0.1000976562, 0.5161132812, 0.3833007812, 0.0004882812;
  (24-34, Yes, Regularly Active, Non_Smoker) 0.140664160, 0.411340852, 0.446428571, 0.001566416;
  (34-44, Yes, Regularly Active, Non_Smoker) 0.47222222, 0.13888889, 0.36111111, 0.02777778;
  (44-54, Yes, Regularly Active, Non_Smoker) 0.545939436, 0.080695114, 0.367687543, 0.005677908;
  (54-64, Yes, Regularly Active, Non_Smoker) 0.50591437, 0.08499100, 0.39835052, 0.01074411;
  (64-74, Yes, Regularly Active, Non_Smoker) 0.433326463, 0.108099753, 0.451875515, 0.006698269;
  (18-24, No, Insufficiently Active, Smoker) 0.256147541, 0.168715847, 0.570355191, 0.004781421;
  (24-34, No, Insufficiently Active, Smoker) 0.42708333, 0.17708333, 0.38541667, 0.01041667;
  (34-44, No, Insufficiently Active, Smoker) 0.08333333, 0.41666667, 0.08333333, 0.41666667;
  (44-54, No, Insufficiently Active, Smoker) 0.358108108, 0.304054054, 0.331081081, 0.006756757;
  (54-64, No, Insufficiently Active, Smoker) 0.303763441, 0.260752688, 0.432795699, 0.002688172;
  (64-74, No, Insufficiently Active, Smoker) 0.31896552, 0.31896552, 0.35344828, 0.00862069;
  (18-24, Yes, Insufficiently Active, Smoker) 0.404880478, 0.129980080, 0.458665339, 0.006474104;
  (24-34, Yes, Insufficiently Active, Smoker) 0.41666667, 0.41666667, 0.08333333, 0.08333333;
  (34-44, Yes, Insufficiently Active, Smoker) 0.506944444, 0.034722222, 0.451388889, 0.006944444;
  (44-54, Yes, Insufficiently Active, Smoker) 0.322368421, 0.190789474, 0.480263158, 0.006578947;
  (54-64, Yes, Insufficiently Active, Smoker) 0.18981481, 0.26388889, 0.54166667, 0.00462963;
  (64-74, Yes, Insufficiently Active, Smoker) 0.0625, 0.0625, 0.8125, 0.0625;
  (18-24, No, Regularly Active, Smoker) 0.376433643, 0.117558711, 0.499863463, 0.006144184;
  (24-34, No, Regularly Active, Smoker) 0.32142857, 0.17857143, 0.46428571, 0.03571429;
  (34-44, No, Regularly Active, Smoker) 0.28125, 0.28125, 0.40625, 0.03125;
  (44-54, No, Regularly Active, Smoker) 0.332386364, 0.184659091, 0.480113636, 0.002840909;
  (54-64, No, Regularly Active, Smoker) 0.23245614, 0.32017544, 0.42543860, 0.02192982;
  (64-74, No, Regularly Active, Smoker) 0.125, 0.125, 0.625, 0.125;
  (18-24, Yes, Regularly Active, Smoker) 0.30882353, 0.01470588, 0.66176471, 0.01470588;
  (24-34, Yes, Regularly Active, Smoker) 0.25, 0.25, 0.25, 0.25;
  (34-44, Yes, Regularly Active, Smoker) 0.53260870, 0.14130435, 0.31521739, 0.01086957;
  (44-54, Yes, Regularly Active, Smoker) 0.161184211, 0.371710526, 0.463815789, 0.003289474;
  (54-64, Yes, Regularly Active, Smoker) 0.31716418, 0.25746269, 0.40671642, 0.01865672;
  (64-74, Yes, Regularly Active, Smoker) 0.25, 0.25, 0.25, 0.25;
}
probability ( Depression | EducationLevel, Sex ) {
  (1, Female) 0.97807018, 0.02192982;
  (2, Female) 0.993957788, 0.006042212;
  (3, Female) 0.996531808, 0.003468192;
  (1, Male) 0.991323733, 0.008676267;
  (2, Male) 0.995207668, 0.004792332;
  (3, Male) 0.997136758, 0.002863242;
}
probability ( Diabetes | Age, Hypercholesterolemia, PhysicalActivity, Sex ) {
  (18-24, No, Insufficiently Active, Female) 0.998287671, 0.001712329;
  (24-34, No, Insufficiently Active, Female) 0.994511379, 0.005488621;
  (34-44, No, Insufficiently Active, Female) 0.91711098, 0.08288902;
  (44-54, No, Insufficiently Active, Female) 0.97619048, 0.02380952;
  (54-64, No, Insufficiently Active, Female) 0.991654021, 0.008345979;
  (64-74, No, Insufficiently Active, Female) 0.8800953, 0.1199047;
  (18-24, Yes, Insufficiently Active, Female) 0.995858609, 0.004141391;
  (24-34, Yes, Insufficiently Active, Female) 0.993793848, 0.006206152;
  (34-44, Yes, Insufficiently Active, Female) 0.8435115, 0.1564885;
  (44-54, Yes, Insufficiently Active, Female) 0.98935185, 0.01064815;
  (54-64, Yes, Insufficiently Active, Female) 0.991034483, 0.008965517;
  (64-74, Yes, Insufficiently Active, Female) 0.8531746, 0.1468254;
  (18-24, No, Regularly Active, Female) 0.97624611, 0.02375389;
  (24-34, No, Regularly Active, Female) 0.992659054, 0.007340946;
  (34-44, No, Regularly Active, Female) 0.992890424, 0.007109576;
  (44-54, No, Regularly Active, Female) 0.9534914, 0.0465086;
  (54-64, No, Regularly Active, Female) 0.96808511, 0.03191489;
  (64-74, No, Regularly Active, Female) 0.98900208, 0.01099792;
  (18-24, Yes, Regularly Active, Female) 0.98611111, 0.01388889;
  (24-34, Yes, Regularly Active, Female) 0.994032663, 0.005967337;
  (34-44, Yes, Regularly Active, Female) 0.98014827, 0.01985173;
  (44-54, Yes, Regularly Active, Female) 0.8977273, 0.1022727;
  (54-64, Yes, Regularly Active, Female) 0.992364837, 0.007635163;
  (64-74, Yes, Regularly Active, Female) 0.97849329, 0.02150671;
  (18-24, No, Insufficiently Active, Male) 0.992054133, 0.007945867;
  (24-34, No, Insufficiently Active, Male) 0.97851003, 0.02148997;
  (34-44, No, Insufficiently Active, Male) 0.99187935, 0.00812065;
  (44-54, No, Insufficiently Active, Male) 0.98697215, 0.01302785;
  (54-64, No, Insufficiently Active, Male) 0.97266881, 0.02733119;
  (64-74, No, Insufficiently Active, Male) 0.91666667, 0.08333333;
  (18-24, Yes, Insufficiently Active, Male) 0.98903547, 0.01096453;
  (24-34, Yes, Insufficiently Active, Male) 0.875, 0.125;
  (34-44, Yes, Insufficiently Active, Male) 0.994468758, 0.005531242;
  (44-54, Yes, Insufficiently Active, Male) 0.97682364, 0.02317636;
  (54-64, Yes, Insufficiently Active, Male) 0.9, 0.1;
  (64-74, Yes, Insufficiently Active, Male) 0.99031171, 0.00968829;
  (18-24, No, Regularly Active, Male) 0.98780488, 0.01219512;
  (24-34, No, Regularly Active, Male) 0.98976443, 0.01023557;
  (34-44, No, Regularly Active, Male) 0.96507237, 0.03492763;
  (44-54, No, Regularly Active, Male) 0.75, 0.25;
  (54-64, No, Regularly Active, Male) 0.97971513, 0.02028487;
  (64-74, No, Regularly Active, Male) 0.94172932, 0.05827068;
  (18-24, Yes, Regularly Active, Male) 0.997465438, 0.002534562;
  (24-34, Yes, Regularly Active, Male) 0.96682679, 0.03317321;
  (34-44, Yes, Regularly Active, Male) 0.921875, 0.078125;
  (44-54, Yes, Regularly Active, Male) 0.98698885, 0.01301115;
  (54-64, Yes, Regularly Active, Male) 0.94476537, 0.05523463;
  (64-74, Yes, Regularly Active, Male) 0.7916667, 0.2083333;
}
probability ( EducationLevel | Sex, SmokerProfile ) {
  (Female, Ex_Smoker) 0.001355576, 0.707472266, 0.291172158;
  (Male, Ex_Smoker) 0.002053491, 0.766268520, 0.231677988;
  (Female, Non_Smoker) 0.00229497, 0.78763806, 0.21006697;
  (Male, Non_Smoker) 0.001846142, 0.757869895, 0.240283963;
  (Female, Smoker) 0.001800709, 0.715956489, 0.282242802;
  (Male, Smoker) 0.002516844, 0.814949429, 0.182533727;
}
probability ( Hypercholesterolemia | Age, EducationLevel, PhysicalActivity, Sex, SleepDuration, SmokerProfile ) {
  (18-24, 1, Insufficiently Active, Female, 6-9hours, Ex_Smoker) 0.5, 0.5;
  (24-34, 1, Insufficiently Active, Female, 6-9hours, Ex_Smoker) 0.5, 0.5;
  (34-44, 1, Insufficiently Active, Female, 6-9hours, Ex_Smoker) 0.5, 0.5;
  (44-54, 1, Insufficiently Active, Female, 6-9hours, Ex_Smoker) 0.375, 0.625;
  (54-64, 1, Insufficiently Active, Female, 6-9hours, Ex_Smoker) 0.5, 0.5;
  (64-74, 1, Insufficiently Active, Female, 6-9hours, Ex_Smoker) 0.5, 0.5;
  (18-24, 2, Insufficiently Active, Female, 6-9hours, Ex_Smoker) 0.5, 0.5;
  (24-34, 2, Insufficiently Active, Female, 6-9hours, Ex_Smoker) 0.75, 0.25;
  (34-44, 2, Insufficiently Active, Female, 6-9hours, Ex_Smoker) 0.5, 0.5;
  (44-54, 2, Insufficiently Active, Female, 6-9hours, Ex_Smoker) 0.4642857, 0.5357143;
  (54-64, 2, Insufficiently Active, Female, 6-9hours, Ex_Smoker) 0.5, 0.5;
  (64-74, 2, Insufficiently Active, Female, 6-9hours, Ex_Smoker) 0.5, 0.5;
  (18-24, 3, Insufficiently Active, Female, 6-9hours, Ex_Smoker) 0.5, 0.5;
  (24-34, 3, Insufficiently Active, Female, 6-9hours, Ex_Smoker) 0.25, 0.75;
  (34-44, 3, Insufficiently Active, Female, 6-9hours, Ex_Smoker) 0.5, 0.5;
  (44-54, 3, Insufficiently Active, Female, 6-9hours, Ex_Smoker) 0.5, 0.5;
  (54-64, 3, Insufficiently Active, Female, 6-9hours, Ex_Smoker) 0.5, 0.5;
  (64-74, 3, Insufficiently Active, Female, 6-9hours, Ex_Smoker) 0.5, 0.5;
  (18-24, 1, Regularly Active, Female, 6-9hours, Ex_Smoker) 0.5, 0.5;
  (24-34, 1, Regularly Active, Female, 6-9hours, Ex_Smoker) 0.5, 0.5;
  (34-44, 1, Regularly Active, Female, 6-9hours, Ex_Smoker) 0.5, 0.5;
  (44-54, 1, Regularly Active, Female, 6-9hours, Ex_Smoker) 0.5, 0.5;
  (54-64, 1, Regularly Active, Female, 6-9hours, Ex_Smoker) 0.5, 0.5;
  (64-74, 1, Regularly Active, Female, 6-9hours, Ex_Smoker) 0.5, 0.5;
  (18-24, 2, Regularly Active, Female, 6-9hours, Ex_Smoker) 0.5, 0.5;
  (24-34, 2, Regularly Active, Female, 6-9hours, Ex_Smoker) 0.84375, 0.15625;
  (34-44, 2, Regularly Active, Female, 6-9hours, Ex_Smoker) 0.5, 0.5;
  (44-54, 2, Regularly Active, Female, 6-9hours, Ex_Smoker) 0.5, 0.5;
  (54-64, 2, Regularly Active, Female, 6-9hours, Ex_Smoker) 0.5, 0.5;
  (64-74, 2, Regularly Active, Female, 6-9hours, Ex_Smoker) 0.5, 0.5;
  (18-24, 3, Regularly Active, Female, 6-9hours, Ex_Smoker) 0.5, 0.5;
  (24-34, 3, Regularly Active, Female, 6-9hours, Ex_Smoker) 0.95833333, 0.04166667;
  (34-44, 3, Regularly Active, Female, 6-9hours, Ex_Smoker) 0.4166667, 0.5833333;
  (44-54, 3, Regularly Active, Female, 6-9hours, Ex_Smoker) 0.5, 0.5;
  (54-64, 3, Regularly Active, Female, 6-9hours, Ex_Smoker) 0.5, 0.5;
  (64-74, 3, Regularly Active, Female, 6-9hours, Ex_Smoker) 0.5, 0.5;
  (18-24, 1, Insufficiently Active, Male, 6-9hours, Ex_Smoker) 0.5, 0.5;
  (24-34, 1, Insufficiently Active, Male, 6-9hours, Ex_Smoker) 0.5, 0.5;
  (34-44, 1, Insufficiently Active, Male, 6-9hours, Ex_Smoker) 0.1666667, 0.8333333;
  (44-54, 1, Insufficiently Active, Male, 6-9hours, Ex_Smoker) 0.75, 0.25;
  (54-64, 1, Insufficiently Active, Male, 6-9hours, Ex_Smoker) 0.5, 0.5;
  (64-74, 1, Insufficiently Active, Male, 6-9hours, Ex_Smoker) 0.75, 0.25;
  (18-24, 2, Insufficiently Active, Male, 6-9hours, Ex_Smoker) 0.5, 0.5;
  (24-34, 2, Insufficiently Active, Male, 6-9hours, Ex_Smoker) 0.5, 0.5;
  (34-44, 2, Insufficiently Active, Male, 6-9hours, Ex_Smoker) 0.5625, 0.4375;
  (44-54, 2, Insufficiently Active, Male, 6-9hours, Ex_Smoker) 0.6875, 0.3125;
  (54-64, 2, Insufficiently Active, Male, 6-9hours, Ex_Smoker) 0.5, 0.5;
  (64-74, 2, Insufficiently Active, Male, 6-9hours, Ex_Smoker) 0.75, 0.25;
  (18-24, 3, Insufficiently Active, Male, 6-9hours, Ex_Smoker) 0.5, 0.5;
  (24-34, 3, Insufficiently Active, Male, 6-9hours, Ex_Smoker) 0.5, 0.5;
  (34-44, 3, Insufficiently Active, Male, 6-9hours, Ex_Smoker) 0.6875, 0.3125;
  (44-54, 3, Insufficiently Active, Male, 6-9hours, Ex_Smoker) 0.5, 0.5;
  (54-64, 3, Insufficiently Active, Male, 6-9hours, Ex_Smoker) 0.5, 0.5;
  (64-74, 3, Insufficiently Active, Male, 6-9hours, Ex_Smoker) 0.5, 0.5;
  (18-24, 1, Regularly Active, Male, 6-9hours, Ex_Smoker) 0.4166667, 0.5833333;
  (24-34, 1, Regularly Active, Male, 6-9hours, Ex_Smoker) 0.875, 0.125;
  (34-44, 1, Regularly Active, Male, 6-9hours, Ex_Smoker) 0.5, 0.5;
  (44-54, 1, Regularly Active, Male, 6-9hours, Ex_Smoker) 0.5, 0.5;
  (54-64, 1, Regularly Active, Male, 6-9hours, Ex_Smoker) 0.5, 0.5;
  (64-74, 1, Regularly Active, Male, 6-9hours, Ex_Smoker) 0.5, 0.5;
  (18-24, 2, Regularly Active, Male, 6-9hours, Ex_Smoker) 0.96428571, 0.03571429;
  (24-34, 2, Regularly Active, Male, 6-9hours, Ex_Smoker) 0.5, 0.5;
  (34-44, 2, Regularly Active, Male, 6-9hours, Ex_Smoker) 0.5, 0.5;
  (44-54, 2, Regularly Active, Male, 6-9hours, Ex_Smoker) 0.5, 0.5;
  (54-64, 2, Regularly Active, Male, 6-9hours, Ex_Smoker) 0.5, 0.5;
  (64-74, 2, Regularly Active, Male, 6-9hours, Ex_Smoker) 0.5, 0.5;
  (18-24, 3, Regularly Active, Male, 6-9hours, Ex_Smoker) 0.375, 0.625;
  (24-34, 3, Regularly Active, Male, 6-9hours, Ex_Smoker) 0.5, 0.5;
  (34-44, 3, Regularly Active, Male, 6-9hours, Ex_Smoker) 0.5, 0.5;
  (44-54, 3, Regularly Active, Male, 6-9hours, Ex_Smoker) 0.5, 0.5;
  (54-64, 3, Regularly Active, Male, 6-9hours, Ex_Smoker) 0.5, 0.5;
  (64-74, 3, Regularly Active, Male, 6-9hours, Ex_Smoker) 0.5, 0.5;
  (18-24, 1, Insufficiently Active, Female, <6hours, Ex_Smoker) 0.5, 0.5;
  (24-34, 1, Insufficiently Active, Female, <6hours, Ex_Smoker) 0.5, 0.5;
  (34-44, 1, Insufficiently Active, Female, <6hours, Ex_Smoker) 0.5, 0.5;
  (44-54, 1, Insufficiently Active, Female, <6hours, Ex_Smoker) 0.5, 0.5;
  (54-64, 1, Insufficiently Active, Female, <6hours, Ex_Smoker) 0.5, 0.5;
  (64-74, 1, Insufficiently Active, Female, <6hours, Ex_Smoker) 0.5, 0.5;
  (18-24, 2, Insufficiently Active, Female, <6hours, Ex_Smoker) 0.8333333, 0.1666667;
  (24-34, 2, Insufficiently Active, Female, <6hours, Ex_Smoker) 0.5, 0.5;
  (34-44, 2, Insufficiently Active, Female, <6hours, Ex_Smoker) 0.5, 0.5;
  (44-54, 2, Insufficiently Active, Female, <6hours, Ex_Smoker) 0.75, 0.25;
  (54-64, 2, Insufficiently Active, Female, <6hours, Ex_Smoker) 0.5, 0.5;
  (64-74, 2, Insufficiently Active, Female, <6hours, Ex_Smoker) 0.5, 0.5;
  (18-24, 3, Insufficiently Active, Female, <6hours, Ex_Smoker) 0.8333333, 0.1666667;
  (24-34, 3, Insufficiently Active, Female, <6hours, Ex_Smoker) 0.5, 0.5;
  (34-44, 3, Insufficiently Active, Female, <6hours, Ex_Smoker) 0.5, 0.5;
  (44-54, 3, Insufficiently Active, Female, <6hours, Ex_Smoker) 0.75, 0.25;
  (54-64, 3, Insufficiently Active, Female, <6hours, Ex_Smoker) 0.5, 0.5;
  (64-74, 3, Insufficiently Active, Female, <6hours, Ex_Smoker) 0.5, 0.5;
  (18-24, 1, Regularly Active, Female, <6hours, Ex_Smoker) 0.5, 0.5;
  (24-34, 1, Regularly Active, Female, <6hours, Ex_Smoker) 0.5, 0.5;
  (34-44, 1, Regularly Active, Female, <6hours, Ex_Smoker) 0.5, 0.5;
  (44-54, 1, Regularly Active, Female, <6hours, Ex_Smoker) 0.5, 0.5;
  (54-64, 1, Regularly Active, Female, <6hours, Ex_Smoker) 0.6785714, 0.3214286;
  (64-74, 1, Regularly Active, Female, <6hours, Ex_Smoker) 0.75, 0.25;
  (18-24, 2, Regularly Active, Female, <6hours, Ex_Smoker) 0.5, 0.5;
  (24-34, 2, Regularly Active, Female, <6hours, Ex_Smoker) 0.8333333, 0.1666667;
  (34-44, 2, Regularly Active, Female, <6hours, Ex_Smoker) 0.5, 0.5;
  (44-54, 2, Regularly Active, Female, <6hours, Ex_Smoker) 0.5, 0.5;
  (54-64, 2, Regularly Active, Female, <6hours, Ex_Smoker) 0.6515152, 0.3484848;
  (64-74, 2, Regularly Active, Female, <6hours, Ex_Smoker) 0.5, 0.5;
  (18-24, 3, Regularly Active, Female, <6hours, Ex_Smoker) 0.5, 0.5;
  (24-34, 3, Regularly Active, Female, <6hours, Ex_Smoker) 0.5, 0.5;
  (34-44, 3, Regularly Active, Female, <6hours, Ex_Smoker) 0.5, 0.5;
  (44-54, 3, Regularly Active, Female, <6hours, Ex_Smoker) 0.5, 0.5;
  (54-64, 3, Regularly Active, Female, <6hours, Ex_Smoker) 0.7380952, 0.2619048;
  (64-74, 3, Regularly Active, Female, <6hours, Ex_Smoker) 0.75, 0.25;
  (18-24, 1, Insufficiently Active, Male, <6hours, Ex_Smoker) 0.75, 0.25;
  (24-34, 1, Insufficiently Active, Male, <6hours, Ex_Smoker) 0.5, 0.5;
  (34-44, 1, Insufficiently Active, Male, <6hours, Ex_Smoker) 0.5, 0.5;
  (44-54, 1, Insufficiently Active, Male, <6hours, Ex_Smoker) 0.5, 0.5;
  (54-64, 1, Insufficiently Active, Male, <6hours, Ex_Smoker) 0.5, 0.5;
  (64-74, 1, Insufficiently Active, Male, <6hours, Ex_Smoker) 0.3947368, 0.6052632;
  (18-24, 2, Insufficiently Active, Male, <6hours, Ex_Smoker) 0.5, 0.5;
  (24-34, 2, Insufficiently Active, Male, <6hours, Ex_Smoker) 0.5, 0.5;
  (34-44, 2, Insufficiently Active, Male, <6hours, Ex_Smoker) 0.5, 0.5;
  (44-54, 2, Insufficiently Active, Male, <6hours, Ex_Smoker) 0.5, 0.5;
  (54-64, 2, Insufficiently Active, Male, <6hours, Ex_Smoker) 0.5, 0.5;
  (64-74, 2, Insufficiently Active, Male, <6hours, Ex_Smoker) 0.6212121, 0.3787879;
  (18-24, 3, Insufficiently Active, Male, <6hours, Ex_Smoker) 0.5, 0.5;
  (24-34, 3, Insufficiently Active, Male, <6hours, Ex_Smoker) 0.5, 0.5;
  (34-44, 3, Insufficiently Active, Male, <6hours, Ex_Smoker) 0.5, 0.5;
  (44-54, 3, Insufficiently Active, Male, <6hours, Ex_Smoker) 0.5, 0.5;
  (54-64, 3, Insufficiently Active, Male, <6hours, Ex_Smoker) 0.5, 0.5;
  (64-74, 3, Insufficiently Active, Male, <6hours, Ex_Smoker) 0.5, 0.5;
  (18-24, 1, Regularly Active, Male, <6hours, Ex_Smoker) 0.5, 0.5;
  (24-34, 1, Regularly Active, Male, <6hours, Ex_Smoker) 0.5, 0.5;
  (34-44, 1, Regularly Active, Male, <6hours, Ex_Smoker) 0.5, 0.5;
  (44-54, 1, Regularly Active, Male, <6hours, Ex_Smoker) 0.875, 0.125;
  (54-64, 1, Regularly Active, Male, <6hours, Ex_Smoker) 0.5, 0.5;
  (64-74, 1, Regularly Active, Male, <6hours, Ex_Smoker) 0.5, 0.5;
  (18-24, 2, Regularly Active, Male, <6hours, Ex_Smoker) 0.5, 0.5;
  (24-34, 2, Regularly Active, Male, <6hours, Ex_Smoker) 0.5, 0.5;
  (34-44, 2, Regularly Active, Male, <6hours, Ex_Smoker) 0.5, 0.5;
  (44-54, 2, Regularly Active, Male, <6hours, Ex_Smoker) 0.7105263, 0.2894737;
  (54-64, 2, Regularly Active, Male, <6hours, Ex_Smoker) 0.8333333, 0.1666667;
  (64-74, 2, Regularly Active, Male, <6hours, Ex_Smoker) 0.5, 0.5;
  (18-24, 3, Regularly Active, Male, <6hours, Ex_Smoker) 0.25, 0.75;
  (24-34, 3, Regularly Active, Male, <6hours, Ex_Smoker) 0.5, 0.5;
  (34-44, 3, Regularly Active, Male, <6hours, Ex_Smoker) 0.5, 0.5;
  (44-54, 3, Regularly Active, Male, <6hours, Ex_Smoker) 0.8684211, 0.1315789;
  (54-64, 3, Regularly Active, Male, <6hours, Ex_Smoker) 0.75, 0.25;
  (64-74, 3, Regularly Active, Male, <6hours, Ex_Smoker) 0.5, 0.5;
  (18-24, 1, Insufficiently Active, Female, >9hours, Ex_Smoker) 0.275, 0.725;
  (24-34, 1, Insufficiently Active, Female, >9hours, Ex_Smoker) 0.5, 0.5;
  (34-44, 1, Insufficiently Active, Female, >9hours, Ex_Smoker) 0.5, 0.5;
  (44-54, 1, Insufficiently Active, Female, >9hours, Ex_Smoker) 0.125, 0.875;
  (54-64, 1, Insufficiently Active, Female, >9hours, Ex_Smoker) 0.5, 0.5;
  (64-74, 1, Insufficiently Active, Female, >9hours, Ex_Smoker) 0.5, 0.5;
  (18-24, 2, Insufficiently Active, Female, >9hours, Ex_Smoker) 0.6136364, 0.3863636;
  (24-34, 2, Insufficiently Active, Female, >9hours, Ex_Smoker) 0.5, 0.5;
  (34-44, 2, Insufficiently Active, Female, >9hours, Ex_Smoker) 0.5, 0.5;
  (44-54, 2, Insufficiently Active, Female, >9hours, Ex_Smoker) 0.7222222, 0.2777778;
  (54-64, 2, Insufficiently Active, Female, >9hours, Ex_Smoker) 0.5, 0.5;
  (64-74, 2, Insufficiently Active, Female, >9hours, Ex_Smoker) 0.5, 0.5;
  (18-24, 3, Insufficiently Active, Female, >9hours, Ex_Smoker) 0.53125, 0.46875;
  (24-34, 3, Insufficiently Active, Female, >9hours, Ex_Smoker) 0.5, 0.5;
  (34-44, 3, Insufficiently Active, Female, >9hours, Ex_Smoker) 0.5, 0.5;
  (44-54, 3, Insufficiently Active, Female, >9hours, Ex_Smoker) 0.7, 0.3;
  (54-64, 3, Insufficiently Active, Female, >9hours, Ex_Smoker) 0.5, 0.5;
  (64-74, 3, Insufficiently Active, Female, >9hours, Ex_Smoker) 0.5, 0.5;
  (18-24, 1, Regularly Active, Female, >9hours, Ex_Smoker) 0.5, 0.5;
  (24-34, 1, Regularly Active, Female, >9hours, Ex_Smoker) 0.75, 0.25;
  (34-44, 1, Regularly Active, Female, >9hours, Ex_Smoker) 0.5, 0.5;
  (44-54, 1, Regularly Active, Female, >9hours, Ex_Smoker) 0.5, 0.5;
  (54-64, 1, Regularly Active, Female, >9hours, Ex_Smoker) 0.5, 0.5;
  (64-74, 1, Regularly Active, Female, >9hours, Ex_Smoker) 0.5, 0.5;
  (18-24, 2, Regularly Active, Female, >9hours, Ex_Smoker) 0.5, 0.5;
  (24-34, 2, Regularly Active, Female, >9hours, Ex_Smoker) 0.5, 0.5;
  (34-44, 2, Regularly Active, Female, >9hours, Ex_Smoker) 0.5, 0.5;
  (44-54, 2, Regularly Active, Female, >9hours, Ex_Smoker) 0.5, 0.5;
  (54-64, 2, Regularly Active, Female, >9hours, Ex_Smoker) 0.3, 0.7;
  (64-74, 2, Regularly Active, Female, >9hours, Ex_Smoker) 0.5, 0.5;
  (18-24, 3, Regularly Active, Female, >9hours, Ex_Smoker) 0.5, 0.5;
  (24-34, 3, Regularly Active, Female, >9hours, Ex_Smoker) 0.75, 0.25;
  (34-44, 3, Regularly Active, Female, >9hours, Ex_Smoker) 0.5, 0.5;
  (44-54, 3, Regularly Active, Female, >9hours, Ex_Smoker) 0.5, 0.5;
  (54-64, 3, Regularly Active, Female, >9hours, Ex_Smoker) 0.5, 0.5;
  (64-74, 3, Regularly Active, Female, >9hours, Ex_Smoker) 0.5, 0.5;
  (18-24, 1, Insufficiently Active, Male, >9hours, Ex_Smoker) 0.1, 0.9;
  (24-34, 1, Insufficiently Active, Male, >9hours, Ex_Smoker) 0.5, 0.5;
  (34-44, 1, Insufficiently Active, Male, >9hours, Ex_Smoker) 0.5, 0.5;
  (44-54, 1, Insufficiently Active, Male, >9hours, Ex_Smoker) 0.5, 0.5;
  (54-64, 1, Insufficiently Active, Male, >9hours, Ex_Smoker) 0.5, 0.5;
  (64-74, 1, Insufficiently Active, Male, >9hours, Ex_Smoker) 0.5, 0.5;
  (18-24, 2, Insufficiently Active, Male, >9hours, Ex_Smoker) 0.125, 0.875;
  (24-34, 2, Insufficiently Active, Male, >9hours, Ex_Smoker) 0.5, 0.5;
  (34-44, 2, Insufficiently Active, Male, >9hours, Ex_Smoker) 0.8125, 0.1875;
  (44-54, 2, Insufficiently Active, Male, >9hours, Ex_Smoker) 0.75, 0.25;
  (54-64, 2, Insufficiently Active, Male, >9hours, Ex_Smoker) 0.5, 0.5;
  (64-74, 2, Insufficiently Active, Male, >9hours, Ex_Smoker) 0.5, 0.5;
  (18-24, 3, Insufficiently Active, Male, >9hours, Ex_Smoker) 0.625, 0.375;
  (24-34, 3, Insufficiently Active, Male, >9hours, Ex_Smoker) 0.5, 0.5;
  (34-44, 3, Insufficiently Active, Male, >9hours, Ex_Smoker) 0.7, 0.3;
  (44-54, 3, Insufficiently Active, Male, >9hours, Ex_Smoker) 0.8333333, 0.1666667;
  (54-64, 3, Insufficiently Active, Male, >9hours, Ex_Smoker) 0.5, 0.5;
  (64-74, 3, Insufficiently Active, Male, >9hours, Ex_Smoker) 0.5, 0.5;
  (18-24, 1, Regularly Active, Male, >9hours, Ex_Smoker) 0.75, 0.25;
  (24-34, 1, Regularly Active, Male, >9hours, Ex_Smoker) 0.5, 0.5;
  (34-44, 1, Regularly Active, Male, >9hours, Ex_Smoker) 0.5, 0.5;
  (44-54, 1, Regularly Active, Male, >9hours, Ex_Smoker) 0.5, 0.5;
  (54-64, 1, Regularly Active, Male, >9hours, Ex_Smoker) 0.5, 0.5;
  (64-74, 1, Regularly Active, Male, >9hours, Ex_Smoker) 0.5, 0.5;
  (18-24, 2, Regularly Active, Male, >9hours, Ex_Smoker) 0.5, 0.5;
  (24-34, 2, Regularly Active, Male, >9hours, Ex_Smoker) 0.5, 0.5;
  (34-44, 2, Regularly Active, Male, >9hours, Ex_Smoker) 0.5, 0.5;
  (44-54, 2, Regularly Active, Male, >9hours, Ex_Smoker) 0.1666667, 0.8333333;
  (54-64, 2, Regularly Active, Male, >9hours, Ex_Smoker) 0.25, 0.75;
  (64-74, 2, Regularly Active, Male, >9hours, Ex_Smoker) 0.5, 0.5;
  (18-24, 3, Regularly Active, Male, >9hours, Ex_Smoker) 0.5, 0.5;
  (24-34, 3, Regularly Active, Male, >9hours, Ex_Smoker) 0.5, 0.5;
  (34-44, 3, Regularly Active, Male, >9hours, Ex_Smoker) 0.5, 0.5;
  (44-54, 3, Regularly Active, Male, >9hours, Ex_Smoker) 0.375, 0.625;
  (54-64, 3, Regularly Active, Male, >9hours, Ex_Smoker) 0.5, 0.5;
  (64-74, 3, Regularly Active, Male, >9hours, Ex_Smoker) 0.5, 0.5;
  (18-24, 1, Insufficiently Active, Female, 6-9hours, Non_Smoker) 0.84375, 0.15625;
  (24-34, 1, Insufficiently Active, Female, 6-9hours, Non_Smoker) 0.8944954, 0.1055046;
  (34-44, 1, Insufficiently Active, Female, 6-9hours, Non_Smoker) 0.625, 0.375;
  (44-54, 1, Insufficiently Active, Female, 6-9hours, Non_Smoker) 0.4703947, 0.5296053;
  (54-64, 1, Insufficiently Active, Female, 6-9hours, Non_Smoker) 0.1666667, 0.8333333;
  (64-74, 1, Insufficiently Active, Female, 6-9hours, Non_Smoker) 0.5, 0.5;
  (18-24, 2, Insufficiently Active, Female, 6-9hours, Non_Smoker) 0.93448276, 0.06551724;
  (24-34, 2, Insufficiently Active, Female, 6-9hours, Non_Smoker) 0.8671875, 0.1328125;
  (34-44, 2, Insufficiently Active, Female, 6-9hours, Non_Smoker) 0.875, 0.125;
  (44-54, 2, Insufficiently Active, Female, 6-9hours, Non_Smoker) 0.5061475, 0.4938525;
  (54-64, 2, Insufficiently Active, Female, 6-9hours, Non_Smoker) 0.7, 0.3;
  (64-74, 2, Insufficiently Active, Female, 6-9hours, Non_Smoker) 0.5, 0.5;
  (18-24, 3, Insufficiently Active, Female, 6-9hours, Non_Smoker) 0.93010753, 0.06989247;
  (24-34, 3, Insufficiently Active, Female, 6-9hours, Non_Smoker) 0.8692946, 0.1307054;
  (34-44, 3, Insufficiently Active, Female, 6-9hours, Non_Smoker) 0.6875, 0.3125;
  (44-54, 3, Insufficiently Active, Female, 6-9hours, Non_Smoker) 0.4951404, 0.5048596;
  (54-64, 3, Insufficiently Active, Female, 6-9hours, Non_Smoker) 0.5, 0.5;
  (64-74, 3, Insufficiently Active, Female, 6-9hours, Non_Smoker) 0.5, 0.5;
  (18-24, 1, Regularly Active, Female, 6-9hours, Non_Smoker) 0.5, 0.5;
  (24-34, 1, Regularly Active, Female, 6-9hours, Non_Smoker) 0.8427738, 0.1572262;
  (34-44, 1, Regularly Active, Female, 6-9hours, Non_Smoker) 0.6875, 0.3125;
  (44-54, 1, Regularly Active, Female, 6-9hours, Non_Smoker) 0.5, 0.5;
  (54-64, 1, Regularly Active, Female, 6-9hours, Non_Smoker) 0.75, 0.25;
  (64-74, 1, Regularly Active, Female, 6-9hours, Non_Smoker) 0.8793103, 0.1206897;
  (18-24, 2, Regularly Active, Female, 6-9hours, Non_Smoker) 0.5, 0.5;
  (24-34, 2, Regularly Active, Female, 6-9hours, Non_Smoker) 0.8420743, 0.1579257;
  (34-44, 2, Regularly Active, Female, 6-9hours, Non_Smoker) 0.6639344, 0.3360656;
  (44-54, 2, Regularly Active, Female, 6-9hours, Non_Smoker) 0.5, 0.5;
  (54-64, 2, Regularly Active, Female, 6-9hours, Non_Smoker) 0.92857143, 0.07142857;
  (64-74, 2, Regularly Active, Female, 6-9hours, Non_Smoker) 0.97222222, 0.02777778;
  (18-24, 3, Regularly Active, Female, 6-9hours, Non_Smoker) 0.5, 0.5;
  (24-34, 3, Regularly Active, Female, 6-9hours, Non_Smoker) 0.8237274, 0.1762726;
  (34-44, 3, Regularly Active, Female, 6-9hours, Non_Smoker) 0.6425562, 0.3574438;
  (44-54, 3, Regularly Active, Female, 6-9hours, Non_Smoker) 0.1666667, 0.8333333;
  (54-64, 3, Regularly Active, Female, 6-9hours, Non_Smoker) 0.95454545, 0.04545455;
  (64-74, 3, Regularly Active, Female, 6-9hours, Non_Smoker) 0.8111111, 0.1888889;
  (18-24, 1, Insufficiently Active, Male, 6-9hours, Non_Smoker) 0.5, 0.5;
  (24-34, 1, Insufficiently Active, Male, 6-9hours, Non_Smoker) 0.75, 0.25;
  (34-44, 1, Insufficiently Active, Male, 6-9hours, Non_Smoker) 0.6484456, 0.3515544;
  (44-54, 1, Insufficiently Active, Male, 6-9hours, Non_Smoker) 0.4690083, 0.5309917;
  (54-64, 1, Insufficiently Active, Male, 6-9hours, Non_Smoker) 0.5, 0.5;
  (64-74, 1, Insufficiently Active, Male, 6-9hours, Non_Smoker) 0.8612335, 0.1387665;
  (18-24, 2, Insufficiently Active, Male, 6-9hours, Non_Smoker) 0.875, 0.125;
  (24-34, 2, Insufficiently Active, Male, 6-9hours, Non_Smoker) 0.8333333, 0.1666667;
  (34-44, 2, Insufficiently Active, Male, 6-9hours, Non_Smoker) 0.6982153, 0.3017847;
  (44-54, 2, Insufficiently Active, Male, 6-9hours, Non_Smoker) 0.5020604, 0.4979396;
  (54-64, 2, Insufficiently Active, Male, 6-9hours, Non_Smoker) 0.5, 0.5;
  (64-74, 2, Insufficiently Active, Male, 6-9hours, Non_Smoker) 0.8986999, 0.1013001;
  (18-24, 3, Insufficiently Active, Male, 6-9hours, Non_Smoker) 0.92857143, 0.07142857;
  (24-34, 3, Insufficiently Active, Male, 6-9hours, Non_Smoker) 0.75, 0.25;
  (34-44, 3, Insufficiently Active, Male, 6-9hours, Non_Smoker) 0.6540387, 0.3459613;
  (44-54, 3, Insufficiently Active, Male, 6-9hours, Non_Smoker) 0.4435216, 0.5564784;
  (54-64, 3, Insufficiently Active, Male, 6-9hours, Non_Smoker) 0.5, 0.5;
  (64-74, 3, Insufficiently Active, Male, 6-9hours, Non_Smoker) 0.8806533, 0.1193467;
  (18-24, 1, Regularly Active, Male, 6-9hours, Non_Smoker) 0.8837331, 0.1162669;
  (24-34, 1, Regularly Active, Male, 6-9hours, Non_Smoker) 0.8510929, 0.1489071;
  (34-44, 1, Regularly Active, Male, 6-9hours, Non_Smoker) 0.875, 0.125;
  (44-54, 1, Regularly Active, Male, 6-9hours, Non_Smoker) 0.5, 0.5;
  (54-64, 1, Regularly Active, Male, 6-9hours, Non_Smoker) 0.5, 0.5;
  (64-74, 1, Regularly Active, Male, 6-9hours, Non_Smoker) 0.5, 0.5;
  (18-24, 2, Regularly Active, Male, 6-9hours, Non_Smoker) 0.8907066, 0.1092934;
  (24-34, 2, Regularly Active, Male, 6-9hours, Non_Smoker) 0.8197446, 0.1802554;
  (34-44, 2, Regularly Active, Male, 6-9hours, Non_Smoker) 0.625, 0.375;
  (44-54, 2, Regularly Active, Male, 6-9hours, Non_Smoker) 0.4038462, 0.5961538;
  (54-64, 2, Regularly Active, Male, 6-9hours, Non_Smoker) 0.8333333, 0.1666667;
  (64-74, 2, Regularly Active, Male, 6-9hours, Non_Smoker) 0.5, 0.5;
  (18-24, 3, Regularly Active, Male, 6-9hours, Non_Smoker) 0.892217, 0.107783;
  (24-34, 3, Regularly Active, Male, 6-9hours, Non_Smoker) 0.8192133, 0.1807867;
  (34-44, 3, Regularly Active, Male, 6-9hours, Non_Smoker) 0.75, 0.25;
  (44-54, 3, Regularly Active, Male, 6-9hours, Non_Smoker) 0.3571429, 0.6428571;
  (54-64, 3, Regularly Active, Male, 6-9hours, Non_Smoker) 0.75, 0.25;
  (64-74, 3, Regularly Active, Male, 6-9hours, Non_Smoker) 0.91666667, 0.08333333;
  (18-24, 1, Insufficiently Active, Female, <6hours, Non_Smoker) 0.8404635, 0.1595365;
  (24-34, 1, Insufficiently Active, Female, <6hours, Non_Smoker) 0.7830189, 0.2169811;
  (34-44, 1, Insufficiently Active, Female, <6hours, Non_Smoker) 0.5, 0.5;
  (44-54, 1, Insufficiently Active, Female, <6hours, Non_Smoker) 0.8125, 0.1875;
  (54-64, 1, Insufficiently Active, Female, <6hours, Non_Smoker) 0.7704082, 0.2295918;
  (64-74, 1, Insufficiently Active, Female, <6hours, Non_Smoker) 0.3, 0.7;
  (18-24, 2, Insufficiently Active, Female, <6hours, Non_Smoker) 0.846362, 0.153638;
  (24-34, 2, Insufficiently Active, Female, <6hours, Non_Smoker) 0.7161017, 0.2838983;
  (34-44, 2, Insufficiently Active, Female, <6hours, Non_Smoker) 0.5, 0.5;
  (44-54, 2, Insufficiently Active, Female, <6hours, Non_Smoker) 0.92857143, 0.07142857;
  (54-64, 2, Insufficiently Active, Female, <6hours, Non_Smoker) 0.8100304, 0.1899696;
  (64-74, 2, Insufficiently Active, Female, <6hours, Non_Smoker) 0.45, 0.55;
  (18-24, 3, Insufficiently Active, Female, <6hours, Non_Smoker) 0.8539823, 0.1460177;
  (24-34, 3, Insufficiently Active, Female, <6hours, Non_Smoker) 0.7685185, 0.2314815;
  (34-44, 3, Insufficiently Active, Female, <6hours, Non_Smoker) 0.75, 0.25;
  (44-54, 3, Insufficiently Active, Female, <6hours, Non_Smoker) 0.94343066, 0.05656934;
  (54-64, 3, Insufficiently Active, Female, <6hours, Non_Smoker) 0.8367052, 0.1632948;
  (64-74, 3, Insufficiently Active, Female, <6hours, Non_Smoker) 0.3666667, 0.6333333;
  (18-24, 1, Regularly Active, Female, <6hours, Non_Smoker) 0.5, 0.5;
  (24-34, 1, Regularly Active, Female, <6hours, Non_Smoker) 0.6034483, 0.3965517;
  (34-44, 1, Regularly Active, Female, <6hours, Non_Smoker) 0.5, 0.5;
  (44-54, 1, Regularly Active, Female, <6hours, Non_Smoker) 0.5, 0.5;
  (54-64, 1, Regularly Active, Female, <6hours, Non_Smoker) 0.6681187, 0.3318813;
  (64-74, 1, Regularly Active, Female, <6hours, Non_Smoker) 0.5813053, 0.4186947;
  (18-24, 2, Regularly Active, Female, <6hours, Non_Smoker) 0.5, 0.5;
  (24-34, 2, Regularly Active, Female, <6hours, Non_Smoker) 0.5818713, 0.4181287;
  (34-44, 2, Regularly Active, Female, <6hours, Non_Smoker) 0.25, 0.75;
  (44-54, 2, Regularly Active, Female, <6hours, Non_Smoker) 0.25, 0.75;
  (54-64, 2, Regularly Active, Female, <6hours, Non_Smoker) 0.7117217, 0.2882783;
  (64-74, 2, Regularly Active, Female, <6hours, Non_Smoker) 0.5979183, 0.4020817;
  (18-24, 3, Regularly Active, Female, <6hours, Non_Smoker) 0.5, 0.5;
  (24-34, 3, Regularly Active, Female, <6hours, Non_Smoker) 0.4270833, 0.5729167;
  (34-44, 3, Regularly Active, Female, <6hours, Non_Smoker) 0.5, 0.5;
  (44-54, 3, Regularly Active, Female, <6hours, Non_Smoker) 0.75, 0.25;
  (54-64, 3, Regularly Active, Female, <6hours, Non_Smoker) 0.6634863, 0.3365137;
  (64-74, 3, Regularly Active, Female, <6hours, Non_Smoker) 0.5421053, 0.4578947;
  (18-24, 1, Insufficiently Active, Male, <6hours, Non_Smoker) 0.8083333, 0.1916667;
  (24-34, 1, Insufficiently Active, Male, <6hours, Non_Smoker) 0.5, 0.5;
  (34-44, 1, Insufficiently Active, Male, <6hours, Non_Smoker) 0.5, 0.5;
  (44-54, 1, Insufficiently Active, Male, <6hours, Non_Smoker) 0.75, 0.25;
  (54-64, 1, Insufficiently Active, Male, <6hours, Non_Smoker) 0.75, 0.25;
  (64-74, 1, Insufficiently Active, Male, <6hours, Non_Smoker) 0.5324329, 0.4675671;
  (18-24, 2, Insufficiently Active, Male, <6hours, Non_Smoker) 0.8429487, 0.1570513;
  (24-34, 2, Insufficiently Active, Male, <6hours, Non_Smoker) 0.25, 0.75;
  (34-44, 2, Insufficiently Active, Male, <6hours, Non_Smoker) 0.8333333, 0.1666667;
  (44-54, 2, Insufficiently Active, Male, <6hours, Non_Smoker) 0.8214286, 0.1785714;
  (54-64, 2, Insufficiently Active, Male, <6hours, Non_Smoker) 0.8333333, 0.1666667;
  (64-74, 2, Insufficiently Active, Male, <6hours, Non_Smoker) 0.6000538, 0.3999462;
  (18-24, 3, Insufficiently Active, Male, <6hours, Non_Smoker) 0.8712121, 0.1287879;
  (24-34, 3, Insufficiently Active, Male, <6hours, Non_Smoker) 0.5, 0.5;
  (34-44, 3, Insufficiently Active, Male, <6hours, Non_Smoker) 0.5, 0.5;
  (44-54, 3, Insufficiently Active, Male, <6hours, Non_Smoker) 0.84375, 0.15625;
  (54-64, 3, Insufficiently Active, Male, <6hours, Non_Smoker) 0.7, 0.3;
  (64-74, 3, Insufficiently Active, Male, <6hours, Non_Smoker) 0.557401, 0.442599;
  (18-24, 1, Regularly Active, Male, <6hours, Non_Smoker) 0.6963746, 0.3036254;
  (24-34, 1, Regularly Active, Male, <6hours, Non_Smoker) 0.75, 0.25;
  (34-44, 1, Regularly Active, Male, <6hours, Non_Smoker) 0.5, 0.5;
  (44-54, 1, Regularly Active, Male, <6hours, Non_Smoker) 0.8064103, 0.1935897;
  (54-64, 1, Regularly Active, Male, <6hours, Non_Smoker) 0.6441532, 0.3558468;
  (64-74, 1, Regularly Active, Male, <6hours, Non_Smoker) 0.7857143, 0.2142857;
  (18-24, 2, Regularly Active, Male, <6hours, Non_Smoker) 0.718125, 0.281875;
  (24-34, 2, Regularly Active, Male, <6hours, Non_Smoker) 0.3125, 0.6875;
  (34-44, 2, Regularly Active, Male, <6hours, Non_Smoker) 0.5, 0.5;
  (44-54, 2, Regularly Active, Male, <6hours, Non_Smoker) 0.8267906, 0.1732094;
  (54-64, 2, Regularly Active, Male, <6hours, Non_Smoker) 0.7047431, 0.2952569;
  (64-74, 2, Regularly Active, Male, <6hours, Non_Smoker) 0.75, 0.25;
  (18-24, 3, Regularly Active, Male, <6hours, Non_Smoker) 0.6649123, 0.3350877;
  (24-34, 3, Regularly Active, Male, <6hours, Non_Smoker) 0.4722222, 0.5277778;
  (34-44, 3, Regularly Active, Male, <6hours, Non_Smoker) 0.5, 0.5;
  (44-54, 3, Regularly Active, Male, <6hours, Non_Smoker) 0.8120938, 0.1879062;
  (54-64, 3, Regularly Active, Male, <6hours, Non_Smoker) 0.6694499, 0.3305501;
  (64-74, 3, Regularly Active, Male, <6hours, Non_Smoker) 0.6875, 0.3125;
  (18-24, 1, Insufficiently Active, Female, >9hours, Non_Smoker) 0.5098154, 0.4901846;
  (24-34, 1, Insufficiently Active, Female, >9hours, Non_Smoker) 0.3461538, 0.6538462;
  (34-44, 1, Insufficiently Active, Female, >9hours, Non_Smoker) 0.5, 0.5;
  (44-54, 1, Insufficiently Active, Female, >9hours, Non_Smoker) 0.7113786, 0.2886214;
  (54-64, 1, Insufficiently Active, Female, >9hours, Non_Smoker) 0.5112613, 0.4887387;
  (64-74, 1, Insufficiently Active, Female, >9hours, Non_Smoker) 0.5, 0.5;
  (18-24, 2, Insufficiently Active, Female, >9hours, Non_Smoker) 0.5698735, 0.4301265;
  (24-34, 2, Insufficiently Active, Female, >9hours, Non_Smoker) 0.5277778, 0.4722222;
  (34-44, 2, Insufficiently Active, Female, >9hours, Non_Smoker) 0.5, 0.5;
  (44-54, 2, Insufficiently Active, Female, >9hours, Non_Smoker) 0.7519923, 0.2480077;
  (54-64, 2, Insufficiently Active, Female, >9hours, Non_Smoker) 0.6550481, 0.3449519;
  (64-74, 2, Insufficiently Active, Female, >9hours, Non_Smoker) 0.75, 0.25;
  (18-24, 3, Insufficiently Active, Female, >9hours, Non_Smoker) 0.5071953, 0.4928047;
  (24-34, 3, Insufficiently Active, Female, >9hours, Non_Smoker) 0.5, 0.5;
  (34-44, 3, Insufficiently Active, Female, >9hours, Non_Smoker) 0.75, 0.25;
  (44-54, 3, Insufficiently Active, Female, >9hours, Non_Smoker) 0.7184484, 0.2815516;
  (54-64, 3, Insufficiently Active, Female, >9hours, Non_Smoker) 0.5596591, 0.4403409;
  (64-74, 3, Insufficiently Active, Female, >9hours, Non_Smoker) 0.5, 0.5;
  (18-24, 1, Regularly Active, Female, >9hours, Non_Smoker) 0.5, 0.5;
  (24-34, 1, Regularly Active, Female, >9hours, Non_Smoker) 0.9137931, 0.0862069;
  (34-44, 1, Regularly Active, Female, >9hours, Non_Smoker) 0.8773585, 0.1226415;
  (44-54, 1, Regularly Active, Female, >9hours, Non_Smoker) 0.8333333, 0.1666667;
  (54-64, 1, Regularly Active, Female, >9hours, Non_Smoker) 0.4833916, 0.5166084;
  (64-74, 1, Regularly Active, Female, >9hours, Non_Smoker) 0.5, 0.5;
  (18-24, 2, Regularly Active, Female, >9hours, Non_Smoker) 0.5833333, 0.4166667;
  (24-34, 2, Regularly Active, Female, >9hours, Non_Smoker) 0.96376812, 0.03623188;
  (34-44, 2, Regularly Active, Female, >9hours, Non_Smoker) 0.8872832, 0.1127168;
  (44-54, 2, Regularly Active, Female, >9hours, Non_Smoker) 0.91666667, 0.08333333;
  (54-64, 2, Regularly Active, Female, >9hours, Non_Smoker) 0.5902626, 0.4097374;
  (64-74, 2, Regularly Active, Female, >9hours, Non_Smoker) 0.5, 0.5;
  (18-24, 3, Regularly Active, Female, >9hours, Non_Smoker) 0.3, 0.7;
  (24-34, 3, Regularly Active, Female, >9hours, Non_Smoker) 0.95289855, 0.04710145;
  (34-44, 3, Regularly Active, Female, >9hours, Non_Smoker) 0.8605442, 0.1394558;
  (44-54, 3, Regularly Active, Female, >9hours, Non_Smoker) 0.8333333, 0.1666667;
  (54-64, 3, Regularly Active, Female, >9hours, Non_Smoker) 0.4811321, 0.5188679;
  (64-74, 3, Regularly Active, Female, >9hours, Non_Smoker) 0.5, 0.5;
  (18-24, 1, Insufficiently Active, Male, >9hours, Non_Smoker) 0.4876695, 0.5123305;
  (24-34, 1, Insufficiently Active, Male, >9hours, Non_Smoker) 0.5, 0.5;
  (34-44, 1, Insufficiently Active, Male, >9hours, Non_Smoker) 0.8521574, 0.1478426;
  (44-54, 1, Insufficiently Active, Male, >9hours, Non_Smoker) 0.725641, 0.274359;
  (54-64, 1, Insufficiently Active, Male, >9hours, Non_Smoker) 0.3, 0.7;
  (64-74, 1, Insufficiently Active, Male, >9hours, Non_Smoker) 0.9375, 0.0625;
  (18-24, 2, Insufficiently Active, Male, >9hours, Non_Smoker) 0.5245098, 0.4754902;
  (24-34, 2, Insufficiently Active, Male, >9hours, Non_Smoker) 0.5, 0.5;
  (34-44, 2, Insufficiently Active, Male, >9hours, Non_Smoker) 0.8830252, 0.1169748;
  (44-54, 2, Insufficiently Active, Male, >9hours, Non_Smoker) 0.7567812, 0.2432188;
  (54-64, 2, Insufficiently Active, Male, >9hours, Non_Smoker) 0.375, 0.625;
  (64-74, 2, Insufficiently Active, Male, >9hours, Non_Smoker) 0.75, 0.25;
  (18-24, 3, Insufficiently Active, Male, >9hours, Non_Smoker) 0.5132325, 0.4867675;
  (24-34, 3, Insufficiently Active, Male, >9hours, Non_Smoker) 0.5, 0.5;
  (34-44, 3, Insufficiently Active, Male, >9hours, Non_Smoker) 0.8758094, 0.1241906;
  (44-54, 3, Insufficiently Active, Male, >9hours, Non_Smoker) 0.7168675, 0.2831325;
  (54-64, 3, Insufficiently Active, Male, >9hours, Non_Smoker) 0.5, 0.5;
  (64-74, 3, Insufficiently Active, Male, >9hours, Non_Smoker) 0.75, 0.25;
  (18-24, 1, Regularly Active, Male, >9hours, Non_Smoker) 0.5, 0.5;
  (24-34, 1, Regularly Active, Male, >9hours, Non_Smoker) 0.25, 0.75;
  (34-44, 1, Regularly Active, Male, >9hours, Non_Smoker) 0.5, 0.5;
  (44-54, 1, Regularly Active, Male, >9hours, Non_Smoker) 0.5775547, 0.4224453;
  (54-64, 1, Regularly Active, Male, >9hours, Non_Smoker) 0.504386, 0.495614;
  (64-74, 1, Regularly Active, Male, >9hours, Non_Smoker) 0.5, 0.5;
  (18-24, 2, Regularly Active, Male, >9hours, Non_Smoker) 0.6525424, 0.3474576;
  (24-34, 2, Regularly Active, Male, >9hours, Non_Smoker) 0.96153846, 0.03846154;
  (34-44, 2, Regularly Active, Male, >9hours, Non_Smoker) 0.7, 0.3;
  (44-54, 2, Regularly Active, Male, >9hours, Non_Smoker) 0.6205562, 0.3794438;
  (54-64, 2, Regularly Active, Male, >9hours, Non_Smoker) 0.5393701, 0.4606299;
  (64-74, 2, Regularly Active, Male, >9hours, Non_Smoker) 0.5, 0.5;
  (18-24, 3, Regularly Active, Male, >9hours, Non_Smoker) 0.475, 0.525;
  (24-34, 3, Regularly Active, Male, >9hours, Non_Smoker) 0.92857143, 0.07142857;
  (34-44, 3, Regularly Active, Male, >9hours, Non_Smoker) 0.625, 0.375;
  (44-54, 3, Regularly Active, Male, >9hours, Non_Smoker) 0.5610207, 0.4389793;
  (54-64, 3, Regularly Active, Male, >9hours, Non_Smoker) 0.4756098, 0.5243902;
  (64-74, 3, Regularly Active, Male, >9hours, Non_Smoker) 0.5, 0.5;
  (18-24, 1, Insufficiently Active, Female, 6-9hours, Smoker) 0.75, 0.25;
  (24-34, 1, Insufficiently Active, Female, 6-9hours, Smoker) 0.94642857, 0.05357143;
  (34-44, 1, Insufficiently Active, Female, 6-9hours, Smoker) 0.5, 0.5;
  (44-54, 1, Insufficiently Active, Female, 6-9hours, Smoker) 0.5197674, 0.4802326;
  (54-64, 1, Insufficiently Active, Female, 6-9hours, Smoker) 0.5, 0.5;
  (64-74, 1, Insufficiently Active, Female, 6-9hours, Smoker) 0.5, 0.5;
  (18-24, 2, Insufficiently Active, Female, 6-9hours, Smoker) 0.98, 0.02;
  (24-34, 2, Insufficiently Active, Female, 6-9hours, Smoker) 0.8166667, 0.1833333;
  (34-44, 2, Insufficiently Active, Female, 6-9hours, Smoker) 0.5, 0.5;
  (44-54, 2, Insufficiently Active, Female, 6-9hours, Smoker) 0.5195652, 0.4804348;
  (54-64, 2, Insufficiently Active, Female, 6-9hours, Smoker) 0.7, 0.3;
  (64-74, 2, Insufficiently Active, Female, 6-9hours, Smoker) 0.5, 0.5;
  (18-24, 3, Insufficiently Active, Female, 6-9hours, Smoker) 0.8958333, 0.1041667;
  (24-34, 3, Insufficiently Active, Female, 6-9hours, Smoker) 0.90625, 0.09375;
  (34-44, 3, Insufficiently Active, Female, 6-9hours, Smoker) 0.75, 0.25;
  (44-54, 3, Insufficiently Active, Female, 6-9hours, Smoker) 0.4940191, 0.5059809;
  (54-64, 3, Insufficiently Active, Female, 6-9hours, Smoker) 0.25, 0.75;
  (64-74, 3, Insufficiently Active, Female, 6-9hours, Smoker) 0.5, 0.5;
  (18-24, 1, Regularly Active, Female, 6-9hours, Smoker) 0.5, 0.5;
  (24-34, 1, Regularly Active, Female, 6-9hours, Smoker) 0.8472222, 0.1527778;
  (34-44, 1, Regularly Active, Female, 6-9hours, Smoker) 0.7203947, 0.2796053;
  (44-54, 1, Regularly Active, Female, 6-9hours, Smoker) 0.5, 0.5;
  (54-64, 1, Regularly Active, Female, 6-9hours, Smoker) 0.5, 0.5;
  (64-74, 1, Regularly Active, Female, 6-9hours, Smoker) 0.25, 0.75;
  (18-24, 2, Regularly Active, Female, 6-9hours, Smoker) 0.5, 0.5;
  (24-34, 2, Regularly Active, Female, 6-9hours, Smoker) 0.8732975, 0.1267025;
  (34-44, 2, Regularly Active, Female, 6-9hours, Smoker) 0.6691176, 0.3308824;
  (44-54, 2, Regularly Active, Female, 6-9hours, Smoker) 0.5, 0.5;
  (54-64, 2, Regularly Active, Female, 6-9hours, Smoker) 0.9, 0.1;
  (64-74, 2, Regularly Active, Female, 6-9hours, Smoker) 0.92105263, 0.07894737;
  (18-24, 3, Regularly Active, Female, 6-9hours, Smoker) 0.75, 0.25;
  (24-34, 3, Regularly Active, Female, 6-9hours, Smoker) 0.8475113, 0.1524887;
  (34-44, 3, Regularly Active, Female, 6-9hours, Smoker) 0.6513514, 0.3486486;
  (44-54, 3, Regularly Active, Female, 6-9hours, Smoker) 0.25, 0.75;
  (54-64, 3, Regularly Active, Female, 6-9hours, Smoker) 0.875, 0.125;
  (64-74, 3, Regularly Active, Female, 6-9hours, Smoker) 0.91666667, 0.08333333;
  (18-24, 1, Insufficiently Active, Male, 6-9hours, Smoker) 0.5, 0.5;
  (24-34, 1, Insufficiently Active, Male, 6-9hours, Smoker) 0.8333333, 0.1666667;
  (34-44, 1, Insufficiently Active, Male, 6-9hours, Smoker) 0.6981747, 0.3018253;
  (44-54, 1, Insufficiently Active, Male, 6-9hours, Smoker) 0.4891304, 0.5108696;
  (54-64, 1, Insufficiently Active, Male, 6-9hours, Smoker) 0.5, 0.5;
  (64-74, 1, Insufficiently Active, Male, 6-9hours, Smoker) 0.85, 0.15;
  (18-24, 2, Insufficiently Active, Male, 6-9hours, Smoker) 0.75, 0.25;
  (24-34, 2, Insufficiently Active, Male, 6-9hours, Smoker) 0.25, 0.75;
  (34-44, 2, Insufficiently Active, Male, 6-9hours, Smoker) 0.7124291, 0.2875709;
  (44-54, 2, Insufficiently Active, Male, 6-9hours, Smoker) 0.5532319, 0.4467681;
  (54-64, 2, Insufficiently Active, Male, 6-9hours, Smoker) 0.5, 0.5;
  (64-74, 2, Insufficiently Active, Male, 6-9hours, Smoker) 0.8859275, 0.1140725;
  (18-24, 3, Insufficiently Active, Male, 6-9hours, Smoker) 0.25, 0.75;
  (24-34, 3, Insufficiently Active, Male, 6-9hours, Smoker) 0.75, 0.25;
  (34-44, 3, Insufficiently Active, Male, 6-9hours, Smoker) 0.6630094, 0.3369906;
  (44-54, 3, Insufficiently Active, Male, 6-9hours, Smoker) 0.525641, 0.474359;
  (54-64, 3, Insufficiently Active, Male, 6-9hours, Smoker) 0.5, 0.5;
  (64-74, 3, Insufficiently Active, Male, 6-9hours, Smoker) 0.9011976, 0.0988024;
  (18-24, 1, Regularly Active, Male, 6-9hours, Smoker) 0.90350877, 0.09649123;
  (24-34, 1, Regularly Active, Male, 6-9hours, Smoker) 0.872449, 0.127551;
  (34-44, 1, Regularly Active, Male, 6-9hours, Smoker) 0.5, 0.5;
  (44-54, 1, Regularly Active, Male, 6-9hours, Smoker) 0.5833333, 0.4166667;
  (54-64, 1, Regularly Active, Male, 6-9hours, Smoker) 0.5, 0.5;
  (64-74, 1, Regularly Active, Male, 6-9hours, Smoker) 0.5, 0.5;
  (18-24, 2, Regularly Active, Male, 6-9hours, Smoker) 0.8853739, 0.1146261;
  (24-34, 2, Regularly Active, Male, 6-9hours, Smoker) 0.8339552, 0.1660448;
  (34-44, 2, Regularly Active, Male, 6-9hours, Smoker) 0.75, 0.25;
  (44-54, 2, Regularly Active, Male, 6-9hours, Smoker) 0.452381, 0.547619;
  (54-64, 2, Regularly Active, Male, 6-9hours, Smoker) 0.5, 0.5;
  (64-74, 2, Regularly Active, Male, 6-9hours, Smoker) 0.5, 0.5;
  (18-24, 3, Regularly Active, Male, 6-9hours, Smoker) 0.8880071, 0.1119929;
  (24-34, 3, Regularly Active, Male, 6-9hours, Smoker) 0.8321918, 0.1678082;
  (34-44, 3, Regularly Active, Male, 6-9hours, Smoker) 0.75, 0.25;
  (44-54, 3, Regularly Active, Male, 6-9hours, Smoker) 0.4375, 0.5625;
  (54-64, 3, Regularly Active, Male, 6-9hours, Smoker) 0.5, 0.5;
  (64-74, 3, Regularly Active, Male, 6-9hours, Smoker) 0.75, 0.25;
  (18-24, 1, Insufficiently Active, Female, <6hours, Smoker) 0.8568966, 0.1431034;
  (24-34, 1, Insufficiently Active, Female, <6hours, Smoker) 0.5645161, 0.4354839;
  (34-44, 1, Insufficiently Active, Female, <6hours, Smoker) 0.5, 0.5;
  (44-54, 1, Insufficiently Active, Female, <6hours, Smoker) 0.85, 0.15;
  (54-64, 1, Insufficiently Active, Female, <6hours, Smoker) 0.775, 0.225;
  (64-74, 1, Insufficiently Active, Female, <6hours, Smoker) 0.5, 0.5;
  (18-24, 2, Insufficiently Active, Female, <6hours, Smoker) 0.8547688, 0.1452312;
  (24-34, 2, Insufficiently Active, Female, <6hours, Smoker) 0.6454545, 0.3545455;
  (34-44, 2, Insufficiently Active, Female, <6hours, Smoker) 0.5, 0.5;
  (44-54, 2, Insufficiently Active, Female, <6hours, Smoker) 0.95945946, 0.04054054;
  (54-64, 2, Insufficiently Active, Female, <6hours, Smoker) 0.75, 0.25;
  (64-74, 2, Insufficiently Active, Female, <6hours, Smoker) 0.75, 0.25;
  (18-24, 3, Insufficiently Active, Female, <6hours, Smoker) 0.8495763, 0.1504237;
  (24-34, 3, Insufficiently Active, Female, <6hours, Smoker) 0.6764706, 0.3235294;
  (34-44, 3, Insufficiently Active, Female, <6hours, Smoker) 0.5, 0.5;
  (44-54, 3, Insufficiently Active, Female, <6hours, Smoker) 0.93421053, 0.06578947;
  (54-64, 3, Insufficiently Active, Female, <6hours, Smoker) 0.85625, 0.14375;
  (64-74, 3, Insufficiently Active, Female, <6hours, Smoker) 0.7, 0.3;
  (18-24, 1, Regularly Active, Female, <6hours, Smoker) 0.75, 0.25;
  (24-34, 1, Regularly Active, Female, <6hours, Smoker) 0.3769231, 0.6230769;
  (34-44, 1, Regularly Active, Female, <6hours, Smoker) 0.25, 0.75;
  (44-54, 1, Regularly Active, Female, <6hours, Smoker) 0.5, 0.5;
  (54-64, 1, Regularly Active, Female, <6hours, Smoker) 0.7074795, 0.2925205;
  (64-74, 1, Regularly Active, Female, <6hours, Smoker) 0.5704545, 0.4295455;
  (18-24, 2, Regularly Active, Female, <6hours, Smoker) 0.5, 0.5;
  (24-34, 2, Regularly Active, Female, <6hours, Smoker) 0.5719697, 0.4280303;
  (34-44, 2, Regularly Active, Female, <6hours, Smoker) 0.5, 0.5;
  (44-54, 2, Regularly Active, Female, <6hours, Smoker) 0.25, 0.75;
  (54-64, 2, Regularly Active, Female, <6hours, Smoker) 0.7494835, 0.2505165;
  (64-74, 2, Regularly Active, Female, <6hours, Smoker) 0.5959716, 0.4040284;
  (18-24, 3, Regularly Active, Female, <6hours, Smoker) 0.5, 0.5;
  (24-34, 3, Regularly Active, Female, <6hours, Smoker) 0.5694444, 0.4305556;
  (34-44, 3, Regularly Active, Female, <6hours, Smoker) 0.5, 0.5;
  (44-54, 3, Regularly Active, Female, <6hours, Smoker) 0.5, 0.5;
  (54-64, 3, Regularly Active, Female, <6hours, Smoker) 0.6955418, 0.3044582;
  (64-74, 3, Regularly Active, Female, <6hours, Smoker) 0.5531496, 0.4468504;
  (18-24, 1, Insufficiently Active, Male, <6hours, Smoker) 0.8125, 0.1875;
  (24-34, 1, Insufficiently Active, Male, <6hours, Smoker) 0.5, 0.5;
  (34-44, 1, Insufficiently Active, Male, <6hours, Smoker) 0.75, 0.25;
  (44-54, 1, Insufficiently Active, Male, <6hours, Smoker) 0.5, 0.5;
  (54-64, 1, Insufficiently Active, Male, <6hours, Smoker) 0.5, 0.5;
  (64-74, 1, Insufficiently Active, Male, <6hours, Smoker) 0.5316794, 0.4683206;
  (18-24, 2, Insufficiently Active, Male, <6hours, Smoker) 0.8934426, 0.1065574;
  (24-34, 2, Insufficiently Active, Male, <6hours, Smoker) 0.5, 0.5;
  (34-44, 2, Insufficiently Active, Male, <6hours, Smoker) 0.25, 0.75;
  (44-54, 2, Insufficiently Active, Male, <6hours, Smoker) 0.8333333, 0.1666667;
  (54-64, 2, Insufficiently Active, Male, <6hours, Smoker) 0.8333333, 0.1666667;
  (64-74, 2, Insufficiently Active, Male, <6hours, Smoker) 0.6222928, 0.3777072;
  (18-24, 3, Insufficiently Active, Male, <6hours, Smoker) 0.8541667, 0.1458333;
  (24-34, 3, Insufficiently Active, Male, <6hours, Smoker) 0.5, 0.5;
  (34-44, 3, Insufficiently Active, Male, <6hours, Smoker) 0.25, 0.75;
  (44-54, 3, Insufficiently Active, Male, <6hours, Smoker) 0.5, 0.5;
  (54-64, 3, Insufficiently Active, Male, <6hours, Smoker) 0.75, 0.25;
  (64-74, 3, Insufficiently Active, Male, <6hours, Smoker) 0.5612965, 0.4387035;
  (18-24, 1, Regularly Active, Male, <6hours, Smoker) 0.729798, 0.270202;
  (24-34, 1, Regularly Active, Male, <6hours, Smoker) 0.2692308, 0.7307692;
  (34-44, 1, Regularly Active, Male, <6hours, Smoker) 0.5, 0.5;
  (44-54, 1, Regularly Active, Male, <6hours, Smoker) 0.7996183, 0.2003817;
  (54-64, 1, Regularly Active, Male, <6hours, Smoker) 0.662963, 0.337037;
  (64-74, 1, Regularly Active, Male, <6hours, Smoker) 0.5, 0.5;
  (18-24, 2, Regularly Active, Male, <6hours, Smoker) 0.7711198, 0.2288802;
  (24-34, 2, Regularly Active, Male, <6hours, Smoker) 0.4655172, 0.5344828;
  (34-44, 2, Regularly Active, Male, <6hours, Smoker) 0.5, 0.5;
  (44-54, 2, Regularly Active, Male, <6hours, Smoker) 0.8402192, 0.1597808;
  (54-64, 2, Regularly Active, Male, <6hours, Smoker) 0.7319079, 0.2680921;
  (64-74, 2, Regularly Active, Male, <6hours, Smoker) 0.5, 0.5;
  (18-24, 3, Regularly Active, Male, <6hours, Smoker) 0.7, 0.3;
  (24-34, 3, Regularly Active, Male, <6hours, Smoker) 0.5833333, 0.4166667;
  (34-44, 3, Regularly Active, Male, <6hours, Smoker) 0.5, 0.5;
  (44-54, 3, Regularly Active, Male, <6hours, Smoker) 0.8454654, 0.1545346;
  (54-64, 3, Regularly Active, Male, <6hours, Smoker) 0.7166667, 0.2833333;
  (64-74, 3, Regularly Active, Male, <6hours, Smoker) 0.5, 0.5;
  (18-24, 1, Insufficiently Active, Female, >9hours, Smoker) 0.4951413, 0.5048587;
  (24-34, 1, Insufficiently Active, Female, >9hours, Smoker) 0.5909091, 0.4090909;
  (34-44, 1, Insufficiently Active, Female, >9hours, Smoker) 0.5, 0.5;
  (44-54, 1, Insufficiently Active, Female, >9hours, Smoker) 0.7454161, 0.2545839;
  (54-64, 1, Insufficiently Active, Female, >9hours, Smoker) 0.6104651, 0.3895349;
  (64-74, 1, Insufficiently Active, Female, >9hours, Smoker) 0.5, 0.5;
  (18-24, 2, Insufficiently Active, Female, >9hours, Smoker) 0.5583773, 0.4416227;
  (24-34, 2, Insufficiently Active, Female, >9hours, Smoker) 0.5416667, 0.4583333;
  (34-44, 2, Insufficiently Active, Female, >9hours, Smoker) 0.5, 0.5;
  (44-54, 2, Insufficiently Active, Female, >9hours, Smoker) 0.7757999, 0.2242001;
  (54-64, 2, Insufficiently Active, Female, >9hours, Smoker) 0.6658031, 0.3341969;
  (64-74, 2, Insufficiently Active, Female, >9hours, Smoker) 0.75, 0.25;
  (18-24, 3, Insufficiently Active, Female, >9hours, Smoker) 0.5130797, 0.4869203;
  (24-34, 3, Insufficiently Active, Female, >9hours, Smoker) 0.1666667, 0.8333333;
  (34-44, 3, Insufficiently Active, Female, >9hours, Smoker) 0.5, 0.5;
  (44-54, 3, Insufficiently Active, Female, >9hours, Smoker) 0.7463958, 0.2536042;
  (54-64, 3, Insufficiently Active, Female, >9hours, Smoker) 0.6132075, 0.3867925;
  (64-74, 3, Insufficiently Active, Female, >9hours, Smoker) 0.5, 0.5;
  (18-24, 1, Regularly Active, Female, >9hours, Smoker) 0.5, 0.5;
  (24-34, 1, Regularly Active, Female, >9hours, Smoker) 0.75, 0.25;
  (34-44, 1, Regularly Active, Female, >9hours, Smoker) 0.78125, 0.21875;
  (44-54, 1, Regularly Active, Female, >9hours, Smoker) 0.5, 0.5;
  (54-64, 1, Regularly Active, Female, >9hours, Smoker) 0.5408163, 0.4591837;
  (64-74, 1, Regularly Active, Female, >9hours, Smoker) 0.5, 0.5;
  (18-24, 2, Regularly Active, Female, >9hours, Smoker) 0.75, 0.25;
  (24-34, 2, Regularly Active, Female, >9hours, Smoker) 0.98571429, 0.01428571;
  (34-44, 2, Regularly Active, Female, >9hours, Smoker) 0.8482143, 0.1517857;
  (44-54, 2, Regularly Active, Female, >9hours, Smoker) 0.75, 0.25;
  (54-64, 2, Regularly Active, Female, >9hours, Smoker) 0.5829327, 0.4170673;
  (64-74, 2, Regularly Active, Female, >9hours, Smoker) 0.1666667, 0.8333333;
  (18-24, 3, Regularly Active, Female, >9hours, Smoker) 0.5, 0.5;
  (24-34, 3, Regularly Active, Female, >9hours, Smoker) 0.90625, 0.09375;
  (34-44, 3, Regularly Active, Female, >9hours, Smoker) 0.91025641, 0.08974359;
  (44-54, 3, Regularly Active, Female, >9hours, Smoker) 0.5, 0.5;
  (54-64, 3, Regularly Active, Female, >9hours, Smoker) 0.5235849, 0.4764151;
  (64-74, 3, Regularly Active, Female, >9hours, Smoker) 0.5, 0.5;
  (18-24, 1, Insufficiently Active, Male, >9hours, Smoker) 0.5087336, 0.4912664;
  (24-34, 1, Insufficiently Active, Male, >9hours, Smoker) 0.5, 0.5;
  (34-44, 1, Insufficiently Active, Male, >9hours, Smoker) 0.8448276, 0.1551724;
  (44-54, 1, Insufficiently Active, Male, >9hours, Smoker) 0.6578947, 0.3421053;
  (54-64, 1, Insufficiently Active, Male, >9hours, Smoker) 0.5, 0.5;
  (64-74, 1, Insufficiently Active, Male, >9hours, Smoker) 0.6111111, 0.3888889;
  (18-24, 2, Insufficiently Active, Male, >9hours, Smoker) 0.5711974, 0.4288026;
  (24-34, 2, Insufficiently Active, Male, >9hours, Smoker) 0.5, 0.5;
  (34-44, 2, Insufficiently Active, Male, >9hours, Smoker) 0.8597946, 0.1402054;
  (44-54, 2, Insufficiently Active, Male, >9hours, Smoker) 0.7427746, 0.2572254;
  (54-64, 2, Insufficiently Active, Male, >9hours, Smoker) 0.5, 0.5;
  (64-74, 2, Insufficiently Active, Male, >9hours, Smoker) 0.7083333, 0.2916667;
  (18-24, 3, Insufficiently Active, Male, >9hours, Smoker) 0.5822368, 0.4177632;
  (24-34, 3, Insufficiently Active, Male, >9hours, Smoker) 0.5, 0.5;
  (34-44, 3, Insufficiently Active, Male, >9hours, Smoker) 0.8772727, 0.1227273;
  (44-54, 3, Insufficiently Active, Male, >9hours, Smoker) 0.6644737, 0.3355263;
  (54-64, 3, Insufficiently Active, Male, >9hours, Smoker) 0.5, 0.5;
  (64-74, 3, Insufficiently Active, Male, >9hours, Smoker) 0.7, 0.3;
  (18-24, 1, Regularly Active, Male, >9hours, Smoker) 0.3518519, 0.6481481;
  (24-34, 1, Regularly Active, Male, >9hours, Smoker) 0.75, 0.25;
  (34-44, 1, Regularly Active, Male, >9hours, Smoker) 0.5, 0.5;
  (44-54, 1, Regularly Active, Male, >9hours, Smoker) 0.5642504, 0.4357496;
  (54-64, 1, Regularly Active, Male, >9hours, Smoker) 0.5125, 0.4875;
  (64-74, 1, Regularly Active, Male, >9hours, Smoker) 0.5, 0.5;
  (18-24, 2, Regularly Active, Male, >9hours, Smoker) 0.4134615, 0.5865385;
  (24-34, 2, Regularly Active, Male, >9hours, Smoker) 0.75, 0.25;
  (34-44, 2, Regularly Active, Male, >9hours, Smoker) 0.5, 0.5;
  (44-54, 2, Regularly Active, Male, >9hours, Smoker) 0.6447001, 0.3552999;
  (54-64, 2, Regularly Active, Male, >9hours, Smoker) 0.6590909, 0.3409091;
  (64-74, 2, Regularly Active, Male, >9hours, Smoker) 0.5, 0.5;
  (18-24, 3, Regularly Active, Male, >9hours, Smoker) 0.7, 0.3;
  (24-34, 3, Regularly Active, Male, >9hours, Smoker) 0.8333333, 0.1666667;
  (34-44, 3, Regularly Active, Male, >9hours, Smoker) 0.5, 0.5;
  (44-54, 3, Regularly Active, Male, >9hours, Smoker) 0.5608273, 0.4391727;
  (54-64, 3, Regularly Active, Male, >9hours, Smoker) 0.46875, 0.53125;
  (64-74, 3, Regularly Active, Male, >9hours, Smoker) 0.5, 0.5;
}
probability ( Hypertension | BodyMassIndex, Diabetes, Hypercholesterolemia, PhysicalActivity, SleepDuration ) {
  (Normal, No, No, Insufficiently Active, 6-9hours) 0.95244603, 0.04755397;
  (Obese, No, No, Insufficiently Active, 6-9hours) 0.8450073, 0.1549927;
  (Overweight, No, No, Insufficiently Active, 6-9hours) 0.96081363, 0.03918637;
  (Underweight, No, No, Insufficiently Active, 6-9hours) 0.8836735, 0.1163265;
  (Normal, Yes, No, Insufficiently Active, 6-9hours) 0.8877847, 0.1122153;
  (Obese, Yes, No, Insufficiently Active, 6-9hours) 0.7672594, 0.2327406;
  (Overweight, Yes, No, Insufficiently Active, 6-9hours) 0.91978923, 0.08021077;
  (Underweight, Yes, No, Insufficiently Active, 6-9hours) 0.7948505, 0.2051495;
  (Normal, No, Yes, Insufficiently Active, 6-9hours) 0.7946927, 0.2053073;
  (Obese, No, Yes, Insufficiently Active, 6-9hours) 0.5465116, 0.4534884;
  (Overweight, No, Yes, Insufficiently Active, 6-9hours) 0.8169643, 0.1830357;
  (Underweight, No, Yes, Insufficiently Active, 6-9hours) 0.5227273, 0.4772727;
  (Normal, Yes, Yes, Insufficiently Active, 6-9hours) 0.6824561, 0.3175439;
  (Obese, Yes, Yes, Insufficiently Active, 6-9hours) 0.5382166, 0.4617834;
  (Overweight, Yes, Yes, Insufficiently Active, 6-9hours) 0.75, 0.25;
  (Underweight, Yes, Yes, Insufficiently Active, 6-9hours) 0.7727273, 0.2272727;
  (Normal, No, No, Regularly Active, 6-9hours) 0.720295, 0.279705;
  (Obese, No, No, Regularly Active, 6-9hours) 0.95879121, 0.04120879;
  (Overweight, No, No, Regularly Active, 6-9hours) 0.7823616, 0.2176384;
  (Underweight, No, No, Regularly Active, 6-9hours) 0.95945946, 0.04054054;
  (Normal, Yes, No, Regularly Active, 6-9hours) 0.6124736, 0.3875264;
  (Obese, Yes, No, Regularly Active, 6-9hours) 0.98809524, 0.01190476;
  (Overweight, Yes, No, Regularly Active, 6-9hours) 0.7077969, 0.2922031;
  (Underweight, Yes, No, Regularly Active, 6-9hours) 0.92857143, 0.07142857;
  (Normal, No, Yes, Regularly Active, 6-9hours) 0.4737877, 0.5262123;
  (Obese, No, Yes, Regularly Active, 6-9hours) 0.8333333, 0.1666667;
  (Overweight, No, Yes, Regularly Active, 6-9hours) 0.4469697, 0.5530303;
  (Underweight, No, Yes, Regularly Active, 6-9hours) 0.5, 0.5;
  (Normal, Yes, Yes, Regularly Active, 6-9hours) 0.3631016, 0.6368984;
  (Obese, Yes, Yes, Regularly Active, 6-9hours) 0.5, 0.5;
  (Overweight, Yes, Yes, Regularly Active, 6-9hours) 0.4785714, 0.5214286;
  (Underweight, Yes, Yes, Regularly Active, 6-9hours) 0.5, 0.5;
  (Normal, No, No, Insufficiently Active, <6hours) 0.8628458, 0.1371542;
  (Obese, No, No, Insufficiently Active, <6hours) 0.93421053, 0.06578947;
  (Overweight, No, No, Insufficiently Active, <6hours) 0.90416077, 0.09583923;
  (Underweight, No, No, Insufficiently Active, <6hours) 0.97058824, 0.02941176;
  (Normal, Yes, No, Insufficiently Active, <6hours) 0.7750295, 0.2249705;
  (Obese, Yes, No, Insufficiently Active, <6hours) 0.7222222, 0.2777778;
  (Overweight, Yes, No, Insufficiently Active, <6hours) 0.834638, 0.165362;
  (Underweight, Yes, No, Insufficiently Active, <6hours) 0.9, 0.1;
  (Normal, No, Yes, Insufficiently Active, <6hours) 0.5884401, 0.4115599;
  (Obese, No, Yes, Insufficiently Active, <6hours) 0.5, 0.5;
  (Overweight, No, Yes, Insufficiently Active, <6hours) 0.725, 0.275;
  (Underweight, No, Yes, Insufficiently Active, <6hours) 0.5, 0.5;
  (Normal, Yes, Yes, Insufficiently Active, <6hours) 0.5178571, 0.4821429;
  (Obese, Yes, Yes, Insufficiently Active, <6hours) 0.25, 0.75;
  (Overweight, Yes, Yes, Insufficiently Active, <6hours) 0.6479592, 0.3520408;
  (Underweight, Yes, Yes, Insufficiently Active, <6hours) 0.5, 0.5;
  (Normal, No, No, Regularly Active, <6hours) 0.98993754, 0.01006246;
  (Obese, No, No, Regularly Active, <6hours) 0.7962963, 0.2037037;
  (Overweight, No, No, Regularly Active, <6hours) 0.98194444, 0.01805556;
  (Underweight, No, No, Regularly Active, <6hours) 0.75, 0.25;
  (Normal, Yes, No, Regularly Active, <6hours) 0.95974576, 0.04025424;
  (Obese, Yes, No, Regularly Active, <6hours) 0.7307692, 0.2692308;
  (Overweight, Yes, No, Regularly Active, <6hours) 0.94776119, 0.05223881;
  (Underweight, Yes, No, Regularly Active, <6hours) 0.25, 0.75;
  (Normal, No, Yes, Regularly Active, <6hours) 0.92857143, 0.07142857;
  (Obese, No, Yes, Regularly Active, <6hours) 0.25, 0.75;
  (Overweight, No, Yes, Regularly Active, <6hours) 0.875, 0.125;
  (Underweight, No, Yes, Regularly Active, <6hours) 0.5, 0.5;
  (Normal, Yes, Yes, Regularly Active, <6hours) 0.75, 0.25;
  (Obese, Yes, Yes, Regularly Active, <6hours) 0.75, 0.25;
  (Overweight, Yes, Yes, Regularly Active, <6hours) 0.5, 0.5;
  (Underweight, Yes, Yes, Regularly Active, <6hours) 0.5, 0.5;
  (Normal, No, No, Insufficiently Active, >9hours) 0.93904856, 0.06095144;
  (Obese, No, No, Insufficiently Active, >9hours) 0.78, 0.22;
  (Overweight, No, No, Insufficiently Active, >9hours) 0.96068548, 0.03931452;
  (Underweight, No, No, Insufficiently Active, >9hours) 0.8214286, 0.1785714;
  (Normal, Yes, No, Insufficiently Active, >9hours) 0.8748064, 0.1251936;
  (Obese, Yes, No, Insufficiently Active, >9hours) 0.7291667, 0.2708333;
  (Overweight, Yes, No, Insufficiently Active, >9hours) 0.91487069, 0.08512931;
  (Underweight, Yes, No, Insufficiently Active, >9hours) 0.5833333, 0.4166667;
  (Normal, No, Yes, Insufficiently Active, >9hours) 0.7622951, 0.2377049;
  (Obese, No, Yes, Insufficiently Active, >9hours) 0.75, 0.25;
  (Overweight, No, Yes, Insufficiently Active, >9hours) 0.8636364, 0.1363636;
  (Underweight, No, Yes, Insufficiently Active, >9hours) 0.5, 0.5;
  (Normal, Yes, Yes, Insufficiently Active, >9hours) 0.5377358, 0.4622642;
  (Obese, Yes, Yes, Insufficiently Active, >9hours) 0.625, 0.375;
  (Overweight, Yes, Yes, Insufficiently Active, >9hours) 0.5, 0.5;
  (Underweight, Yes, Yes, Insufficiently Active, >9hours) 0.5, 0.5;
  (Normal, No, No, Regularly Active, >9hours) 0.6972574, 0.3027426;
  (Obese, No, No, Regularly Active, >9hours) 0.9, 0.1;
  (Overweight, No, No, Regularly Active, >9hours) 0.7517606, 0.2482394;
  (Underweight, No, No, Regularly Active, >9hours) 0.5, 0.5;
  (Normal, Yes, No, Regularly Active, >9hours) 0.5806943, 0.4193057;
  (Obese, Yes, No, Regularly Active, >9hours) 0.75, 0.25;
  (Overweight, Yes, No, Regularly Active, >9hours) 0.7147059, 0.2852941;
  (Underweight, Yes, No, Regularly Active, >9hours) 0.5, 0.5;
  (Normal, No, Yes, Regularly Active, >9hours) 0.3715278, 0.6284722;
  (Obese, No, Yes, Regularly Active, >9hours) 0.5, 0.5;
  (Overweight, No, Yes, Regularly Active, >9hours) 0.5625, 0.4375;
  (Underweight, No, Yes, Regularly Active, >9hours) 0.5, 0.5;
  (Normal, Yes, Yes, Regularly Active, >9hours) 0.2932099, 0.7067901;
  (Obese, Yes, Yes, Regularly Active, >9hours) 0.5, 0.5;
  (Overweight, Yes, Yes, Regularly Active, >9hours) 0.375, 0.625;
  (Underweight, Yes, Yes, Regularly Active, >9hours) 0.5, 0.5;
}
probability ( PhysicalActivity | Age, Sex, SleepDuration, SmokerProfile ) {
  (18-24, Female, 6-9hours, Ex_Smoker) 0.91666667, 0.08333333;
  (24-34, Female, 6-9hours, Ex_Smoker) 0.7952519, 0.2047481;
  (34-44, Female, 6-9hours, Ex_Smoker) 0.8878539, 0.1121461;
  (44-54, Female, 6-9hours, Ex_Smoker) 0.515873, 0.484127;
  (54-64, Female, 6-9hours, Ex_Smoker) 0.6360267, 0.3639733;
  (64-74, Female, 6-9hours, Ex_Smoker) 0.8693946, 0.1306054;
  (18-24, Male, 6-9hours, Ex_Smoker) 0.7976343, 0.2023657;
  (24-34, Male, 6-9hours, Ex_Smoker) 0.8364341, 0.1635659;
  (34-44, Male, 6-9hours, Ex_Smoker) 0.8333333, 0.1666667;
  (44-54, Male, 6-9hours, Ex_Smoker) 0.5777912, 0.4222088;
  (54-64, Male, 6-9hours, Ex_Smoker) 0.7600618, 0.2399382;
  (64-74, Male, 6-9hours, Ex_Smoker) 0.7816901, 0.2183099;
  (18-24, Female, <6hours, Ex_Smoker) 0.873057, 0.126943;
  (24-34, Female, <6hours, Ex_Smoker) 0.8160484, 0.1839516;
  (34-44, Female, <6hours, Ex_Smoker) 0.91709915, 0.08290085;
  (44-54, Female, <6hours, Ex_Smoker) 0.539272, 0.460728;
  (54-64, Female, <6hours, Ex_Smoker) 0.6113845, 0.3886155;
  (64-74, Female, <6hours, Ex_Smoker) 0.8267455, 0.1732545;
  (18-24, Male, <6hours, Ex_Smoker) 0.7776091, 0.2223909;
  (24-34, Male, <6hours, Ex_Smoker) 0.8496435, 0.1503565;
  (34-44, Male, <6hours, Ex_Smoker) 0.92857143, 0.07142857;
  (44-54, Male, <6hours, Ex_Smoker) 0.5370171, 0.4629829;
  (54-64, Male, <6hours, Ex_Smoker) 0.7092611, 0.2907389;
  (64-74, Male, <6hours, Ex_Smoker) 0.8423077, 0.1576923;
  (18-24, Female, >9hours, Ex_Smoker) 0.8953488, 0.1046512;
  (24-34, Female, >9hours, Ex_Smoker) 0.8576124, 0.1423876;
  (34-44, Female, >9hours, Ex_Smoker) 0.94218641, 0.05781359;
  (44-54, Female, >9hours, Ex_Smoker) 0.6698925, 0.3301075;
  (54-64, Female, >9hours, Ex_Smoker) 0.7491662, 0.2508338;
  (64-74, Female, >9hours, Ex_Smoker) 0.92250419, 0.07749581;
  (18-24, Male, >9hours, Ex_Smoker) 0.826722, 0.173278;
  (24-34, Male, >9hours, Ex_Smoker) 0.90417999, 0.09582001;
  (34-44, Male, >9hours, Ex_Smoker) 0.9, 0.1;
  (44-54, Male, >9hours, Ex_Smoker) 0.6553891, 0.3446109;
  (54-64, Male, >9hours, Ex_Smoker) 0.842624, 0.157376;
  (64-74, Male, >9hours, Ex_Smoker) 0.8589744, 0.1410256;
  (18-24, Female, 6-9hours, Non_Smoker) 0.5, 0.5;
  (24-34, Female, 6-9hours, Non_Smoker) 0.8479053, 0.1520947;
  (34-44, Female, 6-9hours, Non_Smoker) 0.9188862, 0.0811138;
  (44-54, Female, 6-9hours, Non_Smoker) 0.375, 0.625;
  (54-64, Female, 6-9hours, Non_Smoker) 0.7159864, 0.2840136;
  (64-74, Female, 6-9hours, Non_Smoker) 0.8723849, 0.1276151;
  (18-24, Male, 6-9hours, Non_Smoker) 0.8212121, 0.1787879;
  (24-34, Male, 6-9hours, Non_Smoker) 0.864532, 0.135468;
  (34-44, Male, 6-9hours, Non_Smoker) 0.75, 0.25;
  (44-54, Male, 6-9hours, Non_Smoker) 0.6331522, 0.3668478;
  (54-64, Male, 6-9hours, Non_Smoker) 0.7856643, 0.2143357;
  (64-74, Male, 6-9hours, Non_Smoker) 0.97826087, 0.02173913;
  (18-24, Female, <6hours, Non_Smoker) 0.6428571, 0.3571429;
  (24-34, Female, <6hours, Non_Smoker) 0.8565246, 0.1434754;
  (34-44, Female, <6hours, Non_Smoker) 0.93656015, 0.06343985;
  (44-54, Female, <6hours, Non_Smoker) 0.5344828, 0.4655172;
  (54-64, Female, <6hours, Non_Smoker) 0.683878, 0.316122;
  (64-74, Female, <6hours, Non_Smoker) 0.864532, 0.135468;
  (18-24, Male, <6hours, Non_Smoker) 0.8513514, 0.1486486;
  (24-34, Male, <6hours, Non_Smoker) 0.8892834, 0.1107166;
  (34-44, Male, <6hours, Non_Smoker) 0.85, 0.15;
  (44-54, Male, <6hours, Non_Smoker) 0.6505376, 0.3494624;
  (54-64, Male, <6hours, Non_Smoker) 0.7389343, 0.2610657;
  (64-74, Male, <6hours, Non_Smoker) 0.91935484, 0.08064516;
  (18-24, Female, >9hours, Non_Smoker) 0.8333333, 0.1666667;
  (24-34, Female, >9hours, Non_Smoker) 0.90100671, 0.09899329;
  (34-44, Female, >9hours, Non_Smoker) 0.94874715, 0.05125285;
  (44-54, Female, >9hours, Non_Smoker) 0.6458333, 0.3541667;
  (54-64, Female, >9hours, Non_Smoker) 0.7904057, 0.2095943;
  (64-74, Female, >9hours, Non_Smoker) 0.92479675, 0.07520325;
  (18-24, Male, >9hours, Non_Smoker) 0.8242857, 0.1757143;
  (24-34, Male, >9hours, Non_Smoker) 0.92835052, 0.07164948;
  (34-44, Male, >9hours, Non_Smoker) 0.75, 0.25;
  (44-54, Male, >9hours, Non_Smoker) 0.6970443, 0.3029557;
  (54-64, Male, >9hours, Non_Smoker) 0.8509174, 0.1490826;
  (64-74, Male, >9hours, Non_Smoker) 0.94444444, 0.05555556;
  (18-24, Female, 6-9hours, Smoker) 0.5, 0.5;
  (24-34, Female, 6-9hours, Smoker) 0.7, 0.3;
  (34-44, Female, 6-9hours, Smoker) 0.5, 0.5;
  (44-54, Female, 6-9hours, Smoker) 0.5, 0.5;
  (54-64, Female, 6-9hours, Smoker) 0.6428571, 0.3571429;
  (64-74, Female, 6-9hours, Smoker) 0.92857143, 0.07142857;
  (18-24, Male, 6-9hours, Smoker) 0.875, 0.125;
  (24-34, Male, 6-9hours, Smoker) 0.875, 0.125;
  (34-44, Male, 6-9hours, Smoker) 0.5, 0.5;
  (44-54, Male, 6-9hours, Smoker) 0.75, 0.25;
  (54-64, Male, 6-9hours, Smoker) 0.5909091, 0.4090909;
  (64-74, Male, 6-9hours, Smoker) 0.5, 0.5;
  (18-24, Female, <6hours, Smoker) 0.5, 0.5;
  (24-34, Female, <6hours, Smoker) 0.875, 0.125;
  (34-44, Female, <6hours, Smoker) 0.8333333, 0.1666667;
  (44-54, Female, <6hours, Smoker) 0.8333333, 0.1666667;
  (54-64, Female, <6hours, Smoker) 0.6176471, 0.3823529;
  (64-74, Female, <6hours, Smoker) 0.7222222, 0.2777778;
  (18-24, Male, <6hours, Smoker) 0.95, 0.05;
  (24-34, Male, <6hours, Smoker) 0.75, 0.25;
  (34-44, Male, <6hours, Smoker) 0.5, 0.5;
  (44-54, Male, <6hours, Smoker) 0.7, 0.3;
  (54-64, Male, <6hours, Smoker) 0.6333333, 0.3666667;
  (64-74, Male, <6hours, Smoker) 0.5, 0.5;
  (18-24, Female, >9hours, Smoker) 0.75, 0.25;
  (24-34, Female, >9hours, Smoker) 0.94444444, 0.05555556;
  (34-44, Female, >9hours, Smoker) 0.7, 0.3;
  (44-54, Female, >9hours, Smoker) 0.5, 0.5;
  (54-64, Female, >9hours, Smoker) 0.8809524, 0.1190476;
  (64-74, Female, >9hours, Smoker) 0.92857143, 0.07142857;
  (18-24, Male, >9hours, Smoker) 0.5, 0.5;
  (24-34, Male, >9hours, Smoker) 0.92857143, 0.07142857;
  (34-44, Male, >9hours, Smoker) 0.5, 0.5;
  (44-54, Male, >9hours, Smoker) 0.6111111, 0.3888889;
  (54-64, Male, >9hours, Smoker) 0.75, 0.25;
  (64-74, Male, >9hours, Smoker) 0.5, 0.5;
}
probability ( Sex ) {
  table 0.3210451, 0.6789549;
}
probability ( SleepDuration | Age ) {
  (18-24) 0.949474166, 0.046867856, 0.003657979;
  (24-34) 0.929224656, 0.069425432, 0.001349913;
  (34-44) 0.8976451315, 0.1015953759, 0.0007594926;
  (44-54) 0.8642817767, 0.1349582270, 0.0007599964;
  (54-64) 0.8260678984, 0.1730663861, 0.0008657155;
  (64-74) 0.802436902, 0.196692776, 0.000870322;
}
probability ( SmokerProfile | Age, Sex ) {
  (18-24, Female) 0.04910293, 0.56185080, 0.38904627;
  (24-34, Female) 0.1840525, 0.5602762, 0.2556713;
  (34-44, Female) 0.2100555, 0.5661116, 0.2238329;
  (44-54, Female) 0.05907173, 0.49849307, 0.44243520;
  (54-64, Female) 0.1825019, 0.5099362, 0.3075619;
  (64-74, Female) 0.3372297, 0.4131177, 0.2496527;
  (18-24, Male) 0.1431447, 0.5580190, 0.2988363;
  (24-34, Male) 0.1973314, 0.5272861, 0.2753825;
  (34-44, Male) 0.1550388, 0.6666667, 0.1782946;
  (44-54, Male) 0.1159565, 0.5144420, 0.3696015;
  (54-64, Male) 0.2527735, 0.4497580, 0.2974685;
  (64-74, Male) 0.3098434, 0.5346756, 0.1554810;
}
probability ( SocioeconomicStatus | Age, BodyMassIndex, EducationLevel, PhysicalActivity, Sex, SmokerProfile ) {
  (18-24, Normal, 1, Insufficiently Active, Female, Ex_Smoker) 0.3333333, 0.3333333, 0.3333333;
  (24-34, Normal, 1, Insufficiently Active, Female, Ex_Smoker) 0.3333333, 0.3333333, 0.3333333;
  (34-44, Normal, 1, Insufficiently Active, Female, Ex_Smoker) 0.7777778, 0.1111111, 0.1111111;
  (44-54, Normal, 1, Insufficiently Active, Female, Ex_Smoker) 0.3333333, 0.3333333, 0.3333333;
  (54-64, Normal, 1, Insufficiently Active, Female, Ex_Smoker) 0.86666667, 0.06666667, 0.06666667;
  (64-74, Normal, 1, Insufficiently Active, Female, Ex_Smoker) 0.3333333, 0.3333333, 0.3333333;
  (18-24, Obese, 1, Insufficiently Active, Female, Ex_Smoker) 0.4151748, 0.4151748, 0.1696505;
  (24-34, Obese, 1, Insufficiently Active, Female, Ex_Smoker) 0.05220884, 0.31726908, 0.63052209;
  (34-44, Obese, 1, Insufficiently Active, Female, Ex_Smoker) 0.3333333, 0.3333333, 0.3333333;
  (44-54, Obese, 1, Insufficiently Active, Female, Ex_Smoker) 0.3333333, 0.3333333, 0.3333333;
  (54-64, Obese, 1, Insufficiently Active, Female, Ex_Smoker) 0.08333333, 0.58333333, 0.33333333;
  (64-74, Obese, 1, Insufficiently Active, Female, Ex_Smoker) 0.1666667, 0.1666667, 0.6666667;
  (18-24, Overweight, 1, Insufficiently Active, Female, Ex_Smoker) 0.7777778, 0.1111111, 0.1111111;
  (24-34, Overweight, 1, Insufficiently Active, Female, Ex_Smoker) 0.3333333, 0.3333333, 0.3333333;
  (34-44, Overweight, 1, Insufficiently Active, Female, Ex_Smoker) 0.4899950, 0.3581699, 0.1518351;
  (44-54, Overweight, 1, Insufficiently Active, Female, Ex_Smoker) 0.05310971, 0.33403215, 0.61285814;
  (54-64, Overweight, 1, Insufficiently Active, Female, Ex_Smoker) 0.6666667, 0.1666667, 0.1666667;
  (64-74, Overweight, 1, Insufficiently Active, Female, Ex_Smoker) 0.3333333, 0.3333333, 0.3333333;
  (18-24, Underweight, 1, Insufficiently Active, Female, Ex_Smoker) 0.5129431, 0.3647949, 0.1222620;
  (24-34, Underweight, 1, Insufficiently Active, Female, Ex_Smoker) 0.04980843, 0.24521073, 0.70498084;
  (34-44, Underweight, 1, Insufficiently Active, Female, Ex_Smoker) 0.92592593, 0.03703704, 0.03703704;
  (44-54, Underweight, 1, Insufficiently Active, Female, Ex_Smoker) 0.3333333, 0.3333333, 0.3333333;
  (54-64, Underweight, 1, Insufficiently Active, Female, Ex_Smoker) 0.4658061, 0.3934225, 0.1407715;
  (64-74, Underweight, 1, Insufficiently Active, Female, Ex_Smoker) 0.05625879, 0.29676512, 0.64697609;
  (18-24, Normal, 2, Insufficiently Active, Female, Ex_Smoker) 0.5144654, 0.3559748, 0.1295597;
  (24-34, Normal, 2, Insufficiently Active, Female, Ex_Smoker) 0.07017544, 0.07017544, 0.85964912;
  (34-44, Normal, 2, Insufficiently Active, Female, Ex_Smoker) 0.3333333, 0.3333333, 0.3333333;
  (44-54, Normal, 2, Insufficiently Active, Female, Ex_Smoker) 0.3333333, 0.3333333, 0.3333333;
  (54-64, Normal, 2, Insufficiently Active, Female, Ex_Smoker) 0.4515428, 0.4033029, 0.1451543;
  (64-74, Normal, 2, Insufficiently Active, Female, Ex_Smoker) 0.06547619, 0.28869048, 0.64583333;
  (18-24, Obese, 2, Insufficiently Active, Female, Ex_Smoker) 0.3333333, 0.3333333, 0.3333333;
  (24-34, Obese, 2, Insufficiently Active, Female, Ex_Smoker) 0.3333333, 0.3333333, 0.3333333;
  (34-44, Obese, 2, Insufficiently Active, Female, Ex_Smoker) 0.4102564, 0.4871795, 0.1025641;
  (44-54, Obese, 2, Insufficiently Active, Female, Ex_Smoker) 0.6666667, 0.1666667, 0.1666667;
  (54-64, Obese, 2, Insufficiently Active, Female, Ex_Smoker) 0.6666667, 0.1666667, 0.1666667;
  (64-74, Obese, 2, Insufficiently Active, Female, Ex_Smoker) 0.3333333, 0.3333333, 0.3333333;
  (18-24, Overweight, 2, Insufficiently Active, Female, Ex_Smoker) 0.4885881, 0.3663747, 0.1450372;
  (24-34, Overweight, 2, Insufficiently Active, Female, Ex_Smoker) 0.08465608, 0.30007559, 0.61526833;
  (34-44, Overweight, 2, Insufficiently Active, Female, Ex_Smoker) 0.3333333, 0.3333333, 0.3333333;
  (44-54, Overweight, 2, Insufficiently Active, Female, Ex_Smoker) 0.3333333, 0.3333333, 0.3333333;
  (54-64, Overweight, 2, Insufficiently Active, Female, Ex_Smoker) 0.01666667, 0.66666667, 0.31666667;
  (64-74, Overweight, 2, Insufficiently Active, Female, Ex_Smoker) 0.02777778, 0.02777778, 0.94444444;
  (18-24, Underweight, 2, Insufficiently Active, Female, Ex_Smoker) 0.7777778, 0.1111111, 0.1111111;
  (24-34, Underweight, 2, Insufficiently Active, Female, Ex_Smoker) 0.3333333, 0.3333333, 0.3333333;
  (34-44, Underweight, 2, Insufficiently Active, Female, Ex_Smoker) 0.4368150, 0.4010316, 0.1621534;
  (44-54, Underweight, 2, Insufficiently Active, Female, Ex_Smoker) 0.06405229, 0.22483660, 0.71111111;
  (54-64, Underweight, 2, Insufficiently Active, Female, Ex_Smoker) 0.86666667, 0.06666667, 0.06666667;
  (64-74, Underweight, 2, Insufficiently Active, Female, Ex_Smoker) 0.3333333, 0.3333333, 0.3333333;
  (18-24, Normal, 3, Insufficiently Active, Female, Ex_Smoker) 0.3333333, 0.3333333, 0.3333333;
  (24-34, Normal, 3, Insufficiently Active, Female, Ex_Smoker) 0.3333333, 0.3333333, 0.3333333;
  (34-44, Normal, 3, Insufficiently Active, Female, Ex_Smoker) 0.4157531, 0.4108810, 0.1733658;
  (44-54, Normal, 3, Insufficiently Active, Female, Ex_Smoker) 0.01139601, 0.35327635, 0.63532764;
  (54-64, Normal, 3, Insufficiently Active, Female, Ex_Smoker) 0.7777778, 0.1111111, 0.1111111;
  (64-74, Normal, 3, Insufficiently Active, Female, Ex_Smoker) 0.3333333, 0.3333333, 0.3333333;
  (18-24, Obese, 3, Insufficiently Active, Female, Ex_Smoker) 0.4682955, 0.3670739, 0.1646306;
  (24-34, Obese, 3, Insufficiently Active, Female, Ex_Smoker) 0.06802721, 0.29251701, 0.63945578;
  (34-44, Obese, 3, Insufficiently Active, Female, Ex_Smoker) 0.6666667, 0.1666667, 0.1666667;
  (44-54, Obese, 3, Insufficiently Active, Female, Ex_Smoker) 0.3333333, 0.3333333, 0.3333333;
  (54-64, Obese, 3, Insufficiently Active, Female, Ex_Smoker) 0.4821866, 0.3566998, 0.1611135;
  (64-74, Obese, 3, Insufficiently Active, Female, Ex_Smoker) 0.08300908, 0.32036316, 0.59662776;
  (18-24, Overweight, 3, Insufficiently Active, Female, Ex_Smoker) 0.3333333, 0.3333333, 0.3333333;
  (24-34, Overweight, 3, Insufficiently Active, Female, Ex_Smoker) 0.3333333, 0.3333333, 0.3333333;
  (34-44, Overweight, 3, Insufficiently Active, Female, Ex_Smoker) 0.2820513, 0.4743590, 0.2435897;
  (44-54, Overweight, 3, Insufficiently Active, Female, Ex_Smoker) 0.08333333, 0.33333333, 0.58333333;
  (54-64, Overweight, 3, Insufficiently Active, Female, Ex_Smoker) 0.92592593, 0.03703704, 0.03703704;
  (64-74, Overweight, 3, Insufficiently Active, Female, Ex_Smoker) 0.3333333, 0.3333333, 0.3333333;
  (18-24, Underweight, 3, Insufficiently Active, Female, Ex_Smoker) 0.4324648, 0.4126984, 0.1548368;
  (24-34, Underweight, 3, Insufficiently Active, Female, Ex_Smoker) 0.06491228, 0.28070175, 0.65438596;
  (34-44, Underweight, 3, Insufficiently Active, Female, Ex_Smoker) 0.3333333, 0.3333333, 0.3333333;
  (44-54, Underweight, 3, Insufficiently Active, Female, Ex_Smoker) 0.3333333, 0.3333333, 0.3333333;
  (54-64, Underweight, 3, Insufficiently Active, Female, Ex_Smoker) 0.02777778, 0.69444444, 0.27777778;
  (64-74, Underweight, 3, Insufficiently Active, Female, Ex_Smoker) 0.06666667, 0.06666667, 0.86666667;
  (18-24, Normal, 1, Regularly Active, Female, Ex_Smoker) 0.6666667, 0.1666667, 0.1666667;
  (24-34, Normal, 1, Regularly Active, Female, Ex_Smoker) 0.3333333, 0.3333333, 0.3333333;
  (34-44, Normal, 1, Regularly Active, Female, Ex_Smoker) 0.4674797, 0.4308943, 0.1016260;
  (44-54, Normal, 1, Regularly Active, Female, Ex_Smoker) 0.04761905, 0.33333333, 0.61904762;
  (54-64, Normal, 1, Regularly Active, Female, Ex_Smoker) 0.94871795, 0.02564103, 0.02564103;
  (64-74, Normal, 1, Regularly Active, Female, Ex_Smoker) 0.3333333, 0.3333333, 0.3333333;
  (18-24, Obese, 1, Regularly Active, Female, Ex_Smoker) 0.4812362, 0.3789183, 0.1398455;
  (24-34, Obese, 1, Regularly Active, Female, Ex_Smoker) 0.06254949, 0.35946160, 0.57798892;
  (34-44, Obese, 1, Regularly Active, Female, Ex_Smoker) 0.3333333, 0.3333333, 0.3333333;
  (44-54, Obese, 1, Regularly Active, Female, Ex_Smoker) 0.3333333, 0.3333333, 0.3333333;
  (54-64, Obese, 1, Regularly Active, Female, Ex_Smoker) 0.006666667, 0.746666667, 0.246666667;
  (64-74, Obese, 1, Regularly Active, Female, Ex_Smoker) 0.01960784, 0.19607843, 0.78431373;
  (18-24, Overweight, 1, Regularly Active, Female, Ex_Smoker) 0.58333333, 0.33333333, 0.08333333;
  (24-34, Overweight, 1, Regularly Active, Female, Ex_Smoker) 0.3333333, 0.3333333, 0.3333333;
  (34-44, Overweight, 1, Regularly Active, Female, Ex_Smoker) 0.4852899, 0.3730363, 0.1416738;
  (44-54, Overweight, 1, Regularly Active, Female, Ex_Smoker) 0.03581267, 0.38292011, 0.58126722;
  (54-64, Overweight, 1, Regularly Active, Female, Ex_Smoker) 0.3333333, 0.3333333, 0.3333333;
  (64-74, Overweight, 1, Regularly Active, Female, Ex_Smoker) 0.3333333, 0.3333333, 0.3333333;
  (18-24, Underweight, 1, Regularly Active, Female, Ex_Smoker) 0.5007399, 0.3664447, 0.1328154;
  (24-34, Underweight, 1, Regularly Active, Female, Ex_Smoker) 0.02064897, 0.33923304, 0.64011799;
  (34-44, Underweight, 1, Regularly Active, Female, Ex_Smoker) 0.79166667, 0.16666667, 0.04166667;
  (44-54, Underweight, 1, Regularly Active, Female, Ex_Smoker) 0.3333333, 0.3333333, 0.3333333;
  (54-64, Underweight, 1, Regularly Active, Female, Ex_Smoker) 0.4798535, 0.3737043, 0.1464422;
  (64-74, Underweight, 1, Regularly Active, Female, Ex_Smoker) 0.08576998, 0.29629630, 0.61793372;
  (18-24, Normal, 2, Regularly Active, Female, Ex_Smoker) 0.5337691, 0.3432929, 0.1229381;
  (24-34, Normal, 2, Regularly Active, Female, Ex_Smoker) 0.07918969, 0.31675875, 0.60405157;
  (34-44, Normal, 2, Regularly Active, Female, Ex_Smoker) 0.88888889, 0.05555556, 0.05555556;
  (44-54, Normal, 2, Regularly Active, Female, Ex_Smoker) 0.3333333, 0.3333333, 0.3333333;
  (54-64, Normal, 2, Regularly Active, Female, Ex_Smoker) 0.5063768, 0.3548514, 0.1387718;
  (64-74, Normal, 2, Regularly Active, Female, Ex_Smoker) 0.04190119, 0.33458412, 0.62351470;
  (18-24, Obese, 2, Regularly Active, Female, Ex_Smoker) 0.3333333, 0.3333333, 0.3333333;
  (24-34, Obese, 2, Regularly Active, Female, Ex_Smoker) 0.3333333, 0.3333333, 0.3333333;
  (34-44, Obese, 2, Regularly Active, Female, Ex_Smoker) 0.5952381, 0.3095238, 0.0952381;
  (44-54, Obese, 2, Regularly Active, Female, Ex_Smoker) 0.1111111, 0.4444444, 0.4444444;
  (54-64, Obese, 2, Regularly Active, Female, Ex_Smoker) 0.83333333, 0.08333333, 0.08333333;
  (64-74, Obese, 2, Regularly Active, Female, Ex_Smoker) 0.3333333, 0.3333333, 0.3333333;
  (18-24, Overweight, 2, Regularly Active, Female, Ex_Smoker) 0.4527713, 0.3942233, 0.1530055;
  (24-34, Overweight, 2, Regularly Active, Female, Ex_Smoker) 0.1194969, 0.2893082, 0.5911950;
  (34-44, Overweight, 2, Regularly Active, Female, Ex_Smoker) 0.3333333, 0.3333333, 0.3333333;
  (44-54, Overweight, 2, Regularly Active, Female, Ex_Smoker) 0.3333333, 0.3333333, 0.3333333;
  (54-64, Overweight, 2, Regularly Active, Female, Ex_Smoker) 0.08333333, 0.33333333, 0.58333333;
  (64-74, Overweight, 2, Regularly Active, Female, Ex_Smoker) 0.1666667, 0.1666667, 0.6666667;
  (18-24, Underweight, 2, Regularly Active, Female, Ex_Smoker) 0.94871795, 0.02564103, 0.02564103;
  (24-34, Underweight, 2, Regularly Active, Female, Ex_Smoker) 0.3333333, 0.3333333, 0.3333333;
  (34-44, Underweight, 2, Regularly Active, Female, Ex_Smoker) 0.5138722, 0.3603582, 0.1257696;
  (44-54, Underweight, 2, Regularly Active, Female, Ex_Smoker) 0.04145516, 0.34348562, 0.61505922;
  (54-64, Underweight, 2, Regularly Active, Female, Ex_Smoker) 0.92592593, 0.03703704, 0.03703704;
  (64-74, Underweight, 2, Regularly Active, Female, Ex_Smoker) 0.3333333, 0.3333333, 0.3333333;
  (18-24, Normal, 3, Regularly Active, Female, Ex_Smoker) 0.90476190, 0.04761905, 0.04761905;
  (24-34, Normal, 3, Regularly Active, Female, Ex_Smoker) 0.6666667, 0.1666667, 0.1666667;
  (34-44, Normal, 3, Regularly Active, Female, Ex_Smoker) 0.4978078, 0.3598898, 0.1423024;
  (44-54, Normal, 3, Regularly Active, Female, Ex_Smoker) 0.04396135, 0.30048309, 0.65555556;
  (54-64, Normal, 3, Regularly Active, Female, Ex_Smoker) 0.83333333, 0.08333333, 0.08333333;
  (64-74, Normal, 3, Regularly Active, Female, Ex_Smoker) 0.3333333, 0.3333333, 0.3333333;
  (18-24, Obese, 3, Regularly Active, Female, Ex_Smoker) 0.5381944, 0.3548611, 0.1069444;
  (24-34, Obese, 3, Regularly Active, Female, Ex_Smoker) 0.07575758, 0.25757576, 0.66666667;
  (34-44, Obese, 3, Regularly Active, Female, Ex_Smoker) 0.93333333, 0.03333333, 0.03333333;
  (44-54, Obese, 3, Regularly Active, Female, Ex_Smoker) 0.3333333, 0.3333333, 0.3333333;
  (54-64, Obese, 3, Regularly Active, Female, Ex_Smoker) 0.4469625, 0.4176896, 0.1353478;
  (64-74, Obese, 3, Regularly Active, Female, Ex_Smoker) 0.05333333, 0.27333333, 0.67333333;
  (18-24, Overweight, 3, Regularly Active, Female, Ex_Smoker) 0.6666667, 0.1666667, 0.1666667;
  (24-34, Overweight, 3, Regularly Active, Female, Ex_Smoker) 0.3333333, 0.3333333, 0.3333333;
  (34-44, Overweight, 3, Regularly Active, Female, Ex_Smoker) 0.4806202, 0.3992248, 0.1201550;
  (44-54, Overweight, 3, Regularly Active, Female, Ex_Smoker) 0.06666667, 0.46666667, 0.46666667;
  (54-64, Overweight, 3, Regularly Active, Female, Ex_Smoker) 0.92592593, 0.03703704, 0.03703704;
  (64-74, Overweight, 3, Regularly Active, Female, Ex_Smoker) 0.3333333, 0.3333333, 0.3333333;
  (18-24, Underweight, 3, Regularly Active, Female, Ex_Smoker) 0.5060477, 0.3561010, 0.1378513;
  (24-34, Underweight, 3, Regularly Active, Female, Ex_Smoker) 0.07026144, 0.29575163, 0.63398693;
  (34-44, Underweight, 3, Regularly Active, Female, Ex_Smoker) 0.3333333, 0.3333333, 0.3333333;
  (44-54, Underweight, 3, Regularly Active, Female, Ex_Smoker) 0.3333333, 0.3333333, 0.3333333;
  (54-64, Underweight, 3, Regularly Active, Female, Ex_Smoker) 0.02564103, 0.79487179, 0.17948718;
  (64-74, Underweight, 3, Regularly Active, Female, Ex_Smoker) 0.06666667, 0.06666667, 0.86666667;
  (18-24, Normal, 1, Insufficiently Active, Male, Ex_Smoker) 0.3333333, 0.3333333, 0.3333333;
  (24-34, Normal, 1, Insufficiently Active, Male, Ex_Smoker) 0.3333333, 0.3333333, 0.3333333;
  (34-44, Normal, 1, Insufficiently Active, Male, Ex_Smoker) 0.3333333, 0.3333333, 0.3333333;
  (44-54, Normal, 1, Insufficiently Active, Male, Ex_Smoker) 0.3333333, 0.3333333, 0.3333333;
  (54-64, Normal, 1, Insufficiently Active, Male, Ex_Smoker) 0.3333333, 0.3333333, 0.3333333;
  (64-74, Normal, 1, Insufficiently Active, Male, Ex_Smoker) 0.4230118, 0.4585448, 0.1184433;
  (18-24, Obese, 1, Insufficiently Active, Male, Ex_Smoker) 0.1111111, 0.7777778, 0.1111111;
  (24-34, Obese, 1, Insufficiently Active, Male, Ex_Smoker) 0.08974359, 0.28205128, 0.62820513;
  (34-44, Obese, 1, Insufficiently Active, Male, Ex_Smoker) 0.3333333, 0.3333333, 0.3333333;
  (44-54, Obese, 1, Insufficiently Active, Male, Ex_Smoker) 0.3333333, 0.3333333, 0.3333333;
  (54-64, Obese, 1, Insufficiently Active, Male, Ex_Smoker) 0.3333333, 0.3333333, 0.3333333;
  (64-74, Obese, 1, Insufficiently Active, Male, Ex_Smoker) 0.1666667, 0.6666667, 0.1666667;
  (18-24, Overweight, 1, Insufficiently Active, Male, Ex_Smoker) 0.6666667, 0.1666667, 0.1666667;
  (24-34, Overweight, 1, Insufficiently Active, Male, Ex_Smoker) 0.4413146, 0.3688799, 0.1898055;
  (34-44, Overweight, 1, Insufficiently Active, Male, Ex_Smoker) 0.3333333, 0.3333333, 0.3333333;
  (44-54, Overweight, 1, Insufficiently Active, Male, Ex_Smoker) 0.04786771, 0.24107920, 0.71105309;
  (54-64, Overweight, 1, Insufficiently Active, Male, Ex_Smoker) 0.3333333, 0.3333333, 0.3333333;
  (64-74, Overweight, 1, Insufficiently Active, Male, Ex_Smoker) 0.4882629, 0.3685446, 0.1431925;
  (18-24, Underweight, 1, Insufficiently Active, Male, Ex_Smoker) 0.4861111, 0.3611111, 0.1527778;
  (24-34, Underweight, 1, Insufficiently Active, Male, Ex_Smoker) 0.05376344, 0.23118280, 0.71505376;
  (34-44, Underweight, 1, Insufficiently Active, Male, Ex_Smoker) 0.6666667, 0.1666667, 0.1666667;
  (44-54, Underweight, 1, Insufficiently Active, Male, Ex_Smoker) 0.3991541, 0.4110494, 0.1897965;
  (54-64, Underweight, 1, Insufficiently Active, Male, Ex_Smoker) 0.4711111, 0.3377778, 0.1911111;
  (64-74, Underweight, 1, Insufficiently Active, Male, Ex_Smoker) 0.08259587, 0.24188791, 0.67551622;
  (18-24, Normal, 2, Insufficiently Active, Male, Ex_Smoker) 0.4761905, 0.3333333, 0.1904762;
  (24-34, Normal, 2, Insufficiently Active, Male, Ex_Smoker) 0.1944444, 0.1944444, 0.6111111;
  (34-44, Normal, 2, Insufficiently Active, Male, Ex_Smoker) 0.3333333, 0.3333333, 0.3333333;
  (44-54, Normal, 2, Insufficiently Active, Male, Ex_Smoker) 0.3979266, 0.3787879, 0.2232855;
  (54-64, Normal, 2, Insufficiently Active, Male, Ex_Smoker) 0.3333333, 0.1904762, 0.4761905;
  (64-74, Normal, 2, Insufficiently Active, Male, Ex_Smoker) 0.05691057, 0.30081301, 0.64227642;
  (18-24, Obese, 2, Insufficiently Active, Male, Ex_Smoker) 0.3333333, 0.3333333, 0.3333333;
  (24-34, Obese, 2, Insufficiently Active, Male, Ex_Smoker) 0.3666667, 0.3666667, 0.2666667;
  (34-44, Obese, 2, Insufficiently Active, Male, Ex_Smoker) 0.3333333, 0.3333333, 0.3333333;
  (44-54, Obese, 2, Insufficiently Active, Male, Ex_Smoker) 0.1666667, 0.1666667, 0.6666667;
  (54-64, Obese, 2, Insufficiently Active, Male, Ex_Smoker) 0.3333333, 0.3333333, 0.3333333;
  (64-74, Obese, 2, Insufficiently Active, Male, Ex_Smoker) 0.4455870, 0.4121680, 0.1422451;
  (18-24, Overweight, 2, Insufficiently Active, Male, Ex_Smoker) 0.3333333, 0.3333333, 0.3333333;
  (24-34, Overweight, 2, Insufficiently Active, Male, Ex_Smoker) 0.07575758, 0.24621212, 0.67803030;
  (34-44, Overweight, 2, Insufficiently Active, Male, Ex_Smoker) 0.3333333, 0.3333333, 0.3333333;
  (44-54, Overweight, 2, Insufficiently Active, Male, Ex_Smoker) 0.08333333, 0.83333333, 0.08333333;
  (54-64, Overweight, 2, Insufficiently Active, Male, Ex_Smoker) 0.3333333, 0.3333333, 0.3333333;
  (64-74, Overweight, 2, Insufficiently Active, Male, Ex_Smoker) 0.04166667, 0.29166667, 0.66666667;
  (18-24, Underweight, 2, Insufficiently Active, Male, Ex_Smoker) 0.3333333, 0.3333333, 0.3333333;
  (24-34, Underweight, 2, Insufficiently Active, Male, Ex_Smoker) 0.3975225, 0.3890766, 0.2134009;
  (34-44, Underweight, 2, Insufficiently Active, Male, Ex_Smoker) 0.3333333, 0.4102564, 0.2564103;
  (44-54, Underweight, 2, Insufficiently Active, Male, Ex_Smoker) 0.07843137, 0.23809524, 0.68347339;
  (54-64, Underweight, 2, Insufficiently Active, Male, Ex_Smoker) 0.6666667, 0.1666667, 0.1666667;
  (64-74, Underweight, 2, Insufficiently Active, Male, Ex_Smoker) 0.3502825, 0.4774011, 0.1723164;
  (18-24, Normal, 3, Insufficiently Active, Male, Ex_Smoker) 0.3333333, 0.3333333, 0.3333333;
  (24-34, Normal, 3, Insufficiently Active, Male, Ex_Smoker) 0.3542484, 0.4091503, 0.2366013;
  (34-44, Normal, 3, Insufficiently Active, Male, Ex_Smoker) 0.3333333, 0.3333333, 0.3333333;
  (44-54, Normal, 3, Insufficiently Active, Male, Ex_Smoker) 0.04575163, 0.28104575, 0.67320261;
  (54-64, Normal, 3, Insufficiently Active, Male, Ex_Smoker) 0.3333333, 0.3333333, 0.3333333;
  (64-74, Normal, 3, Insufficiently Active, Male, Ex_Smoker) 0.4420290, 0.3333333, 0.2246377;
  (18-24, Obese, 3, Insufficiently Active, Male, Ex_Smoker) 0.1666667, 0.6666667, 0.1666667;
  (24-34, Obese, 3, Insufficiently Active, Male, Ex_Smoker) 0.02873563, 0.30459770, 0.66666667;
  (34-44, Obese, 3, Insufficiently Active, Male, Ex_Smoker) 0.3333333, 0.3333333, 0.3333333;
  (44-54, Obese, 3, Insufficiently Active, Male, Ex_Smoker) 0.4281640, 0.3971480, 0.1746881;
  (54-64, Obese, 3, Insufficiently Active, Male, Ex_Smoker) 0.6666667, 0.1666667, 0.1666667;
  (64-74, Obese, 3, Insufficiently Active, Male, Ex_Smoker) 0.03297683, 0.23351159, 0.73351159;
  (18-24, Overweight, 3, Insufficiently Active, Male, Ex_Smoker) 0.3333333, 0.3333333, 0.3333333;
  (24-34, Overweight, 3, Insufficiently Active, Male, Ex_Smoker) 0.4385965, 0.2280702, 0.3333333;
  (34-44, Overweight, 3, Insufficiently Active, Male, Ex_Smoker) 0.3333333, 0.3333333, 0.3333333;
  (44-54, Overweight, 3, Insufficiently Active, Male, Ex_Smoker) 0.3333333, 0.3333333, 0.3333333;
  (54-64, Overweight, 3, Insufficiently Active, Male, Ex_Smoker) 0.3333333, 0.3333333, 0.3333333;
  (64-74, Overweight, 3, Insufficiently Active, Male, Ex_Smoker) 0.4807256, 0.3746032, 0.1446712;
  (18-24, Underweight, 3, Insufficiently Active, Male, Ex_Smoker) 0.1111111, 0.4444444, 0.4444444;
  (24-34, Underweight, 3, Insufficiently Active, Male, Ex_Smoker) 0.09027778, 0.15277778, 0.75694444;
  (34-44, Underweight, 3, Insufficiently Active, Male, Ex_Smoker) 0.3333333, 0.3333333, 0.3333333;
  (44-54, Underweight, 3, Insufficiently Active, Male, Ex_Smoker) 0.1111111, 0.1111111, 0.7777778;
  (54-64, Underweight, 3, Insufficiently Active, Male, Ex_Smoker) 0.3333333, 0.3333333, 0.3333333;
  (64-74, Underweight, 3, Insufficiently Active, Male, Ex_Smoker) 0.3333333, 0.3333333, 0.3333333;
  (18-24, Normal, 1, Regularly Active, Male, Ex_Smoker) 0.3333333, 0.3333333, 0.3333333;
  (24-34, Normal, 1, Regularly Active, Male, Ex_Smoker) 0.5333333, 0.2850575, 0.1816092;
  (34-44, Normal, 1, Regularly Active, Male, Ex_Smoker) 0.58333333, 0.08333333, 0.33333333;
  (44-54, Normal, 1, Regularly Active, Male, Ex_Smoker) 0.05555556, 0.38888889, 0.55555556;
  (54-64, Normal, 1, Regularly Active, Male, Ex_Smoker) 0.6666667, 0.1666667, 0.1666667;
  (64-74, Normal, 1, Regularly Active, Male, Ex_Smoker) 0.5193480, 0.3452163, 0.1354357;
  (18-24, Obese, 1, Regularly Active, Male, Ex_Smoker) 0.1111111, 0.4444444, 0.4444444;
  (24-34, Obese, 1, Regularly Active, Male, Ex_Smoker) 0.05449937, 0.20659062, 0.73891001;
  (34-44, Obese, 1, Regularly Active, Male, Ex_Smoker) 0.3333333, 0.3333333, 0.3333333;
  (44-54, Obese, 1, Regularly Active, Male, Ex_Smoker) 0.08333333, 0.58333333, 0.33333333;
  (54-64, Obese, 1, Regularly Active, Male, Ex_Smoker) 0.3333333, 0.3333333, 0.3333333;
  (64-74, Obese, 1, Regularly Active, Male, Ex_Smoker) 0.04166667, 0.16666667, 0.79166667;
  (18-24, Overweight, 1, Regularly Active, Male, Ex_Smoker) 0.3333333, 0.3333333, 0.3333333;
  (24-34, Overweight, 1, Regularly Active, Male, Ex_Smoker) 0.4056738, 0.4056738, 0.1886525;
  (34-44, Overweight, 1, Regularly Active, Male, Ex_Smoker) 0.3703704, 0.2592593, 0.3703704;
  (44-54, Overweight, 1, Regularly Active, Male, Ex_Smoker) 0.009803922, 0.215686275, 0.774509804;
  (54-64, Overweight, 1, Regularly Active, Male, Ex_Smoker) 0.3333333, 0.3333333, 0.3333333;
  (64-74, Overweight, 1, Regularly Active, Male, Ex_Smoker) 0.2246377, 0.6376812, 0.1376812;
  (18-24, Underweight, 1, Regularly Active, Male, Ex_Smoker) 0.3827160, 0.4938272, 0.1234568;
  (24-34, Underweight, 1, Regularly Active, Male, Ex_Smoker) 0.04991948, 0.27697262, 0.67310789;
  (34-44, Underweight, 1, Regularly Active, Male, Ex_Smoker) 0.3333333, 0.3333333, 0.3333333;
  (44-54, Underweight, 1, Regularly Active, Male, Ex_Smoker) 0.4503064, 0.3831601, 0.1665334;
  (54-64, Underweight, 1, Regularly Active, Male, Ex_Smoker) 0.3809524, 0.5238095, 0.0952381;
  (64-74, Underweight, 1, Regularly Active, Male, Ex_Smoker) 0.03776683, 0.24958949, 0.71264368;
  (18-24, Normal, 2, Regularly Active, Male, Ex_Smoker) 0.4888889, 0.2888889, 0.2222222;
  (24-34, Normal, 2, Regularly Active, Male, Ex_Smoker) 0.05624143, 0.25171468, 0.69204390;
  (34-44, Normal, 2, Regularly Active, Male, Ex_Smoker) 0.7777778, 0.1111111, 0.1111111;
  (44-54, Normal, 2, Regularly Active, Male, Ex_Smoker) 0.4734546, 0.3626982, 0.1638472;
  (54-64, Normal, 2, Regularly Active, Male, Ex_Smoker) 0.3809524, 0.3809524, 0.2380952;
  (64-74, Normal, 2, Regularly Active, Male, Ex_Smoker) 0.05167693, 0.25701574, 0.69130732;
  (18-24, Obese, 2, Regularly Active, Male, Ex_Smoker) 0.3333333, 0.3333333, 0.3333333;
  (24-34, Obese, 2, Regularly Active, Male, Ex_Smoker) 0.41666667, 0.54166667, 0.04166667;
  (34-44, Obese, 2, Regularly Active, Male, Ex_Smoker) 0.3333333, 0.3333333, 0.3333333;
