network unknown {
}
variable AGE {
  type discrete [ 4 ] { <30, 30-50, 51-70, 70+ };
}
variable LIFESAT {
  type discrete [ 2 ] { Yes, No };
}
variable TRUST {
  type discrete [ 2 ] { Yes, No };
}
variable SATMEAS {
  type discrete [ 2 ] { Yes, No };
}
variable HEALTH {
  type discrete [ 3 ] { Too Health, Too Economy, Balance };
}
variable JUSTIFIED {
  type discrete [ 2 ] { Yes, No };
}
variable PERSONALFIN {
  type discrete [ 3 ] { Suffer, Not Suffer, Don't know };
}
variable COUNTRYFIN {
  type discrete [ 3 ] { Suffer, Not Suffer, Don't know };
}
variable INFO {
  type discrete [ 5 ] { Television, Press, Radio, Website, Social Network };
}
variable COPING {
  type discrete [ 3 ] { Easy, Medium, Difficult };
}
variable POLITICS {
  type discrete [ 4 ] { Left, Centre, Right, No Answer };
}
variable OCCUPATION {
  type discrete [ 2 ] { Not Working, Working };
}
variable GENDER {
  type discrete [ 2 ] { Male, Female };
}
variable COMMUNITY {
  type discrete [ 3 ] { Rural, Small/Medium, Large };
}
variable CLASS {
  type discrete [ 4 ] { Working, Lower, Middle, Upper };
}
probability ( AGE | LIFESAT, JUSTIFIED, PERSONALFIN ) {
  (Yes, Yes, Suffer) 0.18945015, 0.37158248, 0.34170139, 0.09726598;
  (No, Yes, Suffer) 0.1118166, 0.3654321, 0.4155203, 0.1072310;
  (Yes, No, Suffer) 0.22341376, 0.42716711, 0.29356568, 0.05585344;
  (No, No, Suffer) 0.14681790, 0.39760555, 0.38122243, 0.07435413;
  (Yes, Yes, Not Suffer) 0.1355511, 0.2747881, 0.4002949, 0.1893660;
  (No, Yes, Not Suffer) 0.0885214, 0.2577821, 0.4250973, 0.2285992;
  (Yes, No, Not Suffer) 0.21815408, 0.36079329, 0.32799390, 0.09305873;
  (No, No, Not Suffer) 0.1703163, 0.3649635, 0.3576642, 0.1070560;
  (Yes, Yes, Don't know) 0.1821248, 0.2866779, 0.3558179, 0.1753794;
  (No, Yes, Don't know) 0.088, 0.240, 0.352, 0.320;
  (Yes, No, Don't know) 0.26666667, 0.41904762, 0.24761905, 0.06666667;
  (No, No, Don't know) 0.1639344, 0.3606557, 0.3442623, 0.1311475;
}
probability ( LIFESAT ) {
  table 0.8048411, 0.1951589;
}
probability ( TRUST | LIFESAT, SATMEAS, JUSTIFIED, COPING ) {
  (Yes, Yes, Yes, Easy) 0.8711159, 0.1288841;
  (No, Yes, Yes, Easy) 0.6402266, 0.3597734;
  (Yes, No, Yes, Easy) 0.713615, 0.286385;
  (No, No, Yes, Easy) 0.4899497, 0.5100503;
  (Yes, Yes, No, Easy) 0.7853107, 0.2146893;
  (No, Yes, No, Easy) 0.5396825, 0.4603175;
  (Yes, No, No, Easy) 0.6408602, 0.3591398;
  (No, No, No, Easy) 0.369863, 0.630137;
  (Yes, Yes, Yes, Medium) 0.8403345, 0.1596655;
  (No, Yes, Yes, Medium) 0.62634, 0.37366;
  (Yes, No, Yes, Medium) 0.6818801, 0.3181199;
  (No, No, Yes, Medium) 0.4583333, 0.5416667;
  (Yes, Yes, No, Medium) 0.8065217, 0.1934783;
  (No, Yes, No, Medium) 0.5307692, 0.4692308;
  (Yes, No, No, Medium) 0.5785814, 0.4214186;
  (No, No, No, Medium) 0.3900929, 0.6099071;
  (Yes, Yes, Yes, Difficult) 0.7836104, 0.2163896;
  (No, Yes, Yes, Difficult) 0.5925926, 0.4074074;
  (Yes, No, Yes, Difficult) 0.6456693, 0.3543307;
  (No, No, Yes, Difficult) 0.4817597, 0.5182403;
  (Yes, Yes, No, Difficult) 0.7201426, 0.2798574;
  (No, Yes, No, Difficult) 0.4577465, 0.5422535;
  (Yes, No, No, Difficult) 0.5406393, 0.4593607;
  (No, No, No, Difficult) 0.3144654, 0.6855346;
}
probability ( SATMEAS | LIFESAT, JUSTIFIED ) {
  (Yes, Yes) 0.7912986, 0.2087014;
  (No, Yes) 0.5641926, 0.4358074;
  (Yes, No) 0.3762999, 0.6237001;
  (No, No) 0.2316659, 0.7683341;
}
probability ( HEALTH | TRUST, SATMEAS, JUSTIFIED ) {
  (Yes, Yes, Yes) 0.3001538, 0.1286374, 0.5712088;
  (No, Yes, Yes) 0.3610315, 0.1776504, 0.4613181;
  (Yes, No, Yes) 0.3425543, 0.3940021, 0.2634436;
  (No, No, Yes) 0.3226644, 0.4870242, 0.1903114;
  (Yes, Yes, No) 0.4004666, 0.3258165, 0.2737170;
  (No, Yes, No) 0.3533569, 0.3939929, 0.2526502;
  (Yes, No, No) 0.5724401, 0.3131808, 0.1143791;
  (No, No, No) 0.4928395, 0.4064198, 0.1007407;
}
probability ( JUSTIFIED | LIFESAT ) {
  (Yes) 0.8534766, 0.1465234;
  (No) 0.6595006, 0.3404994;
}
probability ( PERSONALFIN | LIFESAT, HEALTH, COPING ) {
  (Yes, Too Health, Easy) 0.4422174, 0.5305355, 0.0272471;
  (No, Too Health, Easy) 0.63860370, 0.33264887, 0.02874743;
  (Yes, Too Economy, Easy) 0.46842878, 0.50465002, 0.02692119;
  (No, Too Economy, Easy) 0.64325843, 0.32865169, 0.02808989;
  (Yes, Balance, Easy) 0.30910399, 0.66894566, 0.02195034;
  (No, Balance, Easy) 0.5148936, 0.4638298, 0.0212766;
  (Yes, Too Health, Medium) 0.55897010, 0.40614618, 0.03488372;
  (No, Too Health, Medium) 0.75593220, 0.20847458, 0.03559322;
  (Yes, Too Economy, Medium) 0.59052632, 0.38368421, 0.02578947;
  (No, Too Economy, Medium) 0.65677966, 0.30508475, 0.03813559;
  (Yes, Balance, Medium) 0.41080149, 0.55472565, 0.03447285;
  (No, Balance, Medium) 0.64159292, 0.29867257, 0.05973451;
  (Yes, Too Health, Difficult) 0.68190855, 0.29423459, 0.02385686;
  (No, Too Health, Difficult) 0.86056782, 0.11735016, 0.02208202;
  (Yes, Too Economy, Difficult) 0.65031847, 0.32356688, 0.02611465;
  (No, Too Economy, Difficult) 0.75922131, 0.20594262, 0.03483607;
  (Yes, Balance, Difficult) 0.59735683, 0.36740088, 0.03524229;
  (No, Balance, Difficult) 0.74203338, 0.23216995, 0.02579666;
}
probability ( COUNTRYFIN | HEALTH, JUSTIFIED, PERSONALFIN ) {
  (Too Health, Yes, Suffer) 0.976058145, 0.022445490, 0.001496366;
  (Too Economy, Yes, Suffer) 0.940303430, 0.057717678, 0.001978892;
  (Balance, Yes, Suffer) 0.973207091, 0.023166801, 0.003626108;
  (Too Health, No, Suffer) 0.9739039666, 0.0255741127, 0.0005219207;
  (Too Economy, No, Suffer) 0.881305638, 0.109050445, 0.009643917;
  (Balance, No, Suffer) 0.919786096, 0.073083779, 0.007130125;
  (Too Health, Yes, Not Suffer) 0.890524968, 0.103713188, 0.005761844;
  (Too Economy, Yes, Not Suffer) 0.84508393, 0.15107914, 0.00383693;
  (Balance, Yes, Not Suffer) 0.8551941, 0.1329636, 0.0118423;
  (Too Health, No, Not Suffer) 0.849802372, 0.144927536, 0.005270092;
  (Too Economy, No, Not Suffer) 0.644961240, 0.350387597, 0.004651163;
  (Balance, No, Not Suffer) 0.7704403, 0.2295597, 0.0000000;
  (Too Health, Yes, Don't know) 0.81603774, 0.04245283, 0.14150943;
  (Too Economy, Yes, Don't know) 0.7125, 0.0500, 0.2375;
  (Balance, Yes, Don't know) 0.72832370, 0.06069364, 0.21098266;
  (Too Health, No, Don't know) 0.8426966, 0.0000000, 0.1573034;
  (Too Economy, No, Don't know) 0.6170213, 0.0212766, 0.3617021;
  (Balance, No, Don't know) 0.6333333, 0.0000000, 0.3666667;
}
probability ( INFO | AGE, COPING ) {
  (<30, Easy) 0.34033613, 0.05042017, 0.03001200, 0.33613445, 0.24309724;
  (30-50, Easy) 0.46588694, 0.05513784, 0.05430242, 0.31913116, 0.10554163;
  (51-70, Easy) 0.63559322, 0.07503100, 0.06593634, 0.17031831, 0.05312112;
  (70+, Easy) 0.74751491, 0.10735586, 0.07107356, 0.05516899, 0.01888668;
  (<30, Medium) 0.35172832, 0.03699212, 0.03577926, 0.30018193, 0.27531837;
  (30-50, Medium) 0.48481129, 0.04571955, 0.03774164, 0.29150046, 0.14022706;
  (51-70, Medium) 0.67800118, 0.05854524, 0.06475458, 0.13512714, 0.06357185;
  (70+, Medium) 0.77887463, 0.07601185, 0.07996051, 0.05330701, 0.01184600;
  (<30, Difficult) 0.39964158, 0.02389486, 0.02150538, 0.24014337, 0.31481481;
  (30-50, Difficult) 0.55175316, 0.03590463, 0.03029453, 0.22608696, 0.15596073;
  (51-70, Difficult) 0.74305984, 0.04318322, 0.03824800, 0.11536089, 0.06014806;
  (70+, Difficult) 0.84003656, 0.04478976, 0.06215722, 0.02833638, 0.02468007;
}
probability ( COPING | LIFESAT, SATMEAS, JUSTIFIED ) {
  (Yes, Yes, Yes) 0.4910937, 0.3053082, 0.2035981;
  (No, Yes, Yes) 0.3137778, 0.2902222, 0.3960000;
  (Yes, No, Yes) 0.3836110, 0.3304818, 0.2859072;
  (No, No, Yes) 0.2289988, 0.2347526, 0.5362486;
  (Yes, Yes, No) 0.2574545, 0.3345455, 0.4080000;
  (No, Yes, No) 0.1320755, 0.2725367, 0.5953878;
  (Yes, No, No) 0.2040369, 0.3154892, 0.4804739;
  (No, No, No) 0.09228824, 0.20417193, 0.70353982;
}
probability ( POLITICS | GENDER, CLASS ) {
  (Male, Working) 0.31909548, 0.38190955, 0.24371859, 0.05527638;
  (Female, Working) 0.27841930, 0.43520657, 0.20297665, 0.08339749;
  (Male, Lower) 0.30337571, 0.40289347, 0.26435774, 0.02937308;
  (Female, Lower) 0.28825996, 0.43815514, 0.22886094, 0.04472397;
  (Male, Middle) 0.26501416, 0.39150142, 0.30609065, 0.03739377;
  (Female, Middle) 0.27442461, 0.43576797, 0.24342414, 0.04638328;
  (Male, Upper) 0.28493524, 0.31220177, 0.39263804, 0.01022495;
  (Female, Upper) 0.31515152, 0.34469697, 0.31590909, 0.02424242;
}
probability ( OCCUPATION | AGE, GENDER, CLASS ) {
  (<30, Male, Working) 0.4301802, 0.5698198;
  (30-50, Male, Working) 0.1965265, 0.8034735;
  (51-70, Male, Working) 0.5433759, 0.4566241;
  (70+, Male, Working) 0.92639138, 0.07360862;
  (<30, Female, Working) 0.6004415, 0.3995585;
  (30-50, Female, Working) 0.3485514, 0.6514486;
  (51-70, Female, Working) 0.6129653, 0.3870347;
  (70+, Female, Working) 0.93842035, 0.06157965;
  (<30, Male, Lower) 0.4893112, 0.5106888;
  (30-50, Male, Lower) 0.1589487, 0.8410513;
  (51-70, Male, Lower) 0.4597561, 0.5402439;
  (70+, Male, Lower) 0.92116183, 0.07883817;
  (<30, Female, Lower) 0.5485327, 0.4514673;
  (30-50, Female, Lower) 0.2706002, 0.7293998;
  (51-70, Female, Lower) 0.58388, 0.41612;
  (70+, Female, Lower) 0.93224932, 0.06775068;
  (<30, Male, Middle) 0.5064836, 0.4935164;
  (30-50, Male, Middle) 0.05586119, 0.94413881;
  (51-70, Male, Middle) 0.4188871, 0.5811129;
  (70+, Male, Middle) 0.91007194, 0.08992806;
  (<30, Female, Middle) 0.5551839, 0.4448161;
  (30-50, Female, Middle) 0.1683458, 0.8316542;
  (51-70, Female, Middle) 0.4756592, 0.5243408;
  (70+, Female, Middle) 0.94016227, 0.05983773;
  (<30, Male, Upper) 0.5931373, 0.4068627;
  (30-50, Male, Upper) 0.03950104, 0.96049896;
  (51-70, Male, Upper) 0.373913, 0.626087;
  (70+, Male, Upper) 0.90821256, 0.09178744;
  (<30, Female, Upper) 0.5550459, 0.4449541;
  (30-50, Female, Upper) 0.1210856, 0.8789144;
  (51-70, Female, Upper) 0.4157303, 0.5842697;
  (70+, Female, Upper) 0.91011236, 0.08988764;
}
probability ( GENDER ) {
  table 0.4644183, 0.5355817;
}
probability ( COMMUNITY | LIFESAT, CLASS ) {
  (Yes, Working) 0.4093274, 0.3609559, 0.2297167;
  (No, Working) 0.3589520, 0.3318777, 0.3091703;
  (Yes, Lower) 0.3245729, 0.3858081, 0.2896189;
  (No, Lower) 0.3251121, 0.3512706, 0.3236173;
  (Yes, Middle) 0.3119700, 0.3697561, 0.3182739;
  (No, Middle) 0.3274100, 0.2749889, 0.3976011;
  (Yes, Upper) 0.2707140, 0.3638793, 0.3654066;
  (No, Upper) 0.2619048, 0.3154762, 0.4226190;
}
probability ( CLASS | LIFESAT, PERSONALFIN, INFO ) {
  (Yes, Suffer, Television) 0.28445536, 0.18231725, 0.47760763, 0.05561976;
  (No, Suffer, Television) 0.43015363, 0.22865309, 0.32654519, 0.01464809;
  (Yes, Not Suffer, Television) 0.2164872, 0.1375903, 0.5319274, 0.1139950;
  (No, Not Suffer, Television) 0.42676502, 0.20442571, 0.33087460, 0.03793467;
  (Yes, Don't know, Television) 0.30504587, 0.14908257, 0.49082569, 0.05504587;
  (No, Don't know, Television) 0.44202899, 0.23913043, 0.28985507, 0.02898551;
  (Yes, Suffer, Press) 0.1710262, 0.1670020, 0.5191147, 0.1428571;
  (No, Suffer, Press) 0.14754098, 0.14754098, 0.68852459, 0.01639344;
  (Yes, Not Suffer, Press) 0.08413206, 0.09052183, 0.54313099, 0.28221512;
  (No, Not Suffer, Press) 0.16949153, 0.27118644, 0.47457627, 0.08474576;
  (Yes, Don't know, Press) 0.2083333, 0.1250000, 0.5000000, 0.1666667;
  (No, Don't know, Press) 1.0, 0.0, 0.0, 0.0;
  (Yes, Suffer, Radio) 0.21100917, 0.19633028, 0.52844037, 0.06422018;
  (No, Suffer, Radio) 0.380597015, 0.246268657, 0.365671642, 0.007462687;
  (Yes, Not Suffer, Radio) 0.1572581, 0.1317204, 0.5537634, 0.1572581;
  (No, Not Suffer, Radio) 0.39436620, 0.14084507, 0.42253521, 0.04225352;
  (Yes, Don't know, Radio) 0.39130435, 0.17391304, 0.39130435, 0.04347826;
  (No, Don't know, Radio) 0.50, 0.25, 0.25, 0.00;
  (Yes, Suffer, Website) 0.16780684, 0.17102616, 0.57867203, 0.08249497;
  (No, Suffer, Website) 0.31648936, 0.22606383, 0.42287234, 0.03457447;
  (Yes, Not Suffer, Website) 0.1147036, 0.1243264, 0.5835258, 0.1774442;
  (No, Not Suffer, Website) 0.30567686, 0.22707424, 0.40611354, 0.06113537;
  (Yes, Don't know, Website) 0.11290323, 0.10483871, 0.69354839, 0.08870968;
  (No, Don't know, Website) 0.27272727, 0.22727273, 0.45454545, 0.04545455;
  (Yes, Suffer, Social Network) 0.18734644, 0.16093366, 0.57985258, 0.07186732;
  (No, Suffer, Social Network) 0.26173285, 0.21480144, 0.49097473, 0.03249097;
  (Yes, Not Suffer, Social Network) 0.1453224, 0.1126249, 0.6121708, 0.1298819;
  (No, Not Suffer, Social Network) 0.2595420, 0.2442748, 0.3816794, 0.1145038;
  (Yes, Don't know, Social Network) 0.16483516, 0.19780220, 0.56043956, 0.07692308;
  (No, Don't know, Social Network) 0.35294118, 0.29411765, 0.29411765, 0.05882353;
}
