network unknown {
}
variable AcidificationThreat {
  type discrete [ 2 ] { Low, High };
}
variable CoastalDevelopmentThreat {
  type discrete [ 3 ] { Low, Medium, High };
}
variable LiveCoralCover {
  type discrete [ 6 ] { Less than 0, 0-0.040, 0.040-0.122, 0.122-0.241, 0.241-0.417, More than 0.417 };
}
variable ManagementEffectiveness {
  type discrete [ 3 ] { Ineffective, Partial, Effective };
}
variable MarineBasedPollutionThreat {
  type discrete [ 3 ] { Low, Medium, High };
}
variable Overfishing {
  type discrete [ 3 ] { Low, Medium, High };
}
variable ThermalStress {
  type discrete [ 2 ] { None, Severe };
}
variable WatershedBasedPollutionThreat {
  type discrete [ 3 ] { Low, Medium, High };
}
probability ( AcidificationThreat | LiveCoralCover, ManagementEffectiveness ) {
  (Less than 0, Ineffective) 0.749135, 0.250865;
  (0-0.040, Ineffective) 0.963169, 0.036831;
  (0.040-0.122, Ineffective) 0.934695, 0.065305;
  (0.122-0.241, Ineffective) 0.845625, 0.154375;
  (0.241-0.417, Ineffective) 0.898897, 0.101103;
  (More than 0.417, Ineffective) 0.888403, 0.111597;
  (Less than 0, Partial) 0.973684, 0.026316;
  (0-0.040, Partial) 0.926877, 0.073123;
  (0.040-0.122, Partial) 0.790063, 0.209937;
  (0.122-0.241, Partial) 0.839445, 0.160555;
  (0.241-0.417, Partial) 0.883056, 0.116944;
  (More than 0.417, Partial) 0.92759, 0.07241;
  (Less than 0, Effective) 0.973684, 0.026316;
  (0-0.040, Effective) 0.872414, 0.127586;
  (0.040-0.122, Effective) 0.624138, 0.375862;
  (0.122-0.241, Effective) 0.38906, 0.61094;
  (0.241-0.417, Effective) 0.275312, 0.724688;
  (More than 0.417, Effective) 0.205548, 0.794452;
}
probability ( CoastalDevelopmentThreat | LiveCoralCover, Overfishing ) {
  (Less than 0, Low) 0.981982, 0.009009, 0.009009;
  (0-0.040, Low) 0.721026, 0.167179, 0.111795;
  (0.040-0.122, Low) 0.952587, 0.031512, 0.015901;
  (0.122-0.241, Low) 0.805774, 0.156790, 0.037436;
  (0.241-0.417, Low) 0.80230880, 0.17906518, 0.01862602;
  (More than 0.417, Low) 0.891408, 0.100108, 0.008484;
  (Less than 0, Medium) 0.495495495, 0.495495495, 0.009009009;
  (0-0.040, Medium) 0.646037, 0.235613, 0.118350;
  (0.040-0.122, Medium) 0.464199, 0.309540, 0.226261;
  (0.122-0.241, Medium) 0.7141697, 0.1758722, 0.1099581;
  (0.241-0.417, Medium) 0.7223843, 0.1722918, 0.1053239;
  (More than 0.417, Medium) 0.707586, 0.179531, 0.112883;
  (Less than 0, High) 0.143610, 0.214756, 0.641634;
  (0-0.040, High) 0.309555, 0.143109, 0.547336;
  (0.040-0.122, High) 0.191959, 0.277793, 0.530248;
  (0.122-0.241, High) 0.2241008, 0.3110407, 0.4648585;
  (0.241-0.417, High) 0.240554, 0.324326, 0.435120;
  (More than 0.417, High) 0.306506, 0.278647, 0.414847;
}
probability ( LiveCoralCover ) {
  table 0.007457993, 0.031677968, 0.142104858, 0.252530747, 0.304255696, 0.261972738;
}
probability ( ManagementEffectiveness | LiveCoralCover ) {
  (Less than 0) 0.883792, 0.058104, 0.058104;
  (0-0.040) 0.713463, 0.182145, 0.104392;
  (0.040-0.122) 0.797464, 0.179265, 0.023271;
  (0.122-0.241) 0.768988, 0.172401, 0.058611;
  (0.241-0.417) 0.761037, 0.184919, 0.054044;
  (More than 0.417) 0.786715, 0.152085, 0.061200;
}
probability ( MarineBasedPollutionThreat | CoastalDevelopmentThreat, LiveCoralCover ) {
  (Low, Less than 0) 0.3992674, 0.3992674, 0.2014652;
  (Medium, Less than 0) 0.744292, 0.004566, 0.251142;
  (High, Less than 0) 0.443763, 0.222904, 0.333333;
  (Low, 0-0.040) 0.729135, 0.216392, 0.054473;
  (Medium, 0-0.040) 0.920567921, 0.078014078, 0.001418001;
  (High, 0-0.040) 0.5181385, 0.1485281, 0.3333333;
  (Low, 0.040-0.122) 0.825889, 0.173977, 0.000134;
  (Medium, 0.040-0.122) 0.686511, 0.216945, 0.096544;
  (High, 0.040-0.122) 0.6318676, 0.0961051, 0.2720273;
  (Low, 0.122-0.241) 0.819583180, 0.173799826, 0.006616993;
  (Medium, 0.122-0.241) 0.76695877, 0.19868120, 0.03436003;
  (High, 0.122-0.241) 0.566994, 0.201264, 0.231742;
  (Low, 0.241-0.417) 0.867487, 0.132463, 0.000050;
  (Medium, 0.241-0.417) 0.794456, 0.156810, 0.048734;
  (High, 0.241-0.417) 0.61282, 0.19359, 0.19359;
  (Low, More than 0.417) 0.944669, 0.052371, 0.002960;
  (Medium, More than 0.417) 0.824618, 0.138765, 0.036617;
  (High, More than 0.417) 0.579531, 0.197500, 0.222969;
}
probability ( Overfishing | LiveCoralCover, ManagementEffectiveness ) {
  (Less than 0, Ineffective) 0.001153, 0.125721, 0.873126;
  (0-0.040, Ineffective) 0.054827, 0.181971, 0.763202;
  (0.040-0.122, Ineffective) 0.090629, 0.192057, 0.717314;
  (0.122-0.241, Ineffective) 0.080368, 0.287532, 0.632100;
  (0.241-0.417, Ineffective) 0.083358, 0.260645, 0.655997;
  (More than 0.417, Ineffective) 0.083693, 0.272915, 0.643392;
  (Less than 0, Partial) 0.964912, 0.017544, 0.017544;
  (0-0.040, Partial) 0.499341, 0.499341, 0.001318;
  (0.040-0.122, Partial) 0.499851, 0.499851, 0.000298;
  (0.122-0.241, Partial) 0.5659154341, 0.4339095661, 0.0001749998;
  (0.241-0.417, Partial) 0.5473585474, 0.4525064525, 0.0001350001;
  (More than 0.417, Partial) 0.4020225980, 0.5977864022, 0.0001909998;
  (Less than 0, Effective) 0.964912, 0.017544, 0.017544;
  (0-0.040, Effective) 0.995402, 0.002299, 0.002299;
  (0.040-0.122, Effective) 0.995402, 0.002299, 0.002299;
  (0.122-0.241, Effective) 0.9989720010, 0.0005139995, 0.0005139995;
  (0.241-0.417, Effective) 0.9990759991, 0.0004620005, 0.0004620005;
  (More than 0.417, Effective) 0.999052, 0.000474, 0.000474;
}
probability ( ThermalStress | LiveCoralCover ) {
  (Less than 0) 0.444954, 0.555046;
  (0-0.040) 0.2473, 0.7527;
  (0.040-0.122) 0.367116, 0.632884;
  (0.122-0.241) 0.45042, 0.54958;
  (0.241-0.417) 0.472341, 0.527659;
  (More than 0.417) 0.590885, 0.409115;
}
probability ( WatershedBasedPollutionThreat | CoastalDevelopmentThreat, LiveCoralCover ) {
  (Low, Less than 0) 0.597070, 0.399267, 0.003663;
  (Medium, Less than 0) 0.2511417, 0.4977165, 0.2511417;
  (High, Less than 0) 0.1124741, 0.1124741, 0.7750518;
  (Low, 0-0.040) 0.810095, 0.108446, 0.081459;
  (Medium, 0-0.040) 0.3843974, 0.3078013, 0.3078013;
  (High, 0-0.040) 0.4442164, 0.1854892, 0.3702944;
  (Low, 0.040-0.122) 0.80415880, 0.15949016, 0.03635104;
  (Medium, 0.040-0.122) 0.457748, 0.277146, 0.265106;
  (High, 0.040-0.122) 0.2960167, 0.3679846, 0.3359987;
  (Low, 0.122-0.241) 0.73763174, 0.20658021, 0.05578806;
  (Medium, 0.122-0.241) 0.527323, 0.328769, 0.143908;
  (High, 0.122-0.241) 0.310983, 0.414607, 0.274410;
  (Low, 0.241-0.417) 0.724266, 0.229745, 0.045989;
  (Medium, 0.241-0.417) 0.5296705, 0.3567496, 0.1135799;
  (High, 0.241-0.417) 0.3279587, 0.4462026, 0.2258388;
  (Low, More than 0.417) 0.773185, 0.180257, 0.046558;
  (Medium, More than 0.417) 0.452506, 0.416025, 0.131469;
  (High, More than 0.417) 0.261172, 0.401250, 0.337578;
}
