network unknown {
}
variable Cough {
  type discrete [ 2 ] { 1. 0, 2. 1 };
}
variable CovidSeverity {
  type discrete [ 6 ] { 1. 1, 2. 2, 3. 3, 4. 4, 5. 5, 6. 6 };
}
variable Diarrhea {
  type discrete [ 2 ] { 1. 0, 2. 1 };
}
variable Fatigue {
  type discrete [ 2 ] { 1. 0, 2. 1 };
}
variable Fever {
  type discrete [ 2 ] { 1. 0, 2. 1 };
}
variable Headache {
  type discrete [ 2 ] { 1. 0, 2. 1 };
}
variable LossOfSmell {
  type discrete [ 2 ] { 1. 0, 2. 1 };
}
variable LossOfTaste {
  type discrete [ 2 ] { 1. 0, 2. 1 };
}
variable MuscleSore {
  type discrete [ 2 ] { 1. 0, 2. 1 };
}
variable RunnyNose {
  type discrete [ 2 ] { 1. 0, 2. 1 };
}
variable Sob {
  type discrete [ 2 ] { 1. 0, 2. 1 };
}
variable SoreThroat {
  type discrete [ 2 ] { 1. 0, 2. 1 };
}
probability ( Cough | CovidSeverity ) {
  (1. 1) 0.7074984, 0.2925016;
  (2. 2) 0.5574163, 0.4425837;
  (3. 3) 0.06097561, 0.93902439;
  (4. 4) 0.4747899, 0.5252101;
  (5. 5) 0.1470588, 0.8529412;
  (6. 6) 0.3023952, 0.6976048;
}
probability ( CovidSeverity ) {
  table 0.736666750, 0.099523766, 0.019523793, 0.056666681, 0.008095237, 0.079523773;
}
probability ( Diarrhea | CovidSeverity, SoreThroat ) {
  (1. 1, 1. 0) 0.97658299, 0.02341701;
  (2. 2, 1. 0) 0.99070632, 0.00929368;
  (3. 3, 1. 0) 0.06097561, 0.93902439;
  (4. 4, 1. 0) 0.788, 0.212;
  (5. 5, 1. 0) 0.8529412, 0.1470588;
  (6. 6, 1. 0) 0.93062201, 0.06937799;
  (1. 1, 2. 1) 0.8247059, 0.1752941;
  (2. 2, 2. 1) 0.98322148, 0.01677852;
  (3. 3, 2. 1) 0.06097561, 0.93902439;
  (4. 4, 2. 1) 0.8716814, 0.1283186;
  (5. 5, 2. 1) 0.1470588, 0.8529412;
  (6. 6, 2. 1) 0.5, 0.5;
}
probability ( Fatigue | CovidSeverity, MuscleSore ) {
  (1. 1, 1. 0) 0.91663653, 0.08336347;
  (2. 2, 1. 0) 0.99070632, 0.00929368;
  (3. 3, 1. 0) 0.95283019, 0.04716981;
  (4. 4, 1. 0) 0.03246753, 0.96753247;
  (5. 5, 1. 0) 0.1470588, 0.8529412;
  (6. 6, 1. 0) 0.7009569, 0.2990431;
  (1. 1, 2. 1) 0.4452888, 0.5547112;
  (2. 2, 2. 1) 0.98322148, 0.01677852;
  (3. 3, 2. 1) 0.9137931, 0.0862069;
  (4. 4, 2. 1) 0.01552795, 0.98447205;
  (5. 5, 2. 1) 0.1470588, 0.8529412;
  (6. 6, 2. 1) 0.212, 0.788;
}
probability ( Fever | Cough, CovidSeverity ) {
  (1. 0, 1. 1) 0.993375971, 0.006624029;
  (2. 1, 1. 1) 0.01072961, 0.98927039;
  (1. 0, 2. 2) 0.5, 0.5;
  (2. 1, 2. 2) 0.02212389, 0.97787611;
  (1. 0, 3. 3) 0.5, 0.5;
  (2. 1, 3. 3) 0.7376238, 0.2623762;
  (1. 0, 4. 4) 0.97071823, 0.02928177;
  (2. 1, 4. 4) 0.01351351, 0.98648649;
  (1. 0, 5. 5) 0.03246753, 0.96753247;
  (2. 1, 5. 5) 0.02, 0.98;
  (1. 0, 6. 6) 0.0862069, 0.9137931;
  (2. 1, 6. 6) 0.3712446, 0.6287554;
}
probability ( Headache | Cough, CovidSeverity ) {
  (1. 0, 1. 1) 0.91114664, 0.08885336;
  (2. 1, 1. 1) 0.93776824, 0.06223176;
  (1. 0, 2. 2) 0.5, 0.5;
  (2. 1, 2. 2) 0.340708, 0.659292;
  (1. 0, 3. 3) 0.5, 0.5;
  (2. 1, 3. 3) 0.5, 0.5;
  (1. 0, 4. 4) 0.5729282, 0.4270718;
  (2. 1, 4. 4) 0.727027, 0.272973;
  (1. 0, 5. 5) 0.3441558, 0.6558442;
  (2. 1, 5. 5) 0.308, 0.692;
  (1. 0, 6. 6) 0.0862069, 0.9137931;
  (2. 1, 6. 6) 0.5257511, 0.4742489;
}
probability ( LossOfSmell | CovidSeverity, LossOfTaste ) {
  (1. 1, 1. 0) 0.97406892, 0.02593108;
  (2. 2, 1. 0) 0.92970822, 0.07029178;
  (3. 3, 1. 0) 0.96153846, 0.03846154;
  (4. 4, 1. 0) 0.98447205, 0.01552795;
  (5. 5, 1. 0) 0.8529412, 0.1470588;
  (6. 6, 1. 0) 0.93776824, 0.06223176;
  (1. 1, 2. 1) 0.3371041, 0.6628959;
  (2. 2, 2. 1) 0.3536585, 0.6463415;
  (3. 3, 2. 1) 0.1470588, 0.8529412;
  (4. 4, 2. 1) 0.1883117, 0.8116883;
  (5. 5, 2. 1) 0.1470588, 0.8529412;
  (6. 6, 2. 1) 0.1435644, 0.8564356;
}
probability ( LossOfTaste | CovidSeverity, RunnyNose ) {
  (1. 1, 1. 0) 0.95093032, 0.04906968;
  (2. 2, 1. 0) 0.92492918, 0.07507082;
  (3. 3, 1. 0) 0.93902439, 0.06097561;
  (4. 4, 1. 0) 0.6621622, 0.3378378;
  (5. 5, 1. 0) 0.8529412, 0.1470588;
  (6. 6, 1. 0) 0.8347639, 0.1652361;
  (1. 1, 2. 1) 0.7549575, 0.2450425;
  (2. 2, 2. 1) 0.7769231, 0.2230769;
  (3. 3, 2. 1) 0.6463415, 0.3536585;
  (4. 4, 2. 1) 0.7264151, 0.2735849;
  (5. 5, 2. 1) 0.1470588, 0.8529412;
  (6. 6, 2. 1) 0.3811881, 0.6188119;
}
probability ( MuscleSore | CovidSeverity, Headache ) {
  (1. 1, 1. 0) 0.94647831, 0.05352169;
  (2. 2, 1. 0) 0.7209632, 0.2790368;
  (3. 3, 1. 0) 0.9137931, 0.0862069;
  (4. 4, 1. 0) 0.1883117, 0.8116883;
  (5. 5, 1. 0) 0.5, 0.5;
  (6. 6, 1. 0) 0.7774566, 0.2225434;
  (1. 1, 2. 1) 0.6652324, 0.3347676;
  (2. 2, 2. 1) 0.2230769, 0.7769231;
  (3. 3, 2. 1) 0.5, 0.5;
  (4. 4, 2. 1) 0.3881988, 0.6118012;
  (5. 5, 2. 1) 0.5, 0.5;
  (6. 6, 2. 1) 0.4627329, 0.5372671;
}
probability ( RunnyNose | CovidSeverity, Headache ) {
  (1. 1, 1. 0) 0.93215281, 0.06784719;
  (2. 2, 1. 0) 0.8229462, 0.1770538;
  (3. 3, 1. 0) 0.9137931, 0.0862069;
  (4. 4, 1. 0) 0.8116883, 0.1883117;
  (5. 5, 1. 0) 0.5, 0.5;
  (6. 6, 1. 0) 0.91618497, 0.08381503;
  (1. 1, 2. 1) 0.6858864, 0.3141136;
  (2. 2, 2. 1) 0.96153846, 0.03846154;
  (3. 3, 2. 1) 0.2735849, 0.7264151;
  (4. 4, 2. 1) 0.7608696, 0.2391304;
  (5. 5, 2. 1) 0.5, 0.5;
  (6. 6, 2. 1) 0.4627329, 0.5372671;
}
probability ( Sob | CovidSeverity, Fever ) {
  (1. 1, 1. 0) 0.97952833, 0.02047167;
  (2. 2, 1. 0) 0.5, 0.5;
  (3. 3, 1. 0) 0.5, 0.5;
  (4. 4, 1. 0) 0.5, 0.5;
  (5. 5, 1. 0) 0.5, 0.5;
  (6. 6, 1. 0) 0.01552795, 0.98447205;
  (1. 1, 2. 1) 0.06097561, 0.93902439;
  (2. 2, 2. 1) 0.993946731, 0.006053269;
  (3. 3, 2. 1) 0.96753247, 0.03246753;
  (4. 4, 2. 1) 0.98927039, 0.01072961;
  (5. 5, 2. 1) 0.0862069, 0.9137931;
  (6. 6, 2. 1) 0.01445087, 0.98554913;
}
probability ( SoreThroat | CovidSeverity, RunnyNose ) {
  (1. 1, 1. 0) 0.95093032, 0.04906968;
  (2. 2, 1. 0) 0.92492918, 0.07507082;
  (3. 3, 1. 0) 0.93902439, 0.06097561;
  (4. 4, 1. 0) 0.6621622, 0.3378378;
  (5. 5, 1. 0) 0.8529412, 0.1470588;
  (6. 6, 1. 0) 0.8347639, 0.1652361;
  (1. 1, 2. 1) 0.7549575, 0.2450425;
  (2. 2, 2. 1) 0.7769231, 0.2230769;
  (3. 3, 2. 1) 0.6463415, 0.3536585;
  (4. 4, 2. 1) 0.7264151, 0.2735849;
  (5. 5, 2. 1) 0.1470588, 0.8529412;
  (6. 6, 2. 1) 0.3811881, 0.6188119;
}
