network unknown {
}
variable Cough {
  type discrete [ 2 ] { 1. 0, 2. 1 };
}
variable CovidSeverity {
  type discrete [ 6 ] { 1. 1, 2. 2, 3. 3, 4. 4, 5. 5, 6. 6 };
}
variable Diarrhea {
  type discrete [ 2 ] { 1. 0, 2. 1 };
}
variable Fatigue {
  type discrete [ 2 ] { 1. 0, 2. 1 };
}
variable Fever {
  type discrete [ 2 ] { 1. 0, 2. 1 };
}
variable Headache {
  type discrete [ 2 ] { 1. 0, 2. 1 };
}
variable LossOfSmell {
  type discrete [ 2 ] { 1. 0, 2. 1 };
}
variable LossOfTaste {
  type discrete [ 2 ] { 1. 0, 2. 1 };
}
variable MuscleSore {
  type discrete [ 2 ] { 1. 0, 2. 1 };
}
variable RunnyNose {
  type discrete [ 2 ] { 1. 0, 2. 1 };
}
variable Sob {
  type discrete [ 2 ] { 1. 0, 2. 1 };
}
variable SoreThroat {
  type discrete [ 2 ] { 1. 0, 2. 1 };
}
probability ( Cough | CovidSeverity ) {
  (1. 1) 0.7074984, 0.2925016;
  (2. 2) 0.5574163, 0.4425837;
  (3. 3) 0.06097561, 0.93902439;
  (4. 4) 0.4747899, 0.5252101;
  (5. 5) 0.1470588, 0.8529412;
  (6. 6) 0.3023952, 0.6976048;
}
probability ( CovidSeverity ) {
  table 0.736666750, 0.099523766, 0.019523793, 0.056666681, 0.008095237, 0.079523773;
}
probability ( Diarrhea | CovidSeverity ) {
  (1. 1) 0.95572075, 0.04427925;
  (2. 2) 0.98803828, 0.01196172;
  (3. 3) 0.06097561, 0.93902439;
  (4. 4) 0.8277311, 0.1722689;
  (5. 5) 0.5, 0.5;
  (6. 6) 0.7694611, 0.2305389;
}
probability ( Fatigue | CovidSeverity ) {
  (1. 1) 0.8665158, 0.1334842;
  (2. 2) 0.98803828, 0.01196172;
  (3. 3) 0.98803828, 0.01196172;
  (4. 4) 0.0210084, 0.9789916;
  (5. 5) 0.1470588, 0.8529412;
  (6. 6) 0.5179641, 0.4820359;
}
probability ( Fever | CovidSeverity ) {
  (1. 1) 0.98674855, 0.01325145;
  (2. 2) 0.01196172, 0.98803828;
  (3. 3) 0.06097561, 0.93902439;
  (4. 4) 0.0210084, 0.9789916;
  (5. 5) 0.1470588, 0.8529412;
  (6. 6) 0.4820359, 0.5179641;
}
probability ( Headache | CovidSeverity ) {
  (1. 1) 0.8122172, 0.1877828;
  (2. 2) 0.8444976, 0.1555024;
  (3. 3) 0.3536585, 0.6463415;
  (4. 4) 0.3235294, 0.6764706;
  (5. 5) 0.1470588, 0.8529412;
  (6. 6) 0.5179641, 0.4820359;
}
probability ( LossOfSmell | CovidSeverity ) {
  (1. 1) 0.92857143, 0.07142857;
  (2. 2) 0.8732057, 0.1267943;
  (3. 3) 0.7926829, 0.2073171;
  (4. 4) 0.7268908, 0.2731092;
  (5. 5) 0.5, 0.5;
  (6. 6) 0.6976048, 0.3023952;
}
probability ( LossOfTaste | CovidSeverity ) {
  (1. 1) 0.92857143, 0.07142857;
  (2. 2) 0.90191388, 0.09808612;
  (3. 3) 0.7926829, 0.2073171;
  (4. 4) 0.6764706, 0.3235294;
  (5. 5) 0.5, 0.5;
  (6. 6) 0.6976048, 0.3023952;
}
probability ( MuscleSore | CovidSeverity ) {
  (1. 1) 0.8936652, 0.1063348;
  (2. 2) 0.6435407, 0.3564593;
  (3. 3) 0.6463415, 0.3536585;
  (4. 4) 0.3235294, 0.6764706;
  (5. 5) 0.5, 0.5;
  (6. 6) 0.6257485, 0.3742515;
}
probability ( RunnyNose | CovidSeverity ) {
  (1. 1) 0.8859082, 0.1140918;
  (2. 2) 0.8444976, 0.1555024;
  (3. 3) 0.5, 0.5;
  (4. 4) 0.7773109, 0.2226891;
  (5. 5) 0.5, 0.5;
  (6. 6) 0.6976048, 0.3023952;
}
probability ( Sob | CovidSeverity ) {
  (1. 1) 0.96735617, 0.03264383;
  (2. 2) 0.98803828, 0.01196172;
  (3. 3) 0.93902439, 0.06097561;
  (4. 4) 0.9789916, 0.0210084;
  (5. 5) 0.1470588, 0.8529412;
  (6. 6) 0.01497006, 0.98502994;
}
probability ( SoreThroat | CovidSeverity ) {
  (1. 1) 0.8626374, 0.1373626;
  (2. 2) 0.6435407, 0.3564593;
  (3. 3) 0.5, 0.5;
  (4. 4) 0.5252101, 0.4747899;
  (5. 5) 0.5, 0.5;
  (6. 6) 0.6257485, 0.3742515;
}
