network unknown {
}
variable Cough {
  type discrete [ 2 ] { 1. 0, 2. 1 };
}
variable CovidSeverity {
  type discrete [ 6 ] { 1. 1, 2. 2, 3. 3, 4. 4, 5. 5, 6. 6 };
}
variable Diarrhea {
  type discrete [ 2 ] { 1. 0, 2. 1 };
}
variable Fatigue {
  type discrete [ 2 ] { 1. 0, 2. 1 };
}
variable Fever {
  type discrete [ 2 ] { 1. 0, 2. 1 };
}
variable Headache {
  type discrete [ 2 ] { 1. 0, 2. 1 };
}
variable LossOfSmell {
  type discrete [ 2 ] { 1. 0, 2. 1 };
}
variable LossOfTaste {
  type discrete [ 2 ] { 1. 0, 2. 1 };
}
variable MuscleSore {
  type discrete [ 2 ] { 1. 0, 2. 1 };
}
variable RunnyNose {
  type discrete [ 2 ] { 1. 0, 2. 1 };
}
variable Sob {
  type discrete [ 2 ] { 1. 0, 2. 1 };
}
variable SoreThroat {
  type discrete [ 2 ] { 1. 0, 2. 1 };
}
probability ( Cough | Diarrhea, Fatigue, Fever, Headache, LossOfTaste, MuscleSore, RunnyNose, Sob, SoreThroat ) {
  (1. 0, 1. 0, 1. 0, 1. 0, 1. 0, 1. 0, 1. 0, 1. 0, 1. 0) 0.890298, 0.109702;
  (2. 1, 1. 0, 1. 0, 1. 0, 1. 0, 1. 0, 1. 0, 1. 0, 1. 0) 0.5, 0.5;
  (1. 0, 2. 1, 1. 0, 1. 0, 1. 0, 1. 0, 1. 0, 1. 0, 1. 0) 0.5, 0.5;
  (2. 1, 2. 1, 1. 0, 1. 0, 1. 0, 1. 0, 1. 0, 1. 0, 1. 0) 0.5, 0.5;
  (1. 0, 1. 0, 2. 1, 1. 0, 1. 0, 1. 0, 1. 0, 1. 0, 1. 0) 0.4545858, 0.5454142;
  (2. 1, 1. 0, 2. 1, 1. 0, 1. 0, 1. 0, 1. 0, 1. 0, 1. 0) 0.002429543, 0.997570457;
  (1. 0, 2. 1, 2. 1, 1. 0, 1. 0, 1. 0, 1. 0, 1. 0, 1. 0) 0.5, 0.5;
  (2. 1, 2. 1, 2. 1, 1. 0, 1. 0, 1. 0, 1. 0, 1. 0, 1. 0) 0.5, 0.5;
  (1. 0, 1. 0, 1. 0, 2. 1, 1. 0, 1. 0, 1. 0, 1. 0, 1. 0) 0.3572424, 0.6427576;
  (2. 1, 1. 0, 1. 0, 2. 1, 1. 0, 1. 0, 1. 0, 1. 0, 1. 0) 0.5, 0.5;
  (1. 0, 2. 1, 1. 0, 2. 1, 1. 0, 1. 0, 1. 0, 1. 0, 1. 0) 0.5, 0.5;
  (2. 1, 2. 1, 1. 0, 2. 1, 1. 0, 1. 0, 1. 0, 1. 0, 1. 0) 0.5, 0.5;
  (1. 0, 1. 0, 2. 1, 2. 1, 1. 0, 1. 0, 1. 0, 1. 0, 1. 0) 0.5, 0.5;
  (2. 1, 1. 0, 2. 1, 2. 1, 1. 0, 1. 0, 1. 0, 1. 0, 1. 0) 0.00483559, 0.99516441;
  (1. 0, 2. 1, 2. 1, 2. 1, 1. 0, 1. 0, 1. 0, 1. 0, 1. 0) 0.99516441, 0.00483559;
  (2. 1, 2. 1, 2. 1, 2. 1, 1. 0, 1. 0, 1. 0, 1. 0, 1. 0) 0.99516441, 0.00483559;
  (1. 0, 1. 0, 1. 0, 1. 0, 2. 1, 1. 0, 1. 0, 1. 0, 1. 0) 0.7994152, 0.2005848;
  (2. 1, 1. 0, 1. 0, 1. 0, 2. 1, 1. 0, 1. 0, 1. 0, 1. 0) 0.00483559, 0.99516441;
  (1. 0, 2. 1, 1. 0, 1. 0, 2. 1, 1. 0, 1. 0, 1. 0, 1. 0) 0.5, 0.5;
  (2. 1, 2. 1, 1. 0, 1. 0, 2. 1, 1. 0, 1. 0, 1. 0, 1. 0) 0.5, 0.5;
  (1. 0, 1. 0, 2. 1, 1. 0, 2. 1, 1. 0, 1. 0, 1. 0, 1. 0) 0.5, 0.5;
  (2. 1, 1. 0, 2. 1, 1. 0, 2. 1, 1. 0, 1. 0, 1. 0, 1. 0) 0.5, 0.5;
  (1. 0, 2. 1, 2. 1, 1. 0, 2. 1, 1. 0, 1. 0, 1. 0, 1. 0) 0.99516441, 0.00483559;
  (2. 1, 2. 1, 2. 1, 1. 0, 2. 1, 1. 0, 1. 0, 1. 0, 1. 0) 0.5, 0.5;
  (1. 0, 1. 0, 1. 0, 2. 1, 2. 1, 1. 0, 1. 0, 1. 0, 1. 0) 0.5, 0.5;
  (2. 1, 1. 0, 1. 0, 2. 1, 2. 1, 1. 0, 1. 0, 1. 0, 1. 0) 0.00483559, 0.99516441;
  (1. 0, 2. 1, 1. 0, 2. 1, 2. 1, 1. 0, 1. 0, 1. 0, 1. 0) 0.5, 0.5;
  (2. 1, 2. 1, 1. 0, 2. 1, 2. 1, 1. 0, 1. 0, 1. 0, 1. 0) 0.5, 0.5;
  (1. 0, 1. 0, 2. 1, 2. 1, 2. 1, 1. 0, 1. 0, 1. 0, 1. 0) 0.5, 0.5;
  (2. 1, 1. 0, 2. 1, 2. 1, 2. 1, 1. 0, 1. 0, 1. 0, 1. 0) 0.5, 0.5;
  (1. 0, 2. 1, 2. 1, 2. 1, 2. 1, 1. 0, 1. 0, 1. 0, 1. 0) 0.5, 0.5;
  (2. 1, 2. 1, 2. 1, 2. 1, 2. 1, 1. 0, 1. 0, 1. 0, 1. 0) 0.5, 0.5;
  (1. 0, 1. 0, 1. 0, 1. 0, 1. 0, 2. 1, 1. 0, 1. 0, 1. 0) 0.2506089, 0.7493911;
  (2. 1, 1. 0, 1. 0, 1. 0, 1. 0, 2. 1, 1. 0, 1. 0, 1. 0) 0.5, 0.5;
  (1. 0, 2. 1, 1. 0, 1. 0, 1. 0, 2. 1, 1. 0, 1. 0, 1. 0) 0.998377677, 0.001622323;
  (2. 1, 2. 1, 1. 0, 1. 0, 1. 0, 2. 1, 1. 0, 1. 0, 1. 0) 0.5, 0.5;
  (1. 0, 1. 0, 2. 1, 1. 0, 1. 0, 2. 1, 1. 0, 1. 0, 1. 0) 0.7493911, 0.2506089;
  (2. 1, 1. 0, 2. 1, 1. 0, 1. 0, 2. 1, 1. 0, 1. 0, 1. 0) 0.5, 0.5;
  (1. 0, 2. 1, 2. 1, 1. 0, 1. 0, 2. 1, 1. 0, 1. 0, 1. 0) 0.00483559, 0.99516441;
  (2. 1, 2. 1, 2. 1, 1. 0, 1. 0, 2. 1, 1. 0, 1. 0, 1. 0) 0.99516441, 0.00483559;
  (1. 0, 1. 0, 1. 0, 2. 1, 1. 0, 2. 1, 1. 0, 1. 0, 1. 0) 0.001622323, 0.998377677;
  (2. 1, 1. 0, 1. 0, 2. 1, 1. 0, 2. 1, 1. 0, 1. 0, 1. 0) 0.99516441, 0.00483559;
  (1. 0, 2. 1, 1. 0, 2. 1, 1. 0, 2. 1, 1. 0, 1. 0, 1. 0) 0.001622323, 0.998377677;
  (2. 1, 2. 1, 1. 0, 2. 1, 1. 0, 2. 1, 1. 0, 1. 0, 1. 0) 0.5, 0.5;
  (1. 0, 1. 0, 2. 1, 2. 1, 1. 0, 2. 1, 1. 0, 1. 0, 1. 0) 0.3338741, 0.6661259;
  (2. 1, 1. 0, 2. 1, 2. 1, 1. 0, 2. 1, 1. 0, 1. 0, 1. 0) 0.5, 0.5;
  (1. 0, 2. 1, 2. 1, 2. 1, 1. 0, 2. 1, 1. 0, 1. 0, 1. 0) 0.5, 0.5;
  (2. 1, 2. 1, 2. 1, 2. 1, 1. 0, 2. 1, 1. 0, 1. 0, 1. 0) 0.5, 0.5;
  (1. 0, 1. 0, 1. 0, 1. 0, 2. 1, 2. 1, 1. 0, 1. 0, 1. 0) 0.5, 0.5;
  (2. 1, 1. 0, 1. 0, 1. 0, 2. 1, 2. 1, 1. 0, 1. 0, 1. 0) 0.5, 0.5;
  (1. 0, 2. 1, 1. 0, 1. 0, 2. 1, 2. 1, 1. 0, 1. 0, 1. 0) 0.5, 0.5;
  (2. 1, 2. 1, 1. 0, 1. 0, 2. 1, 2. 1, 1. 0, 1. 0, 1. 0) 0.5, 0.5;
  (1. 0, 1. 0, 2. 1, 1. 0, 2. 1, 2. 1, 1. 0, 1. 0, 1. 0) 0.997570457, 0.002429543;
  (2. 1, 1. 0, 2. 1, 1. 0, 2. 1, 2. 1, 1. 0, 1. 0, 1. 0) 0.5, 0.5;
  (1. 0, 2. 1, 2. 1, 1. 0, 2. 1, 2. 1, 1. 0, 1. 0, 1. 0) 0.00483559, 0.99516441;
  (2. 1, 2. 1, 2. 1, 1. 0, 2. 1, 2. 1, 1. 0, 1. 0, 1. 0) 0.5, 0.5;
  (1. 0, 1. 0, 1. 0, 2. 1, 2. 1, 2. 1, 1. 0, 1. 0, 1. 0) 0.5, 0.5;
  (2. 1, 1. 0, 1. 0, 2. 1, 2. 1, 2. 1, 1. 0, 1. 0, 1. 0) 0.5, 0.5;
  (1. 0, 2. 1, 1. 0, 2. 1, 2. 1, 2. 1, 1. 0, 1. 0, 1. 0) 0.5, 0.5;
  (2. 1, 2. 1, 1. 0, 2. 1, 2. 1, 2. 1, 1. 0, 1. 0, 1. 0) 0.5, 0.5;
  (1. 0, 1. 0, 2. 1, 2. 1, 2. 1, 2. 1, 1. 0, 1. 0, 1. 0) 0.5, 0.5;
  (2. 1, 1. 0, 2. 1, 2. 1, 2. 1, 2. 1, 1. 0, 1. 0, 1. 0) 0.5, 0.5;
  (1. 0, 2. 1, 2. 1, 2. 1, 2. 1, 2. 1, 1. 0, 1. 0, 1. 0) 0.5, 0.5;
  (2. 1, 2. 1, 2. 1, 2. 1, 2. 1, 2. 1, 1. 0, 1. 0, 1. 0) 0.5, 0.5;
  (1. 0, 1. 0, 1. 0, 1. 0, 1. 0, 1. 0, 2. 1, 1. 0, 1. 0) 0.5998051, 0.4001949;
  (2. 1, 1. 0, 1. 0, 1. 0, 1. 0, 1. 0, 2. 1, 1. 0, 1. 0) 0.00483559, 0.99516441;
  (1. 0, 2. 1, 1. 0, 1. 0, 1. 0, 1. 0, 2. 1, 1. 0, 1. 0) 0.997570457, 0.002429543;
  (2. 1, 2. 1, 1. 0, 1. 0, 1. 0, 1. 0, 2. 1, 1. 0, 1. 0) 0.5, 0.5;
  (1. 0, 1. 0, 2. 1, 1. 0, 1. 0, 1. 0, 2. 1, 1. 0, 1. 0) 0.5, 0.5;
  (2. 1, 1. 0, 2. 1, 1. 0, 1. 0, 1. 0, 2. 1, 1. 0, 1. 0) 0.5, 0.5;
  (1. 0, 2. 1, 2. 1, 1. 0, 1. 0, 1. 0, 2. 1, 1. 0, 1. 0) 0.5, 0.5;
  (2. 1, 2. 1, 2. 1, 1. 0, 1. 0, 1. 0, 2. 1, 1. 0, 1. 0) 0.5, 0.5;
  (1. 0, 1. 0, 1. 0, 2. 1, 1. 0, 1. 0, 2. 1, 1. 0, 1. 0) 0.3338741, 0.6661259;
  (2. 1, 1. 0, 1. 0, 2. 1, 1. 0, 1. 0, 2. 1, 1. 0, 1. 0) 0.00483559, 0.99516441;
  (1. 0, 2. 1, 1. 0, 2. 1, 1. 0, 1. 0, 2. 1, 1. 0, 1. 0) 0.5, 0.5;
  (2. 1, 2. 1, 1. 0, 2. 1, 1. 0, 1. 0, 2. 1, 1. 0, 1. 0) 0.5, 0.5;
  (1. 0, 1. 0, 2. 1, 2. 1, 1. 0, 1. 0, 2. 1, 1. 0, 1. 0) 0.5, 0.5;
  (2. 1, 1. 0, 2. 1, 2. 1, 1. 0, 1. 0, 2. 1, 1. 0, 1. 0) 0.5, 0.5;
  (1. 0, 2. 1, 2. 1, 2. 1, 1. 0, 1. 0, 2. 1, 1. 0, 1. 0) 0.00483559, 0.99516441;
  (2. 1, 2. 1, 2. 1, 2. 1, 1. 0, 1. 0, 2. 1, 1. 0, 1. 0) 0.5, 0.5;
  (1. 0, 1. 0, 1. 0, 1. 0, 2. 1, 1. 0, 2. 1, 1. 0, 1. 0) 0.001622323, 0.998377677;
  (2. 1, 1. 0, 1. 0, 1. 0, 2. 1, 1. 0, 2. 1, 1. 0, 1. 0) 0.5, 0.5;
  (1. 0, 2. 1, 1. 0, 1. 0, 2. 1, 1. 0, 2. 1, 1. 0, 1. 0) 0.5, 0.5;
  (2. 1, 2. 1, 1. 0, 1. 0, 2. 1, 1. 0, 2. 1, 1. 0, 1. 0) 0.5, 0.5;
  (1. 0, 1. 0, 2. 1, 1. 0, 2. 1, 1. 0, 2. 1, 1. 0, 1. 0) 0.5, 0.5;
  (2. 1, 1. 0, 2. 1, 1. 0, 2. 1, 1. 0, 2. 1, 1. 0, 1. 0) 0.5, 0.5;
  (1. 0, 2. 1, 2. 1, 1. 0, 2. 1, 1. 0, 2. 1, 1. 0, 1. 0) 0.5, 0.5;
  (2. 1, 2. 1, 2. 1, 1. 0, 2. 1, 1. 0, 2. 1, 1. 0, 1. 0) 0.5, 0.5;
  (1. 0, 1. 0, 1. 0, 2. 1, 2. 1, 1. 0, 2. 1, 1. 0, 1. 0) 0.00483559, 0.99516441;
  (2. 1, 1. 0, 1. 0, 2. 1, 2. 1, 1. 0, 2. 1, 1. 0, 1. 0) 0.5, 0.5;
  (1. 0, 2. 1, 1. 0, 2. 1, 2. 1, 1. 0, 2. 1, 1. 0, 1. 0) 0.00483559, 0.99516441;
  (2. 1, 2. 1, 1. 0, 2. 1, 2. 1, 1. 0, 2. 1, 1. 0, 1. 0) 0.5, 0.5;
  (1. 0, 1. 0, 2. 1, 2. 1, 2. 1, 1. 0, 2. 1, 1. 0, 1. 0) 0.5, 0.5;
  (2. 1, 1. 0, 2. 1, 2. 1, 2. 1, 1. 0, 2. 1, 1. 0, 1. 0) 0.5, 0.5;
  (1. 0, 2. 1, 2. 1, 2. 1, 2. 1, 1. 0, 2. 1, 1. 0, 1. 0) 0.5, 0.5;
  (2. 1, 2. 1, 2. 1, 2. 1, 2. 1, 1. 0, 2. 1, 1. 0, 1. 0) 0.5, 0.5;
  (1. 0, 1. 0, 1. 0, 1. 0, 1. 0, 2. 1, 2. 1, 1. 0, 1. 0) 0.5, 0.5;
  (2. 1, 1. 0, 1. 0, 1. 0, 1. 0, 2. 1, 2. 1, 1. 0, 1. 0) 0.5, 0.5;
  (1. 0, 2. 1, 1. 0, 1. 0, 1. 0, 2. 1, 2. 1, 1. 0, 1. 0) 0.5, 0.5;
  (2. 1, 2. 1, 1. 0, 1. 0, 1. 0, 2. 1, 2. 1, 1. 0, 1. 0) 0.5, 0.5;
  (1. 0, 1. 0, 2. 1, 1. 0, 1. 0, 2. 1, 2. 1, 1. 0, 1. 0) 0.5, 0.5;
  (2. 1, 1. 0, 2. 1, 1. 0, 1. 0, 2. 1, 2. 1, 1. 0, 1. 0) 0.5, 0.5;
  (1. 0, 2. 1, 2. 1, 1. 0, 1. 0, 2. 1, 2. 1, 1. 0, 1. 0) 0.00483559, 0.99516441;
  (2. 1, 2. 1, 2. 1, 1. 0, 1. 0, 2. 1, 2. 1, 1. 0, 1. 0) 0.5, 0.5;
  (1. 0, 1. 0, 1. 0, 2. 1, 1. 0, 2. 1, 2. 1, 1. 0, 1. 0) 0.5, 0.5;
  (2. 1, 1. 0, 1. 0, 2. 1, 1. 0, 2. 1, 2. 1, 1. 0, 1. 0) 0.5, 0.5;
  (1. 0, 2. 1, 1. 0, 2. 1, 1. 0, 2. 1, 2. 1, 1. 0, 1. 0) 0.5, 0.5;
  (2. 1, 2. 1, 1. 0, 2. 1, 1. 0, 2. 1, 2. 1, 1. 0, 1. 0) 0.5, 0.5;
  (1. 0, 1. 0, 2. 1, 2. 1, 1. 0, 2. 1, 2. 1, 1. 0, 1. 0) 0.5, 0.5;
  (2. 1, 1. 0, 2. 1, 2. 1, 1. 0, 2. 1, 2. 1, 1. 0, 1. 0) 0.5, 0.5;
  (1. 0, 2. 1, 2. 1, 2. 1, 1. 0, 2. 1, 2. 1, 1. 0, 1. 0) 0.5, 0.5;
  (2. 1, 2. 1, 2. 1, 2. 1, 1. 0, 2. 1, 2. 1, 1. 0, 1. 0) 0.5, 0.5;
  (1. 0, 1. 0, 1. 0, 1. 0, 2. 1, 2. 1, 2. 1, 1. 0, 1. 0) 0.5, 0.5;
  (2. 1, 1. 0, 1. 0, 1. 0, 2. 1, 2. 1, 2. 1, 1. 0, 1. 0) 0.5, 0.5;
  (1. 0, 2. 1, 1. 0, 1. 0, 2. 1, 2. 1, 2. 1, 1. 0, 1. 0) 0.5, 0.5;
  (2. 1, 2. 1, 1. 0, 1. 0, 2. 1, 2. 1, 2. 1, 1. 0, 1. 0) 0.5, 0.5;
  (1. 0, 1. 0, 2. 1, 1. 0, 2. 1, 2. 1, 2. 1, 1. 0, 1. 0) 0.5, 0.5;
  (2. 1, 1. 0, 2. 1, 1. 0, 2. 1, 2. 1, 2. 1, 1. 0, 1. 0) 0.5, 0.5;
  (1. 0, 2. 1, 2. 1, 1. 0, 2. 1, 2. 1, 2. 1, 1. 0, 1. 0) 0.5, 0.5;
  (2. 1, 2. 1, 2. 1, 1. 0, 2. 1, 2. 1, 2. 1, 1. 0, 1. 0) 0.5, 0.5;
  (1. 0, 1. 0, 1. 0, 2. 1, 2. 1, 2. 1, 2. 1, 1. 0, 1. 0) 0.5, 0.5;
  (2. 1, 1. 0, 1. 0, 2. 1, 2. 1, 2. 1, 2. 1, 1. 0, 1. 0) 0.5, 0.5;
  (1. 0, 2. 1, 1. 0, 2. 1, 2. 1, 2. 1, 2. 1, 1. 0, 1. 0) 0.99516441, 0.00483559;
  (2. 1, 2. 1, 1. 0, 2. 1, 2. 1, 2. 1, 2. 1, 1. 0, 1. 0) 0.5, 0.5;
  (1. 0, 1. 0, 2. 1, 2. 1, 2. 1, 2. 1, 2. 1, 1. 0, 1. 0) 0.5, 0.5;
  (2. 1, 1. 0, 2. 1, 2. 1, 2. 1, 2. 1, 2. 1, 1. 0, 1. 0) 0.5, 0.5;
  (1. 0, 2. 1, 2. 1, 2. 1, 2. 1, 2. 1, 2. 1, 1. 0, 1. 0) 0.5, 0.5;
  (2. 1, 2. 1, 2. 1, 2. 1, 2. 1, 2. 1, 2. 1, 1. 0, 1. 0) 0.5, 0.5;
  (1. 0, 1. 0, 1. 0, 1. 0, 1. 0, 1. 0, 1. 0, 2. 1, 1. 0) 0.1672083, 0.8327917;
  (2. 1, 1. 0, 1. 0, 1. 0, 1. 0, 1. 0, 1. 0, 2. 1, 1. 0) 0.5, 0.5;
  (1. 0, 2. 1, 1. 0, 1. 0, 1. 0, 1. 0, 1. 0, 2. 1, 1. 0) 0.5, 0.5;
  (2. 1, 2. 1, 1. 0, 1. 0, 1. 0, 1. 0, 1. 0, 2. 1, 1. 0) 0.5, 0.5;
  (1. 0, 1. 0, 2. 1, 1. 0, 1. 0, 1. 0, 1. 0, 2. 1, 1. 0) 0.00121773, 0.99878227;
  (2. 1, 1. 0, 2. 1, 1. 0, 1. 0, 1. 0, 1. 0, 2. 1, 1. 0) 0.5, 0.5;
  (1. 0, 2. 1, 2. 1, 1. 0, 1. 0, 1. 0, 1. 0, 2. 1, 1. 0) 0.99516441, 0.00483559;
  (2. 1, 2. 1, 2. 1, 1. 0, 1. 0, 1. 0, 1. 0, 2. 1, 1. 0) 0.5, 0.5;
  (1. 0, 1. 0, 1. 0, 2. 1, 1. 0, 1. 0, 1. 0, 2. 1, 1. 0) 0.99516441, 0.00483559;
  (2. 1, 1. 0, 1. 0, 2. 1, 1. 0, 1. 0, 1. 0, 2. 1, 1. 0) 0.5, 0.5;
  (1. 0, 2. 1, 1. 0, 2. 1, 1. 0, 1. 0, 1. 0, 2. 1, 1. 0) 0.00483559, 0.99516441;
  (2. 1, 2. 1, 1. 0, 2. 1, 1. 0, 1. 0, 1. 0, 2. 1, 1. 0) 0.5, 0.5;
  (1. 0, 1. 0, 2. 1, 2. 1, 1. 0, 1. 0, 1. 0, 2. 1, 1. 0) 0.00483559, 0.99516441;
  (2. 1, 1. 0, 2. 1, 2. 1, 1. 0, 1. 0, 1. 0, 2. 1, 1. 0) 0.5, 0.5;
  (1. 0, 2. 1, 2. 1, 2. 1, 1. 0, 1. 0, 1. 0, 2. 1, 1. 0) 0.99516441, 0.00483559;
  (2. 1, 2. 1, 2. 1, 2. 1, 1. 0, 1. 0, 1. 0, 2. 1, 1. 0) 0.5, 0.5;
  (1. 0, 1. 0, 1. 0, 1. 0, 2. 1, 1. 0, 1. 0, 2. 1, 1. 0) 0.997570457, 0.002429543;
  (2. 1, 1. 0, 1. 0, 1. 0, 2. 1, 1. 0, 1. 0, 2. 1, 1. 0) 0.5, 0.5;
  (1. 0, 2. 1, 1. 0, 1. 0, 2. 1, 1. 0, 1. 0, 2. 1, 1. 0) 0.5, 0.5;
  (2. 1, 2. 1, 1. 0, 1. 0, 2. 1, 1. 0, 1. 0, 2. 1, 1. 0) 0.5, 0.5;
  (1. 0, 1. 0, 2. 1, 1. 0, 2. 1, 1. 0, 1. 0, 2. 1, 1. 0) 0.5, 0.5;
  (2. 1, 1. 0, 2. 1, 1. 0, 2. 1, 1. 0, 1. 0, 2. 1, 1. 0) 0.5, 0.5;
  (1. 0, 2. 1, 2. 1, 1. 0, 2. 1, 1. 0, 1. 0, 2. 1, 1. 0) 0.5, 0.5;
  (2. 1, 2. 1, 2. 1, 1. 0, 2. 1, 1. 0, 1. 0, 2. 1, 1. 0) 0.5, 0.5;
  (1. 0, 1. 0, 1. 0, 2. 1, 2. 1, 1. 0, 1. 0, 2. 1, 1. 0) 0.5, 0.5;
  (2. 1, 1. 0, 1. 0, 2. 1, 2. 1, 1. 0, 1. 0, 2. 1, 1. 0) 0.5, 0.5;
  (1. 0, 2. 1, 1. 0, 2. 1, 2. 1, 1. 0, 1. 0, 2. 1, 1. 0) 0.5, 0.5;
  (2. 1, 2. 1, 1. 0, 2. 1, 2. 1, 1. 0, 1. 0, 2. 1, 1. 0) 0.5, 0.5;
  (1. 0, 1. 0, 2. 1, 2. 1, 2. 1, 1. 0, 1. 0, 2. 1, 1. 0) 0.5, 0.5;
  (2. 1, 1. 0, 2. 1, 2. 1, 2. 1, 1. 0, 1. 0, 2. 1, 1. 0) 0.5, 0.5;
  (1. 0, 2. 1, 2. 1, 2. 1, 2. 1, 1. 0, 1. 0, 2. 1, 1. 0) 0.5, 0.5;
  (2. 1, 2. 1, 2. 1, 2. 1, 2. 1, 1. 0, 1. 0, 2. 1, 1. 0) 0.5, 0.5;
  (1. 0, 1. 0, 1. 0, 1. 0, 1. 0, 2. 1, 1. 0, 2. 1, 1. 0) 0.5, 0.5;
  (2. 1, 1. 0, 1. 0, 1. 0, 1. 0, 2. 1, 1. 0, 2. 1, 1. 0) 0.5, 0.5;
  (1. 0, 2. 1, 1. 0, 1. 0, 1. 0, 2. 1, 1. 0, 2. 1, 1. 0) 0.5, 0.5;
  (2. 1, 2. 1, 1. 0, 1. 0, 1. 0, 2. 1, 1. 0, 2. 1, 1. 0) 0.5, 0.5;
  (1. 0, 1. 0, 2. 1, 1. 0, 1. 0, 2. 1, 1. 0, 2. 1, 1. 0) 0.5, 0.5;
  (2. 1, 1. 0, 2. 1, 1. 0, 1. 0, 2. 1, 1. 0, 2. 1, 1. 0) 0.5, 0.5;
  (1. 0, 2. 1, 2. 1, 1. 0, 1. 0, 2. 1, 1. 0, 2. 1, 1. 0) 0.00483559, 0.99516441;
  (2. 1, 2. 1, 2. 1, 1. 0, 1. 0, 2. 1, 1. 0, 2. 1, 1. 0) 0.5, 0.5;
  (1. 0, 1. 0, 1. 0, 2. 1, 1. 0, 2. 1, 1. 0, 2. 1, 1. 0) 0.5, 0.5;
  (2. 1, 1. 0, 1. 0, 2. 1, 1. 0, 2. 1, 1. 0, 2. 1, 1. 0) 0.99516441, 0.00483559;
  (1. 0, 2. 1, 1. 0, 2. 1, 1. 0, 2. 1, 1. 0, 2. 1, 1. 0) 0.5, 0.5;
  (2. 1, 2. 1, 1. 0, 2. 1, 1. 0, 2. 1, 1. 0, 2. 1, 1. 0) 0.5, 0.5;
  (1. 0, 1. 0, 2. 1, 2. 1, 1. 0, 2. 1, 1. 0, 2. 1, 1. 0) 0.00483559, 0.99516441;
  (2. 1, 1. 0, 2. 1, 2. 1, 1. 0, 2. 1, 1. 0, 2. 1, 1. 0) 0.5, 0.5;
  (1. 0, 2. 1, 2. 1, 2. 1, 1. 0, 2. 1, 1. 0, 2. 1, 1. 0) 0.5, 0.5;
  (2. 1, 2. 1, 2. 1, 2. 1, 1. 0, 2. 1, 1. 0, 2. 1, 1. 0) 0.5, 0.5;
  (1. 0, 1. 0, 1. 0, 1. 0, 2. 1, 2. 1, 1. 0, 2. 1, 1. 0) 0.5, 0.5;
  (2. 1, 1. 0, 1. 0, 1. 0, 2. 1, 2. 1, 1. 0, 2. 1, 1. 0) 0.5, 0.5;
  (1. 0, 2. 1, 1. 0, 1. 0, 2. 1, 2. 1, 1. 0, 2. 1, 1. 0) 0.5, 0.5;
  (2. 1, 2. 1, 1. 0, 1. 0, 2. 1, 2. 1, 1. 0, 2. 1, 1. 0) 0.5, 0.5;
  (1. 0, 1. 0, 2. 1, 1. 0, 2. 1, 2. 1, 1. 0, 2. 1, 1. 0) 0.5, 0.5;
  (2. 1, 1. 0, 2. 1, 1. 0, 2. 1, 2. 1, 1. 0, 2. 1, 1. 0) 0.5, 0.5;
  (1. 0, 2. 1, 2. 1, 1. 0, 2. 1, 2. 1, 1. 0, 2. 1, 1. 0) 0.5, 0.5;
  (2. 1, 2. 1, 2. 1, 1. 0, 2. 1, 2. 1, 1. 0, 2. 1, 1. 0) 0.5, 0.5;
  (1. 0, 1. 0, 1. 0, 2. 1, 2. 1, 2. 1, 1. 0, 2. 1, 1. 0) 0.5, 0.5;
  (2. 1, 1. 0, 1. 0, 2. 1, 2. 1, 2. 1, 1. 0, 2. 1, 1. 0) 0.5, 0.5;
  (1. 0, 2. 1, 1. 0, 2. 1, 2. 1, 2. 1, 1. 0, 2. 1, 1. 0) 0.5, 0.5;
  (2. 1, 2. 1, 1. 0, 2. 1, 2. 1, 2. 1, 1. 0, 2. 1, 1. 0) 0.5, 0.5;
  (1. 0, 1. 0, 2. 1, 2. 1, 2. 1, 2. 1, 1. 0, 2. 1, 1. 0) 0.5, 0.5;
  (2. 1, 1. 0, 2. 1, 2. 1, 2. 1, 2. 1, 1. 0, 2. 1, 1. 0) 0.5, 0.5;
  (1. 0, 2. 1, 2. 1, 2. 1, 2. 1, 2. 1, 1. 0, 2. 1, 1. 0) 0.5, 0.5;
  (2. 1, 2. 1, 2. 1, 2. 1, 2. 1, 2. 1, 1. 0, 2. 1, 1. 0) 0.5, 0.5;
  (1. 0, 1. 0, 1. 0, 1. 0, 1. 0, 1. 0, 2. 1, 2. 1, 1. 0) 0.5, 0.5;
  (2. 1, 1. 0, 1. 0, 1. 0, 1. 0, 1. 0, 2. 1, 2. 1, 1. 0) 0.5, 0.5;
  (1. 0, 2. 1, 1. 0, 1. 0, 1. 0, 1. 0, 2. 1, 2. 1, 1. 0) 0.5, 0.5;
  (2. 1, 2. 1, 1. 0, 1. 0, 1. 0, 1. 0, 2. 1, 2. 1, 1. 0) 0.5, 0.5;
  (1. 0, 1. 0, 2. 1, 1. 0, 1. 0, 1. 0, 2. 1, 2. 1, 1. 0) 0.5, 0.5;
  (2. 1, 1. 0, 2. 1, 1. 0, 1. 0, 1. 0, 2. 1, 2. 1, 1. 0) 0.5, 0.5;
  (1. 0, 2. 1, 2. 1, 1. 0, 1. 0, 1. 0, 2. 1, 2. 1, 1. 0) 0.5, 0.5;
  (2. 1, 2. 1, 2. 1, 1. 0, 1. 0, 1. 0, 2. 1, 2. 1, 1. 0) 0.5, 0.5;
  (1. 0, 1. 0, 1. 0, 2. 1, 1. 0, 1. 0, 2. 1, 2. 1, 1. 0) 0.5, 0.5;
  (2. 1, 1. 0, 1. 0, 2. 1, 1. 0, 1. 0, 2. 1, 2. 1, 1. 0) 0.5, 0.5;
  (1. 0, 2. 1, 1. 0, 2. 1, 1. 0, 1. 0, 2. 1, 2. 1, 1. 0) 0.99516441, 0.00483559;
  (2. 1, 2. 1, 1. 0, 2. 1, 1. 0, 1. 0, 2. 1, 2. 1, 1. 0) 0.5, 0.5;
  (1. 0, 1. 0, 2. 1, 2. 1, 1. 0, 1. 0, 2. 1, 2. 1, 1. 0) 0.5, 0.5;
  (2. 1, 1. 0, 2. 1, 2. 1, 1. 0, 1. 0, 2. 1, 2. 1, 1. 0) 0.5, 0.5;
  (1. 0, 2. 1, 2. 1, 2. 1, 1. 0, 1. 0, 2. 1, 2. 1, 1. 0) 0.00483559, 0.99516441;
  (2. 1, 2. 1, 2. 1, 2. 1, 1. 0, 1. 0, 2. 1, 2. 1, 1. 0) 0.5, 0.5;
  (1. 0, 1. 0, 1. 0, 1. 0, 2. 1, 1. 0, 2. 1, 2. 1, 1. 0) 0.5, 0.5;
  (2. 1, 1. 0, 1. 0, 1. 0, 2. 1, 1. 0, 2. 1, 2. 1, 1. 0) 0.5, 0.5;
  (1. 0, 2. 1, 1. 0, 1. 0, 2. 1, 1. 0, 2. 1, 2. 1, 1. 0) 0.5, 0.5;
  (2. 1, 2. 1, 1. 0, 1. 0, 2. 1, 1. 0, 2. 1, 2. 1, 1. 0) 0.5, 0.5;
  (1. 0, 1. 0, 2. 1, 1. 0, 2. 1, 1. 0, 2. 1, 2. 1, 1. 0) 0.5, 0.5;
  (2. 1, 1. 0, 2. 1, 1. 0, 2. 1, 1. 0, 2. 1, 2. 1, 1. 0) 0.5, 0.5;
  (1. 0, 2. 1, 2. 1, 1. 0, 2. 1, 1. 0, 2. 1, 2. 1, 1. 0) 0.5, 0.5;
  (2. 1, 2. 1, 2. 1, 1. 0, 2. 1, 1. 0, 2. 1, 2. 1, 1. 0) 0.5, 0.5;
  (1. 0, 1. 0, 1. 0, 2. 1, 2. 1, 1. 0, 2. 1, 2. 1, 1. 0) 0.5, 0.5;
  (2. 1, 1. 0, 1. 0, 2. 1, 2. 1, 1. 0, 2. 1, 2. 1, 1. 0) 0.5, 0.5;
  (1. 0, 2. 1, 1. 0, 2. 1, 2. 1, 1. 0, 2. 1, 2. 1, 1. 0) 0.5, 0.5;
  (2. 1, 2. 1, 1. 0, 2. 1, 2. 1, 1. 0, 2. 1, 2. 1, 1. 0) 0.5, 0.5;
  (1. 0, 1. 0, 2. 1, 2. 1, 2. 1, 1. 0, 2. 1, 2. 1, 1. 0) 0.5, 0.5;
  (2. 1, 1. 0, 2. 1, 2. 1, 2. 1, 1. 0, 2. 1, 2. 1, 1. 0) 0.5, 0.5;
  (1. 0, 2. 1, 2. 1, 2. 1, 2. 1, 1. 0, 2. 1, 2. 1, 1. 0) 0.5, 0.5;
  (2. 1, 2. 1, 2. 1, 2. 1, 2. 1, 1. 0, 2. 1, 2. 1, 1. 0) 0.5, 0.5;
  (1. 0, 1. 0, 1. 0, 1. 0, 1. 0, 2. 1, 2. 1, 2. 1, 1. 0) 0.5, 0.5;
  (2. 1, 1. 0, 1. 0, 1. 0, 1. 0, 2. 1, 2. 1, 2. 1, 1. 0) 0.5, 0.5;
  (1. 0, 2. 1, 1. 0, 1. 0, 1. 0, 2. 1, 2. 1, 2. 1, 1. 0) 0.5, 0.5;
  (2. 1, 2. 1, 1. 0, 1. 0, 1. 0, 2. 1, 2. 1, 2. 1, 1. 0) 0.5, 0.5;
  (1. 0, 1. 0, 2. 1, 1. 0, 1. 0, 2. 1, 2. 1, 2. 1, 1. 0) 0.5, 0.5;
  (2. 1, 1. 0, 2. 1, 1. 0, 1. 0, 2. 1, 2. 1, 2. 1, 1. 0) 0.5, 0.5;
  (1. 0, 2. 1, 2. 1, 1. 0, 1. 0, 2. 1, 2. 1, 2. 1, 1. 0) 0.5, 0.5;
  (2. 1, 2. 1, 2. 1, 1. 0, 1. 0, 2. 1, 2. 1, 2. 1, 1. 0) 0.5, 0.5;
  (1. 0, 1. 0, 1. 0, 2. 1, 1. 0, 2. 1, 2. 1, 2. 1, 1. 0) 0.5, 0.5;
  (2. 1, 1. 0, 1. 0, 2. 1, 1. 0, 2. 1, 2. 1, 2. 1, 1. 0) 0.5, 0.5;
  (1. 0, 2. 1, 1. 0, 2. 1, 1. 0, 2. 1, 2. 1, 2. 1, 1. 0) 0.5, 0.5;
  (2. 1, 2. 1, 1. 0, 2. 1, 1. 0, 2. 1, 2. 1, 2. 1, 1. 0) 0.5, 0.5;
  (1. 0, 1. 0, 2. 1, 2. 1, 1. 0, 2. 1, 2. 1, 2. 1, 1. 0) 0.99516441, 0.00483559;
  (2. 1, 1. 0, 2. 1, 2. 1, 1. 0, 2. 1, 2. 1, 2. 1, 1. 0) 0.5, 0.5;
  (1. 0, 2. 1, 2. 1, 2. 1, 1. 0, 2. 1, 2. 1, 2. 1, 1. 0) 0.5, 0.5;
  (2. 1, 2. 1, 2. 1, 2. 1, 1. 0, 2. 1, 2. 1, 2. 1, 1. 0) 0.5, 0.5;
  (1. 0, 1. 0, 1. 0, 1. 0, 2. 1, 2. 1, 2. 1, 2. 1, 1. 0) 0.5, 0.5;
  (2. 1, 1. 0, 1. 0, 1. 0, 2. 1, 2. 1, 2. 1, 2. 1, 1. 0) 0.5, 0.5;
  (1. 0, 2. 1, 1. 0, 1. 0, 2. 1, 2. 1, 2. 1, 2. 1, 1. 0) 0.5, 0.5;
  (2. 1, 2. 1, 1. 0, 1. 0, 2. 1, 2. 1, 2. 1, 2. 1, 1. 0) 0.5, 0.5;
  (1. 0, 1. 0, 2. 1, 1. 0, 2. 1, 2. 1, 2. 1, 2. 1, 1. 0) 0.5, 0.5;
  (2. 1, 1. 0, 2. 1, 1. 0, 2. 1, 2. 1, 2. 1, 2. 1, 1. 0) 0.5, 0.5;
  (1. 0, 2. 1, 2. 1, 1. 0, 2. 1, 2. 1, 2. 1, 2. 1, 1. 0) 0.5, 0.5;
  (2. 1, 2. 1, 2. 1, 1. 0, 2. 1, 2. 1, 2. 1, 2. 1, 1. 0) 0.5, 0.5;
  (1. 0, 1. 0, 1. 0, 2. 1, 2. 1, 2. 1, 2. 1, 2. 1, 1. 0) 0.5, 0.5;
  (2. 1, 1. 0, 1. 0, 2. 1, 2. 1, 2. 1, 2. 1, 2. 1, 1. 0) 0.5, 0.5;
  (1. 0, 2. 1, 1. 0, 2. 1, 2. 1, 2. 1, 2. 1, 2. 1, 1. 0) 0.5, 0.5;
  (2. 1, 2. 1, 1. 0, 2. 1, 2. 1, 2. 1, 2. 1, 2. 1, 1. 0) 0.5, 0.5;
  (1. 0, 1. 0, 2. 1, 2. 1, 2. 1, 2. 1, 2. 1, 2. 1, 1. 0) 0.5, 0.5;
  (2. 1, 1. 0, 2. 1, 2. 1, 2. 1, 2. 1, 2. 1, 2. 1, 1. 0) 0.5, 0.5;
  (1. 0, 2. 1, 2. 1, 2. 1, 2. 1, 2. 1, 2. 1, 2. 1, 1. 0) 0.00483559, 0.99516441;
  (2. 1, 2. 1, 2. 1, 2. 1, 2. 1, 2. 1, 2. 1, 2. 1, 1. 0) 0.5, 0.5;
  (1. 0, 1. 0, 1. 0, 1. 0, 1. 0, 1. 0, 1. 0, 1. 0, 2. 1) 0.5554953, 0.4445047;
  (2. 1, 1. 0, 1. 0, 1. 0, 1. 0, 1. 0, 1. 0, 1. 0, 2. 1) 0.00483559, 0.99516441;
  (1. 0, 2. 1, 1. 0, 1. 0, 1. 0, 1. 0, 1. 0, 1. 0, 2. 1) 0.6661259, 0.3338741;
  (2. 1, 2. 1, 1. 0, 1. 0, 1. 0, 1. 0, 1. 0, 1. 0, 2. 1) 0.99516441, 0.00483559;
  (1. 0, 1. 0, 2. 1, 1. 0, 1. 0, 1. 0, 1. 0, 1. 0, 2. 1) 0.8327917, 0.1672083;
  (2. 1, 1. 0, 2. 1, 1. 0, 1. 0, 1. 0, 1. 0, 1. 0, 2. 1) 0.5, 0.5;
  (1. 0, 2. 1, 2. 1, 1. 0, 1. 0, 1. 0, 1. 0, 1. 0, 2. 1) 0.5, 0.5;
  (2. 1, 2. 1, 2. 1, 1. 0, 1. 0, 1. 0, 1. 0, 1. 0, 2. 1) 0.5, 0.5;
  (1. 0, 1. 0, 1. 0, 2. 1, 1. 0, 1. 0, 1. 0, 1. 0, 2. 1) 0.002429543, 0.997570457;
  (2. 1, 1. 0, 1. 0, 2. 1, 1. 0, 1. 0, 1. 0, 1. 0, 2. 1) 0.5, 0.5;
  (1. 0, 2. 1, 1. 0, 2. 1, 1. 0, 1. 0, 1. 0, 1. 0, 2. 1) 0.5, 0.5;
  (2. 1, 2. 1, 1. 0, 2. 1, 1. 0, 1. 0, 1. 0, 1. 0, 2. 1) 0.5, 0.5;
  (1. 0, 1. 0, 2. 1, 2. 1, 1. 0, 1. 0, 1. 0, 1. 0, 2. 1) 0.00483559, 0.99516441;
  (2. 1, 1. 0, 2. 1, 2. 1, 1. 0, 1. 0, 1. 0, 1. 0, 2. 1) 0.5, 0.5;
  (1. 0, 2. 1, 2. 1, 2. 1, 1. 0, 1. 0, 1. 0, 1. 0, 2. 1) 0.99516441, 0.00483559;
  (2. 1, 2. 1, 2. 1, 2. 1, 1. 0, 1. 0, 1. 0, 1. 0, 2. 1) 0.5, 0.5;
  (1. 0, 1. 0, 1. 0, 1. 0, 2. 1, 1. 0, 1. 0, 1. 0, 2. 1) 0.5, 0.5;
  (2. 1, 1. 0, 1. 0, 1. 0, 2. 1, 1. 0, 1. 0, 1. 0, 2. 1) 0.5, 0.5;
  (1. 0, 2. 1, 1. 0, 1. 0, 2. 1, 1. 0, 1. 0, 1. 0, 2. 1) 0.5, 0.5;
  (2. 1, 2. 1, 1. 0, 1. 0, 2. 1, 1. 0, 1. 0, 1. 0, 2. 1) 0.5, 0.5;
  (1. 0, 1. 0, 2. 1, 1. 0, 2. 1, 1. 0, 1. 0, 1. 0, 2. 1) 0.5, 0.5;
  (2. 1, 1. 0, 2. 1, 1. 0, 2. 1, 1. 0, 1. 0, 1. 0, 2. 1) 0.5, 0.5;
  (1. 0, 2. 1, 2. 1, 1. 0, 2. 1, 1. 0, 1. 0, 1. 0, 2. 1) 0.5, 0.5;
  (2. 1, 2. 1, 2. 1, 1. 0, 2. 1, 1. 0, 1. 0, 1. 0, 2. 1) 0.5, 0.5;
  (1. 0, 1. 0, 1. 0, 2. 1, 2. 1, 1. 0, 1. 0, 1. 0, 2. 1) 0.5, 0.5;
  (2. 1, 1. 0, 1. 0, 2. 1, 2. 1, 1. 0, 1. 0, 1. 0, 2. 1) 0.5, 0.5;
  (1. 0, 2. 1, 1. 0, 2. 1, 2. 1, 1. 0, 1. 0, 1. 0, 2. 1) 0.5, 0.5;
  (2. 1, 2. 1, 1. 0, 2. 1, 2. 1, 1. 0, 1. 0, 1. 0, 2. 1) 0.5, 0.5;
  (1. 0, 1. 0, 2. 1, 2. 1, 2. 1, 1. 0, 1. 0, 1. 0, 2. 1) 0.5, 0.5;
  (2. 1, 1. 0, 2. 1, 2. 1, 2. 1, 1. 0, 1. 0, 1. 0, 2. 1) 0.5, 0.5;
  (1. 0, 2. 1, 2. 1, 2. 1, 2. 1, 1. 0, 1. 0, 1. 0, 2. 1) 0.00483559, 0.99516441;
  (2. 1, 2. 1, 2. 1, 2. 1, 2. 1, 1. 0, 1. 0, 1. 0, 2. 1) 0.5, 0.5;
  (1. 0, 1. 0, 1. 0, 1. 0, 1. 0, 2. 1, 1. 0, 1. 0, 2. 1) 0.5, 0.5;
  (2. 1, 1. 0, 1. 0, 1. 0, 1. 0, 2. 1, 1. 0, 1. 0, 2. 1) 0.99516441, 0.00483559;
  (1. 0, 2. 1, 1. 0, 1. 0, 1. 0, 2. 1, 1. 0, 1. 0, 2. 1) 0.5, 0.5;
  (2. 1, 2. 1, 1. 0, 1. 0, 1. 0, 2. 1, 1. 0, 1. 0, 2. 1) 0.5, 0.5;
  (1. 0, 1. 0, 2. 1, 1. 0, 1. 0, 2. 1, 1. 0, 1. 0, 2. 1) 0.99516441, 0.00483559;
  (2. 1, 1. 0, 2. 1, 1. 0, 1. 0, 2. 1, 1. 0, 1. 0, 2. 1) 0.5, 0.5;
  (1. 0, 2. 1, 2. 1, 1. 0, 1. 0, 2. 1, 1. 0, 1. 0, 2. 1) 0.99516441, 0.00483559;
  (2. 1, 2. 1, 2. 1, 1. 0, 1. 0, 2. 1, 1. 0, 1. 0, 2. 1) 0.5, 0.5;
  (1. 0, 1. 0, 1. 0, 2. 1, 1. 0, 2. 1, 1. 0, 1. 0, 2. 1) 0.00483559, 0.99516441;
  (2. 1, 1. 0, 1. 0, 2. 1, 1. 0, 2. 1, 1. 0, 1. 0, 2. 1) 0.5, 0.5;
  (1. 0, 2. 1, 1. 0, 2. 1, 1. 0, 2. 1, 1. 0, 1. 0, 2. 1) 0.00483559, 0.99516441;
  (2. 1, 2. 1, 1. 0, 2. 1, 1. 0, 2. 1, 1. 0, 1. 0, 2. 1) 0.5, 0.5;
  (1. 0, 1. 0, 2. 1, 2. 1, 1. 0, 2. 1, 1. 0, 1. 0, 2. 1) 0.00483559, 0.99516441;
  (2. 1, 1. 0, 2. 1, 2. 1, 1. 0, 2. 1, 1. 0, 1. 0, 2. 1) 0.5, 0.5;
  (1. 0, 2. 1, 2. 1, 2. 1, 1. 0, 2. 1, 1. 0, 1. 0, 2. 1) 0.5, 0.5;
  (2. 1, 2. 1, 2. 1, 2. 1, 1. 0, 2. 1, 1. 0, 1. 0, 2. 1) 0.5, 0.5;
  (1. 0, 1. 0, 1. 0, 1. 0, 2. 1, 2. 1, 1. 0, 1. 0, 2. 1) 0.5, 0.5;
  (2. 1, 1. 0, 1. 0, 1. 0, 2. 1, 2. 1, 1. 0, 1. 0, 2. 1) 0.5, 0.5;
  (1. 0, 2. 1, 1. 0, 1. 0, 2. 1, 2. 1, 1. 0, 1. 0, 2. 1) 0.5, 0.5;
  (2. 1, 2. 1, 1. 0, 1. 0, 2. 1, 2. 1, 1. 0, 1. 0, 2. 1) 0.5, 0.5;
  (1. 0, 1. 0, 2. 1, 1. 0, 2. 1, 2. 1, 1. 0, 1. 0, 2. 1) 0.5, 0.5;
  (2. 1, 1. 0, 2. 1, 1. 0, 2. 1, 2. 1, 1. 0, 1. 0, 2. 1) 0.5, 0.5;
  (1. 0, 2. 1, 2. 1, 1. 0, 2. 1, 2. 1, 1. 0, 1. 0, 2. 1) 0.5, 0.5;
  (2. 1, 2. 1, 2. 1, 1. 0, 2. 1, 2. 1, 1. 0, 1. 0, 2. 1) 0.5, 0.5;
  (1. 0, 1. 0, 1. 0, 2. 1, 2. 1, 2. 1, 1. 0, 1. 0, 2. 1) 0.5, 0.5;
  (2. 1, 1. 0, 1. 0, 2. 1, 2. 1, 2. 1, 1. 0, 1. 0, 2. 1) 0.5, 0.5;
  (1. 0, 2. 1, 1. 0, 2. 1, 2. 1, 2. 1, 1. 0, 1. 0, 2. 1) 0.5, 0.5;
  (2. 1, 2. 1, 1. 0, 2. 1, 2. 1, 2. 1, 1. 0, 1. 0, 2. 1) 0.99516441, 0.00483559;
  (1. 0, 1. 0, 2. 1, 2. 1, 2. 1, 2. 1, 1. 0, 1. 0, 2. 1) 0.5, 0.5;
  (2. 1, 1. 0, 2. 1, 2. 1, 2. 1, 2. 1, 1. 0, 1. 0, 2. 1) 0.5, 0.5;
  (1. 0, 2. 1, 2. 1, 2. 1, 2. 1, 2. 1, 1. 0, 1. 0, 2. 1) 0.00483559, 0.99516441;
  (2. 1, 2. 1, 2. 1, 2. 1, 2. 1, 2. 1, 1. 0, 1. 0, 2. 1) 0.00483559, 0.99516441;
  (1. 0, 1. 0, 1. 0, 1. 0, 1. 0, 1. 0, 2. 1, 1. 0, 2. 1) 0.5, 0.5;
  (2. 1, 1. 0, 1. 0, 1. 0, 1. 0, 1. 0, 2. 1, 1. 0, 2. 1) 0.5, 0.5;
  (1. 0, 2. 1, 1. 0, 1. 0, 1. 0, 1. 0, 2. 1, 1. 0, 2. 1) 0.5, 0.5;
  (2. 1, 2. 1, 1. 0, 1. 0, 1. 0, 1. 0, 2. 1, 1. 0, 2. 1) 0.5, 0.5;
  (1. 0, 1. 0, 2. 1, 1. 0, 1. 0, 1. 0, 2. 1, 1. 0, 2. 1) 0.00483559, 0.99516441;
  (2. 1, 1. 0, 2. 1, 1. 0, 1. 0, 1. 0, 2. 1, 1. 0, 2. 1) 0.5, 0.5;
  (1. 0, 2. 1, 2. 1, 1. 0, 1. 0, 1. 0, 2. 1, 1. 0, 2. 1) 0.5, 0.5;
  (2. 1, 2. 1, 2. 1, 1. 0, 1. 0, 1. 0, 2. 1, 1. 0, 2. 1) 0.5, 0.5;
  (1. 0, 1. 0, 1. 0, 2. 1, 1. 0, 1. 0, 2. 1, 1. 0, 2. 1) 0.00483559, 0.99516441;
  (2. 1, 1. 0, 1. 0, 2. 1, 1. 0, 1. 0, 2. 1, 1. 0, 2. 1) 0.00483559, 0.99516441;
  (1. 0, 2. 1, 1. 0, 2. 1, 1. 0, 1. 0, 2. 1, 1. 0, 2. 1) 0.997570457, 0.002429543;
  (2. 1, 2. 1, 1. 0, 2. 1, 1. 0, 1. 0, 2. 1, 1. 0, 2. 1) 0.00483559, 0.99516441;
  (1. 0, 1. 0, 2. 1, 2. 1, 1. 0, 1. 0, 2. 1, 1. 0, 2. 1) 0.5, 0.5;
  (2. 1, 1. 0, 2. 1, 2. 1, 1. 0, 1. 0, 2. 1, 1. 0, 2. 1) 0.5, 0.5;
  (1. 0, 2. 1, 2. 1, 2. 1, 1. 0, 1. 0, 2. 1, 1. 0, 2. 1) 0.5, 0.5;
  (2. 1, 2. 1, 2. 1, 2. 1, 1. 0, 1. 0, 2. 1, 1. 0, 2. 1) 0.5, 0.5;
  (1. 0, 1. 0, 1. 0, 1. 0, 2. 1, 1. 0, 2. 1, 1. 0, 2. 1) 0.5, 0.5;
  (2. 1, 1. 0, 1. 0, 1. 0, 2. 1, 1. 0, 2. 1, 1. 0, 2. 1) 0.5, 0.5;
  (1. 0, 2. 1, 1. 0, 1. 0, 2. 1, 1. 0, 2. 1, 1. 0, 2. 1) 0.5, 0.5;
  (2. 1, 2. 1, 1. 0, 1. 0, 2. 1, 1. 0, 2. 1, 1. 0, 2. 1) 0.5, 0.5;
  (1. 0, 1. 0, 2. 1, 1. 0, 2. 1, 1. 0, 2. 1, 1. 0, 2. 1) 0.99516441, 0.00483559;
  (2. 1, 1. 0, 2. 1, 1. 0, 2. 1, 1. 0, 2. 1, 1. 0, 2. 1) 0.5, 0.5;
  (1. 0, 2. 1, 2. 1, 1. 0, 2. 1, 1. 0, 2. 1, 1. 0, 2. 1) 0.5, 0.5;
  (2. 1, 2. 1, 2. 1, 1. 0, 2. 1, 1. 0, 2. 1, 1. 0, 2. 1) 0.5, 0.5;
  (1. 0, 1. 0, 1. 0, 2. 1, 2. 1, 1. 0, 2. 1, 1. 0, 2. 1) 0.5, 0.5;
  (2. 1, 1. 0, 1. 0, 2. 1, 2. 1, 1. 0, 2. 1, 1. 0, 2. 1) 0.5, 0.5;
  (1. 0, 2. 1, 1. 0, 2. 1, 2. 1, 1. 0, 2. 1, 1. 0, 2. 1) 0.5, 0.5;
  (2. 1, 2. 1, 1. 0, 2. 1, 2. 1, 1. 0, 2. 1, 1. 0, 2. 1) 0.5, 0.5;
  (1. 0, 1. 0, 2. 1, 2. 1, 2. 1, 1. 0, 2. 1, 1. 0, 2. 1) 0.5, 0.5;
  (2. 1, 1. 0, 2. 1, 2. 1, 2. 1, 1. 0, 2. 1, 1. 0, 2. 1) 0.00483559, 0.99516441;
  (1. 0, 2. 1, 2. 1, 2. 1, 2. 1, 1. 0, 2. 1, 1. 0, 2. 1) 0.5, 0.5;
  (2. 1, 2. 1, 2. 1, 2. 1, 2. 1, 1. 0, 2. 1, 1. 0, 2. 1) 0.5, 0.5;
  (1. 0, 1. 0, 1. 0, 1. 0, 1. 0, 2. 1, 2. 1, 1. 0, 2. 1) 0.5, 0.5;
  (2. 1, 1. 0, 1. 0, 1. 0, 1. 0, 2. 1, 2. 1, 1. 0, 2. 1) 0.5, 0.5;
  (1. 0, 2. 1, 1. 0, 1. 0, 1. 0, 2. 1, 2. 1, 1. 0, 2. 1) 0.00483559, 0.99516441;
  (2. 1, 2. 1, 1. 0, 1. 0, 1. 0, 2. 1, 2. 1, 1. 0, 2. 1) 0.5, 0.5;
  (1. 0, 1. 0, 2. 1, 1. 0, 1. 0, 2. 1, 2. 1, 1. 0, 2. 1) 0.00483559, 0.99516441;
  (2. 1, 1. 0, 2. 1, 1. 0, 1. 0, 2. 1, 2. 1, 1. 0, 2. 1) 0.5, 0.5;
  (1. 0, 2. 1, 2. 1, 1. 0, 1. 0, 2. 1, 2. 1, 1. 0, 2. 1) 0.5, 0.5;
  (2. 1, 2. 1, 2. 1, 1. 0, 1. 0, 2. 1, 2. 1, 1. 0, 2. 1) 0.5, 0.5;
  (1. 0, 1. 0, 1. 0, 2. 1, 1. 0, 2. 1, 2. 1, 1. 0, 2. 1) 0.5, 0.5;
  (2. 1, 1. 0, 1. 0, 2. 1, 1. 0, 2. 1, 2. 1, 1. 0, 2. 1) 0.5, 0.5;
  (1. 0, 2. 1, 1. 0, 2. 1, 1. 0, 2. 1, 2. 1, 1. 0, 2. 1) 0.5, 0.5;
  (2. 1, 2. 1, 1. 0, 2. 1, 1. 0, 2. 1, 2. 1, 1. 0, 2. 1) 0.5, 0.5;
  (1. 0, 1. 0, 2. 1, 2. 1, 1. 0, 2. 1, 2. 1, 1. 0, 2. 1) 0.5, 0.5;
  (2. 1, 1. 0, 2. 1, 2. 1, 1. 0, 2. 1, 2. 1, 1. 0, 2. 1) 0.002429543, 0.997570457;
  (1. 0, 2. 1, 2. 1, 2. 1, 1. 0, 2. 1, 2. 1, 1. 0, 2. 1) 0.99516441, 0.00483559;
  (2. 1, 2. 1, 2. 1, 2. 1, 1. 0, 2. 1, 2. 1, 1. 0, 2. 1) 0.5, 0.5;
  (1. 0, 1. 0, 1. 0, 1. 0, 2. 1, 2. 1, 2. 1, 1. 0, 2. 1) 0.5, 0.5;
  (2. 1, 1. 0, 1. 0, 1. 0, 2. 1, 2. 1, 2. 1, 1. 0, 2. 1) 0.5, 0.5;
  (1. 0, 2. 1, 1. 0, 1. 0, 2. 1, 2. 1, 2. 1, 1. 0, 2. 1) 0.5, 0.5;
  (2. 1, 2. 1, 1. 0, 1. 0, 2. 1, 2. 1, 2. 1, 1. 0, 2. 1) 0.5, 0.5;
  (1. 0, 1. 0, 2. 1, 1. 0, 2. 1, 2. 1, 2. 1, 1. 0, 2. 1) 0.5, 0.5;
  (2. 1, 1. 0, 2. 1, 1. 0, 2. 1, 2. 1, 2. 1, 1. 0, 2. 1) 0.5, 0.5;
  (1. 0, 2. 1, 2. 1, 1. 0, 2. 1, 2. 1, 2. 1, 1. 0, 2. 1) 0.5, 0.5;
  (2. 1, 2. 1, 2. 1, 1. 0, 2. 1, 2. 1, 2. 1, 1. 0, 2. 1) 0.5, 0.5;
  (1. 0, 1. 0, 1. 0, 2. 1, 2. 1, 2. 1, 2. 1, 1. 0, 2. 1) 0.99516441, 0.00483559;
  (2. 1, 1. 0, 1. 0, 2. 1, 2. 1, 2. 1, 2. 1, 1. 0, 2. 1) 0.5, 0.5;
  (1. 0, 2. 1, 1. 0, 2. 1, 2. 1, 2. 1, 2. 1, 1. 0, 2. 1) 0.5, 0.5;
  (2. 1, 2. 1, 1. 0, 2. 1, 2. 1, 2. 1, 2. 1, 1. 0, 2. 1) 0.5, 0.5;
  (1. 0, 1. 0, 2. 1, 2. 1, 2. 1, 2. 1, 2. 1, 1. 0, 2. 1) 0.5, 0.5;
  (2. 1, 1. 0, 2. 1, 2. 1, 2. 1, 2. 1, 2. 1, 1. 0, 2. 1) 0.5, 0.5;
  (1. 0, 2. 1, 2. 1, 2. 1, 2. 1, 2. 1, 2. 1, 1. 0, 2. 1) 0.00483559, 0.99516441;
  (2. 1, 2. 1, 2. 1, 2. 1, 2. 1, 2. 1, 2. 1, 1. 0, 2. 1) 0.5, 0.5;
  (1. 0, 1. 0, 1. 0, 1. 0, 1. 0, 1. 0, 1. 0, 2. 1, 2. 1) 0.99516441, 0.00483559;
  (2. 1, 1. 0, 1. 0, 1. 0, 1. 0, 1. 0, 1. 0, 2. 1, 2. 1) 0.5, 0.5;
  (1. 0, 2. 1, 1. 0, 1. 0, 1. 0, 1. 0, 1. 0, 2. 1, 2. 1) 0.5, 0.5;
  (2. 1, 2. 1, 1. 0, 1. 0, 1. 0, 1. 0, 1. 0, 2. 1, 2. 1) 0.5, 0.5;
  (1. 0, 1. 0, 2. 1, 1. 0, 1. 0, 1. 0, 1. 0, 2. 1, 2. 1) 0.5, 0.5;
  (2. 1, 1. 0, 2. 1, 1. 0, 1. 0, 1. 0, 1. 0, 2. 1, 2. 1) 0.5, 0.5;
  (1. 0, 2. 1, 2. 1, 1. 0, 1. 0, 1. 0, 1. 0, 2. 1, 2. 1) 0.5, 0.5;
  (2. 1, 2. 1, 2. 1, 1. 0, 1. 0, 1. 0, 1. 0, 2. 1, 2. 1) 0.5, 0.5;
  (1. 0, 1. 0, 1. 0, 2. 1, 1. 0, 1. 0, 1. 0, 2. 1, 2. 1) 0.5, 0.5;
  (2. 1, 1. 0, 1. 0, 2. 1, 1. 0, 1. 0, 1. 0, 2. 1, 2. 1) 0.5, 0.5;
  (1. 0, 2. 1, 1. 0, 2. 1, 1. 0, 1. 0, 1. 0, 2. 1, 2. 1) 0.5, 0.5;
  (2. 1, 2. 1, 1. 0, 2. 1, 1. 0, 1. 0, 1. 0, 2. 1, 2. 1) 0.5, 0.5;
  (1. 0, 1. 0, 2. 1, 2. 1, 1. 0, 1. 0, 1. 0, 2. 1, 2. 1) 0.5, 0.5;
  (2. 1, 1. 0, 2. 1, 2. 1, 1. 0, 1. 0, 1. 0, 2. 1, 2. 1) 0.5, 0.5;
  (1. 0, 2. 1, 2. 1, 2. 1, 1. 0, 1. 0, 1. 0, 2. 1, 2. 1) 0.5, 0.5;
  (2. 1, 2. 1, 2. 1, 2. 1, 1. 0, 1. 0, 1. 0, 2. 1, 2. 1) 0.00483559, 0.99516441;
  (1. 0, 1. 0, 1. 0, 1. 0, 2. 1, 1. 0, 1. 0, 2. 1, 2. 1) 0.00483559, 0.99516441;
  (2. 1, 1. 0, 1. 0, 1. 0, 2. 1, 1. 0, 1. 0, 2. 1, 2. 1) 0.5, 0.5;
  (1. 0, 2. 1, 1. 0, 1. 0, 2. 1, 1. 0, 1. 0, 2. 1, 2. 1) 0.5, 0.5;
  (2. 1, 2. 1, 1. 0, 1. 0, 2. 1, 1. 0, 1. 0, 2. 1, 2. 1) 0.5, 0.5;
  (1. 0, 1. 0, 2. 1, 1. 0, 2. 1, 1. 0, 1. 0, 2. 1, 2. 1) 0.5, 0.5;
  (2. 1, 1. 0, 2. 1, 1. 0, 2. 1, 1. 0, 1. 0, 2. 1, 2. 1) 0.5, 0.5;
  (1. 0, 2. 1, 2. 1, 1. 0, 2. 1, 1. 0, 1. 0, 2. 1, 2. 1) 0.5, 0.5;
  (2. 1, 2. 1, 2. 1, 1. 0, 2. 1, 1. 0, 1. 0, 2. 1, 2. 1) 0.5, 0.5;
  (1. 0, 1. 0, 1. 0, 2. 1, 2. 1, 1. 0, 1. 0, 2. 1, 2. 1) 0.5, 0.5;
  (2. 1, 1. 0, 1. 0, 2. 1, 2. 1, 1. 0, 1. 0, 2. 1, 2. 1) 0.5, 0.5;
  (1. 0, 2. 1, 1. 0, 2. 1, 2. 1, 1. 0, 1. 0, 2. 1, 2. 1) 0.00483559, 0.99516441;
  (2. 1, 2. 1, 1. 0, 2. 1, 2. 1, 1. 0, 1. 0, 2. 1, 2. 1) 0.5, 0.5;
  (1. 0, 1. 0, 2. 1, 2. 1, 2. 1, 1. 0, 1. 0, 2. 1, 2. 1) 0.5, 0.5;
  (2. 1, 1. 0, 2. 1, 2. 1, 2. 1, 1. 0, 1. 0, 2. 1, 2. 1) 0.5, 0.5;
  (1. 0, 2. 1, 2. 1, 2. 1, 2. 1, 1. 0, 1. 0, 2. 1, 2. 1) 0.5, 0.5;
  (2. 1, 2. 1, 2. 1, 2. 1, 2. 1, 1. 0, 1. 0, 2. 1, 2. 1) 0.5, 0.5;
  (1. 0, 1. 0, 1. 0, 1. 0, 1. 0, 2. 1, 1. 0, 2. 1, 2. 1) 0.5, 0.5;
  (2. 1, 1. 0, 1. 0, 1. 0, 1. 0, 2. 1, 1. 0, 2. 1, 2. 1) 0.5, 0.5;
  (1. 0, 2. 1, 1. 0, 1. 0, 1. 0, 2. 1, 1. 0, 2. 1, 2. 1) 0.5, 0.5;
  (2. 1, 2. 1, 1. 0, 1. 0, 1. 0, 2. 1, 1. 0, 2. 1, 2. 1) 0.5, 0.5;
  (1. 0, 1. 0, 2. 1, 1. 0, 1. 0, 2. 1, 1. 0, 2. 1, 2. 1) 0.5, 0.5;
  (2. 1, 1. 0, 2. 1, 1. 0, 1. 0, 2. 1, 1. 0, 2. 1, 2. 1) 0.5, 0.5;
  (1. 0, 2. 1, 2. 1, 1. 0, 1. 0, 2. 1, 1. 0, 2. 1, 2. 1) 0.5, 0.5;
  (2. 1, 2. 1, 2. 1, 1. 0, 1. 0, 2. 1, 1. 0, 2. 1, 2. 1) 0.00483559, 0.99516441;
  (1. 0, 1. 0, 1. 0, 2. 1, 1. 0, 2. 1, 1. 0, 2. 1, 2. 1) 0.5, 0.5;
  (2. 1, 1. 0, 1. 0, 2. 1, 1. 0, 2. 1, 1. 0, 2. 1, 2. 1) 0.5, 0.5;
  (1. 0, 2. 1, 1. 0, 2. 1, 1. 0, 2. 1, 1. 0, 2. 1, 2. 1) 0.00483559, 0.99516441;
  (2. 1, 2. 1, 1. 0, 2. 1, 1. 0, 2. 1, 1. 0, 2. 1, 2. 1) 0.5, 0.5;
  (1. 0, 1. 0, 2. 1, 2. 1, 1. 0, 2. 1, 1. 0, 2. 1, 2. 1) 0.5, 0.5;
  (2. 1, 1. 0, 2. 1, 2. 1, 1. 0, 2. 1, 1. 0, 2. 1, 2. 1) 0.5, 0.5;
  (1. 0, 2. 1, 2. 1, 2. 1, 1. 0, 2. 1, 1. 0, 2. 1, 2. 1) 0.5, 0.5;
  (2. 1, 2. 1, 2. 1, 2. 1, 1. 0, 2. 1, 1. 0, 2. 1, 2. 1) 0.5, 0.5;
  (1. 0, 1. 0, 1. 0, 1. 0, 2. 1, 2. 1, 1. 0, 2. 1, 2. 1) 0.5, 0.5;
  (2. 1, 1. 0, 1. 0, 1. 0, 2. 1, 2. 1, 1. 0, 2. 1, 2. 1) 0.5, 0.5;
  (1. 0, 2. 1, 1. 0, 1. 0, 2. 1, 2. 1, 1. 0, 2. 1, 2. 1) 0.5, 0.5;
  (2. 1, 2. 1, 1. 0, 1. 0, 2. 1, 2. 1, 1. 0, 2. 1, 2. 1) 0.5, 0.5;
  (1. 0, 1. 0, 2. 1, 1. 0, 2. 1, 2. 1, 1. 0, 2. 1, 2. 1) 0.5, 0.5;
  (2. 1, 1. 0, 2. 1, 1. 0, 2. 1, 2. 1, 1. 0, 2. 1, 2. 1) 0.5, 0.5;
  (1. 0, 2. 1, 2. 1, 1. 0, 2. 1, 2. 1, 1. 0, 2. 1, 2. 1) 0.5, 0.5;
  (2. 1, 2. 1, 2. 1, 1. 0, 2. 1, 2. 1, 1. 0, 2. 1, 2. 1) 0.5, 0.5;
  (1. 0, 1. 0, 1. 0, 2. 1, 2. 1, 2. 1, 1. 0, 2. 1, 2. 1) 0.5, 0.5;
  (2. 1, 1. 0, 1. 0, 2. 1, 2. 1, 2. 1, 1. 0, 2. 1, 2. 1) 0.5, 0.5;
  (1. 0, 2. 1, 1. 0, 2. 1, 2. 1, 2. 1, 1. 0, 2. 1, 2. 1) 0.5, 0.5;
  (2. 1, 2. 1, 1. 0, 2. 1, 2. 1, 2. 1, 1. 0, 2. 1, 2. 1) 0.5, 0.5;
  (1. 0, 1. 0, 2. 1, 2. 1, 2. 1, 2. 1, 1. 0, 2. 1, 2. 1) 0.5, 0.5;
  (2. 1, 1. 0, 2. 1, 2. 1, 2. 1, 2. 1, 1. 0, 2. 1, 2. 1) 0.5, 0.5;
  (1. 0, 2. 1, 2. 1, 2. 1, 2. 1, 2. 1, 1. 0, 2. 1, 2. 1) 0.5, 0.5;
  (2. 1, 2. 1, 2. 1, 2. 1, 2. 1, 2. 1, 1. 0, 2. 1, 2. 1) 0.5, 0.5;
  (1. 0, 1. 0, 1. 0, 1. 0, 1. 0, 1. 0, 2. 1, 2. 1, 2. 1) 0.5, 0.5;
  (2. 1, 1. 0, 1. 0, 1. 0, 1. 0, 1. 0, 2. 1, 2. 1, 2. 1) 0.5, 0.5;
  (1. 0, 2. 1, 1. 0, 1. 0, 1. 0, 1. 0, 2. 1, 2. 1, 2. 1) 0.5, 0.5;
  (2. 1, 2. 1, 1. 0, 1. 0, 1. 0, 1. 0, 2. 1, 2. 1, 2. 1) 0.5, 0.5;
  (1. 0, 1. 0, 2. 1, 1. 0, 1. 0, 1. 0, 2. 1, 2. 1, 2. 1) 0.5, 0.5;
  (2. 1, 1. 0, 2. 1, 1. 0, 1. 0, 1. 0, 2. 1, 2. 1, 2. 1) 0.5, 0.5;
  (1. 0, 2. 1, 2. 1, 1. 0, 1. 0, 1. 0, 2. 1, 2. 1, 2. 1) 0.5, 0.5;
  (2. 1, 2. 1, 2. 1, 1. 0, 1. 0, 1. 0, 2. 1, 2. 1, 2. 1) 0.5, 0.5;
  (1. 0, 1. 0, 1. 0, 2. 1, 1. 0, 1. 0, 2. 1, 2. 1, 2. 1) 0.5, 0.5;
  (2. 1, 1. 0, 1. 0, 2. 1, 1. 0, 1. 0, 2. 1, 2. 1, 2. 1) 0.5, 0.5;
  (1. 0, 2. 1, 1. 0, 2. 1, 1. 0, 1. 0, 2. 1, 2. 1, 2. 1) 0.5, 0.5;
  (2. 1, 2. 1, 1. 0, 2. 1, 1. 0, 1. 0, 2. 1, 2. 1, 2. 1) 0.5, 0.5;
  (1. 0, 1. 0, 2. 1, 2. 1, 1. 0, 1. 0, 2. 1, 2. 1, 2. 1) 0.00483559, 0.99516441;
  (2. 1, 1. 0, 2. 1, 2. 1, 1. 0, 1. 0, 2. 1, 2. 1, 2. 1) 0.5, 0.5;
  (1. 0, 2. 1, 2. 1, 2. 1, 1. 0, 1. 0, 2. 1, 2. 1, 2. 1) 0.5, 0.5;
  (2. 1, 2. 1, 2. 1, 2. 1, 1. 0, 1. 0, 2. 1, 2. 1, 2. 1) 0.5, 0.5;
  (1. 0, 1. 0, 1. 0, 1. 0, 2. 1, 1. 0, 2. 1, 2. 1, 2. 1) 0.5, 0.5;
  (2. 1, 1. 0, 1. 0, 1. 0, 2. 1, 1. 0, 2. 1, 2. 1, 2. 1) 0.5, 0.5;
  (1. 0, 2. 1, 1. 0, 1. 0, 2. 1, 1. 0, 2. 1, 2. 1, 2. 1) 0.5, 0.5;
  (2. 1, 2. 1, 1. 0, 1. 0, 2. 1, 1. 0, 2. 1, 2. 1, 2. 1) 0.5, 0.5;
  (1. 0, 1. 0, 2. 1, 1. 0, 2. 1, 1. 0, 2. 1, 2. 1, 2. 1) 0.5, 0.5;
  (2. 1, 1. 0, 2. 1, 1. 0, 2. 1, 1. 0, 2. 1, 2. 1, 2. 1) 0.5, 0.5;
  (1. 0, 2. 1, 2. 1, 1. 0, 2. 1, 1. 0, 2. 1, 2. 1, 2. 1) 0.5, 0.5;
  (2. 1, 2. 1, 2. 1, 1. 0, 2. 1, 1. 0, 2. 1, 2. 1, 2. 1) 0.5, 0.5;
  (1. 0, 1. 0, 1. 0, 2. 1, 2. 1, 1. 0, 2. 1, 2. 1, 2. 1) 0.5, 0.5;
  (2. 1, 1. 0, 1. 0, 2. 1, 2. 1, 1. 0, 2. 1, 2. 1, 2. 1) 0.5, 0.5;
  (1. 0, 2. 1, 1. 0, 2. 1, 2. 1, 1. 0, 2. 1, 2. 1, 2. 1) 0.5, 0.5;
  (2. 1, 2. 1, 1. 0, 2. 1, 2. 1, 1. 0, 2. 1, 2. 1, 2. 1) 0.5, 0.5;
  (1. 0, 1. 0, 2. 1, 2. 1, 2. 1, 1. 0, 2. 1, 2. 1, 2. 1) 0.5, 0.5;
  (2. 1, 1. 0, 2. 1, 2. 1, 2. 1, 1. 0, 2. 1, 2. 1, 2. 1) 0.5, 0.5;
  (1. 0, 2. 1, 2. 1, 2. 1, 2. 1, 1. 0, 2. 1, 2. 1, 2. 1) 0.5, 0.5;
  (2. 1, 2. 1, 2. 1, 2. 1, 2. 1, 1. 0, 2. 1, 2. 1, 2. 1) 0.5, 0.5;
  (1. 0, 1. 0, 1. 0, 1. 0, 1. 0, 2. 1, 2. 1, 2. 1, 2. 1) 0.5, 0.5;
  (2. 1, 1. 0, 1. 0, 1. 0, 1. 0, 2. 1, 2. 1, 2. 1, 2. 1) 0.5, 0.5;
  (1. 0, 2. 1, 1. 0, 1. 0, 1. 0, 2. 1, 2. 1, 2. 1, 2. 1) 0.5, 0.5;
  (2. 1, 2. 1, 1. 0, 1. 0, 1. 0, 2. 1, 2. 1, 2. 1, 2. 1) 0.5, 0.5;
  (1. 0, 1. 0, 2. 1, 1. 0, 1. 0, 2. 1, 2. 1, 2. 1, 2. 1) 0.5, 0.5;
  (2. 1, 1. 0, 2. 1, 1. 0, 1. 0, 2. 1, 2. 1, 2. 1, 2. 1) 0.5, 0.5;
  (1. 0, 2. 1, 2. 1, 1. 0, 1. 0, 2. 1, 2. 1, 2. 1, 2. 1) 0.5, 0.5;
  (2. 1, 2. 1, 2. 1, 1. 0, 1. 0, 2. 1, 2. 1, 2. 1, 2. 1) 0.5, 0.5;
  (1. 0, 1. 0, 1. 0, 2. 1, 1. 0, 2. 1, 2. 1, 2. 1, 2. 1) 0.5, 0.5;
  (2. 1, 1. 0, 1. 0, 2. 1, 1. 0, 2. 1, 2. 1, 2. 1, 2. 1) 0.5, 0.5;
  (1. 0, 2. 1, 1. 0, 2. 1, 1. 0, 2. 1, 2. 1, 2. 1, 2. 1) 0.5, 0.5;
  (2. 1, 2. 1, 1. 0, 2. 1, 1. 0, 2. 1, 2. 1, 2. 1, 2. 1) 0.5, 0.5;
  (1. 0, 1. 0, 2. 1, 2. 1, 1. 0, 2. 1, 2. 1, 2. 1, 2. 1) 0.5, 0.5;
  (2. 1, 1. 0, 2. 1, 2. 1, 1. 0, 2. 1, 2. 1, 2. 1, 2. 1) 0.5, 0.5;
  (1. 0, 2. 1, 2. 1, 2. 1, 1. 0, 2. 1, 2. 1, 2. 1, 2. 1) 0.5, 0.5;
  (2. 1, 2. 1, 2. 1, 2. 1, 1. 0, 2. 1, 2. 1, 2. 1, 2. 1) 0.00483559, 0.99516441;
  (1. 0, 1. 0, 1. 0, 1. 0, 2. 1, 2. 1, 2. 1, 2. 1, 2. 1) 0.5, 0.5;
  (2. 1, 1. 0, 1. 0, 1. 0, 2. 1, 2. 1, 2. 1, 2. 1, 2. 1) 0.5, 0.5;
  (1. 0, 2. 1, 1. 0, 1. 0, 2. 1, 2. 1, 2. 1, 2. 1, 2. 1) 0.5, 0.5;
  (2. 1, 2. 1, 1. 0, 1. 0, 2. 1, 2. 1, 2. 1, 2. 1, 2. 1) 0.5, 0.5;
  (1. 0, 1. 0, 2. 1, 1. 0, 2. 1, 2. 1, 2. 1, 2. 1, 2. 1) 0.5, 0.5;
  (2. 1, 1. 0, 2. 1, 1. 0, 2. 1, 2. 1, 2. 1, 2. 1, 2. 1) 0.5, 0.5;
  (1. 0, 2. 1, 2. 1, 1. 0, 2. 1, 2. 1, 2. 1, 2. 1, 2. 1) 0.00483559, 0.99516441;
  (2. 1, 2. 1, 2. 1, 1. 0, 2. 1, 2. 1, 2. 1, 2. 1, 2. 1) 0.5, 0.5;
  (1. 0, 1. 0, 1. 0, 2. 1, 2. 1, 2. 1, 2. 1, 2. 1, 2. 1) 0.5, 0.5;
  (2. 1, 1. 0, 1. 0, 2. 1, 2. 1, 2. 1, 2. 1, 2. 1, 2. 1) 0.5, 0.5;
  (1. 0, 2. 1, 1. 0, 2. 1, 2. 1, 2. 1, 2. 1, 2. 1, 2. 1) 0.5, 0.5;
  (2. 1, 2. 1, 1. 0, 2. 1, 2. 1, 2. 1, 2. 1, 2. 1, 2. 1) 0.5, 0.5;
  (1. 0, 1. 0, 2. 1, 2. 1, 2. 1, 2. 1, 2. 1, 2. 1, 2. 1) 0.5, 0.5;
  (2. 1, 1. 0, 2. 1, 2. 1, 2. 1, 2. 1, 2. 1, 2. 1, 2. 1) 0.5, 0.5;
  (1. 0, 2. 1, 2. 1, 2. 1, 2. 1, 2. 1, 2. 1, 2. 1, 2. 1) 0.00483559, 0.99516441;
  (2. 1, 2. 1, 2. 1, 2. 1, 2. 1, 2. 1, 2. 1, 2. 1, 2. 1) 0.00483559, 0.99516441;
}
probability ( CovidSeverity | Diarrhea ) {
  (1. 0) 0.768850754, 0.107384295, 0.001300052, 0.051222049, 0.004420177, 0.066822673;
  (2. 1) 0.38700565, 0.01412429, 0.21751412, 0.11581921, 0.04802260, 0.21751412;
}
probability ( Diarrhea ) {
  table 0.915714, 0.084286;
}
probability ( Fatigue | CovidSeverity ) {
  (1. 1) 0.8665158, 0.1334842;
  (2. 2) 0.98803828, 0.01196172;
  (3. 3) 0.93902439, 0.06097561;
  (4. 4) 0.0210084, 0.9789916;
  (5. 5) 0.1470588, 0.8529412;
  (6. 6) 0.5179641, 0.4820359;
}
probability ( Fever | CovidSeverity, Sob ) {
  (1. 1, 1. 0) 0.9991647177, 0.0008352823;
  (2. 2, 1. 0) 0.006053269, 0.993946731;
  (3. 3, 1. 0) 0.03246753, 0.96753247;
  (4. 4, 1. 0) 0.01072961, 0.98927039;
  (5. 5, 1. 0) 0.5, 0.5;
  (6. 6, 1. 0) 0.5, 0.5;
  (1. 1, 2. 1) 0.6188119, 0.3811881;
  (2. 2, 2. 1) 0.5, 0.5;
  (3. 3, 2. 1) 0.5, 0.5;
  (4. 4, 2. 1) 0.5, 0.5;
  (5. 5, 2. 1) 0.0862069, 0.9137931;
  (6. 6, 2. 1) 0.4817629, 0.5182371;
}
probability ( Headache | Diarrhea, Fatigue, MuscleSore ) {
  (1. 0, 1. 0, 1. 0) 0.8943662, 0.1056338;
  (2. 1, 1. 0, 1. 0) 0.5, 0.5;
  (1. 0, 2. 1, 1. 0) 0.4819005, 0.5180995;
  (2. 1, 2. 1, 1. 0) 0.2837838, 0.7162162;
  (1. 0, 1. 0, 2. 1) 0.521164, 0.478836;
  (2. 1, 1. 0, 2. 1) 0.2333333, 0.7666667;
  (1. 0, 2. 1, 2. 1) 0.4156118, 0.5843882;
  (2. 1, 2. 1, 2. 1) 0.2681159, 0.7318841;
}
probability ( LossOfSmell | RunnyNose, Sob, SoreThroat ) {
  (1. 0, 1. 0, 1. 0) 0.95508982, 0.04491018;
  (2. 1, 1. 0, 1. 0) 0.7651934, 0.2348066;
  (1. 0, 2. 1, 1. 0) 0.8393939, 0.1606061;
  (2. 1, 2. 1, 1. 0) 0.7162162, 0.2837838;
  (1. 0, 1. 0, 2. 1) 0.7707692, 0.2292308;
  (2. 1, 1. 0, 2. 1) 0.8120567, 0.1879433;
  (1. 0, 2. 1, 2. 1) 0.8018868, 0.1981132;
  (2. 1, 2. 1, 2. 1) 0.3032787, 0.6967213;
}
probability ( LossOfTaste | LossOfSmell, RunnyNose ) {
  (1. 0, 1. 0) 0.97209515, 0.02790485;
  (2. 1, 1. 0) 0.3969072, 0.6030928;
  (1. 0, 2. 1) 0.9295302, 0.0704698;
  (2. 1, 2. 1) 0.04098361, 0.95901639;
}
probability ( MuscleSore | Diarrhea, Fatigue, Fever ) {
  (1. 0, 1. 0, 1. 0) 0.95779037, 0.04220963;
  (2. 1, 1. 0, 1. 0) 0.6558442, 0.3441558;
  (1. 0, 2. 1, 1. 0) 0.5743494, 0.4256506;
  (2. 1, 2. 1, 1. 0) 0.4111111, 0.5888889;
  (1. 0, 1. 0, 2. 1) 0.6642229, 0.3357771;
  (2. 1, 1. 0, 2. 1) 0.6509434, 0.3490566;
  (1. 0, 2. 1, 2. 1) 0.3518519, 0.6481481;
  (2. 1, 2. 1, 2. 1) 0.3032787, 0.6967213;
}
probability ( RunnyNose | Headache, SoreThroat ) {
  (1. 0, 1. 0) 0.93535912, 0.06464088;
  (2. 1, 1. 0) 0.7536585, 0.2463415;
  (1. 0, 2. 1) 0.7896552, 0.2103448;
  (2. 1, 2. 1) 0.5137931, 0.4862069;
}
probability ( Sob | CovidSeverity ) {
  (1. 1) 0.96735617, 0.03264383;
  (2. 2) 0.98803828, 0.01196172;
  (3. 3) 0.93902439, 0.06097561;
  (4. 4) 0.9789916, 0.0210084;
  (5. 5) 0.1470588, 0.8529412;
  (6. 6) 0.01497006, 0.98502994;
}
probability ( SoreThroat | CovidSeverity, Diarrhea, Fatigue ) {
  (1. 1, 1. 0, 1. 0) 0.92052275, 0.07947725;
  (2. 2, 1. 0, 1. 0) 0.6461632, 0.3538368;
  (3. 3, 1. 0, 1. 0) 0.5, 0.5;
  (4. 4, 1. 0, 1. 0) 0.5, 0.5;
  (5. 5, 1. 0, 1. 0) 0.5, 0.5;
  (6. 6, 1. 0, 1. 0) 0.840694, 0.159306;
  (1. 1, 2. 1, 1. 0) 0.6218274, 0.3781726;
  (2. 2, 2. 1, 1. 0) 0.5, 0.5;
  (3. 3, 2. 1, 1. 0) 0.5, 0.5;
  (4. 4, 2. 1, 1. 0) 0.5, 0.5;
  (5. 5, 2. 1, 1. 0) 0.5, 0.5;
  (6. 6, 2. 1, 1. 0) 0.9137931, 0.0862069;
  (1. 1, 1. 0, 2. 1) 0.6121495, 0.3878505;
  (2. 2, 1. 0, 2. 1) 0.5, 0.5;
  (3. 3, 1. 0, 2. 1) 0.5, 0.5;
  (4. 4, 1. 0, 2. 1) 0.5, 0.5;
  (5. 5, 1. 0, 2. 1) 0.9137931, 0.0862069;
  (6. 6, 1. 0, 2. 1) 0.6218274, 0.3781726;
  (1. 1, 2. 1, 2. 1) 0.03246753, 0.96753247;
  (2. 2, 2. 1, 2. 1) 0.5, 0.5;
  (3. 3, 2. 1, 2. 1) 0.5, 0.5;
  (4. 4, 2. 1, 2. 1) 0.6558442, 0.3441558;
  (5. 5, 2. 1, 2. 1) 0.0862069, 0.9137931;
  (6. 6, 2. 1, 2. 1) 0.02, 0.98;
}
