network unknown {
}
variable screeningResults {
  type discrete [ 2 ] { negative, suspect };
}
variable year {
  type discrete [ 10 ] { 2008, 2009, 2010, 2011, 2012, 2013, 2014, 2015, 2016, 2017 };
}
variable trimester {
  type discrete [ 4 ] { 1, 2, 3, 4 };
}
variable animalSpecies {
  type discrete [ 18 ] { bovine animal, bovine animal for fattening, broiler, calf for fattening, cow, deer, duck, eel, fish, goat, goose, hen, horse, pig, poultry, rabbit, sheep, Trout };
}
variable product {
  type discrete [ 4 ] { egg, liver, meat, milk };
}
variable sampling place {
  type discrete [ 3 ] { aquaculture, farm, slaughterhouse };
}
variable euMonitoring {
  type discrete [ 27 ] { 0, 1, 2, 3, 4, 5, 6, 7, 8, 9, 10, 11, 12, 13, 14, 15, 16, 17, 18, 19, 20, 22, 24, 27, 28, 29, 31 };
}
variable gcResults {
  type discrete [ 3 ] { 0, n, p };
}
variable sampleSize {
  type discrete [ 10 ] { 196, 226, 254, 340, 352, 358, 365, 366, 379, 425 };
}
probability ( screeningResults ) {
  table 0.8985885, 0.1014115;
}
probability ( year | screeningResults ) {
  (negative) 0.06865289, 0.07582380, 0.05772580, 0.10860509, 0.10826362, 0.12533720, 0.10177565, 0.11543452, 0.11987366, 0.11850777;
  (suspect) 0.07579425, 0.09697428, 0.08184569, 0.10302572, 0.14538578, 0.16959153, 0.12723147, 0.06066566, 0.08487141, 0.05461422;
}
probability ( trimester | screeningResults, year ) {
  (negative, 2008) 0.3681298, 0.2636782, 0.2388088, 0.1293832;
  (suspect, 2008) 0.2400200, 0.2799401, 0.1601796, 0.3198603;
  (negative, 2009) 0.2837762, 0.2342378, 0.2792727, 0.2027134;
  (suspect, 2009) 0.40600624, 0.37480499, 0.18759750, 0.03159126;
  (negative, 2010) 0.2248595, 0.3313369, 0.1361284, 0.3076752;
  (suspect, 2010) 0.2592421, 0.2222736, 0.1483364, 0.3701479;
  (negative, 2011) 0.05977834, 0.15724729, 0.24213960, 0.54083477;
  (suspect, 2011) 0.1178414, 0.1765786, 0.3234214, 0.3821586;
  (negative, 2012) 0.40691531, 0.40691531, 0.16089733, 0.02527204;
  (suspect, 2012) 0.31243496, 0.43730489, 0.18756504, 0.06269511;
  (negative, 2013) 0.3705558, 0.2997207, 0.2806498, 0.0490737;
  (suspect, 2013) 0.32136485, 0.32136485, 0.32136485, 0.03590544;
  (negative, 2014) 0.42278980, 0.30200470, 0.24832243, 0.02688307;
  (suspect, 2014) 0.64239001, 0.28567182, 0.04785969, 0.02407848;
  (negative, 2015) 0.2810605, 0.2366884, 0.2869768, 0.1952744;
  (suspect, 2015) 0.2001247, 0.4993766, 0.1502494, 0.1502494;
  (negative, 2016) 0.2649551, 0.3418673, 0.2193776, 0.1738000;
  (suspect, 2016) 0.1786988, 0.2500000, 0.3569519, 0.2143494;
  (negative, 2017) 0.3025861, 0.2968232, 0.2247875, 0.1758032;
  (suspect, 2017) 0.2777008310, 0.2777008310, 0.4439058172, 0.0006925208;
}
probability ( animalSpecies | screeningResults, euMonitoring ) {
  (negative, 0) 5.709718e-05, 5.709718e-05, 5.709718e-05, 5.709718e-05, 5.709718e-05, 5.709718e-05, 5.709718e-05, 5.709718e-05, 5.709718e-05, 1.110540e-01, 5.555556e-02, 3.330478e-01, 5.709718e-05, 5.709718e-05, 2.775494e-01, 1.110540e-01, 5.709718e-05, 1.110540e-01;
  (suspect, 0) 9.337068e-05, 9.337068e-05, 9.337068e-05, 9.337068e-05, 9.337068e-05, 9.076564e-01, 9.337068e-05, 9.084967e-02, 9.337068e-05, 9.337068e-05, 9.337068e-05, 9.337068e-05, 9.337068e-05, 9.337068e-05, 9.337068e-05, 9.337068e-05, 9.337068e-05, 9.337068e-05;
  (negative, 1) 0.0333470423, 0.0000342724, 0.0000342724, 0.0000342724, 0.1332853520, 0.0333470423, 0.0666598122, 0.0666598122, 0.0333470423, 0.0666598122, 0.0000342724, 0.0666598122, 0.0000342724, 0.0000342724, 0.4664130509, 0.0333470423, 0.0000342724, 0.0000342724;
  (suspect, 1) 4.894763e-05, 4.894763e-05, 4.894763e-05, 4.894763e-05, 4.762604e-02, 5.709741e-01, 4.894763e-05, 1.427802e-01, 4.762604e-02, 4.894763e-05, 4.894763e-05, 4.762604e-02, 1.427802e-01, 4.894763e-05, 4.894763e-05, 4.894763e-05, 4.894763e-05, 4.894763e-05;
  (negative, 2) 6.422608e-05, 6.422608e-05, 6.422608e-05, 6.422608e-05, 6.422608e-05, 6.422608e-05, 6.422608e-05, 6.422608e-05, 6.422608e-05, 1.249197e-01, 6.422608e-05, 2.497752e-01, 6.422608e-05, 6.422608e-05, 6.243417e-01, 6.422608e-05, 6.422608e-05, 6.422608e-05;
  (suspect, 2) 0.000509684, 0.000509684, 0.000509684, 0.000509684, 0.000509684, 0.000509684, 0.000509684, 0.000509684, 0.000509684, 0.000509684, 0.000509684, 0.000509684, 0.991335372, 0.000509684, 0.000509684, 0.000509684, 0.000509684, 0.000509684;
  (negative, 3) 2.701629e-01, 3.512034e-01, 2.779167e-05, 2.779167e-05, 2.779167e-05, 2.779167e-05, 2.779167e-05, 2.779167e-05, 2.779167e-05, 2.779167e-05, 2.779167e-05, 2.431494e-01, 2.779167e-05, 2.779167e-05, 2.779167e-05, 2.779167e-05, 1.350953e-01, 2.779167e-05;
  (suspect, 3) 8.329053e-02, 8.560178e-05, 8.560178e-05, 8.560178e-05, 8.560178e-05, 8.560178e-05, 8.560178e-05, 8.560178e-05, 8.560178e-05, 8.560178e-05, 8.560178e-05, 8.329053e-02, 8.560178e-05, 8.560178e-05, 8.560178e-05, 8.560178e-05, 8.321349e-01, 8.560178e-05;
  (negative, 4) 0.9980606890, 0.0001140771, 0.0001140771, 0.0001140771, 0.0001140771, 0.0001140771, 0.0001140771, 0.0001140771, 0.0001140771, 0.0001140771, 0.0001140771, 0.0001140771, 0.0001140771, 0.0001140771, 0.0001140771, 0.0001140771, 0.0001140771, 0.0001140771;
  (suspect, 4) 0.3742622530, 0.0001283038, 0.0001283038, 0.0001283038, 0.0001283038, 0.6236848858, 0.0001283038, 0.0001283038, 0.0001283038, 0.0001283038, 0.0001283038, 0.0001283038, 0.0001283038, 0.0001283038, 0.0001283038, 0.0001283038, 0.0001283038, 0.0001283038;
  (negative, 5) 2.236433e-01, 1.353363e-05, 6.972121e-01, 1.353363e-05, 1.353363e-05, 1.353363e-05, 1.353363e-05, 1.353363e-05, 1.353363e-05, 1.353363e-05, 1.353363e-05, 1.353363e-05, 1.353363e-05, 1.353363e-05, 1.353363e-05, 1.353363e-05, 7.894167e-02, 1.353363e-05;
  (suspect, 5) 9.084967e-02, 9.337068e-05, 9.337068e-05, 9.337068e-05, 9.337068e-05, 9.337068e-05, 9.337068e-05, 9.337068e-05, 9.337068e-05, 9.337068e-05, 9.337068e-05, 9.337068e-05, 9.337068e-05, 9.337068e-05, 9.337068e-05, 9.337068e-05, 9.076564e-01, 9.337068e-05;
  (negative, 6) 3.666283e-01, 6.857864e-06, 1.399896e-01, 2.933040e-01, 6.857864e-06, 6.857864e-06, 6.857864e-06, 6.857864e-06, 6.857864e-06, 6.857864e-06, 6.857864e-06, 6.857864e-06, 6.857864e-06, 1.999822e-01, 6.857864e-06, 6.857864e-06, 6.857864e-06, 6.857864e-06;
  (suspect, 6) 0.4436459046, 0.0001140771, 0.2218799909, 0.2218799909, 0.0001140771, 0.0001140771, 0.0001140771, 0.0001140771, 0.0001140771, 0.0001140771, 0.0001140771, 0.0001140771, 0.0001140771, 0.1109970340, 0.0001140771, 0.0001140771, 0.0001140771, 0.0001140771;
  (negative, 7) 6.751156e-01, 8.791827e-06, 8.791827e-06, 2.136502e-01, 8.791827e-06, 8.791827e-06, 8.791827e-06, 8.791827e-06, 8.791827e-06, 8.791827e-06, 8.791827e-06, 8.791827e-06, 8.554448e-03, 8.791827e-06, 8.791827e-06, 8.791827e-06, 1.025567e-01, 8.791827e-06;
  (suspect, 7) 3.885463e-01, 5.709718e-05, 5.709718e-05, 5.555556e-02, 5.709718e-05, 5.709718e-05, 5.709718e-05, 5.709718e-05, 5.709718e-05, 5.709718e-05, 5.709718e-05, 5.709718e-05, 3.885463e-01, 5.709718e-05, 5.709718e-05, 5.709718e-05, 1.665525e-01, 5.709718e-05;
  (negative, 8) 5.709718e-05, 5.709718e-05, 5.709718e-05, 5.709718e-05, 5.709718e-05, 5.709718e-05, 5.709718e-05, 5.709718e-05, 5.709718e-05, 5.709718e-05, 5.709718e-05, 5.709718e-05, 5.709718e-05, 5.709718e-05, 5.709718e-05, 5.709718e-05, 9.990293e-01, 5.709718e-05;
  (suspect, 8) 0.0001283038, 0.0001283038, 0.0001283038, 0.0001283038, 0.0001283038, 0.0001283038, 0.0001283038, 0.0001283038, 0.0001283038, 0.0001283038, 0.0001283038, 0.0001283038, 0.0001283038, 0.0001283038, 0.0001283038, 0.0001283038, 0.9978188350, 0.0001283038;
  (negative, 9) 0.2910122365, 0.0000076766, 0.0000076766, 0.0000076766, 0.0000076766, 0.0000076766, 0.0000076766, 0.0000076766, 0.0000076766, 0.0000076766, 0.0000076766, 0.1343174735, 0.0000076766, 0.2910122365, 0.0000076766, 0.0000076766, 0.2835505811, 0.0000076766;
  (suspect, 9) 0.0000197777, 0.0000197777, 0.0000197777, 0.0000197777, 0.0000197777, 0.0000197777, 0.0000197777, 0.0000197777, 0.0000197777, 0.0000197777, 0.0000197777, 0.2307068550, 0.0000197777, 0.0192437008, 0.0000197777, 0.0000197777, 0.7497527788, 0.0000197777;
  (negative, 10) 4.888295e-01, 7.619744e-06, 2.147930e-01, 7.619744e-06, 7.619744e-06, 7.619744e-06, 7.619744e-06, 7.619744e-06, 7.619744e-06, 7.619744e-06, 7.619744e-06, 7.619744e-06, 7.619744e-06, 2.962633e-01, 7.619744e-06, 7.619744e-06, 7.619744e-06, 7.619744e-06;
  (suspect, 10) 0.9970940171, 0.0001709402, 0.0001709402, 0.0001709402, 0.0001709402, 0.0001709402, 0.0001709402, 0.0001709402, 0.0001709402, 0.0001709402, 0.0001709402, 0.0001709402, 0.0001709402, 0.0001709402, 0.0001709402, 0.0001709402, 0.0001709402, 0.0001709402;
  (negative, 11) 1.182285e-05, 1.182285e-05, 3.447660e-01, 4.137169e-01, 1.182285e-05, 1.182285e-05, 1.182285e-05, 1.182285e-05, 1.182285e-05, 1.182285e-05, 1.182285e-05, 1.182285e-05, 1.182285e-05, 1.182285e-05, 1.182285e-05, 1.182285e-05, 2.413398e-01, 1.182285e-05;
  (suspect, 11) 0.0001709402, 0.0001709402, 0.0001709402, 0.0001709402, 0.0001709402, 0.0001709402, 0.0001709402, 0.0001709402, 0.0001709402, 0.0001709402, 0.0001709402, 0.0001709402, 0.0001709402, 0.0001709402, 0.0001709402, 0.0001709402, 0.9970940171, 0.0001709402;
  (negative, 12) 4.544495e-01, 1.335791e-05, 1.335791e-05, 5.453368e-01, 1.335791e-05, 1.335791e-05, 1.335791e-05, 1.335791e-05, 1.335791e-05, 1.335791e-05, 1.335791e-05, 1.335791e-05, 1.335791e-05, 1.335791e-05, 1.335791e-05, 1.335791e-05, 1.335791e-05, 1.335791e-05;
  (suspect, 12) 0.982828283, 0.001010101, 0.001010101, 0.001010101, 0.001010101, 0.001010101, 0.001010101, 0.001010101, 0.001010101, 0.001010101, 0.001010101, 0.001010101, 0.001010101, 0.001010101, 0.001010101, 0.001010101, 0.001010101, 0.001010101;
  (negative, 13) 4.209814e-01, 1.082743e-05, 1.082743e-05, 4.841270e-01, 1.082743e-05, 1.082743e-05, 1.082743e-05, 1.082743e-05, 1.082743e-05, 1.082743e-05, 1.082743e-05, 1.082743e-05, 1.082743e-05, 1.082743e-05, 1.082743e-05, 1.082743e-05, 9.472921e-02, 1.082743e-05;
  (suspect, 13) 0.0001283038, 0.0001283038, 0.0001283038, 0.0001283038, 0.0001283038, 0.0001283038, 0.0001283038, 0.0001283038, 0.0001283038, 0.0001283038, 0.0001283038, 0.0001283038, 0.0001283038, 0.0001283038, 0.0001283038, 0.0001283038, 0.9978188350, 0.0001283038;
  (negative, 14) 2.726992e-01, 7.193520e-06, 7.193520e-06, 3.635965e-01, 7.193520e-06, 7.193520e-06, 7.193520e-06, 7.193520e-06, 7.193520e-06, 7.193520e-06, 7.193520e-06, 3.635965e-01, 7.193520e-06, 7.193520e-06, 7.193520e-06, 7.193520e-06, 7.193520e-06, 7.193520e-06;
  (suspect, 14) 1.427418e-01, 7.338911e-05, 7.338911e-05, 7.140760e-02, 7.338911e-05, 7.338911e-05, 7.338911e-05, 7.338911e-05, 7.338911e-05, 7.338911e-05, 7.338911e-05, 7.847497e-01, 7.338911e-05, 7.338911e-05, 7.338911e-05, 7.338911e-05, 7.338911e-05, 7.338911e-05;
  (negative, 15) 7.454120e-06, 7.454120e-06, 7.454120e-06, 3.405415e-01, 7.454120e-06, 7.454120e-06, 7.454120e-06, 7.454120e-06, 7.454120e-06, 7.454120e-06, 7.454120e-06, 7.454120e-06, 7.454120e-06, 6.593393e-01, 7.454120e-06, 7.454120e-06, 7.454120e-06, 7.454120e-06;
  (suspect, 15) 0.0003408316, 0.0003408316, 0.0003408316, 0.0003408316, 0.0003408316, 0.0003408316, 0.0003408316, 0.0003408316, 0.0003408316, 0.0003408316, 0.0003408316, 0.0003408316, 0.0003408316, 0.9942058623, 0.0003408316, 0.0003408316, 0.0003408316, 0.0003408316;
  (negative, 16) 4.359541e-01, 3.136428e-06, 3.136428e-06, 3.136428e-06, 3.136428e-06, 3.136428e-06, 3.136428e-06, 3.136428e-06, 3.136428e-06, 3.136428e-06, 3.136428e-06, 3.627875e-01, 3.136428e-06, 2.012113e-01, 3.136428e-06, 3.136428e-06, 3.136428e-06, 3.136428e-06;
  (suspect, 16) 2.544785e-01, 1.869928e-05, 1.869928e-05, 1.869928e-05, 1.869928e-05, 1.869928e-05, 1.869928e-05, 1.869928e-05, 1.869928e-05, 1.869928e-05, 1.869928e-05, 7.452223e-01, 1.869928e-05, 1.869928e-05, 1.869928e-05, 1.869928e-05, 1.869928e-05, 1.869928e-05;
  (negative, 17) 0.0000244846, 0.0000244846, 0.0000244846, 0.0000244846, 0.0000244846, 0.0000244846, 0.0000244846, 0.0000244846, 0.0000244846, 0.0000244846, 0.0000244846, 0.9995837618, 0.0000244846, 0.0000244846, 0.0000244846, 0.0000244846, 0.0000244846, 0.0000244846;
  (suspect, 17) 0.0003408316, 0.0003408316, 0.0003408316, 0.0003408316, 0.0003408316, 0.0003408316, 0.0003408316, 0.0003408316, 0.0003408316, 0.0003408316, 0.0003408316, 0.9942058623, 0.0003408316, 0.0003408316, 0.0003408316, 0.0003408316, 0.0003408316, 0.0003408316;
  (negative, 18) 2.608530e-01, 4.472712e-06, 2.912854e-01, 1.825985e-01, 4.472712e-06, 4.472712e-06, 4.472712e-06, 4.472712e-06, 4.472712e-06, 4.472712e-06, 4.472712e-06, 2.652005e-01, 4.472712e-06, 4.472712e-06, 4.472712e-06, 4.472712e-06, 4.472712e-06, 4.472712e-06;
  (suspect, 18) 6.895696e-02, 3.545345e-05, 6.895696e-02, 6.895696e-02, 3.545345e-05, 3.545345e-05, 3.545345e-05, 3.545345e-05, 3.545345e-05, 3.545345e-05, 3.545345e-05, 7.926328e-01, 3.545345e-05, 3.545345e-05, 3.545345e-05, 3.545345e-05, 3.545345e-05, 3.545345e-05;
  (negative, 19) 4.948673e-01, 1.039004e-05, 1.039004e-05, 1.039004e-05, 1.039004e-05, 1.039004e-05, 1.039004e-05, 1.039004e-05, 1.039004e-05, 1.039004e-05, 1.039004e-05, 5.049664e-01, 1.039004e-05, 1.039004e-05, 1.039004e-05, 1.039004e-05, 1.039004e-05, 1.039004e-05;
  (suspect, 19) 2.854102e-01, 7.338911e-05, 7.338911e-05, 7.338911e-05, 7.338911e-05, 7.338911e-05, 7.338911e-05, 7.338911e-05, 7.338911e-05, 7.338911e-05, 7.338911e-05, 7.134155e-01, 7.338911e-05, 7.338911e-05, 7.338911e-05, 7.338911e-05, 7.338911e-05, 7.338911e-05;
  (negative, 20) 4.875433e-06, 4.875433e-06, 4.644191e-01, 4.875433e-06, 4.875433e-06, 4.875433e-06, 4.875433e-06, 4.875433e-06, 4.875433e-06, 4.875433e-06, 4.875433e-06, 4.875433e-06, 4.875433e-06, 5.355029e-01, 4.875433e-06, 4.875433e-06, 4.875433e-06, 4.875433e-06;
  (suspect, 20) 0.0003408316, 0.0003408316, 0.3316291752, 0.0003408316, 0.0003408316, 0.0003408316, 0.0003408316, 0.0003408316, 0.0003408316, 0.0003408316, 0.0003408316, 0.0003408316, 0.0003408316, 0.6629175187, 0.0003408316, 0.0003408316, 0.0003408316, 0.0003408316;
  (negative, 22) 6.196939e-06, 6.196939e-06, 9.998947e-01, 6.196939e-06, 6.196939e-06, 6.196939e-06, 6.196939e-06, 6.196939e-06, 6.196939e-06, 6.196939e-06, 6.196939e-06, 6.196939e-06, 6.196939e-06, 6.196939e-06, 6.196939e-06, 6.196939e-06, 6.196939e-06, 6.196939e-06;
  (suspect, 22) 0.000509684, 0.000509684, 0.991335372, 0.000509684, 0.000509684, 0.000509684, 0.000509684, 0.000509684, 0.000509684, 0.000509684, 0.000509684, 0.000509684, 0.000509684, 0.000509684, 0.000509684, 0.000509684, 0.000509684, 0.000509684;
  (negative, 24) 1.018434e-05, 1.018434e-05, 8.117425e-01, 1.018434e-05, 1.018434e-05, 1.018434e-05, 1.018434e-05, 1.018434e-05, 1.018434e-05, 1.018434e-05, 1.018434e-05, 1.880945e-01, 1.018434e-05, 1.018434e-05, 1.018434e-05, 1.018434e-05, 1.018434e-05, 1.018434e-05;
  (suspect, 24) 4.672461e-05, 4.672461e-05, 9.087936e-02, 4.672461e-05, 4.672461e-05, 4.672461e-05, 4.672461e-05, 4.672461e-05, 4.672461e-05, 4.672461e-05, 4.672461e-05, 9.083730e-01, 4.672461e-05, 4.672461e-05, 4.672461e-05, 4.672461e-05, 4.672461e-05, 4.672461e-05;
  (negative, 27) 5.844877e-06, 5.844877e-06, 4.545035e-01, 5.844877e-06, 5.844877e-06, 5.844877e-06, 5.844877e-06, 5.844877e-06, 5.844877e-06, 5.844877e-06, 5.844877e-06, 5.844877e-06, 5.844877e-06, 5.454030e-01, 5.844877e-06, 5.844877e-06, 5.844877e-06, 5.844877e-06;
  (suspect, 27) 0.001010101, 0.001010101, 0.982828283, 0.001010101, 0.001010101, 0.001010101, 0.001010101, 0.001010101, 0.001010101, 0.001010101, 0.001010101, 0.001010101, 0.001010101, 0.001010101, 0.001010101, 0.001010101, 0.001010101, 0.001010101;
  (negative, 28) 1.142883e-05, 1.142883e-05, 1.142883e-05, 1.142883e-05, 1.142883e-05, 1.142883e-05, 1.142883e-05, 1.142883e-05, 1.142883e-05, 1.142883e-05, 1.142883e-05, 1.142883e-05, 1.142883e-05, 9.998057e-01, 1.142883e-05, 1.142883e-05, 1.142883e-05, 1.142883e-05;
  (suspect, 28) 0.001010101, 0.001010101, 0.001010101, 0.001010101, 0.001010101, 0.001010101, 0.001010101, 0.001010101, 0.001010101, 0.001010101, 0.001010101, 0.001010101, 0.001010101, 0.982828283, 0.001010101, 0.001010101, 0.001010101, 0.001010101;
  (negative, 29) 1.130327e-05, 1.130327e-05, 1.130327e-05, 1.130327e-05, 1.130327e-05, 1.130327e-05, 1.130327e-05, 1.130327e-05, 1.130327e-05, 1.130327e-05, 1.130327e-05, 1.130327e-05, 1.130327e-05, 9.998078e-01, 1.130327e-05, 1.130327e-05, 1.130327e-05, 1.130327e-05;
  (suspect, 29) 0.0001709402, 0.0001709402, 0.0001709402, 0.0001709402, 0.0001709402, 0.0001709402, 0.0001709402, 0.0001709402, 0.0001709402, 0.0001709402, 0.0001709402, 0.0001709402, 0.0001709402, 0.9970940171, 0.0001709402, 0.0001709402, 0.0001709402, 0.0001709402;
  (negative, 31) 9.023153e-06, 9.023153e-06, 9.023153e-06, 9.023153e-06, 9.023153e-06, 9.023153e-06, 9.023153e-06, 9.023153e-06, 9.023153e-06, 9.023153e-06, 9.023153e-06, 9.023153e-06, 9.023153e-06, 9.998466e-01, 9.023153e-06, 9.023153e-06, 9.023153e-06, 9.023153e-06;
  (suspect, 31) 0.0002560164, 0.0002560164, 0.0002560164, 0.0002560164, 0.0002560164, 0.0002560164, 0.0002560164, 0.0002560164, 0.0002560164, 0.0002560164, 0.0002560164, 0.0002560164, 0.0002560164, 0.9956477215, 0.0002560164, 0.0002560164, 0.0002560164, 0.0002560164;
}
probability ( product | screeningResults, animalSpecies ) {
  (negative, bovine animal) 1.081642e-05, 1.568381e-03, 5.467161e-01, 4.517047e-01;
  (suspect, bovine animal) 0.0001542258, 0.0001542258, 0.8440777298, 0.1556138186;
  (negative, bovine animal for fattening) 0.000533049, 0.000533049, 0.998400853, 0.000533049;
  (suspect, bovine animal for fattening) 0.25, 0.25, 0.25, 0.25;
  (negative, broiler) 1.109287e-05, 1.109287e-05, 9.999667e-01, 1.109287e-05;
  (suspect, broiler) 0.0006925208, 0.0006925208, 0.9979224377, 0.0006925208;
  (negative, calf for fattening) 2.079002e-05, 2.079002e-05, 9.999376e-01, 2.079002e-05;
  (suspect, calf for fattening) 0.001152074, 0.001152074, 0.996543779, 0.001152074;
  (negative, cow) 0.001724138, 0.001724138, 0.994827586, 0.001724138;
  (suspect, cow) 0.006756757, 0.006756757, 0.979729730, 0.006756757;
  (negative, deer) 0.006756757, 0.006756757, 0.979729730, 0.006756757;
  (suspect, deer) 0.0002569373, 0.0002569373, 0.9992291881, 0.0002569373;
  (negative, duck) 0.003424658, 0.003424658, 0.989726027, 0.003424658;
  (suspect, duck) 0.25, 0.25, 0.25, 0.25;
  (negative, eel) 0.003424658, 0.003424658, 0.989726027, 0.003424658;
  (suspect, eel) 0.001724138, 0.001724138, 0.994827586, 0.001724138;
  (negative, fish) 0.006756757, 0.006756757, 0.979729730, 0.006756757;
  (suspect, fish) 0.006756757, 0.006756757, 0.979729730, 0.006756757;
  (negative, goat) 0.001152074, 0.001152074, 0.664746544, 0.332949309;
  (suspect, goat) 0.25, 0.25, 0.25, 0.25;
  (negative, goose) 0.006756757, 0.006756757, 0.979729730, 0.006756757;
  (suspect, goose) 0.25, 0.25, 0.25, 0.25;
  (negative, hen) 9.449756e-01, 1.817785e-05, 5.498800e-02, 1.817785e-05;
  (suspect, hen) 9.834396e-01, 5.690872e-05, 1.644662e-02, 5.690872e-05;
  (negative, horse) 0.006756757, 0.006756757, 0.979729730, 0.006756757;
  (suspect, horse) 0.0005773672, 0.0005773672, 0.9982678984, 0.0005773672;
  (negative, pig) 9.018434e-06, 9.018434e-06, 9.999729e-01, 9.018434e-06;
  (suspect, pig) 0.000385208, 0.000385208, 0.998844376, 0.000385208;
  (negative, poultry) 0.0002392344, 0.0002392344, 0.9992822967, 0.0002392344;
  (suspect, poultry) 0.25, 0.25, 0.25, 0.25;
  (negative, rabbit) 0.002293578, 0.002293578, 0.993119266, 0.002293578;
  (suspect, rabbit) 0.25, 0.25, 0.25, 0.25;
  (negative, sheep) 6.369427e-05, 6.369427e-05, 9.998089e-01, 6.369427e-05;
  (suspect, sheep) 8.264463e-05, 8.264463e-05, 9.997521e-01, 8.264463e-05;
  (negative, Trout) 0.003424658, 0.003424658, 0.989726027, 0.003424658;
  (suspect, Trout) 0.25, 0.25, 0.25, 0.25;
}
probability ( sampling place | screeningResults, product ) {
  (negative, egg) 0.0001153802, 0.9997692396, 0.0001153802;
  (suspect, egg) 0.0003468609, 0.9993062782, 0.0003468609;
  (negative, liver) 0.03703704, 0.03703704, 0.92592593;
  (suspect, liver) 0.3333333, 0.3333333, 0.3333333;
  (negative, meat) 2.216970e-03, 1.832207e-05, 9.977647e-01;
  (suspect, meat) 0.0198974359, 0.0002051282, 0.9798974359;
  (negative, milk) 0.000142633, 0.999714734, 0.000142633;
  (suspect, milk) 0.005847953, 0.988304094, 0.005847953;
}
probability ( euMonitoring | screeningResults, year ) {
  (negative, 2008) 9.210902e-06, 1.990476e-02, 9.210902e-06, 9.210902e-06, 4.477419e-02, 2.985253e-02, 1.144086e-01, 9.210902e-06, 9.210902e-06, 9.210902e-06, 1.989647e-01, 1.492258e-01, 9.210902e-06, 9.210902e-06, 1.939908e-01, 9.210902e-06, 2.487036e-01, 9.210902e-06, 9.210902e-06, 9.210902e-06, 9.210902e-06, 9.210902e-06, 9.210902e-06, 9.210902e-06, 9.210902e-06, 9.210902e-06, 9.210902e-06;
  (suspect, 2008) 1.198344e-01, 3.999409e-02, 7.392622e-05, 7.392622e-05, 1.198344e-01, 3.992755e-01, 3.999409e-02, 7.392622e-05, 7.392622e-05, 7.392622e-05, 7.392622e-05, 7.392622e-05, 7.392622e-05, 7.392622e-05, 7.991425e-02, 7.392622e-05, 1.996747e-01, 7.392622e-05, 7.392622e-05, 7.392622e-05, 7.392622e-05, 7.392622e-05, 7.392622e-05, 7.392622e-05, 7.392622e-05, 7.392622e-05, 7.392622e-05;
  (negative, 2009) 8.339797e-06, 8.339797e-06, 8.339797e-06, 8.339797e-06, 8.339797e-06, 8.339797e-06, 1.711410e-01, 8.339797e-06, 8.339797e-06, 2.657143e-01, 1.306096e-01, 8.339797e-06, 8.339797e-06, 8.339797e-06, 8.339797e-06, 8.339797e-06, 4.323434e-01, 8.339797e-06, 8.339797e-06, 8.339797e-06, 8.339797e-06, 8.339797e-06, 8.339797e-06, 8.339797e-06, 8.339797e-06, 8.339797e-06, 8.339797e-06;
  (suspect, 2009) 1.248628e-01, 5.778009e-05, 5.778009e-05, 5.778009e-05, 5.778009e-05, 5.778009e-05, 1.560640e-01, 5.778009e-05, 5.778009e-05, 5.304790e-01, 5.778009e-05, 5.778009e-05, 5.778009e-05, 5.778009e-05, 5.778009e-05, 5.778009e-05, 1.872653e-01, 5.778009e-05, 5.778009e-05, 5.778009e-05, 5.778009e-05, 5.778009e-05, 5.778009e-05, 5.778009e-05, 5.778009e-05, 5.778009e-05, 5.778009e-05;
  (negative, 2010) 1.095446e-05, 1.095446e-05, 1.095446e-05, 1.656424e-01, 1.095446e-05, 1.095446e-05, 3.016968e-01, 1.095446e-05, 1.095446e-05, 1.095446e-05, 1.095446e-05, 1.095446e-05, 1.095446e-05, 2.366273e-01, 1.095446e-05, 1.095446e-05, 1.095446e-05, 1.095446e-05, 1.095446e-05, 2.957814e-01, 1.095446e-05, 1.095446e-05, 1.095446e-05, 1.095446e-05, 1.095446e-05, 1.095446e-05, 1.095446e-05;
  (suspect, 2010) 1.109742e-01, 6.846033e-05, 6.846033e-05, 4.067228e-01, 6.846033e-05, 6.846033e-05, 1.109742e-01, 6.846033e-05, 6.846033e-05, 6.846033e-05, 6.846033e-05, 6.846033e-05, 6.846033e-05, 6.846033e-05, 6.846033e-05, 6.846033e-05, 6.846033e-05, 6.846033e-05, 6.846033e-05, 3.697542e-01, 6.846033e-05, 6.846033e-05, 6.846033e-05, 6.846033e-05, 6.846033e-05, 6.846033e-05, 6.846033e-05;
  (negative, 2011) 2.201494e-02, 3.149982e-03, 5.822518e-06, 5.822518e-06, 5.822518e-06, 1.666463e-01, 5.822518e-06, 1.697904e-01, 5.822518e-06, 1.226281e-01, 5.822518e-06, 6.603318e-02, 5.822518e-06, 5.822518e-06, 1.635021e-01, 2.861244e-01, 5.822518e-06, 5.822518e-06, 5.822518e-06, 5.822518e-06, 5.822518e-06, 5.822518e-06, 5.822518e-06, 5.822518e-06, 5.822518e-06, 5.822518e-06, 5.822518e-06;
  (suspect, 2011) 5.438625e-05, 2.056344e-01, 5.438625e-05, 5.438625e-05, 5.438625e-05, 5.438625e-05, 5.438625e-05, 2.056344e-01, 5.438625e-05, 5.438625e-05, 5.438625e-05, 1.762658e-01, 5.438625e-05, 5.438625e-05, 3.231087e-01, 8.816011e-02, 5.438625e-05, 5.438625e-05, 5.438625e-05, 5.438625e-05, 5.438625e-05, 5.438625e-05, 5.438625e-05, 5.438625e-05, 5.438625e-05, 5.438625e-05, 5.438625e-05;
  (negative, 2012) 5.840883e-06, 9.468071e-03, 1.577622e-02, 1.577622e-02, 5.840883e-06, 5.840883e-06, 5.840883e-06, 8.201183e-02, 5.840883e-06, 8.831999e-02, 5.840883e-06, 5.840883e-06, 5.840883e-06, 5.840883e-06, 1.640178e-01, 5.840883e-06, 3.469543e-01, 5.840883e-06, 5.840883e-06, 5.840883e-06, 5.840883e-06, 2.775646e-01, 5.840883e-06, 5.840883e-06, 5.840883e-06, 5.840883e-06, 5.840883e-06;
  (suspect, 2012) 0.0000385401, 0.2081550854, 0.0000385401, 0.0000385401, 0.0000385401, 0.0000385401, 0.0000385401, 0.0000385401, 0.0000385401, 0.5411415578, 0.0000385401, 0.0000385401, 0.0000385401, 0.0000385401, 0.0208501946, 0.0000385401, 0.2289667399, 0.0000385401, 0.0000385401, 0.0000385401, 0.0000385401, 0.0000385401, 0.0000385401, 0.0000385401, 0.0000385401, 0.0000385401, 0.0000385401;
  (negative, 2013) 8.178319e-03, 1.635159e-02, 1.635159e-02, 5.045230e-06, 5.045230e-06, 5.045230e-06, 5.045230e-06, 5.045230e-06, 5.045230e-06, 2.180044e-02, 1.798171e-01, 5.045230e-06, 5.045230e-06, 5.045230e-06, 5.045230e-06, 1.280530e-01, 5.449353e-02, 5.045230e-06, 5.045230e-06, 5.045230e-06, 5.748586e-01, 5.045230e-06, 5.045230e-06, 5.045230e-06, 5.045230e-06, 5.045230e-06, 5.045230e-06;
  (suspect, 2013) 1.787425e-02, 3.303928e-05, 3.571547e-02, 3.303928e-05, 8.923911e-02, 3.303928e-05, 3.303928e-05, 3.303928e-05, 3.303928e-05, 1.606040e-01, 1.070803e-01, 3.303928e-05, 3.303928e-05, 3.303928e-05, 3.303928e-05, 3.303928e-05, 5.352694e-01, 3.303928e-05, 3.303928e-05, 3.303928e-05, 5.355668e-02, 3.303928e-05, 3.303928e-05, 3.303928e-05, 3.303928e-05, 3.303928e-05, 3.303928e-05;
  (negative, 2014) 6.716497e-03, 3.020249e-02, 6.213225e-06, 6.213225e-06, 6.213225e-06, 5.704362e-02, 6.213225e-06, 3.361355e-03, 6.213225e-06, 6.213225e-06, 6.213225e-06, 1.207913e-01, 1.174362e-01, 3.020249e-02, 6.213225e-06, 6.213225e-06, 6.213225e-06, 6.213225e-06, 6.213225e-06, 6.213225e-06, 6.213225e-06, 6.213225e-06, 6.375391e-02, 2.684176e-01, 3.019690e-01, 6.213225e-06, 6.213225e-06;
  (suspect, 2014) 4.403928e-05, 7.138768e-02, 4.403928e-05, 4.403928e-05, 4.403928e-05, 2.382525e-02, 4.403928e-05, 1.665125e-01, 4.403928e-05, 4.403928e-05, 4.403928e-05, 4.403928e-05, 2.382525e-02, 1.902937e-01, 4.403928e-05, 4.403928e-05, 4.403928e-05, 4.403928e-05, 4.403928e-05, 4.403928e-05, 4.403928e-05, 4.403928e-05, 4.756683e-01, 2.382525e-02, 2.382525e-02, 4.403928e-05, 4.403928e-05;
  (negative, 2015) 2.963620e-03, 1.183805e-02, 5.478041e-06, 1.183805e-02, 5.478041e-06, 5.478041e-06, 5.621018e-02, 3.550319e-02, 5.478041e-06, 5.478041e-06, 5.478041e-06, 5.478041e-06, 1.242475e-01, 5.478041e-06, 5.478041e-06, 5.478041e-06, 5.478041e-06, 5.478041e-06, 8.579160e-02, 1.449545e-01, 5.478041e-06, 5.478041e-06, 2.425731e-01, 2.839871e-01, 5.478041e-06, 5.478041e-06, 5.478041e-06;
  (suspect, 2015) 9.236169e-05, 9.236169e-05, 9.236169e-05, 4.996767e-02, 9.236169e-05, 9.236169e-05, 9.236169e-05, 1.497183e-01, 9.236169e-05, 9.236169e-05, 9.236169e-05, 9.236169e-05, 9.236169e-05, 9.236169e-05, 9.236169e-05, 9.236169e-05, 9.236169e-05, 9.236169e-05, 4.988455e-01, 1.995936e-01, 9.236169e-05, 9.236169e-05, 9.984299e-02, 9.236169e-05, 9.236169e-05, 9.236169e-05, 9.236169e-05;
  (negative, 2016) 5.702469e-03, 8.551066e-03, 5.275180e-06, 5.275180e-06, 5.275180e-06, 5.275180e-06, 5.275180e-06, 6.837160e-02, 1.994545e-02, 5.275180e-06, 5.275180e-06, 5.275180e-06, 5.275180e-06, 5.275180e-06, 5.275180e-06, 5.275180e-06, 5.275180e-06, 5.275180e-06, 5.725733e-01, 5.275180e-06, 5.275180e-06, 5.275180e-06, 5.275180e-06, 5.275180e-06, 5.275180e-06, 5.275180e-06, 3.247453e-01;
  (suspect, 2016) 6.601967e-05, 6.601967e-05, 6.601967e-05, 6.601967e-05, 6.601967e-05, 6.601967e-05, 6.601967e-05, 3.571664e-02, 1.426685e-01, 6.601967e-05, 6.601967e-05, 6.601967e-05, 6.601967e-05, 6.601967e-05, 6.601967e-05, 6.601967e-05, 6.601967e-05, 6.601967e-05, 6.774279e-01, 6.601967e-05, 6.601967e-05, 6.601967e-05, 6.601967e-05, 6.601967e-05, 6.601967e-05, 6.601967e-05, 1.426685e-01;
  (negative, 2017) 8.649624e-03, 5.335980e-06, 1.441248e-02, 5.335980e-06, 5.335980e-06, 5.335980e-06, 5.475249e-02, 5.335980e-06, 3.170106e-02, 5.335980e-06, 5.335980e-06, 5.335980e-06, 5.335980e-06, 1.325511e-01, 5.335980e-06, 5.335980e-06, 1.498397e-01, 1.210254e-01, 5.335980e-06, 5.335980e-06, 5.335980e-06, 2.247568e-01, 5.335980e-06, 5.335980e-06, 5.335980e-06, 2.622154e-01, 5.335980e-06;
  (suspect, 2017) 0.0001025957, 0.0001025957, 0.0001025957, 0.0001025957, 0.0001025957, 0.0001025957, 0.0001025957, 0.0001025957, 0.2217092439, 0.0001025957, 0.0001025957, 0.0001025957, 0.0001025957, 0.0001025957, 0.0001025957, 0.0001025957, 0.1663075818, 0.1663075818, 0.0001025957, 0.0001025957, 0.0001025957, 0.1109059198, 0.0001025957, 0.0001025957, 0.0001025957, 0.3325125680, 0.0001025957;
}
probability ( gcResults | screeningResults, euMonitoring ) {
  (negative, 0) 0.9993148338, 0.0003425831, 0.0003425831;
  (suspect, 0) 0.0005602241, 0.8173669468, 0.1820728291;
  (negative, 1) 0.9995887312, 0.0002056344, 0.0002056344;
  (suspect, 1) 0.0002936858, 0.9518355360, 0.0478707783;
  (negative, 2) 0.9992292871, 0.0003853565, 0.0003853565;
  (suspect, 2) 0.003058104, 0.993883792, 0.003058104;
  (negative, 3) 0.99966650, 0.00016675, 0.00016675;
  (suspect, 3) 0.0005136107, 0.0837185413, 0.9157678480;
  (negative, 4) 0.9986310746, 0.0006844627, 0.0006844627;
  (suspect, 4) 0.0007698229, 0.6243264049, 0.3749037721;
  (negative, 5) 9.998376e-01, 8.120179e-05, 8.120179e-05;
  (suspect, 5) 0.0005602241, 0.4543417367, 0.5450980392;
  (negative, 6) 9.999177e-01, 4.114718e-05, 4.114718e-05;
  (suspect, 6) 0.0006844627, 0.9986310746, 0.0006844627;
  (negative, 7) 9.998945e-01, 5.275096e-05, 5.275096e-05;
  (suspect, 7) 0.0003425831, 0.7218225420, 0.2778348750;
  (negative, 8) 0.9993148338, 0.0003425831, 0.0003425831;
  (suspect, 8) 0.0007698229, 0.9984603541, 0.0007698229;
  (negative, 9) 0.9999078808, 0.0000460596, 0.0000460596;
  (suspect, 9) 0.0001186662, 0.9613148214, 0.0385665124;
  (negative, 10) 9.999086e-01, 4.571847e-05, 4.571847e-05;
  (suspect, 10) 0.001025641, 0.997948718, 0.001025641;
  (negative, 11) 9.998581e-01, 7.093708e-05, 7.093708e-05;
  (suspect, 11) 0.001025641, 0.831794872, 0.167179487;
  (negative, 12) 9.998397e-01, 8.014747e-05, 8.014747e-05;
  (suspect, 12) 0.006060606, 0.987878788, 0.006060606;
  (negative, 13) 9.998701e-01, 6.496459e-05, 6.496459e-05;
  (suspect, 13) 0.0007698229, 0.2501924557, 0.7490377213;
  (negative, 14) 9.999137e-01, 4.316112e-05, 4.316112e-05;
  (suspect, 14) 0.0004403347, 0.8564509027, 0.1431087627;
  (negative, 15) 9.999106e-01, 4.472472e-05, 4.472472e-05;
  (suspect, 15) 0.00204499, 0.66462168, 0.33333333;
  (negative, 16) 9.999624e-01, 1.881857e-05, 1.881857e-05;
  (suspect, 16) 0.0182878941, 0.9815999102, 0.0001121957;
  (negative, 17) 0.9997061848, 0.0001469076, 0.0001469076;
  (suspect, 17) 0.00204499, 0.99591002, 0.00204499;
  (negative, 18) 9.999463e-01, 2.683627e-05, 2.683627e-05;
  (suspect, 18) 0.0002127207, 0.9306530525, 0.0691342268;
  (negative, 19) 9.998753e-01, 6.234025e-05, 6.234025e-05;
  (suspect, 19) 0.0004403347, 0.8564509027, 0.1431087627;
  (negative, 20) 0.9999414948, 0.0000292526, 0.0000292526;
  (suspect, 20) 0.00204499, 0.99591002, 0.00204499;
  (negative, 22) 9.999256e-01, 3.718163e-05, 3.718163e-05;
  (suspect, 22) 0.003058104, 0.993883792, 0.003058104;
  (negative, 24) 9.998778e-01, 6.110602e-05, 6.110602e-05;
  (suspect, 24) 0.0002803476, 0.9540229885, 0.0456966639;
  (negative, 27) 9.999299e-01, 3.506926e-05, 3.506926e-05;
  (suspect, 27) 0.006060606, 0.987878788, 0.006060606;
  (negative, 28) 0.999862854, 0.000068573, 0.000068573;
  (suspect, 28) 0.006060606, 0.987878788, 0.006060606;
  (negative, 29) 0.9998643608, 0.0000678196, 0.0000678196;
  (suspect, 29) 0.001025641, 0.997948718, 0.001025641;
  (negative, 31) 9.998917e-01, 5.413892e-05, 5.413892e-05;
  (suspect, 31) 0.001536098, 0.996927803, 0.001536098;
}
probability ( sampleSize | screeningResults, year ) {
  (negative, 2008) 2.486944e-05, 9.997762e-01, 2.486944e-05, 2.486944e-05, 2.486944e-05, 2.486944e-05, 2.486944e-05, 2.486944e-05, 2.486944e-05, 2.486944e-05;
  (suspect, 2008) 0.0001996008, 0.9982035928, 0.0001996008, 0.0001996008, 0.0001996008, 0.0001996008, 0.0001996008, 0.0001996008, 0.0001996008, 0.0001996008;
  (negative, 2009) 2.251745e-05, 2.251745e-05, 9.997973e-01, 2.251745e-05, 2.251745e-05, 2.251745e-05, 2.251745e-05, 2.251745e-05, 2.251745e-05, 2.251745e-05;
  (suspect, 2009) 0.0001560062, 0.0001560062, 0.9985959438, 0.0001560062, 0.0001560062, 0.0001560062, 0.0001560062, 0.0001560062, 0.0001560062, 0.0001560062;
  (negative, 2010) 9.997338e-01, 2.957705e-05, 2.957705e-05, 2.957705e-05, 2.957705e-05, 2.957705e-05, 2.957705e-05, 2.957705e-05, 2.957705e-05, 2.957705e-05;
  (suspect, 2010) 0.9983364140, 0.0001848429, 0.0001848429, 0.0001848429, 0.0001848429, 0.0001848429, 0.0001848429, 0.0001848429, 0.0001848429, 0.0001848429;
  (negative, 2011) 0.0000157208, 0.0000157208, 0.0000157208, 0.0000157208, 0.9998585128, 0.0000157208, 0.0000157208, 0.0000157208, 0.0000157208, 0.0000157208;
  (suspect, 2011) 0.0001468429, 0.0001468429, 0.0001468429, 0.0001468429, 0.9986784141, 0.0001468429, 0.0001468429, 0.0001468429, 0.0001468429, 0.0001468429;
  (negative, 2012) 1.577038e-05, 1.577038e-05, 1.577038e-05, 1.577038e-05, 1.577038e-05, 1.577038e-05, 1.577038e-05, 9.998581e-01, 1.577038e-05, 1.577038e-05;
  (suspect, 2012) 0.0001040583, 0.0001040583, 0.0001040583, 0.0001040583, 0.0001040583, 0.0001040583, 0.0001040583, 0.9990634755, 0.0001040583, 0.0001040583;
  (negative, 2013) 1.362212e-05, 1.362212e-05, 1.362212e-05, 1.362212e-05, 1.362212e-05, 1.362212e-05, 1.362212e-05, 1.362212e-05, 1.362212e-05, 9.998774e-01;
  (suspect, 2013) 8.920607e-05, 8.920607e-05, 8.920607e-05, 8.920607e-05, 8.920607e-05, 8.920607e-05, 8.920607e-05, 8.920607e-05, 8.920607e-05, 9.991971e-01;
  (negative, 2014) 1.677571e-05, 1.677571e-05, 1.677571e-05, 9.998490e-01, 1.677571e-05, 1.677571e-05, 1.677571e-05, 1.677571e-05, 1.677571e-05, 1.677571e-05;
  (suspect, 2014) 0.0001189061, 0.0001189061, 0.0001189061, 0.9989298454, 0.0001189061, 0.0001189061, 0.0001189061, 0.0001189061, 0.0001189061, 0.0001189061;
  (negative, 2015) 1.479071e-05, 1.479071e-05, 1.479071e-05, 1.479071e-05, 1.479071e-05, 9.998669e-01, 1.479071e-05, 1.479071e-05, 1.479071e-05, 1.479071e-05;
  (suspect, 2015) 0.0002493766, 0.0002493766, 0.0002493766, 0.0002493766, 0.0002493766, 0.9977556110, 0.0002493766, 0.0002493766, 0.0002493766, 0.0002493766;
  (negative, 2016) 1.424299e-05, 1.424299e-05, 1.424299e-05, 1.424299e-05, 1.424299e-05, 1.424299e-05, 1.424299e-05, 1.424299e-05, 9.998718e-01, 1.424299e-05;
  (suspect, 2016) 0.0001782531, 0.0001782531, 0.0001782531, 0.0001782531, 0.0001782531, 0.0001782531, 0.0001782531, 0.0001782531, 0.9983957219, 0.0001782531;
  (negative, 2017) 1.440715e-05, 1.440715e-05, 1.440715e-05, 1.440715e-05, 1.440715e-05, 1.440715e-05, 9.998703e-01, 1.440715e-05, 1.440715e-05, 1.440715e-05;
  (suspect, 2017) 0.0002770083, 0.0002770083, 0.0002770083, 0.0002770083, 0.0002770083, 0.0002770083, 0.9975069252, 0.0002770083, 0.0002770083, 0.0002770083;
}
