network unknown {
}
variable C1 {
  type discrete [ 2 ] { Hp, Hd };
}
variable C2 {
  type discrete [ 2 ] { True, False };
}
variable C4 {
  type discrete [ 8 ] { P, F, P_F, P_T, F_T, P_F_T, Undetermined, None };
}
variable C5 {
  type discrete [ 9 ] { P, F, T, P_F, P_T, F_T, P_F_T, Undetermined, None };
}
variable C6 {
  type discrete [ 9 ] { P, F, T, P_F, P_T, F_T, P_F_T, Undetermined, None };
}
variable C3 {
  type discrete [ 2 ] { True, False };
}
variable C7 {
  type discrete [ 8 ] { P, F, P_F, P_T, F_T, P_F_T, Undetermined, None };
}
variable C9 {
  type discrete [ 9 ] { P, F, T, P_F, P_T, F_T, P_F_T, Undetermined, None };
}
variable C8 {
  type discrete [ 9 ] { P, F, T, P_F, P_T, F_T, P_F_T, Undetermined, None };
}
variable C11 {
  type discrete [ 9 ] { P, F, T, P_F, P_T, F_T, P_F_T, Undetermined, None };
}
variable C12 {
  type discrete [ 9 ] { P, F, T, P_F, P_T, F_T, P_F_T, Undetermined, None };
}
variable C10 {
  type discrete [ 8 ] { P, F, P_F, P_T, F_T, P_F_T, Undetermined, None };
}
probability ( C1 ) {
  table 0.5, 0.5;
}
probability ( C2 | C1 ) {
  (Hp) 1.0, 0.0;
  (Hd) 0.0, 1.0;
}
probability ( C4 | C2 ) {
  (True) 0.03125, 0.03125, 0.15625, 0.03125, 0.03125, 0.62500, 0.06250, 0.03125;
  (False) 0.0, 0.0, 0.0, 0.0, 0.0, 0.0, 0.0, 1.0;
}
probability ( C5 | C2, C4 ) {
  (True, P) 0.0, 0.0, 0.0, 0.0, 0.0, 0.0, 0.0, 0.0, 1.0;
  (False, P) 0.0, 0.0, 0.0, 0.0, 0.0, 0.0, 0.0, 0.0, 1.0;
  (True, F) 0.1428571, 0.1428571, 0.1428571, 0.1428571, 0.0000000, 0.1428571, 0.0000000, 0.1428571, 0.1428571;
  (False, F) 0.0, 0.0, 0.0, 0.0, 0.0, 0.0, 0.0, 0.0, 1.0;
  (True, P_F) 0.07692312, 0.07692312, 0.30769209, 0.07692312, 0.07692312, 0.07692312, 0.07692312, 0.07692312, 0.15384605;
  (False, P_F) 0.0, 0.0, 0.0, 0.0, 0.0, 0.0, 0.0, 0.0, 1.0;
  (True, P_T) 0.1428571, 0.1428571, 0.1428571, 0.1428571, 0.0000000, 0.1428571, 0.0000000, 0.1428571, 0.1428571;
  (False, P_T) 0.0, 0.0, 0.0, 0.0, 0.0, 0.0, 0.0, 0.0, 1.0;
  (True, F_T) 0.1666667, 0.1666667, 0.1666667, 0.1666667, 0.0000000, 0.0000000, 0.0000000, 0.1666667, 0.1666667;
  (False, F_T) 0.0, 0.0, 0.0, 0.0, 0.0, 0.0, 0.0, 0.0, 1.0;
  (True, P_F_T) 0.24999980, 0.03571427, 0.21428583, 0.03571427, 0.03571427, 0.03571427, 0.03571427, 0.03571427, 0.32142874;
  (False, P_F_T) 0.0, 0.0, 0.0, 0.0, 0.0, 0.0, 0.0, 0.0, 1.0;
  (True, Undetermined) 0.1, 0.1, 0.1, 0.1, 0.1, 0.1, 0.1, 0.2, 0.1;
  (False, Undetermined) 0.0, 0.0, 0.0, 0.0, 0.0, 0.0, 0.0, 0.0, 1.0;
  (True, None) 0.0, 0.0, 0.0, 0.0, 0.0, 0.0, 0.0, 0.0, 1.0;
  (False, None) 0.0, 0.0, 0.0, 0.0, 0.0, 0.0, 0.0, 0.0, 1.0;
}
probability ( C6 | C2, C4, C5 ) {
  (True, P, P) 0.1111111, 0.1111111, 0.1111111, 0.1111111, 0.1111111, 0.1111111, 0.1111111, 0.1111111, 0.1111111;
  (False, P, P) 0.0, 0.0, 0.0, 0.0, 0.0, 0.0, 0.0, 0.0, 1.0;
  (True, F, P) 0.0000000, 0.3333333, 0.0000000, 0.0000000, 0.0000000, 0.0000000, 0.0000000, 0.3333333, 0.3333333;
  (False, F, P) 0.0, 0.0, 0.0, 0.0, 0.0, 0.0, 0.0, 0.0, 1.0;
  (True, P_F, P) 0.0, 0.2, 0.2, 0.0, 0.0, 0.2, 0.0, 0.2, 0.2;
  (False, P_F, P) 0.0, 0.0, 0.0, 0.0, 0.0, 0.0, 0.0, 0.0, 1.0;
  (True, P_T, P) 0.0000000, 0.3333333, 0.0000000, 0.0000000, 0.0000000, 0.0000000, 0.0000000, 0.3333333, 0.3333333;
  (False, P_T, P) 0.0, 0.0, 0.0, 0.0, 0.0, 0.0, 0.0, 0.0, 1.0;
  (True, F_T, P) 0.00, 0.25, 0.25, 0.00, 0.00, 0.00, 0.00, 0.25, 0.25;
  (False, F_T, P) 0.0, 0.0, 0.0, 0.0, 0.0, 0.0, 0.0, 0.0, 1.0;
  (True, P_F_T, P) 0.00000000, 0.09090906, 0.09090906, 0.00000000, 0.00000000, 0.09090906, 0.00000000, 0.09090906, 0.63636375;
  (False, P_F_T, P) 0.0, 0.0, 0.0, 0.0, 0.0, 0.0, 0.0, 0.0, 1.0;
  (True, Undetermined, P) 0.0, 0.2, 0.2, 0.0, 0.0, 0.2, 0.0, 0.2, 0.2;
  (False, Undetermined, P) 0.0, 0.0, 0.0, 0.0, 0.0, 0.0, 0.0, 0.0, 1.0;
  (True, None, P) 0.1111111, 0.1111111, 0.1111111, 0.1111111, 0.1111111, 0.1111111, 0.1111111, 0.1111111, 0.1111111;
  (False, None, P) 0.0, 0.0, 0.0, 0.0, 0.0, 0.0, 0.0, 0.0, 1.0;
  (True, P, F) 0.1111111, 0.1111111, 0.1111111, 0.1111111, 0.1111111, 0.1111111, 0.1111111, 0.1111111, 0.1111111;
  (False, P, F) 0.0, 0.0, 0.0, 0.0, 0.0, 0.0, 0.0, 0.0, 1.0;
  (True, F, F) 0.00, 0.25, 0.25, 0.00, 0.00, 0.00, 0.00, 0.25, 0.25;
  (False, F, F) 0.0, 0.0, 0.0, 0.0, 0.0, 0.0, 0.0, 0.0, 1.0;
  (True, P_F, F) 0.1428571, 0.1428571, 0.1428571, 0.1428571, 0.0000000, 0.1428571, 0.0000000, 0.1428571, 0.1428571;
  (False, P_F, F) 0.0, 0.0, 0.0, 0.0, 0.0, 0.0, 0.0, 0.0, 1.0;
  (True, P_T, F) 0.1666667, 0.1666667, 0.1666667, 0.1666667, 0.0000000, 0.0000000, 0.0000000, 0.1666667, 0.1666667;
  (False, P_T, F) 0.0, 0.0, 0.0, 0.0, 0.0, 0.0, 0.0, 0.0, 1.0;
  (True, F_T, F) 0.1428571, 0.1428571, 0.1428571, 0.1428571, 0.0000000, 0.1428571, 0.0000000, 0.1428571, 0.1428571;
  (False, F_T, F) 0.0, 0.0, 0.0, 0.0, 0.0, 0.0, 0.0, 0.0, 1.0;
  (True, P_F_T, F) 0.1428571, 0.1428571, 0.1428571, 0.1428571, 0.0000000, 0.1428571, 0.0000000, 0.1428571, 0.1428571;
  (False, P_F_T, F) 0.0, 0.0, 0.0, 0.0, 0.0, 0.0, 0.0, 0.0, 1.0;
  (True, Undetermined, F) 0.1428571, 0.1428571, 0.1428571, 0.1428571, 0.0000000, 0.1428571, 0.0000000, 0.1428571, 0.1428571;
  (False, Undetermined, F) 0.0, 0.0, 0.0, 0.0, 0.0, 0.0, 0.0, 0.0, 1.0;
  (True, None, F) 0.1111111, 0.1111111, 0.1111111, 0.1111111, 0.1111111, 0.1111111, 0.1111111, 0.1111111, 0.1111111;
  (False, None, F) 0.0, 0.0, 0.0, 0.0, 0.0, 0.0, 0.0, 0.0, 1.0;
  (True, P, T) 0.1111111, 0.1111111, 0.1111111, 0.1111111, 0.1111111, 0.1111111, 0.1111111, 0.1111111, 0.1111111;
  (False, P, T) 0.0, 0.0, 0.0, 0.0, 0.0, 0.0, 0.0, 0.0, 1.0;
  (True, F, T) 0.0000000, 0.3333333, 0.0000000, 0.0000000, 0.0000000, 0.0000000, 0.0000000, 0.3333333, 0.3333333;
  (False, F, T) 0.0, 0.0, 0.0, 0.0, 0.0, 0.0, 0.0, 0.0, 1.0;
  (True, P_F, T) 0.125, 0.125, 0.000, 0.125, 0.000, 0.000, 0.000, 0.125, 0.500;
  (False, P_F, T) 0.0, 0.0, 0.0, 0.0, 0.0, 0.0, 0.0, 0.0, 1.0;
  (True, P_T, T) 0.0, 0.0, 0.0, 0.0, 0.0, 0.0, 0.0, 0.0, 1.0;
  (False, P_T, T) 0.0, 0.0, 0.0, 0.0, 0.0, 0.0, 0.0, 0.0, 1.0;
  (True, F_T, T) 0.0000000, 0.3333333, 0.0000000, 0.0000000, 0.0000000, 0.0000000, 0.0000000, 0.3333333, 0.3333333;
  (False, F_T, T) 0.0, 0.0, 0.0, 0.0, 0.0, 0.0, 0.0, 0.0, 1.0;
  (True, P_F_T, T) 0.1, 0.2, 0.0, 0.1, 0.0, 0.0, 0.0, 0.1, 0.5;
  (False, P_F_T, T) 0.0, 0.0, 0.0, 0.0, 0.0, 0.0, 0.0, 0.0, 1.0;
  (True, Undetermined, T) 0.2, 0.2, 0.0, 0.2, 0.0, 0.0, 0.0, 0.2, 0.2;
  (False, Undetermined, T) 0.0, 0.0, 0.0, 0.0, 0.0, 0.0, 0.0, 0.0, 1.0;
  (True, None, T) 0.1111111, 0.1111111, 0.1111111, 0.1111111, 0.1111111, 0.1111111, 0.1111111, 0.1111111, 0.1111111;
  (False, None, T) 0.0, 0.0, 0.0, 0.0, 0.0, 0.0, 0.0, 0.0, 1.0;
  (True, P, P_F) 0.1111111, 0.1111111, 0.1111111, 0.1111111, 0.1111111, 0.1111111, 0.1111111, 0.1111111, 0.1111111;
  (False, P, P_F) 0.0, 0.0, 0.0, 0.0, 0.0, 0.0, 0.0, 0.0, 1.0;
  (True, F, P_F) 0.0000000, 0.3333333, 0.0000000, 0.0000000, 0.0000000, 0.0000000, 0.0000000, 0.3333333, 0.3333333;
  (False, F, P_F) 0.0, 0.0, 0.0, 0.0, 0.0, 0.0, 0.0, 0.0, 1.0;
  (True, P_F, P_F) 0.0, 0.2, 0.2, 0.0, 0.0, 0.2, 0.0, 0.2, 0.2;
  (False, P_F, P_F) 0.0, 0.0, 0.0, 0.0, 0.0, 0.0, 0.0, 0.0, 1.0;
  (True, P_T, P_F) 0.00, 0.25, 0.25, 0.00, 0.00, 0.00, 0.00, 0.25, 0.25;
  (False, P_T, P_F) 0.0, 0.0, 0.0, 0.0, 0.0, 0.0, 0.0, 0.0, 1.0;
  (True, F_T, P_F) 0.0, 0.2, 0.2, 0.0, 0.0, 0.2, 0.0, 0.2, 0.2;
  (False, F_T, P_F) 0.0, 0.0, 0.0, 0.0, 0.0, 0.0, 0.0, 0.0, 1.0;
  (True, P_F_T, P_F) 0.0, 0.2, 0.2, 0.0, 0.0, 0.2, 0.0, 0.2, 0.2;
  (False, P_F_T, P_F) 0.0, 0.0, 0.0, 0.0, 0.0, 0.0, 0.0, 0.0, 1.0;
  (True, Undetermined, P_F) 0.0, 0.2, 0.2, 0.0, 0.0, 0.2, 0.0, 0.2, 0.2;
  (False, Undetermined, P_F) 0.0, 0.0, 0.0, 0.0, 0.0, 0.0, 0.0, 0.0, 1.0;
  (True, None, P_F) 0.1111111, 0.1111111, 0.1111111, 0.1111111, 0.1111111, 0.1111111, 0.1111111, 0.1111111, 0.1111111;
  (False, None, P_F) 0.0, 0.0, 0.0, 0.0, 0.0, 0.0, 0.0, 0.0, 1.0;
  (True, P, P_T) 0.1111111, 0.1111111, 0.1111111, 0.1111111, 0.1111111, 0.1111111, 0.1111111, 0.1111111, 0.1111111;
  (False, P, P_T) 0.0, 0.0, 0.0, 0.0, 0.0, 0.0, 0.0, 0.0, 1.0;
  (True, F, P_T) 0.1111111, 0.1111111, 0.1111111, 0.1111111, 0.1111111, 0.1111111, 0.1111111, 0.1111111, 0.1111111;
  (False, F, P_T) 0.0, 0.0, 0.0, 0.0, 0.0, 0.0, 0.0, 0.0, 1.0;
  (True, P_F, P_T) 0.0000000, 0.3333333, 0.0000000, 0.0000000, 0.0000000, 0.0000000, 0.0000000, 0.3333333, 0.3333333;
  (False, P_F, P_T) 0.0, 0.0, 0.0, 0.0, 0.0, 0.0, 0.0, 0.0, 1.0;
  (True, P_T, P_T) 0.1111111, 0.1111111, 0.1111111, 0.1111111, 0.1111111, 0.1111111, 0.1111111, 0.1111111, 0.1111111;
  (False, P_T, P_T) 0.0, 0.0, 0.0, 0.0, 0.0, 0.0, 0.0, 0.0, 1.0;
  (True, F_T, P_T) 0.1111111, 0.1111111, 0.1111111, 0.1111111, 0.1111111, 0.1111111, 0.1111111, 0.1111111, 0.1111111;
  (False, F_T, P_T) 0.0, 0.0, 0.0, 0.0, 0.0, 0.0, 0.0, 0.0, 1.0;
  (True, P_F_T, P_T) 0.0, 0.0, 0.0, 0.0, 0.0, 0.0, 0.0, 0.0, 1.0;
  (False, P_F_T, P_T) 0.0, 0.0, 0.0, 0.0, 0.0, 0.0, 0.0, 0.0, 1.0;
  (True, Undetermined, P_T) 0.0000000, 0.3333333, 0.0000000, 0.0000000, 0.0000000, 0.0000000, 0.0000000, 0.3333333, 0.3333333;
  (False, Undetermined, P_T) 0.0, 0.0, 0.0, 0.0, 0.0, 0.0, 0.0, 0.0, 1.0;
  (True, None, P_T) 0.1111111, 0.1111111, 0.1111111, 0.1111111, 0.1111111, 0.1111111, 0.1111111, 0.1111111, 0.1111111;
  (False, None, P_T) 0.0, 0.0, 0.0, 0.0, 0.0, 0.0, 0.0, 0.0, 1.0;
  (True, P, F_T) 0.1111111, 0.1111111, 0.1111111, 0.1111111, 0.1111111, 0.1111111, 0.1111111, 0.1111111, 0.1111111;
  (False, P, F_T) 0.0, 0.0, 0.0, 0.0, 0.0, 0.0, 0.0, 0.0, 1.0;
  (True, F, F_T) 0.0000000, 0.3333333, 0.0000000, 0.0000000, 0.0000000, 0.0000000, 0.0000000, 0.3333333, 0.3333333;
  (False, F, F_T) 0.0, 0.0, 0.0, 0.0, 0.0, 0.0, 0.0, 0.0, 1.0;
  (True, P_F, F_T) 0.2, 0.2, 0.0, 0.2, 0.0, 0.0, 0.0, 0.2, 0.2;
  (False, P_F, F_T) 0.0, 0.0, 0.0, 0.0, 0.0, 0.0, 0.0, 0.0, 1.0;
  (True, P_T, F_T) 0.0, 0.0, 0.0, 0.0, 0.0, 0.0, 0.0, 0.0, 1.0;
  (False, P_T, F_T) 0.0, 0.0, 0.0, 0.0, 0.0, 0.0, 0.0, 0.0, 1.0;
  (True, F_T, F_T) 0.1111111, 0.1111111, 0.1111111, 0.1111111, 0.1111111, 0.1111111, 0.1111111, 0.1111111, 0.1111111;
  (False, F_T, F_T) 0.0, 0.0, 0.0, 0.0, 0.0, 0.0, 0.0, 0.0, 1.0;
  (True, P_F_T, F_T) 0.2, 0.2, 0.0, 0.2, 0.0, 0.0, 0.0, 0.2, 0.2;
  (False, P_F_T, F_T) 0.0, 0.0, 0.0, 0.0, 0.0, 0.0, 0.0, 0.0, 1.0;
  (True, Undetermined, F_T) 0.2, 0.2, 0.0, 0.2, 0.0, 0.0, 0.0, 0.2, 0.2;
  (False, Undetermined, F_T) 0.0, 0.0, 0.0, 0.0, 0.0, 0.0, 0.0, 0.0, 1.0;
  (True, None, F_T) 0.1111111, 0.1111111, 0.1111111, 0.1111111, 0.1111111, 0.1111111, 0.1111111, 0.1111111, 0.1111111;
  (False, None, F_T) 0.0, 0.0, 0.0, 0.0, 0.0, 0.0, 0.0, 0.0, 1.0;
  (True, P, P_F_T) 0.1111111, 0.1111111, 0.1111111, 0.1111111, 0.1111111, 0.1111111, 0.1111111, 0.1111111, 0.1111111;
  (False, P, P_F_T) 0.0, 0.0, 0.0, 0.0, 0.0, 0.0, 0.0, 0.0, 1.0;
  (True, F, P_F_T) 0.1111111, 0.1111111, 0.1111111, 0.1111111, 0.1111111, 0.1111111, 0.1111111, 0.1111111, 0.1111111;
  (False, F, P_F_T) 0.0, 0.0, 0.0, 0.0, 0.0, 0.0, 0.0, 0.0, 1.0;
  (True, P_F, P_F_T) 0.0, 0.0, 0.0, 0.0, 0.0, 0.0, 0.0, 0.0, 1.0;
  (False, P_F, P_F_T) 0.0, 0.0, 0.0, 0.0, 0.0, 0.0, 0.0, 0.0, 1.0;
  (True, P_T, P_F_T) 0.1111111, 0.1111111, 0.1111111, 0.1111111, 0.1111111, 0.1111111, 0.1111111, 0.1111111, 0.1111111;
  (False, P_T, P_F_T) 0.0, 0.0, 0.0, 0.0, 0.0, 0.0, 0.0, 0.0, 1.0;
  (True, F_T, P_F_T) 0.1111111, 0.1111111, 0.1111111, 0.1111111, 0.1111111, 0.1111111, 0.1111111, 0.1111111, 0.1111111;
  (False, F_T, P_F_T) 0.0, 0.0, 0.0, 0.0, 0.0, 0.0, 0.0, 0.0, 1.0;
  (True, P_F_T, P_F_T) 0.0, 0.0, 0.0, 0.0, 0.0, 0.0, 0.0, 0.0, 1.0;
  (False, P_F_T, P_F_T) 0.0, 0.0, 0.0, 0.0, 0.0, 0.0, 0.0, 0.0, 1.0;
  (True, Undetermined, P_F_T) 0.0, 0.0, 0.0, 0.0, 0.0, 0.0, 0.0, 0.0, 1.0;
  (False, Undetermined, P_F_T) 0.0, 0.0, 0.0, 0.0, 0.0, 0.0, 0.0, 0.0, 1.0;
  (True, None, P_F_T) 0.1111111, 0.1111111, 0.1111111, 0.1111111, 0.1111111, 0.1111111, 0.1111111, 0.1111111, 0.1111111;
  (False, None, P_F_T) 0.0, 0.0, 0.0, 0.0, 0.0, 0.0, 0.0, 0.0, 1.0;
  (True, P, Undetermined) 0.1111111, 0.1111111, 0.1111111, 0.1111111, 0.1111111, 0.1111111, 0.1111111, 0.1111111, 0.1111111;
  (False, P, Undetermined) 0.0, 0.0, 0.0, 0.0, 0.0, 0.0, 0.0, 0.0, 1.0;
  (True, F, Undetermined) 0.00, 0.25, 0.25, 0.00, 0.00, 0.00, 0.00, 0.25, 0.25;
  (False, F, Undetermined) 0.0, 0.0, 0.0, 0.0, 0.0, 0.0, 0.0, 0.0, 1.0;
  (True, P_F, Undetermined) 0.1428571, 0.1428571, 0.1428571, 0.1428571, 0.0000000, 0.1428571, 0.0000000, 0.1428571, 0.1428571;
  (False, P_F, Undetermined) 0.0, 0.0, 0.0, 0.0, 0.0, 0.0, 0.0, 0.0, 1.0;
  (True, P_T, Undetermined) 0.1666667, 0.1666667, 0.1666667, 0.1666667, 0.0000000, 0.0000000, 0.0000000, 0.1666667, 0.1666667;
  (False, P_T, Undetermined) 0.0, 0.0, 0.0, 0.0, 0.0, 0.0, 0.0, 0.0, 1.0;
  (True, F_T, Undetermined) 0.1428571, 0.1428571, 0.1428571, 0.1428571, 0.0000000, 0.1428571, 0.0000000, 0.1428571, 0.1428571;
  (False, F_T, Undetermined) 0.0, 0.0, 0.0, 0.0, 0.0, 0.0, 0.0, 0.0, 1.0;
  (True, P_F_T, Undetermined) 0.1428571, 0.1428571, 0.1428571, 0.1428571, 0.0000000, 0.1428571, 0.0000000, 0.1428571, 0.1428571;
  (False, P_F_T, Undetermined) 0.0, 0.0, 0.0, 0.0, 0.0, 0.0, 0.0, 0.0, 1.0;
  (True, Undetermined, Undetermined) 0.125, 0.125, 0.125, 0.125, 0.000, 0.125, 0.000, 0.125, 0.250;
  (False, Undetermined, Undetermined) 0.0, 0.0, 0.0, 0.0, 0.0, 0.0, 0.0, 0.0, 1.0;
  (True, None, Undetermined) 0.1111111, 0.1111111, 0.1111111, 0.1111111, 0.1111111, 0.1111111, 0.1111111, 0.1111111, 0.1111111;
  (False, None, Undetermined) 0.0, 0.0, 0.0, 0.0, 0.0, 0.0, 0.0, 0.0, 1.0;
  (True, P, None) 0.0000000, 0.0000000, 0.0000000, 0.0000000, 0.0000000, 0.3333333, 0.3333333, 0.3333333, 0.0000000;
  (False, P, None) 0.0, 0.0, 0.0, 0.0, 0.0, 0.0, 0.0, 0.0, 1.0;
  (True, F, None) 0.1111111, 0.1111111, 0.1111111, 0.1111111, 0.1111111, 0.1111111, 0.1111111, 0.1111111, 0.1111111;
  (False, F, None) 0.0, 0.0, 0.0, 0.0, 0.0, 0.0, 0.0, 0.0, 1.0;
  (True, P_F, None) 0.1, 0.1, 0.1, 0.1, 0.1, 0.1, 0.1, 0.1, 0.2;
  (False, P_F, None) 0.0, 0.0, 0.0, 0.0, 0.0, 0.0, 0.0, 0.0, 1.0;
  (True, P_T, None) 0.1111111, 0.1111111, 0.1111111, 0.1111111, 0.1111111, 0.1111111, 0.1111111, 0.1111111, 0.1111111;
  (False, P_T, None) 0.0, 0.0, 0.0, 0.0, 0.0, 0.0, 0.0, 0.0, 1.0;
  (True, F_T, None) 0.1428571, 0.1428571, 0.1428571, 0.1428571, 0.1428571, 0.0000000, 0.0000000, 0.1428571, 0.1428571;
  (False, F_T, None) 0.0, 0.0, 0.0, 0.0, 0.0, 0.0, 0.0, 0.0, 1.0;
  (True, P_F_T, None) 0.0588235, 0.0588235, 0.0588235, 0.0588235, 0.0588235, 0.0588235, 0.0588235, 0.0588235, 0.5294120;
  (False, P_F_T, None) 0.0, 0.0, 0.0, 0.0, 0.0, 0.0, 0.0, 0.0, 1.0;
  (True, Undetermined, None) 0.1111111, 0.1111111, 0.1111111, 0.1111111, 0.1111111, 0.1111111, 0.1111111, 0.1111111, 0.1111111;
  (False, Undetermined, None) 0.0, 0.0, 0.0, 0.0, 0.0, 0.0, 0.0, 0.0, 1.0;
  (True, None, None) 0.0000000, 0.0000000, 0.0000000, 0.1666667, 0.1666667, 0.1666667, 0.1666667, 0.1666667, 0.1666667;
  (False, None, None) 0.0, 0.0, 0.0, 0.0, 0.0, 0.0, 0.0, 0.0, 1.0;
}
probability ( C3 | C1 ) {
  (Hp) 0.0, 1.0;
  (Hd) 1.0, 0.0;
}
probability ( C7 | C3 ) {
  (True) 0.03125, 0.03125, 0.03125, 0.03125, 0.03125, 0.75000, 0.06250, 0.03125;
  (False) 0.0, 0.0, 0.0, 0.0, 0.0, 0.0, 0.0, 1.0;
}
probability ( C9 | C3, C7 ) {
  (True, P) 0.0, 0.0, 0.0, 0.0, 0.0, 0.0, 0.0, 0.0, 1.0;
  (False, P) 0.0, 0.0, 0.0, 0.0, 0.0, 0.0, 0.0, 0.0, 1.0;
  (True, F) 0.1428571, 0.1428571, 0.1428571, 0.1428571, 0.0000000, 0.1428571, 0.0000000, 0.1428571, 0.1428571;
  (False, F) 0.0, 0.0, 0.0, 0.0, 0.0, 0.0, 0.0, 0.0, 1.0;
  (True, P_F) 0.1111111, 0.1111111, 0.1111111, 0.1111111, 0.1111111, 0.1111111, 0.1111111, 0.1111111, 0.1111111;
  (False, P_F) 0.0, 0.0, 0.0, 0.0, 0.0, 0.0, 0.0, 0.0, 1.0;
  (True, P_T) 0.1428571, 0.1428571, 0.1428571, 0.1428571, 0.0000000, 0.1428571, 0.0000000, 0.1428571, 0.1428571;
  (False, P_T) 0.0, 0.0, 0.0, 0.0, 0.0, 0.0, 0.0, 0.0, 1.0;
  (True, F_T) 0.1666667, 0.1666667, 0.1666667, 0.1666667, 0.0000000, 0.0000000, 0.0000000, 0.1666667, 0.1666667;
  (False, F_T) 0.0, 0.0, 0.0, 0.0, 0.0, 0.0, 0.0, 0.0, 1.0;
  (True, P_F_T) 0.18750, 0.06250, 0.03125, 0.50000, 0.03125, 0.03125, 0.03125, 0.06250, 0.06250;
  (False, P_F_T) 0.0, 0.0, 0.0, 0.0, 0.0, 0.0, 0.0, 0.0, 1.0;
  (True, Undetermined) 0.2, 0.1, 0.1, 0.1, 0.1, 0.1, 0.1, 0.1, 0.1;
  (False, Undetermined) 0.0, 0.0, 0.0, 0.0, 0.0, 0.0, 0.0, 0.0, 1.0;
  (True, None) 0.0, 0.0, 0.0, 0.0, 0.0, 0.0, 0.0, 0.0, 1.0;
  (False, None) 0.0, 0.0, 0.0, 0.0, 0.0, 0.0, 0.0, 0.0, 1.0;
}
probability ( C8 | C3, C7, C9 ) {
  (True, P, P) 0.1111111, 0.1111111, 0.1111111, 0.1111111, 0.1111111, 0.1111111, 0.1111111, 0.1111111, 0.1111111;
  (False, P, P) 0.0, 0.0, 0.0, 0.0, 0.0, 0.0, 0.0, 0.0, 1.0;
  (True, F, P) 0.0000000, 0.3333333, 0.0000000, 0.0000000, 0.0000000, 0.0000000, 0.0000000, 0.3333333, 0.3333333;
  (False, F, P) 0.0, 0.0, 0.0, 0.0, 0.0, 0.0, 0.0, 0.0, 1.0;
  (True, P_F, P) 0.0000000, 0.1666668, 0.1666668, 0.0000000, 0.0000000, 0.1666668, 0.0000000, 0.1666668, 0.3333327;
  (False, P_F, P) 0.0, 0.0, 0.0, 0.0, 0.0, 0.0, 0.0, 0.0, 1.0;
  (True, P_T, P) 0.0000000, 0.3333333, 0.0000000, 0.0000000, 0.0000000, 0.0000000, 0.0000000, 0.3333333, 0.3333333;
  (False, P_T, P) 0.0, 0.0, 0.0, 0.0, 0.0, 0.0, 0.0, 0.0, 1.0;
  (True, F_T, P) 0.00, 0.25, 0.25, 0.00, 0.00, 0.00, 0.00, 0.25, 0.25;
  (False, F_T, P) 0.0, 0.0, 0.0, 0.0, 0.0, 0.0, 0.0, 0.0, 1.0;
  (True, P_F_T, P) 0.0, 0.5, 0.1, 0.0, 0.0, 0.1, 0.0, 0.1, 0.2;
  (False, P_F_T, P) 0.0, 0.0, 0.0, 0.0, 0.0, 0.0, 0.0, 0.0, 1.0;
  (True, Undetermined, P) 0.0000000, 0.1666668, 0.1666668, 0.0000000, 0.0000000, 0.1666668, 0.0000000, 0.1666668, 0.3333327;
  (False, Undetermined, P) 0.0, 0.0, 0.0, 0.0, 0.0, 0.0, 0.0, 0.0, 1.0;
  (True, None, P) 0.1111111, 0.1111111, 0.1111111, 0.1111111, 0.1111111, 0.1111111, 0.1111111, 0.1111111, 0.1111111;
  (False, None, P) 0.0, 0.0, 0.0, 0.0, 0.0, 0.0, 0.0, 0.0, 1.0;
  (True, P, F) 0.1111111, 0.1111111, 0.1111111, 0.1111111, 0.1111111, 0.1111111, 0.1111111, 0.1111111, 0.1111111;
  (False, P, F) 0.0, 0.0, 0.0, 0.0, 0.0, 0.0, 0.0, 0.0, 1.0;
  (True, F, F) 0.00, 0.25, 0.25, 0.00, 0.00, 0.00, 0.00, 0.25, 0.25;
  (False, F, F) 0.0, 0.0, 0.0, 0.0, 0.0, 0.0, 0.0, 0.0, 1.0;
  (True, P_F, F) 0.1428571, 0.1428571, 0.1428571, 0.1428571, 0.0000000, 0.1428571, 0.0000000, 0.1428571, 0.1428571;
  (False, P_F, F) 0.0, 0.0, 0.0, 0.0, 0.0, 0.0, 0.0, 0.0, 1.0;
  (True, P_T, F) 0.1666667, 0.1666667, 0.1666667, 0.1666667, 0.0000000, 0.0000000, 0.0000000, 0.1666667, 0.1666667;
  (False, P_T, F) 0.0, 0.0, 0.0, 0.0, 0.0, 0.0, 0.0, 0.0, 1.0;
  (True, F_T, F) 0.1428571, 0.1428571, 0.1428571, 0.1428571, 0.0000000, 0.1428571, 0.0000000, 0.1428571, 0.1428571;
  (False, F_T, F) 0.0, 0.0, 0.0, 0.0, 0.0, 0.0, 0.0, 0.0, 1.0;
  (True, P_F_T, F) 0.125, 0.250, 0.125, 0.125, 0.000, 0.125, 0.000, 0.125, 0.125;
  (False, P_F_T, F) 0.0, 0.0, 0.0, 0.0, 0.0, 0.0, 0.0, 0.0, 1.0;
  (True, Undetermined, F) 0.1428571, 0.1428571, 0.1428571, 0.1428571, 0.0000000, 0.1428571, 0.0000000, 0.1428571, 0.1428571;
  (False, Undetermined, F) 0.0, 0.0, 0.0, 0.0, 0.0, 0.0, 0.0, 0.0, 1.0;
  (True, None, F) 0.1111111, 0.1111111, 0.1111111, 0.1111111, 0.1111111, 0.1111111, 0.1111111, 0.1111111, 0.1111111;
  (False, None, F) 0.0, 0.0, 0.0, 0.0, 0.0, 0.0, 0.0, 0.0, 1.0;
  (True, P, T) 0.1111111, 0.1111111, 0.1111111, 0.1111111, 0.1111111, 0.1111111, 0.1111111, 0.1111111, 0.1111111;
  (False, P, T) 0.0, 0.0, 0.0, 0.0, 0.0, 0.0, 0.0, 0.0, 1.0;
  (True, F, T) 0.0000000, 0.3333333, 0.0000000, 0.0000000, 0.0000000, 0.0000000, 0.0000000, 0.3333333, 0.3333333;
  (False, F, T) 0.0, 0.0, 0.0, 0.0, 0.0, 0.0, 0.0, 0.0, 1.0;
  (True, P_F, T) 0.2, 0.2, 0.0, 0.2, 0.0, 0.0, 0.0, 0.2, 0.2;
  (False, P_F, T) 0.0, 0.0, 0.0, 0.0, 0.0, 0.0, 0.0, 0.0, 1.0;
  (True, P_T, T) 0.0, 0.0, 0.0, 0.0, 0.0, 0.0, 0.0, 0.0, 1.0;
  (False, P_T, T) 0.0, 0.0, 0.0, 0.0, 0.0, 0.0, 0.0, 0.0, 1.0;
  (True, F_T, T) 0.0000000, 0.3333333, 0.0000000, 0.0000000, 0.0000000, 0.0000000, 0.0000000, 0.3333333, 0.3333333;
  (False, F_T, T) 0.0, 0.0, 0.0, 0.0, 0.0, 0.0, 0.0, 0.0, 1.0;
  (True, P_F_T, T) 0.2, 0.2, 0.0, 0.2, 0.0, 0.0, 0.0, 0.2, 0.2;
  (False, P_F_T, T) 0.0, 0.0, 0.0, 0.0, 0.0, 0.0, 0.0, 0.0, 1.0;
  (True, Undetermined, T) 0.2, 0.2, 0.0, 0.2, 0.0, 0.0, 0.0, 0.2, 0.2;
  (False, Undetermined, T) 0.0, 0.0, 0.0, 0.0, 0.0, 0.0, 0.0, 0.0, 1.0;
  (True, None, T) 0.1111111, 0.1111111, 0.1111111, 0.1111111, 0.1111111, 0.1111111, 0.1111111, 0.1111111, 0.1111111;
  (False, None, T) 0.0, 0.0, 0.0, 0.0, 0.0, 0.0, 0.0, 0.0, 1.0;
  (True, P, P_F) 0.1111111, 0.1111111, 0.1111111, 0.1111111, 0.1111111, 0.1111111, 0.1111111, 0.1111111, 0.1111111;
  (False, P, P_F) 0.0, 0.0, 0.0, 0.0, 0.0, 0.0, 0.0, 0.0, 1.0;
  (True, F, P_F) 0.0000000, 0.3333333, 0.0000000, 0.0000000, 0.0000000, 0.0000000, 0.0000000, 0.3333333, 0.3333333;
  (False, F, P_F) 0.0, 0.0, 0.0, 0.0, 0.0, 0.0, 0.0, 0.0, 1.0;
  (True, P_F, P_F) 0.0, 0.2, 0.2, 0.0, 0.0, 0.2, 0.0, 0.2, 0.2;
  (False, P_F, P_F) 0.0, 0.0, 0.0, 0.0, 0.0, 0.0, 0.0, 0.0, 1.0;
  (True, P_T, P_F) 0.00, 0.25, 0.25, 0.00, 0.00, 0.00, 0.00, 0.25, 0.25;
  (False, P_T, P_F) 0.0, 0.0, 0.0, 0.0, 0.0, 0.0, 0.0, 0.0, 1.0;
  (True, F_T, P_F) 0.0, 0.2, 0.2, 0.0, 0.0, 0.2, 0.0, 0.2, 0.2;
  (False, F_T, P_F) 0.0, 0.0, 0.0, 0.0, 0.0, 0.0, 0.0, 0.0, 1.0;
  (True, P_F_T, P_F) 0.00, 0.40, 0.05, 0.00, 0.00, 0.05, 0.00, 0.05, 0.45;
  (False, P_F_T, P_F) 0.0, 0.0, 0.0, 0.0, 0.0, 0.0, 0.0, 0.0, 1.0;
  (True, Undetermined, P_F) 0.0, 0.2, 0.2, 0.0, 0.0, 0.2, 0.0, 0.2, 0.2;
  (False, Undetermined, P_F) 0.0, 0.0, 0.0, 0.0, 0.0, 0.0, 0.0, 0.0, 1.0;
  (True, None, P_F) 0.1111111, 0.1111111, 0.1111111, 0.1111111, 0.1111111, 0.1111111, 0.1111111, 0.1111111, 0.1111111;
  (False, None, P_F) 0.0, 0.0, 0.0, 0.0, 0.0, 0.0, 0.0, 0.0, 1.0;
  (True, P, P_T) 0.1111111, 0.1111111, 0.1111111, 0.1111111, 0.1111111, 0.1111111, 0.1111111, 0.1111111, 0.1111111;
  (False, P, P_T) 0.0, 0.0, 0.0, 0.0, 0.0, 0.0, 0.0, 0.0, 1.0;
  (True, F, P_T) 0.1111111, 0.1111111, 0.1111111, 0.1111111, 0.1111111, 0.1111111, 0.1111111, 0.1111111, 0.1111111;
  (False, F, P_T) 0.0, 0.0, 0.0, 0.0, 0.0, 0.0, 0.0, 0.0, 1.0;
  (True, P_F, P_T) 0.0000000, 0.3333333, 0.0000000, 0.0000000, 0.0000000, 0.0000000, 0.0000000, 0.3333333, 0.3333333;
  (False, P_F, P_T) 0.0, 0.0, 0.0, 0.0, 0.0, 0.0, 0.0, 0.0, 1.0;
  (True, P_T, P_T) 0.1111111, 0.1111111, 0.1111111, 0.1111111, 0.1111111, 0.1111111, 0.1111111, 0.1111111, 0.1111111;
  (False, P_T, P_T) 0.0, 0.0, 0.0, 0.0, 0.0, 0.0, 0.0, 0.0, 1.0;
  (True, F_T, P_T) 0.1111111, 0.1111111, 0.1111111, 0.1111111, 0.1111111, 0.1111111, 0.1111111, 0.1111111, 0.1111111;
  (False, F_T, P_T) 0.0, 0.0, 0.0, 0.0, 0.0, 0.0, 0.0, 0.0, 1.0;
  (True, P_F_T, P_T) 0.0, 0.0, 0.0, 0.0, 0.0, 0.0, 0.0, 0.0, 1.0;
  (False, P_F_T, P_T) 0.0, 0.0, 0.0, 0.0, 0.0, 0.0, 0.0, 0.0, 1.0;
  (True, Undetermined, P_T) 0.0000000, 0.3333333, 0.0000000, 0.0000000, 0.0000000, 0.0000000, 0.0000000, 0.3333333, 0.3333333;
  (False, Undetermined, P_T) 0.0, 0.0, 0.0, 0.0, 0.0, 0.0, 0.0, 0.0, 1.0;
  (True, None, P_T) 0.1111111, 0.1111111, 0.1111111, 0.1111111, 0.1111111, 0.1111111, 0.1111111, 0.1111111, 0.1111111;
  (False, None, P_T) 0.0, 0.0, 0.0, 0.0, 0.0, 0.0, 0.0, 0.0, 1.0;
  (True, P, F_T) 0.1111111, 0.1111111, 0.1111111, 0.1111111, 0.1111111, 0.1111111, 0.1111111, 0.1111111, 0.1111111;
  (False, P, F_T) 0.0, 0.0, 0.0, 0.0, 0.0, 0.0, 0.0, 0.0, 1.0;
  (True, F, F_T) 0.0000000, 0.3333333, 0.0000000, 0.0000000, 0.0000000, 0.0000000, 0.0000000, 0.3333333, 0.3333333;
  (False, F, F_T) 0.0, 0.0, 0.0, 0.0, 0.0, 0.0, 0.0, 0.0, 1.0;
  (True, P_F, F_T) 0.2, 0.2, 0.0, 0.2, 0.0, 0.0, 0.0, 0.2, 0.2;
  (False, P_F, F_T) 0.0, 0.0, 0.0, 0.0, 0.0, 0.0, 0.0, 0.0, 1.0;
  (True, P_T, F_T) 0.0, 0.0, 0.0, 0.0, 0.0, 0.0, 0.0, 0.0, 1.0;
  (False, P_T, F_T) 0.0, 0.0, 0.0, 0.0, 0.0, 0.0, 0.0, 0.0, 1.0;
  (True, F_T, F_T) 0.1111111, 0.1111111, 0.1111111, 0.1111111, 0.1111111, 0.1111111, 0.1111111, 0.1111111, 0.1111111;
  (False, F_T, F_T) 0.0, 0.0, 0.0, 0.0, 0.0, 0.0, 0.0, 0.0, 1.0;
  (True, P_F_T, F_T) 0.2, 0.2, 0.0, 0.2, 0.0, 0.0, 0.0, 0.2, 0.2;
  (False, P_F_T, F_T) 0.0, 0.0, 0.0, 0.0, 0.0, 0.0, 0.0, 0.0, 1.0;
  (True, Undetermined, F_T) 0.2, 0.2, 0.0, 0.2, 0.0, 0.0, 0.0, 0.2, 0.2;
  (False, Undetermined, F_T) 0.0, 0.0, 0.0, 0.0, 0.0, 0.0, 0.0, 0.0, 1.0;
  (True, None, F_T) 0.1111111, 0.1111111, 0.1111111, 0.1111111, 0.1111111, 0.1111111, 0.1111111, 0.1111111, 0.1111111;
  (False, None, F_T) 0.0, 0.0, 0.0, 0.0, 0.0, 0.0, 0.0, 0.0, 1.0;
  (True, P, P_F_T) 0.1111111, 0.1111111, 0.1111111, 0.1111111, 0.1111111, 0.1111111, 0.1111111, 0.1111111, 0.1111111;
  (False, P, P_F_T) 0.0, 0.0, 0.0, 0.0, 0.0, 0.0, 0.0, 0.0, 1.0;
  (True, F, P_F_T) 0.1111111, 0.1111111, 0.1111111, 0.1111111, 0.1111111, 0.1111111, 0.1111111, 0.1111111, 0.1111111;
  (False, F, P_F_T) 0.0, 0.0, 0.0, 0.0, 0.0, 0.0, 0.0, 0.0, 1.0;
  (True, P_F, P_F_T) 0.0, 0.0, 0.0, 0.0, 0.0, 0.0, 0.0, 0.0, 1.0;
  (False, P_F, P_F_T) 0.0, 0.0, 0.0, 0.0, 0.0, 0.0, 0.0, 0.0, 1.0;
  (True, P_T, P_F_T) 0.1111111, 0.1111111, 0.1111111, 0.1111111, 0.1111111, 0.1111111, 0.1111111, 0.1111111, 0.1111111;
  (False, P_T, P_F_T) 0.0, 0.0, 0.0, 0.0, 0.0, 0.0, 0.0, 0.0, 1.0;
  (True, F_T, P_F_T) 0.1111111, 0.1111111, 0.1111111, 0.1111111, 0.1111111, 0.1111111, 0.1111111, 0.1111111, 0.1111111;
  (False, F_T, P_F_T) 0.0, 0.0, 0.0, 0.0, 0.0, 0.0, 0.0, 0.0, 1.0;
  (True, P_F_T, P_F_T) 0.0, 0.0, 0.0, 0.0, 0.0, 0.0, 0.0, 0.0, 1.0;
  (False, P_F_T, P_F_T) 0.0, 0.0, 0.0, 0.0, 0.0, 0.0, 0.0, 0.0, 1.0;
  (True, Undetermined, P_F_T) 0.0, 0.0, 0.0, 0.0, 0.0, 0.0, 0.0, 0.0, 1.0;
  (False, Undetermined, P_F_T) 0.0, 0.0, 0.0, 0.0, 0.0, 0.0, 0.0, 0.0, 1.0;
  (True, None, P_F_T) 0.1111111, 0.1111111, 0.1111111, 0.1111111, 0.1111111, 0.1111111, 0.1111111, 0.1111111, 0.1111111;
  (False, None, P_F_T) 0.0, 0.0, 0.0, 0.0, 0.0, 0.0, 0.0, 0.0, 1.0;
  (True, P, Undetermined) 0.1111111, 0.1111111, 0.1111111, 0.1111111, 0.1111111, 0.1111111, 0.1111111, 0.1111111, 0.1111111;
  (False, P, Undetermined) 0.0, 0.0, 0.0, 0.0, 0.0, 0.0, 0.0, 0.0, 1.0;
  (True, F, Undetermined) 0.00, 0.25, 0.25, 0.00, 0.00, 0.00, 0.00, 0.25, 0.25;
  (False, F, Undetermined) 0.0, 0.0, 0.0, 0.0, 0.0, 0.0, 0.0, 0.0, 1.0;
  (True, P_F, Undetermined) 0.1428571, 0.1428571, 0.1428571, 0.1428571, 0.0000000, 0.1428571, 0.0000000, 0.1428571, 0.1428571;
  (False, P_F, Undetermined) 0.0, 0.0, 0.0, 0.0, 0.0, 0.0, 0.0, 0.0, 1.0;
  (True, P_T, Undetermined) 0.1666667, 0.1666667, 0.1666667, 0.1666667, 0.0000000, 0.0000000, 0.0000000, 0.1666667, 0.1666667;
  (False, P_T, Undetermined) 0.0, 0.0, 0.0, 0.0, 0.0, 0.0, 0.0, 0.0, 1.0;
  (True, F_T, Undetermined) 0.1428571, 0.1428571, 0.1428571, 0.1428571, 0.0000000, 0.1428571, 0.0000000, 0.1428571, 0.1428571;
  (False, F_T, Undetermined) 0.0, 0.0, 0.0, 0.0, 0.0, 0.0, 0.0, 0.0, 1.0;
  (True, P_F_T, Undetermined) 0.125, 0.125, 0.125, 0.125, 0.000, 0.125, 0.000, 0.125, 0.250;
  (False, P_F_T, Undetermined) 0.0, 0.0, 0.0, 0.0, 0.0, 0.0, 0.0, 0.0, 1.0;
  (True, Undetermined, Undetermined) 0.1428571, 0.1428571, 0.1428571, 0.1428571, 0.0000000, 0.1428571, 0.0000000, 0.1428571, 0.1428571;
  (False, Undetermined, Undetermined) 0.0, 0.0, 0.0, 0.0, 0.0, 0.0, 0.0, 0.0, 1.0;
  (True, None, Undetermined) 0.1111111, 0.1111111, 0.1111111, 0.1111111, 0.1111111, 0.1111111, 0.1111111, 0.1111111, 0.1111111;
  (False, None, Undetermined) 0.0, 0.0, 0.0, 0.0, 0.0, 0.0, 0.0, 0.0, 1.0;
  (True, P, None) 0.0000000, 0.0000000, 0.0000000, 0.0000000, 0.0000000, 0.3333333, 0.3333333, 0.3333333, 0.0000000;
  (False, P, None) 0.0, 0.0, 0.0, 0.0, 0.0, 0.0, 0.0, 0.0, 1.0;
  (True, F, None) 0.1111111, 0.1111111, 0.1111111, 0.1111111, 0.1111111, 0.1111111, 0.1111111, 0.1111111, 0.1111111;
  (False, F, None) 0.0, 0.0, 0.0, 0.0, 0.0, 0.0, 0.0, 0.0, 1.0;
  (True, P_F, None) 0.1111111, 0.1111111, 0.1111111, 0.1111111, 0.1111111, 0.1111111, 0.1111111, 0.1111111, 0.1111111;
  (False, P_F, None) 0.0, 0.0, 0.0, 0.0, 0.0, 0.0, 0.0, 0.0, 1.0;
  (True, P_T, None) 0.1111111, 0.1111111, 0.1111111, 0.1111111, 0.1111111, 0.1111111, 0.1111111, 0.1111111, 0.1111111;
  (False, P_T, None) 0.0, 0.0, 0.0, 0.0, 0.0, 0.0, 0.0, 0.0, 1.0;
  (True, F_T, None) 0.1428571, 0.1428571, 0.1428571, 0.1428571, 0.1428571, 0.0000000, 0.0000000, 0.1428571, 0.1428571;
  (False, F_T, None) 0.0, 0.0, 0.0, 0.0, 0.0, 0.0, 0.0, 0.0, 1.0;
  (True, P_F_T, None) 0.1, 0.2, 0.1, 0.1, 0.1, 0.1, 0.1, 0.1, 0.1;
  (False, P_F_T, None) 0.0, 0.0, 0.0, 0.0, 0.0, 0.0, 0.0, 0.0, 1.0;
  (True, Undetermined, None) 0.1111111, 0.1111111, 0.1111111, 0.1111111, 0.1111111, 0.1111111, 0.1111111, 0.1111111, 0.1111111;
  (False, Undetermined, None) 0.0, 0.0, 0.0, 0.0, 0.0, 0.0, 0.0, 0.0, 1.0;
  (True, None, None) 0.0000000, 0.0000000, 0.0000000, 0.1666667, 0.1666667, 0.1666667, 0.1666667, 0.1666667, 0.1666667;
  (False, None, None) 0.0, 0.0, 0.0, 0.0, 0.0, 0.0, 0.0, 0.0, 1.0;
}
probability ( C11 | C6, C8 ) {
  (P, P) 0.1111111, 0.1111111, 0.1111111, 0.1111111, 0.1111111, 0.1111111, 0.1111111, 0.1111111, 0.1111111;
  (F, P) 0.1111111, 0.1111111, 0.1111111, 0.1111111, 0.1111111, 0.1111111, 0.1111111, 0.1111111, 0.1111111;
  (T, P) 0.1111111, 0.1111111, 0.1111111, 0.1111111, 0.1111111, 0.1111111, 0.1111111, 0.1111111, 0.1111111;
  (P_F, P) 0.1111111, 0.1111111, 0.1111111, 0.1111111, 0.1111111, 0.1111111, 0.1111111, 0.1111111, 0.1111111;
  (P_T, P) 0.1111111, 0.1111111, 0.1111111, 0.1111111, 0.1111111, 0.1111111, 0.1111111, 0.1111111, 0.1111111;
  (F_T, P) 0.1111111, 0.1111111, 0.1111111, 0.1111111, 0.1111111, 0.1111111, 0.1111111, 0.1111111, 0.1111111;
  (P_F_T, P) 0.1111111, 0.1111111, 0.1111111, 0.1111111, 0.1111111, 0.1111111, 0.1111111, 0.1111111, 0.1111111;
  (Undetermined, P) 0.1111111, 0.1111111, 0.1111111, 0.1111111, 0.1111111, 0.1111111, 0.1111111, 0.1111111, 0.1111111;
  (None, P) 1.0, 0.0, 0.0, 0.0, 0.0, 0.0, 0.0, 0.0, 0.0;
  (P, F) 0.1111111, 0.1111111, 0.1111111, 0.1111111, 0.1111111, 0.1111111, 0.1111111, 0.1111111, 0.1111111;
  (F, F) 0.1111111, 0.1111111, 0.1111111, 0.1111111, 0.1111111, 0.1111111, 0.1111111, 0.1111111, 0.1111111;
  (T, F) 0.1111111, 0.1111111, 0.1111111, 0.1111111, 0.1111111, 0.1111111, 0.1111111, 0.1111111, 0.1111111;
  (P_F, F) 0.1111111, 0.1111111, 0.1111111, 0.1111111, 0.1111111, 0.1111111, 0.1111111, 0.1111111, 0.1111111;
  (P_T, F) 0.1111111, 0.1111111, 0.1111111, 0.1111111, 0.1111111, 0.1111111, 0.1111111, 0.1111111, 0.1111111;
  (F_T, F) 0.1111111, 0.1111111, 0.1111111, 0.1111111, 0.1111111, 0.1111111, 0.1111111, 0.1111111, 0.1111111;
  (P_F_T, F) 0.1111111, 0.1111111, 0.1111111, 0.1111111, 0.1111111, 0.1111111, 0.1111111, 0.1111111, 0.1111111;
  (Undetermined, F) 0.1111111, 0.1111111, 0.1111111, 0.1111111, 0.1111111, 0.1111111, 0.1111111, 0.1111111, 0.1111111;
  (None, F) 0.0, 1.0, 0.0, 0.0, 0.0, 0.0, 0.0, 0.0, 0.0;
  (P, T) 0.1111111, 0.1111111, 0.1111111, 0.1111111, 0.1111111, 0.1111111, 0.1111111, 0.1111111, 0.1111111;
  (F, T) 0.1111111, 0.1111111, 0.1111111, 0.1111111, 0.1111111, 0.1111111, 0.1111111, 0.1111111, 0.1111111;
  (T, T) 0.1111111, 0.1111111, 0.1111111, 0.1111111, 0.1111111, 0.1111111, 0.1111111, 0.1111111, 0.1111111;
  (P_F, T) 0.1111111, 0.1111111, 0.1111111, 0.1111111, 0.1111111, 0.1111111, 0.1111111, 0.1111111, 0.1111111;
  (P_T, T) 0.1111111, 0.1111111, 0.1111111, 0.1111111, 0.1111111, 0.1111111, 0.1111111, 0.1111111, 0.1111111;
  (F_T, T) 0.1111111, 0.1111111, 0.1111111, 0.1111111, 0.1111111, 0.1111111, 0.1111111, 0.1111111, 0.1111111;
  (P_F_T, T) 0.1111111, 0.1111111, 0.1111111, 0.1111111, 0.1111111, 0.1111111, 0.1111111, 0.1111111, 0.1111111;
  (Undetermined, T) 0.1111111, 0.1111111, 0.1111111, 0.1111111, 0.1111111, 0.1111111, 0.1111111, 0.1111111, 0.1111111;
  (None, T) 0.0, 0.0, 1.0, 0.0, 0.0, 0.0, 0.0, 0.0, 0.0;
  (P, P_F) 0.1111111, 0.1111111, 0.1111111, 0.1111111, 0.1111111, 0.1111111, 0.1111111, 0.1111111, 0.1111111;
  (F, P_F) 0.1111111, 0.1111111, 0.1111111, 0.1111111, 0.1111111, 0.1111111, 0.1111111, 0.1111111, 0.1111111;
  (T, P_F) 0.1111111, 0.1111111, 0.1111111, 0.1111111, 0.1111111, 0.1111111, 0.1111111, 0.1111111, 0.1111111;
  (P_F, P_F) 0.1111111, 0.1111111, 0.1111111, 0.1111111, 0.1111111, 0.1111111, 0.1111111, 0.1111111, 0.1111111;
  (P_T, P_F) 0.1111111, 0.1111111, 0.1111111, 0.1111111, 0.1111111, 0.1111111, 0.1111111, 0.1111111, 0.1111111;
  (F_T, P_F) 0.1111111, 0.1111111, 0.1111111, 0.1111111, 0.1111111, 0.1111111, 0.1111111, 0.1111111, 0.1111111;
  (P_F_T, P_F) 0.1111111, 0.1111111, 0.1111111, 0.1111111, 0.1111111, 0.1111111, 0.1111111, 0.1111111, 0.1111111;
  (Undetermined, P_F) 0.1111111, 0.1111111, 0.1111111, 0.1111111, 0.1111111, 0.1111111, 0.1111111, 0.1111111, 0.1111111;
  (None, P_F) 0.0, 0.0, 0.0, 1.0, 0.0, 0.0, 0.0, 0.0, 0.0;
  (P, P_T) 0.1111111, 0.1111111, 0.1111111, 0.1111111, 0.1111111, 0.1111111, 0.1111111, 0.1111111, 0.1111111;
  (F, P_T) 0.1111111, 0.1111111, 0.1111111, 0.1111111, 0.1111111, 0.1111111, 0.1111111, 0.1111111, 0.1111111;
  (T, P_T) 0.1111111, 0.1111111, 0.1111111, 0.1111111, 0.1111111, 0.1111111, 0.1111111, 0.1111111, 0.1111111;
  (P_F, P_T) 0.1111111, 0.1111111, 0.1111111, 0.1111111, 0.1111111, 0.1111111, 0.1111111, 0.1111111, 0.1111111;
  (P_T, P_T) 0.1111111, 0.1111111, 0.1111111, 0.1111111, 0.1111111, 0.1111111, 0.1111111, 0.1111111, 0.1111111;
  (F_T, P_T) 0.1111111, 0.1111111, 0.1111111, 0.1111111, 0.1111111, 0.1111111, 0.1111111, 0.1111111, 0.1111111;
  (P_F_T, P_T) 0.1111111, 0.1111111, 0.1111111, 0.1111111, 0.1111111, 0.1111111, 0.1111111, 0.1111111, 0.1111111;
  (Undetermined, P_T) 0.1111111, 0.1111111, 0.1111111, 0.1111111, 0.1111111, 0.1111111, 0.1111111, 0.1111111, 0.1111111;
  (None, P_T) 0.0, 0.0, 0.0, 0.0, 1.0, 0.0, 0.0, 0.0, 0.0;
  (P, F_T) 0.1111111, 0.1111111, 0.1111111, 0.1111111, 0.1111111, 0.1111111, 0.1111111, 0.1111111, 0.1111111;
  (F, F_T) 0.1111111, 0.1111111, 0.1111111, 0.1111111, 0.1111111, 0.1111111, 0.1111111, 0.1111111, 0.1111111;
  (T, F_T) 0.1111111, 0.1111111, 0.1111111, 0.1111111, 0.1111111, 0.1111111, 0.1111111, 0.1111111, 0.1111111;
  (P_F, F_T) 0.1111111, 0.1111111, 0.1111111, 0.1111111, 0.1111111, 0.1111111, 0.1111111, 0.1111111, 0.1111111;
  (P_T, F_T) 0.1111111, 0.1111111, 0.1111111, 0.1111111, 0.1111111, 0.1111111, 0.1111111, 0.1111111, 0.1111111;
  (F_T, F_T) 0.1111111, 0.1111111, 0.1111111, 0.1111111, 0.1111111, 0.1111111, 0.1111111, 0.1111111, 0.1111111;
  (P_F_T, F_T) 0.1111111, 0.1111111, 0.1111111, 0.1111111, 0.1111111, 0.1111111, 0.1111111, 0.1111111, 0.1111111;
  (Undetermined, F_T) 0.1111111, 0.1111111, 0.1111111, 0.1111111, 0.1111111, 0.1111111, 0.1111111, 0.1111111, 0.1111111;
  (None, F_T) 0.0, 0.0, 0.0, 0.0, 0.0, 1.0, 0.0, 0.0, 0.0;
  (P, P_F_T) 0.1111111, 0.1111111, 0.1111111, 0.1111111, 0.1111111, 0.1111111, 0.1111111, 0.1111111, 0.1111111;
  (F, P_F_T) 0.1111111, 0.1111111, 0.1111111, 0.1111111, 0.1111111, 0.1111111, 0.1111111, 0.1111111, 0.1111111;
  (T, P_F_T) 0.1111111, 0.1111111, 0.1111111, 0.1111111, 0.1111111, 0.1111111, 0.1111111, 0.1111111, 0.1111111;
  (P_F, P_F_T) 0.1111111, 0.1111111, 0.1111111, 0.1111111, 0.1111111, 0.1111111, 0.1111111, 0.1111111, 0.1111111;
  (P_T, P_F_T) 0.1111111, 0.1111111, 0.1111111, 0.1111111, 0.1111111, 0.1111111, 0.1111111, 0.1111111, 0.1111111;
  (F_T, P_F_T) 0.1111111, 0.1111111, 0.1111111, 0.1111111, 0.1111111, 0.1111111, 0.1111111, 0.1111111, 0.1111111;
  (P_F_T, P_F_T) 0.1111111, 0.1111111, 0.1111111, 0.1111111, 0.1111111, 0.1111111, 0.1111111, 0.1111111, 0.1111111;
  (Undetermined, P_F_T) 0.1111111, 0.1111111, 0.1111111, 0.1111111, 0.1111111, 0.1111111, 0.1111111, 0.1111111, 0.1111111;
  (None, P_F_T) 0.0, 0.0, 0.0, 0.0, 0.0, 0.0, 1.0, 0.0, 0.0;
  (P, Undetermined) 0.1111111, 0.1111111, 0.1111111, 0.1111111, 0.1111111, 0.1111111, 0.1111111, 0.1111111, 0.1111111;
  (F, Undetermined) 0.1111111, 0.1111111, 0.1111111, 0.1111111, 0.1111111, 0.1111111, 0.1111111, 0.1111111, 0.1111111;
  (T, Undetermined) 0.1111111, 0.1111111, 0.1111111, 0.1111111, 0.1111111, 0.1111111, 0.1111111, 0.1111111, 0.1111111;
  (P_F, Undetermined) 0.1111111, 0.1111111, 0.1111111, 0.1111111, 0.1111111, 0.1111111, 0.1111111, 0.1111111, 0.1111111;
  (P_T, Undetermined) 0.1111111, 0.1111111, 0.1111111, 0.1111111, 0.1111111, 0.1111111, 0.1111111, 0.1111111, 0.1111111;
  (F_T, Undetermined) 0.1111111, 0.1111111, 0.1111111, 0.1111111, 0.1111111, 0.1111111, 0.1111111, 0.1111111, 0.1111111;
  (P_F_T, Undetermined) 0.1111111, 0.1111111, 0.1111111, 0.1111111, 0.1111111, 0.1111111, 0.1111111, 0.1111111, 0.1111111;
  (Undetermined, Undetermined) 0.1111111, 0.1111111, 0.1111111, 0.1111111, 0.1111111, 0.1111111, 0.1111111, 0.1111111, 0.1111111;
  (None, Undetermined) 0.0, 0.0, 0.0, 0.0, 0.0, 0.0, 0.0, 1.0, 0.0;
  (P, None) 1.0, 0.0, 0.0, 0.0, 0.0, 0.0, 0.0, 0.0, 0.0;
  (F, None) 0.0, 1.0, 0.0, 0.0, 0.0, 0.0, 0.0, 0.0, 0.0;
  (T, None) 0.0, 0.0, 1.0, 0.0, 0.0, 0.0, 0.0, 0.0, 0.0;
  (P_F, None) 0.0, 0.0, 0.0, 1.0, 0.0, 0.0, 0.0, 0.0, 0.0;
  (P_T, None) 0.0, 0.0, 0.0, 0.0, 1.0, 0.0, 0.0, 0.0, 0.0;
  (F_T, None) 0.0, 0.0, 0.0, 0.0, 0.0, 1.0, 0.0, 0.0, 0.0;
  (P_F_T, None) 0.0, 0.0, 0.0, 0.0, 0.0, 0.0, 1.0, 0.0, 0.0;
  (Undetermined, None) 0.0, 0.0, 0.0, 0.0, 0.0, 0.0, 0.0, 1.0, 0.0;
  (None, None) 0.0, 0.0, 0.0, 0.0, 0.0, 0.0, 0.0, 0.0, 1.0;
}
probability ( C12 | C5, C9 ) {
  (P, P) 0.1111111, 0.1111111, 0.1111111, 0.1111111, 0.1111111, 0.1111111, 0.1111111, 0.1111111, 0.1111111;
  (F, P) 0.1111111, 0.1111111, 0.1111111, 0.1111111, 0.1111111, 0.1111111, 0.1111111, 0.1111111, 0.1111111;
  (T, P) 0.1111111, 0.1111111, 0.1111111, 0.1111111, 0.1111111, 0.1111111, 0.1111111, 0.1111111, 0.1111111;
  (P_F, P) 0.1111111, 0.1111111, 0.1111111, 0.1111111, 0.1111111, 0.1111111, 0.1111111, 0.1111111, 0.1111111;
  (P_T, P) 0.1111111, 0.1111111, 0.1111111, 0.1111111, 0.1111111, 0.1111111, 0.1111111, 0.1111111, 0.1111111;
  (F_T, P) 0.1111111, 0.1111111, 0.1111111, 0.1111111, 0.1111111, 0.1111111, 0.1111111, 0.1111111, 0.1111111;
  (P_F_T, P) 0.1111111, 0.1111111, 0.1111111, 0.1111111, 0.1111111, 0.1111111, 0.1111111, 0.1111111, 0.1111111;
  (Undetermined, P) 0.1111111, 0.1111111, 0.1111111, 0.1111111, 0.1111111, 0.1111111, 0.1111111, 0.1111111, 0.1111111;
  (None, P) 1.0, 0.0, 0.0, 0.0, 0.0, 0.0, 0.0, 0.0, 0.0;
  (P, F) 0.1111111, 0.1111111, 0.1111111, 0.1111111, 0.1111111, 0.1111111, 0.1111111, 0.1111111, 0.1111111;
  (F, F) 0.1111111, 0.1111111, 0.1111111, 0.1111111, 0.1111111, 0.1111111, 0.1111111, 0.1111111, 0.1111111;
  (T, F) 0.1111111, 0.1111111, 0.1111111, 0.1111111, 0.1111111, 0.1111111, 0.1111111, 0.1111111, 0.1111111;
  (P_F, F) 0.1111111, 0.1111111, 0.1111111, 0.1111111, 0.1111111, 0.1111111, 0.1111111, 0.1111111, 0.1111111;
  (P_T, F) 0.1111111, 0.1111111, 0.1111111, 0.1111111, 0.1111111, 0.1111111, 0.1111111, 0.1111111, 0.1111111;
  (F_T, F) 0.1111111, 0.1111111, 0.1111111, 0.1111111, 0.1111111, 0.1111111, 0.1111111, 0.1111111, 0.1111111;
  (P_F_T, F) 0.1111111, 0.1111111, 0.1111111, 0.1111111, 0.1111111, 0.1111111, 0.1111111, 0.1111111, 0.1111111;
  (Undetermined, F) 0.1111111, 0.1111111, 0.1111111, 0.1111111, 0.1111111, 0.1111111, 0.1111111, 0.1111111, 0.1111111;
  (None, F) 0.0, 1.0, 0.0, 0.0, 0.0, 0.0, 0.0, 0.0, 0.0;
  (P, T) 0.1111111, 0.1111111, 0.1111111, 0.1111111, 0.1111111, 0.1111111, 0.1111111, 0.1111111, 0.1111111;
  (F, T) 0.1111111, 0.1111111, 0.1111111, 0.1111111, 0.1111111, 0.1111111, 0.1111111, 0.1111111, 0.1111111;
  (T, T) 0.1111111, 0.1111111, 0.1111111, 0.1111111, 0.1111111, 0.1111111, 0.1111111, 0.1111111, 0.1111111;
  (P_F, T) 0.1111111, 0.1111111, 0.1111111, 0.1111111, 0.1111111, 0.1111111, 0.1111111, 0.1111111, 0.1111111;
  (P_T, T) 0.1111111, 0.1111111, 0.1111111, 0.1111111, 0.1111111, 0.1111111, 0.1111111, 0.1111111, 0.1111111;
  (F_T, T) 0.1111111, 0.1111111, 0.1111111, 0.1111111, 0.1111111, 0.1111111, 0.1111111, 0.1111111, 0.1111111;
  (P_F_T, T) 0.1111111, 0.1111111, 0.1111111, 0.1111111, 0.1111111, 0.1111111, 0.1111111, 0.1111111, 0.1111111;
  (Undetermined, T) 0.1111111, 0.1111111, 0.1111111, 0.1111111, 0.1111111, 0.1111111, 0.1111111, 0.1111111, 0.1111111;
  (None, T) 0.0, 0.0, 1.0, 0.0, 0.0, 0.0, 0.0, 0.0, 0.0;
  (P, P_F) 0.1111111, 0.1111111, 0.1111111, 0.1111111, 0.1111111, 0.1111111, 0.1111111, 0.1111111, 0.1111111;
  (F, P_F) 0.1111111, 0.1111111, 0.1111111, 0.1111111, 0.1111111, 0.1111111, 0.1111111, 0.1111111, 0.1111111;
  (T, P_F) 0.1111111, 0.1111111, 0.1111111, 0.1111111, 0.1111111, 0.1111111, 0.1111111, 0.1111111, 0.1111111;
  (P_F, P_F) 0.1111111, 0.1111111, 0.1111111, 0.1111111, 0.1111111, 0.1111111, 0.1111111, 0.1111111, 0.1111111;
  (P_T, P_F) 0.1111111, 0.1111111, 0.1111111, 0.1111111, 0.1111111, 0.1111111, 0.1111111, 0.1111111, 0.1111111;
  (F_T, P_F) 0.1111111, 0.1111111, 0.1111111, 0.1111111, 0.1111111, 0.1111111, 0.1111111, 0.1111111, 0.1111111;
  (P_F_T, P_F) 0.1111111, 0.1111111, 0.1111111, 0.1111111, 0.1111111, 0.1111111, 0.1111111, 0.1111111, 0.1111111;
  (Undetermined, P_F) 0.1111111, 0.1111111, 0.1111111, 0.1111111, 0.1111111, 0.1111111, 0.1111111, 0.1111111, 0.1111111;
  (None, P_F) 0.0, 0.0, 0.0, 1.0, 0.0, 0.0, 0.0, 0.0, 0.0;
  (P, P_T) 0.1111111, 0.1111111, 0.1111111, 0.1111111, 0.1111111, 0.1111111, 0.1111111, 0.1111111, 0.1111111;
  (F, P_T) 0.1111111, 0.1111111, 0.1111111, 0.1111111, 0.1111111, 0.1111111, 0.1111111, 0.1111111, 0.1111111;
  (T, P_T) 0.1111111, 0.1111111, 0.1111111, 0.1111111, 0.1111111, 0.1111111, 0.1111111, 0.1111111, 0.1111111;
  (P_F, P_T) 0.1111111, 0.1111111, 0.1111111, 0.1111111, 0.1111111, 0.1111111, 0.1111111, 0.1111111, 0.1111111;
  (P_T, P_T) 0.1111111, 0.1111111, 0.1111111, 0.1111111, 0.1111111, 0.1111111, 0.1111111, 0.1111111, 0.1111111;
  (F_T, P_T) 0.1111111, 0.1111111, 0.1111111, 0.1111111, 0.1111111, 0.1111111, 0.1111111, 0.1111111, 0.1111111;
  (P_F_T, P_T) 0.1111111, 0.1111111, 0.1111111, 0.1111111, 0.1111111, 0.1111111, 0.1111111, 0.1111111, 0.1111111;
  (Undetermined, P_T) 0.1111111, 0.1111111, 0.1111111, 0.1111111, 0.1111111, 0.1111111, 0.1111111, 0.1111111, 0.1111111;
  (None, P_T) 0.0, 0.0, 0.0, 0.0, 1.0, 0.0, 0.0, 0.0, 0.0;
  (P, F_T) 0.1111111, 0.1111111, 0.1111111, 0.1111111, 0.1111111, 0.1111111, 0.1111111, 0.1111111, 0.1111111;
  (F, F_T) 0.1111111, 0.1111111, 0.1111111, 0.1111111, 0.1111111, 0.1111111, 0.1111111, 0.1111111, 0.1111111;
  (T, F_T) 0.1111111, 0.1111111, 0.1111111, 0.1111111, 0.1111111, 0.1111111, 0.1111111, 0.1111111, 0.1111111;
  (P_F, F_T) 0.1111111, 0.1111111, 0.1111111, 0.1111111, 0.1111111, 0.1111111, 0.1111111, 0.1111111, 0.1111111;
  (P_T, F_T) 0.1111111, 0.1111111, 0.1111111, 0.1111111, 0.1111111, 0.1111111, 0.1111111, 0.1111111, 0.1111111;
  (F_T, F_T) 0.1111111, 0.1111111, 0.1111111, 0.1111111, 0.1111111, 0.1111111, 0.1111111, 0.1111111, 0.1111111;
  (P_F_T, F_T) 0.1111111, 0.1111111, 0.1111111, 0.1111111, 0.1111111, 0.1111111, 0.1111111, 0.1111111, 0.1111111;
  (Undetermined, F_T) 0.1111111, 0.1111111, 0.1111111, 0.1111111, 0.1111111, 0.1111111, 0.1111111, 0.1111111, 0.1111111;
  (None, F_T) 0.0, 0.0, 0.0, 0.0, 0.0, 1.0, 0.0, 0.0, 0.0;
  (P, P_F_T) 0.1111111, 0.1111111, 0.1111111, 0.1111111, 0.1111111, 0.1111111, 0.1111111, 0.1111111, 0.1111111;
  (F, P_F_T) 0.1111111, 0.1111111, 0.1111111, 0.1111111, 0.1111111, 0.1111111, 0.1111111, 0.1111111, 0.1111111;
  (T, P_F_T) 0.1111111, 0.1111111, 0.1111111, 0.1111111, 0.1111111, 0.1111111, 0.1111111, 0.1111111, 0.1111111;
  (P_F, P_F_T) 0.1111111, 0.1111111, 0.1111111, 0.1111111, 0.1111111, 0.1111111, 0.1111111, 0.1111111, 0.1111111;
  (P_T, P_F_T) 0.1111111, 0.1111111, 0.1111111, 0.1111111, 0.1111111, 0.1111111, 0.1111111, 0.1111111, 0.1111111;
  (F_T, P_F_T) 0.1111111, 0.1111111, 0.1111111, 0.1111111, 0.1111111, 0.1111111, 0.1111111, 0.1111111, 0.1111111;
  (P_F_T, P_F_T) 0.1111111, 0.1111111, 0.1111111, 0.1111111, 0.1111111, 0.1111111, 0.1111111, 0.1111111, 0.1111111;
  (Undetermined, P_F_T) 0.1111111, 0.1111111, 0.1111111, 0.1111111, 0.1111111, 0.1111111, 0.1111111, 0.1111111, 0.1111111;
  (None, P_F_T) 0.0, 0.0, 0.0, 0.0, 0.0, 0.0, 1.0, 0.0, 0.0;
  (P, Undetermined) 0.1111111, 0.1111111, 0.1111111, 0.1111111, 0.1111111, 0.1111111, 0.1111111, 0.1111111, 0.1111111;
  (F, Undetermined) 0.1111111, 0.1111111, 0.1111111, 0.1111111, 0.1111111, 0.1111111, 0.1111111, 0.1111111, 0.1111111;
  (T, Undetermined) 0.1111111, 0.1111111, 0.1111111, 0.1111111, 0.1111111, 0.1111111, 0.1111111, 0.1111111, 0.1111111;
  (P_F, Undetermined) 0.1111111, 0.1111111, 0.1111111, 0.1111111, 0.1111111, 0.1111111, 0.1111111, 0.1111111, 0.1111111;
  (P_T, Undetermined) 0.1111111, 0.1111111, 0.1111111, 0.1111111, 0.1111111, 0.1111111, 0.1111111, 0.1111111, 0.1111111;
  (F_T, Undetermined) 0.1111111, 0.1111111, 0.1111111, 0.1111111, 0.1111111, 0.1111111, 0.1111111, 0.1111111, 0.1111111;
  (P_F_T, Undetermined) 0.1111111, 0.1111111, 0.1111111, 0.1111111, 0.1111111, 0.1111111, 0.1111111, 0.1111111, 0.1111111;
  (Undetermined, Undetermined) 0.1111111, 0.1111111, 0.1111111, 0.1111111, 0.1111111, 0.1111111, 0.1111111, 0.1111111, 0.1111111;
  (None, Undetermined) 0.0, 0.0, 0.0, 0.0, 0.0, 0.0, 0.0, 1.0, 0.0;
  (P, None) 1.0, 0.0, 0.0, 0.0, 0.0, 0.0, 0.0, 0.0, 0.0;
  (F, None) 0.0, 1.0, 0.0, 0.0, 0.0, 0.0, 0.0, 0.0, 0.0;
  (T, None) 0.0, 0.0, 1.0, 0.0, 0.0, 0.0, 0.0, 0.0, 0.0;
  (P_F, None) 0.0, 0.0, 0.0, 1.0, 0.0, 0.0, 0.0, 0.0, 0.0;
  (P_T, None) 0.0, 0.0, 0.0, 0.0, 1.0, 0.0, 0.0, 0.0, 0.0;
  (F_T, None) 0.0, 0.0, 0.0, 0.0, 0.0, 1.0, 0.0, 0.0, 0.0;
  (P_F_T, None) 0.0, 0.0, 0.0, 0.0, 0.0, 0.0, 1.0, 0.0, 0.0;
  (Undetermined, None) 0.0, 0.0, 0.0, 0.0, 0.0, 0.0, 0.0, 1.0, 0.0;
  (None, None) 0.0, 0.0, 0.0, 0.0, 0.0, 0.0, 0.0, 0.0, 1.0;
}
probability ( C10 | C4, C7 ) {
  (P, P) 0.125, 0.125, 0.125, 0.125, 0.125, 0.125, 0.125, 0.125;
  (F, P) 0.125, 0.125, 0.125, 0.125, 0.125, 0.125, 0.125, 0.125;
  (P_F, P) 0.125, 0.125, 0.125, 0.125, 0.125, 0.125, 0.125, 0.125;
  (P_T, P) 0.125, 0.125, 0.125, 0.125, 0.125, 0.125, 0.125, 0.125;
  (F_T, P) 0.125, 0.125, 0.125, 0.125, 0.125, 0.125, 0.125, 0.125;
  (P_F_T, P) 0.125, 0.125, 0.125, 0.125, 0.125, 0.125, 0.125, 0.125;
  (Undetermined, P) 0.125, 0.125, 0.125, 0.125, 0.125, 0.125, 0.125, 0.125;
  (None, P) 1.0, 0.0, 0.0, 0.0, 0.0, 0.0, 0.0, 0.0;
  (P, F) 0.125, 0.125, 0.125, 0.125, 0.125, 0.125, 0.125, 0.125;
  (F, F) 0.125, 0.125, 0.125, 0.125, 0.125, 0.125, 0.125, 0.125;
  (P_F, F) 0.125, 0.125, 0.125, 0.125, 0.125, 0.125, 0.125, 0.125;
  (P_T, F) 0.125, 0.125, 0.125, 0.125, 0.125, 0.125, 0.125, 0.125;
  (F_T, F) 0.125, 0.125, 0.125, 0.125, 0.125, 0.125, 0.125, 0.125;
  (P_F_T, F) 0.125, 0.125, 0.125, 0.125, 0.125, 0.125, 0.125, 0.125;
  (Undetermined, F) 0.125, 0.125, 0.125, 0.125, 0.125, 0.125, 0.125, 0.125;
  (None, F) 0.0, 1.0, 0.0, 0.0, 0.0, 0.0, 0.0, 0.0;
  (P, P_F) 0.125, 0.125, 0.125, 0.125, 0.125, 0.125, 0.125, 0.125;
  (F, P_F) 0.125, 0.125, 0.125, 0.125, 0.125, 0.125, 0.125, 0.125;
  (P_F, P_F) 0.125, 0.125, 0.125, 0.125, 0.125, 0.125, 0.125, 0.125;
  (P_T, P_F) 0.125, 0.125, 0.125, 0.125, 0.125, 0.125, 0.125, 0.125;
  (F_T, P_F) 0.125, 0.125, 0.125, 0.125, 0.125, 0.125, 0.125, 0.125;
  (P_F_T, P_F) 0.125, 0.125, 0.125, 0.125, 0.125, 0.125, 0.125, 0.125;
  (Undetermined, P_F) 0.125, 0.125, 0.125, 0.125, 0.125, 0.125, 0.125, 0.125;
  (None, P_F) 0.0, 0.0, 1.0, 0.0, 0.0, 0.0, 0.0, 0.0;
  (P, P_T) 0.125, 0.125, 0.125, 0.125, 0.125, 0.125, 0.125, 0.125;
  (F, P_T) 0.125, 0.125, 0.125, 0.125, 0.125, 0.125, 0.125, 0.125;
  (P_F, P_T) 0.125, 0.125, 0.125, 0.125, 0.125, 0.125, 0.125, 0.125;
  (P_T, P_T) 0.125, 0.125, 0.125, 0.125, 0.125, 0.125, 0.125, 0.125;
  (F_T, P_T) 0.125, 0.125, 0.125, 0.125, 0.125, 0.125, 0.125, 0.125;
  (P_F_T, P_T) 0.125, 0.125, 0.125, 0.125, 0.125, 0.125, 0.125, 0.125;
  (Undetermined, P_T) 0.125, 0.125, 0.125, 0.125, 0.125, 0.125, 0.125, 0.125;
  (None, P_T) 0.0, 0.0, 0.0, 1.0, 0.0, 0.0, 0.0, 0.0;
  (P, F_T) 0.125, 0.125, 0.125, 0.125, 0.125, 0.125, 0.125, 0.125;
  (F, F_T) 0.125, 0.125, 0.125, 0.125, 0.125, 0.125, 0.125, 0.125;
  (P_F, F_T) 0.125, 0.125, 0.125, 0.125, 0.125, 0.125, 0.125, 0.125;
  (P_T, F_T) 0.125, 0.125, 0.125, 0.125, 0.125, 0.125, 0.125, 0.125;
  (F_T, F_T) 0.125, 0.125, 0.125, 0.125, 0.125, 0.125, 0.125, 0.125;
  (P_F_T, F_T) 0.125, 0.125, 0.125, 0.125, 0.125, 0.125, 0.125, 0.125;
  (Undetermined, F_T) 0.125, 0.125, 0.125, 0.125, 0.125, 0.125, 0.125, 0.125;
  (None, F_T) 0.0, 0.0, 0.0, 0.0, 1.0, 0.0, 0.0, 0.0;
  (P, P_F_T) 0.125, 0.125, 0.125, 0.125, 0.125, 0.125, 0.125, 0.125;
  (F, P_F_T) 0.125, 0.125, 0.125, 0.125, 0.125, 0.125, 0.125, 0.125;
  (P_F, P_F_T) 0.125, 0.125, 0.125, 0.125, 0.125, 0.125, 0.125, 0.125;
  (P_T, P_F_T) 0.125, 0.125, 0.125, 0.125, 0.125, 0.125, 0.125, 0.125;
  (F_T, P_F_T) 0.125, 0.125, 0.125, 0.125, 0.125, 0.125, 0.125, 0.125;
  (P_F_T, P_F_T) 0.125, 0.125, 0.125, 0.125, 0.125, 0.125, 0.125, 0.125;
  (Undetermined, P_F_T) 0.125, 0.125, 0.125, 0.125, 0.125, 0.125, 0.125, 0.125;
  (None, P_F_T) 0.0, 0.0, 0.0, 0.0, 0.0, 1.0, 0.0, 0.0;
  (P, Undetermined) 0.125, 0.125, 0.125, 0.125, 0.125, 0.125, 0.125, 0.125;
  (F, Undetermined) 0.125, 0.125, 0.125, 0.125, 0.125, 0.125, 0.125, 0.125;
  (P_F, Undetermined) 0.125, 0.125, 0.125, 0.125, 0.125, 0.125, 0.125, 0.125;
  (P_T, Undetermined) 0.125, 0.125, 0.125, 0.125, 0.125, 0.125, 0.125, 0.125;
  (F_T, Undetermined) 0.125, 0.125, 0.125, 0.125, 0.125, 0.125, 0.125, 0.125;
  (P_F_T, Undetermined) 0.125, 0.125, 0.125, 0.125, 0.125, 0.125, 0.125, 0.125;
  (Undetermined, Undetermined) 0.125, 0.125, 0.125, 0.125, 0.125, 0.125, 0.125, 0.125;
  (None, Undetermined) 0.0, 0.0, 0.0, 0.0, 0.0, 0.0, 1.0, 0.0;
  (P, None) 1.0, 0.0, 0.0, 0.0, 0.0, 0.0, 0.0, 0.0;
  (F, None) 0.0, 1.0, 0.0, 0.0, 0.0, 0.0, 0.0, 0.0;
  (P_F, None) 0.0, 0.0, 1.0, 0.0, 0.0, 0.0, 0.0, 0.0;
  (P_T, None) 0.0, 0.0, 0.0, 1.0, 0.0, 0.0, 0.0, 0.0;
  (F_T, None) 0.0, 0.0, 0.0, 0.0, 1.0, 0.0, 0.0, 0.0;
  (P_F_T, None) 0.0, 0.0, 0.0, 0.0, 0.0, 1.0, 0.0, 0.0;
  (Undetermined, None) 0.0, 0.0, 0.0, 0.0, 0.0, 0.0, 1.0, 0.0;
  (None, None) 0.0, 0.0, 0.0, 0.0, 0.0, 0.0, 0.0, 1.0;
}
