network unknown {
}
variable OBTI {
  type discrete [ 3 ] { Positive, Negative, Weak positive };
}
variable Visual {
  type discrete [ 3 ] { Red, Light red, Other };
}
variable Concentration {
  type discrete [ 8 ] { 0 - 0.0002, 0.0002 - 0.0005, 0.0005 - 0.001, 0.001 - 0.002, 0.002 - 0.004, 0.004 - 0.01, 0.01 - 0.02, 0.02 - inf };
}
variable Blood {
  type discrete [ 2 ] { Yes, No };
}
probability ( OBTI | Blood, Concentration ) {
  (Yes, 0 - 0.0002) 0.032, 0.935, 0.033;
  (No, 0 - 0.0002) 0.075, 0.830, 0.095;
  (Yes, 0.0002 - 0.0005) 0.444, 0.500, 0.056;
  (No, 0.0002 - 0.0005) 0.075, 0.830, 0.095;
  (Yes, 0.0005 - 0.001) 0.690, 0.138, 0.172;
  (No, 0.0005 - 0.001) 0.075, 0.830, 0.095;
  (Yes, 0.001 - 0.002) 0.833, 0.083, 0.084;
  (No, 0.001 - 0.002) 0.075, 0.830, 0.095;
  (Yes, 0.002 - 0.004) 0.833, 0.083, 0.084;
  (No, 0.002 - 0.004) 0.075, 0.830, 0.095;
  (Yes, 0.004 - 0.01) 0.875, 0.062, 0.063;
  (No, 0.004 - 0.01) 0.075, 0.830, 0.095;
  (Yes, 0.01 - 0.02) 0.875, 0.062, 0.063;
  (No, 0.01 - 0.02) 0.075, 0.830, 0.095;
  (Yes, 0.02 - inf) 0.941, 0.029, 0.030;
  (No, 0.02 - inf) 0.075, 0.830, 0.095;
}
probability ( Visual | Blood, Concentration ) {
  (Yes, 0 - 0.0002) 0.024, 0.024, 0.952;
  (No, 0 - 0.0002) 0.03, 0.03, 0.94;
  (Yes, 0.0002 - 0.0005) 0.024, 0.024, 0.952;
  (No, 0.0002 - 0.0005) 0.03, 0.03, 0.94;
  (Yes, 0.0005 - 0.001) 0.024, 0.024, 0.952;
  (No, 0.0005 - 0.001) 0.03, 0.03, 0.94;
  (Yes, 0.001 - 0.002) 0.028, 0.028, 0.944;
  (No, 0.001 - 0.002) 0.03, 0.03, 0.94;
  (Yes, 0.002 - 0.004) 0.033, 0.033, 0.934;
  (No, 0.002 - 0.004) 0.03, 0.03, 0.94;
  (Yes, 0.004 - 0.01) 0.033, 0.033, 0.934;
  (No, 0.004 - 0.01) 0.03, 0.03, 0.94;
  (Yes, 0.01 - 0.02) 0.036, 0.107, 0.857;
  (No, 0.01 - 0.02) 0.03, 0.03, 0.94;
  (Yes, 0.02 - inf) 0.286, 0.321, 0.393;
  (No, 0.02 - inf) 0.03, 0.03, 0.94;
}
probability ( Concentration ) {
  table 0.125, 0.125, 0.125, 0.125, 0.125, 0.125, 0.125, 0.125;
}
probability ( Blood ) {
  table 0.5, 0.5;
}
