network unknown {
}
variable Risk {
  type discrete [ 2 ] { High, Low };
}
variable Saliva {
  type discrete [ 2 ] { Yes, No };
}
variable RSID {
  type discrete [ 3 ] { Positive, Negative, Weak positive };
}
variable Concentration {
  type discrete [ 8 ] { 0 - 0.0002, 0.0002 - 0.0005, 0.0005 - 0.001, 0.001 - 0.002, 0.002 - 0.004, 0.004 - 0.01, 0.01 - 0.02, 0.02 - inf };
}
variable Nature_of_stain {
  type discrete [ 3 ] { Saliva, Fecal matter_ vaginal secretion_ sperm_ breast milk_ urine, Other };
}
probability ( Risk ) {
  table 0.5, 0.5;
}
probability ( Saliva ) {
  table 0.5, 0.5;
}
probability ( RSID | Nature_of_stain, Concentration ) {
  (Saliva, 0 - 0.0002) 0.033, 0.933, 0.034;
  (Fecal matter_ vaginal secretion_ sperm_ breast milk_ urine, 0 - 0.0002) 0.033, 0.933, 0.034;
  (Other, 0 - 0.0002) 0.033, 0.933, 0.034;
  (Saliva, 0.0002 - 0.0005) 0.033, 0.933, 0.034;
  (Fecal matter_ vaginal secretion_ sperm_ breast milk_ urine, 0.0002 - 0.0005) 0.033, 0.933, 0.034;
  (Other, 0.0002 - 0.0005) 0.033, 0.933, 0.034;
  (Saliva, 0.0005 - 0.001) 0.033, 0.933, 0.034;
  (Fecal matter_ vaginal secretion_ sperm_ breast milk_ urine, 0.0005 - 0.001) 0.033, 0.933, 0.034;
  (Other, 0.0005 - 0.001) 0.033, 0.933, 0.034;
  (Saliva, 0.001 - 0.002) 0.033, 0.933, 0.034;
  (Fecal matter_ vaginal secretion_ sperm_ breast milk_ urine, 0.001 - 0.002) 0.033, 0.933, 0.034;
  (Other, 0.001 - 0.002) 0.033, 0.933, 0.034;
  (Saliva, 0.002 - 0.004) 0.80, 0.04, 0.16;
  (Fecal matter_ vaginal secretion_ sperm_ breast milk_ urine, 0.002 - 0.004) 0.033, 0.933, 0.034;
  (Other, 0.002 - 0.004) 0.033, 0.933, 0.034;
  (Saliva, 0.004 - 0.01) 0.80, 0.04, 0.16;
  (Fecal matter_ vaginal secretion_ sperm_ breast milk_ urine, 0.004 - 0.01) 0.033, 0.933, 0.034;
  (Other, 0.004 - 0.01) 0.033, 0.933, 0.034;
  (Saliva, 0.01 - 0.02) 0.933, 0.033, 0.034;
  (Fecal matter_ vaginal secretion_ sperm_ breast milk_ urine, 0.01 - 0.02) 0.079, 0.881, 0.040;
  (Other, 0.01 - 0.02) 0.033, 0.933, 0.034;
  (Saliva, 0.02 - inf) 0.933, 0.033, 0.034;
  (Fecal matter_ vaginal secretion_ sperm_ breast milk_ urine, 0.02 - inf) 0.079, 0.881, 0.040;
  (Other, 0.02 - inf) 0.033, 0.933, 0.034;
}
probability ( Concentration ) {
  table 0.125, 0.125, 0.125, 0.125, 0.125, 0.125, 0.125, 0.125;
}
probability ( Nature_of_stain | Saliva, Risk ) {
  (Yes, High) 1.0, 0.0, 0.0;
  (No, High) 0.00, 0.99, 0.01;
  (Yes, Low) 1.0, 0.0, 0.0;
  (No, Low) 0.00, 0.01, 0.99;
}
