network unknown {
}
variable Concentration_EPI {
  type discrete [ 8 ] { 0 - 0.0002, 0.0002 - 0.0005, 0.0005 - 0.001, 0.001 - 0.002, 0.002 - 0.004, 0.004 - 0.01, 0.01 - 0.02, 0.02 - inf };
}
variable Sperm {
  type discrete [ 2 ] { Yes, No };
}
variable Nature_of_stain {
  type discrete [ 3 ] { At least Sperm, Lubricant_ urine_ vaginal secretion, Other };
}
variable Location {
  type discrete [ 2 ] { Vaginal_ condom_ panties, Other };
}
variable Concentration_Total {
  type discrete [ 8 ] { 0 - 0.0002, 0.0002 - 0.0005, 0.0005 - 0.001, 0.001 - 0.002, 0.002 - 0.004, 0.004 - 0.01, 0.01 - 0.02, 0.02 - inf };
}
variable AZO {
  type discrete [ 2 ] { Azoospermic, Non azoospermic };
}
variable CT {
  type discrete [ 4 ] { Positive, Negative, 1 spz, Possible spz };
}
variable PSA {
  type discrete [ 3 ] { Positive, Negative, Weak positive };
}
variable Concentration_SP {
  type discrete [ 8 ] { 0 - 0.0002, 0.0002 - 0.0005, 0.0005 - 0.001, 0.001 - 0.002, 0.002 - 0.004, 0.004 - 0.01, 0.01 - 0.02, 0.02 - inf };
}
probability ( Concentration_EPI ) {
  table 0.125, 0.125, 0.125, 0.125, 0.125, 0.125, 0.125, 0.125;
}
probability ( Sperm ) {
  table 0.5, 0.5;
}
probability ( Nature_of_stain | Sperm, Location ) {
  (Yes, Vaginal_ condom_ panties) 1.0, 0.0, 0.0;
  (No, Vaginal_ condom_ panties) 0.00, 0.99, 0.01;
  (Yes, Other) 1.0, 0.0, 0.0;
  (No, Other) 0.0, 0.2, 0.8;
}
probability ( Location ) {
  table 0.5, 0.5;
}
probability ( Concentration_Total | Concentration_EPI, Concentration_SP ) {
  (0 - 0.0002, 0 - 0.0002) 0.5168, 0.4832, 0.0000, 0.0000, 0.0000, 0.0000, 0.0000, 0.0000;
  (0.0002 - 0.0005, 0 - 0.0002) 0.0000, 0.6672, 0.3328, 0.0000, 0.0000, 0.0000, 0.0000, 0.0000;
  (0.0005 - 0.001, 0 - 0.0002) 0.0, 0.0, 0.8, 0.2, 0.0, 0.0, 0.0, 0.0;
  (0.001 - 0.002, 0 - 0.0002) 0.000, 0.000, 0.000, 0.896, 0.104, 0.000, 0.000, 0.000;
  (0.002 - 0.004, 0 - 0.0002) 0.000, 0.000, 0.000, 0.000, 0.952, 0.048, 0.000, 0.000;
  (0.004 - 0.01, 0 - 0.0002) 0.000, 0.000, 0.000, 0.000, 0.000, 0.984, 0.016, 0.000;
  (0.01 - 0.02, 0 - 0.0002) 0.0, 0.0, 0.0, 0.0, 0.0, 0.0, 1.0, 0.0;
  (0.02 - inf, 0 - 0.0002) 0.0, 0.0, 0.0, 0.0, 0.0, 0.0, 0.0, 1.0;
  (0 - 0.0002, 0.0002 - 0.0005) 0.0000, 0.6672, 0.3328, 0.0000, 0.0000, 0.0000, 0.0000, 0.0000;
  (0.0002 - 0.0005, 0.0002 - 0.0005) 0.0000, 0.0576, 0.9424, 0.0000, 0.0000, 0.0000, 0.0000, 0.0000;
  (0.0005 - 0.001, 0.0002 - 0.0005) 0.000, 0.000, 0.296, 0.704, 0.000, 0.000, 0.000, 0.000;
  (0.001 - 0.002, 0.0002 - 0.0005) 0.0000, 0.0000, 0.0000, 0.6512, 0.3488, 0.0000, 0.0000, 0.0000;
  (0.002 - 0.004, 0.0002 - 0.0005) 0.000, 0.000, 0.000, 0.000, 0.824, 0.176, 0.000, 0.000;
  (0.004 - 0.01, 0.0002 - 0.0005) 0.0000, 0.0000, 0.0000, 0.0000, 0.0000, 0.9408, 0.0592, 0.0000;
  (0.01 - 0.02, 0.0002 - 0.0005) 0.00, 0.00, 0.00, 0.00, 0.00, 0.00, 0.96, 0.04;
  (0.02 - inf, 0.0002 - 0.0005) 0.0, 0.0, 0.0, 0.0, 0.0, 0.0, 0.0, 1.0;
  (0 - 0.0002, 0.0005 - 0.001) 0.0, 0.0, 0.8, 0.2, 0.0, 0.0, 0.0, 0.0;
  (0.0002 - 0.0005, 0.0005 - 0.001) 0.000, 0.000, 0.296, 0.704, 0.000, 0.000, 0.000, 0.000;
  (0.0005 - 0.001, 0.0005 - 0.001) 0.0, 0.0, 0.0, 1.0, 0.0, 0.0, 0.0, 0.0;
  (0.001 - 0.002, 0.0005 - 0.001) 0.0000, 0.0000, 0.0000, 0.2496, 0.7504, 0.0000, 0.0000, 0.0000;
  (0.002 - 0.004, 0.0005 - 0.001) 0.000000, 0.000000, 0.000000, 0.000000, 0.780439, 0.219561, 0.000000, 0.000000;
  (0.004 - 0.01, 0.0005 - 0.001) 0.0000, 0.0000, 0.0000, 0.0000, 0.0000, 0.8752, 0.1248, 0.0000;
  (0.01 - 0.02, 0.0005 - 0.001) 0.000, 0.000, 0.000, 0.000, 0.000, 0.000, 0.928, 0.072;
  (0.02 - inf, 0.0005 - 0.001) 0.0, 0.0, 0.0, 0.0, 0.0, 0.0, 0.0, 1.0;
  (0 - 0.0002, 0.001 - 0.002) 0.000, 0.000, 0.000, 0.896, 0.104, 0.000, 0.000, 0.000;
  (0.0002 - 0.0005, 0.001 - 0.002) 0.0000, 0.0000, 0.0000, 0.6512, 0.3488, 0.0000, 0.0000, 0.0000;
  (0.0005 - 0.001, 0.001 - 0.002) 0.0000, 0.0000, 0.0000, 0.2496, 0.7504, 0.0000, 0.0000, 0.0000;
  (0.001 - 0.002, 0.001 - 0.002) 0.0, 0.0, 0.0, 0.0, 1.0, 0.0, 0.0, 0.0;
  (0.002 - 0.004, 0.001 - 0.002) 0.0000, 0.0000, 0.0000, 0.0000, 0.2496, 0.7504, 0.0000, 0.0000;
  (0.004 - 0.01, 0.001 - 0.002) 0.0000, 0.0000, 0.0000, 0.0000, 0.0000, 0.7504, 0.2496, 0.0000;
  (0.01 - 0.02, 0.001 - 0.002) 0.000, 0.000, 0.000, 0.000, 0.000, 0.000, 0.848, 0.152;
  (0.02 - inf, 0.001 - 0.002) 0.0, 0.0, 0.0, 0.0, 0.0, 0.0, 0.0, 1.0;
  (0 - 0.0002, 0.002 - 0.004) 0.000, 0.000, 0.000, 0.000, 0.952, 0.048, 0.000, 0.000;
  (0.0002 - 0.0005, 0.002 - 0.004) 0.000, 0.000, 0.000, 0.000, 0.824, 0.176, 0.000, 0.000;
  (0.0005 - 0.001, 0.002 - 0.004) 0.0000, 0.0000, 0.0000, 0.0000, 0.6256, 0.3744, 0.0000, 0.0000;
  (0.001 - 0.002, 0.002 - 0.004) 0.0000, 0.0000, 0.0000, 0.0000, 0.2496, 0.7504, 0.0000, 0.0000;
  (0.002 - 0.004, 0.002 - 0.004) 0.0, 0.0, 0.0, 0.0, 0.0, 1.0, 0.0, 0.0;
  (0.004 - 0.01, 0.002 - 0.004) 0.0000, 0.0000, 0.0000, 0.0000, 0.0000, 0.4928, 0.5072, 0.0000;
  (0.01 - 0.02, 0.002 - 0.004) 0.0000, 0.0000, 0.0000, 0.0000, 0.0000, 0.0000, 0.6976, 0.3024;
  (0.02 - inf, 0.002 - 0.004) 0.0, 0.0, 0.0, 0.0, 0.0, 0.0, 0.0, 1.0;
  (0 - 0.0002, 0.004 - 0.01) 0.000, 0.000, 0.000, 0.000, 0.000, 0.984, 0.016, 0.000;
  (0.0002 - 0.0005, 0.004 - 0.01) 0.0000, 0.0000, 0.0000, 0.0000, 0.0000, 0.9408, 0.0592, 0.0000;
  (0.0005 - 0.001, 0.004 - 0.01) 0.0000, 0.0000, 0.0000, 0.0000, 0.0000, 0.8752, 0.1248, 0.0000;
  (0.001 - 0.002, 0.004 - 0.01) 0.0000, 0.0000, 0.0000, 0.0000, 0.0000, 0.7504, 0.2496, 0.0000;
  (0.002 - 0.004, 0.004 - 0.01) 0.0000, 0.0000, 0.0000, 0.0000, 0.0000, 0.4928, 0.5072, 0.0000;
  (0.004 - 0.01, 0.004 - 0.01) 0.0000, 0.0000, 0.0000, 0.0000, 0.0000, 0.0576, 0.9424, 0.0000;
  (0.01 - 0.02, 0.004 - 0.01) 0.0000, 0.0000, 0.0000, 0.0000, 0.0000, 0.0000, 0.2976, 0.7024;
  (0.02 - inf, 0.004 - 0.01) 0.0, 0.0, 0.0, 0.0, 0.0, 0.0, 0.0, 1.0;
  (0 - 0.0002, 0.01 - 0.02) 0.0, 0.0, 0.0, 0.0, 0.0, 0.0, 1.0, 0.0;
  (0.0002 - 0.0005, 0.01 - 0.02) 0.00, 0.00, 0.00, 0.00, 0.00, 0.00, 0.96, 0.04;
  (0.0005 - 0.001, 0.01 - 0.02) 0.000, 0.000, 0.000, 0.000, 0.000, 0.000, 0.928, 0.072;
  (0.001 - 0.002, 0.01 - 0.02) 0.000, 0.000, 0.000, 0.000, 0.000, 0.000, 0.848, 0.152;
  (0.002 - 0.004, 0.01 - 0.02) 0.0000, 0.0000, 0.0000, 0.0000, 0.0000, 0.0000, 0.6976, 0.3024;
  (0.004 - 0.01, 0.01 - 0.02) 0.0000, 0.0000, 0.0000, 0.0000, 0.0000, 0.0000, 0.2976, 0.7024;
  (0.01 - 0.02, 0.01 - 0.02) 0.0, 0.0, 0.0, 0.0, 0.0, 0.0, 0.0, 1.0;
  (0.02 - inf, 0.01 - 0.02) 0.0, 0.0, 0.0, 0.0, 0.0, 0.0, 0.0, 1.0;
  (0 - 0.0002, 0.02 - inf) 0.0, 0.0, 0.0, 0.0, 0.0, 0.0, 0.0, 1.0;
  (0.0002 - 0.0005, 0.02 - inf) 0.0, 0.0, 0.0, 0.0, 0.0, 0.0, 0.0, 1.0;
  (0.0005 - 0.001, 0.02 - inf) 0.0, 0.0, 0.0, 0.0, 0.0, 0.0, 0.0, 1.0;
  (0.001 - 0.002, 0.02 - inf) 0.0, 0.0, 0.0, 0.0, 0.0, 0.0, 0.0, 1.0;
  (0.002 - 0.004, 0.02 - inf) 0.0, 0.0, 0.0, 0.0, 0.0, 0.0, 0.0, 1.0;
  (0.004 - 0.01, 0.02 - inf) 0.0, 0.0, 0.0, 0.0, 0.0, 0.0, 0.0, 1.0;
  (0.01 - 0.02, 0.02 - inf) 0.0, 0.0, 0.0, 0.0, 0.0, 0.0, 0.0, 1.0;
  (0.02 - inf, 0.02 - inf) 0.0, 0.0, 0.0, 0.0, 0.0, 0.0, 0.0, 1.0;
}
probability ( AZO ) {
  table 0.1, 0.9;
}
probability ( CT | Sperm, Concentration_Total, AZO ) {
  (Yes, 0 - 0.0002, Azoospermic) 0.000, 0.875, 0.042, 0.083;
  (No, 0 - 0.0002, Azoospermic) 0.000, 0.875, 0.042, 0.083;
  (Yes, 0.0002 - 0.0005, Azoospermic) 0.000, 0.875, 0.042, 0.083;
  (No, 0.0002 - 0.0005, Azoospermic) 0.000, 0.875, 0.042, 0.083;
  (Yes, 0.0005 - 0.001, Azoospermic) 0.000, 0.875, 0.042, 0.083;
  (No, 0.0005 - 0.001, Azoospermic) 0.000, 0.875, 0.042, 0.083;
  (Yes, 0.001 - 0.002, Azoospermic) 0.000, 0.875, 0.042, 0.083;
  (No, 0.001 - 0.002, Azoospermic) 0.000, 0.875, 0.042, 0.083;
  (Yes, 0.002 - 0.004, Azoospermic) 0.000, 0.875, 0.042, 0.083;
  (No, 0.002 - 0.004, Azoospermic) 0.000, 0.875, 0.042, 0.083;
  (Yes, 0.004 - 0.01, Azoospermic) 0.000, 0.875, 0.042, 0.083;
  (No, 0.004 - 0.01, Azoospermic) 0.000, 0.875, 0.042, 0.083;
  (Yes, 0.01 - 0.02, Azoospermic) 0.000, 0.875, 0.042, 0.083;
  (No, 0.01 - 0.02, Azoospermic) 0.000, 0.875, 0.042, 0.083;
  (Yes, 0.02 - inf, Azoospermic) 0.000, 0.875, 0.042, 0.083;
  (No, 0.02 - inf, Azoospermic) 0.000, 0.875, 0.042, 0.083;
  (Yes, 0 - 0.0002, Non azoospermic) 0.021, 0.875, 0.042, 0.062;
  (No, 0 - 0.0002, Non azoospermic) 0.000, 0.875, 0.042, 0.083;
  (Yes, 0.0002 - 0.0005, Non azoospermic) 0.472, 0.022, 0.034, 0.472;
  (No, 0.0002 - 0.0005, Non azoospermic) 0.000, 0.875, 0.042, 0.083;
  (Yes, 0.0005 - 0.001, Non azoospermic) 0.810, 0.071, 0.095, 0.024;
  (No, 0.0005 - 0.001, Non azoospermic) 0.000, 0.875, 0.042, 0.083;
  (Yes, 0.001 - 0.002, Non azoospermic) 0.810, 0.071, 0.095, 0.024;
  (No, 0.001 - 0.002, Non azoospermic) 0.000, 0.875, 0.042, 0.083;
  (Yes, 0.002 - 0.004, Non azoospermic) 0.810, 0.071, 0.095, 0.024;
  (No, 0.002 - 0.004, Non azoospermic) 0.000, 0.875, 0.042, 0.083;
  (Yes, 0.004 - 0.01, Non azoospermic) 0.816, 0.053, 0.105, 0.026;
  (No, 0.004 - 0.01, Non azoospermic) 0.000, 0.875, 0.042, 0.083;
  (Yes, 0.01 - 0.02, Non azoospermic) 0.864, 0.045, 0.045, 0.046;
  (No, 0.01 - 0.02, Non azoospermic) 0.000, 0.875, 0.042, 0.083;
  (Yes, 0.02 - inf, Non azoospermic) 0.864, 0.045, 0.045, 0.046;
  (No, 0.02 - inf, Non azoospermic) 0.000, 0.875, 0.042, 0.083;
}
probability ( PSA | Nature_of_stain, Concentration_Total ) {
  (At least Sperm, 0 - 0.0002) 0.033, 0.933, 0.034;
  (Lubricant_ urine_ vaginal secretion, 0 - 0.0002) 0.033, 0.933, 0.034;
  (Other, 0 - 0.0002) 0.033, 0.933, 0.034;
  (At least Sperm, 0.0002 - 0.0005) 0.033, 0.933, 0.034;
  (Lubricant_ urine_ vaginal secretion, 0.0002 - 0.0005) 0.033, 0.933, 0.034;
  (Other, 0.0002 - 0.0005) 0.033, 0.933, 0.034;
  (At least Sperm, 0.0005 - 0.001) 0.433, 0.333, 0.234;
  (Lubricant_ urine_ vaginal secretion, 0.0005 - 0.001) 0.133, 0.767, 0.100;
  (Other, 0.0005 - 0.001) 0.033, 0.933, 0.034;
  (At least Sperm, 0.001 - 0.002) 0.433, 0.333, 0.234;
  (Lubricant_ urine_ vaginal secretion, 0.001 - 0.002) 0.133, 0.767, 0.100;
  (Other, 0.001 - 0.002) 0.033, 0.933, 0.034;
  (At least Sperm, 0.002 - 0.004) 0.856, 0.116, 0.028;
  (Lubricant_ urine_ vaginal secretion, 0.002 - 0.004) 0.200, 0.667, 0.133;
  (Other, 0.002 - 0.004) 0.033, 0.933, 0.034;
  (At least Sperm, 0.004 - 0.01) 0.856, 0.116, 0.028;
  (Lubricant_ urine_ vaginal secretion, 0.004 - 0.01) 0.200, 0.667, 0.133;
  (Other, 0.004 - 0.01) 0.033, 0.933, 0.034;
  (At least Sperm, 0.01 - 0.02) 0.885, 0.077, 0.038;
  (Lubricant_ urine_ vaginal secretion, 0.01 - 0.02) 0.229, 0.695, 0.076;
  (Other, 0.01 - 0.02) 0.033, 0.933, 0.034;
  (At least Sperm, 0.02 - inf) 0.885, 0.077, 0.038;
  (Lubricant_ urine_ vaginal secretion, 0.02 - inf) 0.229, 0.695, 0.076;
  (Other, 0.02 - inf) 0.033, 0.933, 0.034;
}
probability ( Concentration_SP | Sperm, AZO ) {
  (Yes, Azoospermic) 0.50, 0.40, 0.05, 0.01, 0.01, 0.01, 0.01, 0.01;
  (No, Azoospermic) 0.53, 0.30, 0.06, 0.05, 0.03, 0.01, 0.01, 0.01;
  (Yes, Non azoospermic) 0.125, 0.125, 0.125, 0.125, 0.125, 0.125, 0.125, 0.125;
  (No, Non azoospermic) 0.53, 0.30, 0.06, 0.05, 0.03, 0.01, 0.01, 0.01;
}
