network unknown {
}
variable AccessToCredit {
  type discrete [ 2 ] { No, Yes };
}
variable AgeOfHHHead {
  type discrete [ 4 ] { 25-35, 35-45, 45-55, >55 };
}
variable Choice_Of_Intensification_Strategy {
  type discrete [ 6 ] { ApplyFertilizer, ApplyImprovedSeed, CropMultipleTimes, None, UseIrrigation, UseIrrigationAndFertilizerApplication };
}
variable CommercializationIndex {
  type discrete [ 3 ] { <30_, 30-60_, >60_ };
}
variable CropChoice {
  type discrete [ 7 ] { Maize, Rice, RiceAndMaize, RiceMaizeAndVegit, Vegitables, VegitAndMaize, VegitAndRice };
}
variable DistanceToBigMarket {
  type discrete [ 3 ] { <15km, 15-30km, >30km };
}
variable ExpectedPriceOfMaize {
  type discrete [ 4 ] { 0, 0-800, 800-861.111, 861.111-1111.11 };
}
variable ExpectedPriceOfRice {
  type discrete [ 4 ] { 0 to 1000, 1000 to 1200, 1200 to 1500, 1500 to 1900 };
}
variable FarmerType {
  type discrete [ 3 ] { AgroPastoralist, Diversifier, Subsistence };
}
variable Income {
  type discrete [ 4 ] { 0-160, 160-280, 280-600, 600-15800 };
}
variable LabourInManDays {
  type discrete [ 4 ] { <120, 120-220, 220-400, >400 };
}
variable PercentOfNonFarmIncome {
  type discrete [ 3 ] { None, <30_, >30_ };
}
variable ShareOfHiredLabour {
  type discrete [ 3 ] { <10_, 10-60_, >60_ };
}
variable SizeOfCropLand {
  type discrete [ 4 ] { <3Ha, 3-6Ha, 6-9Ha, >9Ha };
}
variable SizeOfHousehold {
  type discrete [ 3 ] { <4, 4-7, >7 };
}
variable TopographicWetnessIndex {
  type discrete [ 3 ] { 14-18, 18-23, 23-32 };
}
probability ( AccessToCredit | AgeOfHHHead ) {
  (25-35) 0.6428571, 0.3571429;
  (35-45) 0.5729167, 0.4270833;
  (45-55) 0.6708861, 0.3291139;
  (>55) 0.8225806, 0.1774194;
}
probability ( AgeOfHHHead | Choice_Of_Intensification_Strategy ) {
  (ApplyFertilizer) 0.2857143, 0.2380952, 0.4761905, 0.0000000;
  (ApplyImprovedSeed) 0.1714286, 0.3714286, 0.2000000, 0.2571429;
  (CropMultipleTimes) 0.2173913, 0.2608696, 0.2173913, 0.3043478;
  (None) 0.1967213, 0.3333333, 0.2568306, 0.2131148;
  (UseIrrigation) 0.0000000, 0.2727273, 0.3636364, 0.3636364;
  (UseIrrigationAndFertilizerApplication) 0.15, 0.40, 0.30, 0.15;
}
probability ( Choice_Of_Intensification_Strategy ) {
  table 0.07167235, 0.11945392, 0.07849829, 0.62457338, 0.03754266, 0.06825939;
}
probability ( CommercializationIndex | AgeOfHHHead, Choice_Of_Intensification_Strategy, DistanceToBigMarket ) {
  (25-35, ApplyFertilizer, <15km) 0.0, 0.0, 1.0;
  (35-45, ApplyFertilizer, <15km) 0.0, 1.0, 0.0;
  (45-55, ApplyFertilizer, <15km) 0.0, 0.5, 0.5;
  (>55, ApplyFertilizer, <15km) 0.3333333, 0.3333333, 0.3333333;
  (25-35, ApplyImprovedSeed, <15km) 0.3333333, 0.0000000, 0.6666667;
  (35-45, ApplyImprovedSeed, <15km) 0.25, 0.25, 0.50;
  (45-55, ApplyImprovedSeed, <15km) 0.0000000, 0.3333333, 0.6666667;
  (>55, ApplyImprovedSeed, <15km) 0.25, 0.50, 0.25;
  (25-35, CropMultipleTimes, <15km) 0.5, 0.5, 0.0;
  (35-45, CropMultipleTimes, <15km) 0.0, 1.0, 0.0;
  (45-55, CropMultipleTimes, <15km) 0.6666667, 0.3333333, 0.0000000;
  (>55, CropMultipleTimes, <15km) 0.0, 0.0, 1.0;
  (25-35, None, <15km) 0.2142857, 0.2857143, 0.5000000;
  (35-45, None, <15km) 0.20, 0.35, 0.45;
  (45-55, None, <15km) 0.1333333, 0.2000000, 0.6666667;
  (>55, None, <15km) 0.45833333, 0.50000000, 0.04166667;
  (25-35, UseIrrigation, <15km) 0.3333333, 0.3333333, 0.3333333;
  (35-45, UseIrrigation, <15km) 0.0, 1.0, 0.0;
  (45-55, UseIrrigation, <15km) 0.0, 0.0, 1.0;
  (>55, UseIrrigation, <15km) 1.0, 0.0, 0.0;
  (25-35, UseIrrigationAndFertilizerApplication, <15km) 0.0, 1.0, 0.0;
  (35-45, UseIrrigationAndFertilizerApplication, <15km) 0.1428571, 0.7142857, 0.1428571;
  (45-55, UseIrrigationAndFertilizerApplication, <15km) 0.5, 0.0, 0.5;
  (>55, UseIrrigationAndFertilizerApplication, <15km) 0.0, 0.0, 1.0;
  (25-35, ApplyFertilizer, 15-30km) 0.0000000, 0.3333333, 0.6666667;
  (35-45, ApplyFertilizer, 15-30km) 0.0, 1.0, 0.0;
  (45-55, ApplyFertilizer, 15-30km) 0.00, 0.75, 0.25;
  (>55, ApplyFertilizer, 15-30km) 0.3333333, 0.3333333, 0.3333333;
  (25-35, ApplyImprovedSeed, 15-30km) 0.3333333, 0.3333333, 0.3333333;
  (35-45, ApplyImprovedSeed, 15-30km) 0.0, 0.8, 0.2;
  (45-55, ApplyImprovedSeed, 15-30km) 0.3333333, 0.3333333, 0.3333333;
  (>55, ApplyImprovedSeed, 15-30km) 0.0, 1.0, 0.0;
  (25-35, CropMultipleTimes, 15-30km) 0.3333333, 0.3333333, 0.3333333;
  (35-45, CropMultipleTimes, 15-30km) 0.0000000, 0.3333333, 0.6666667;
  (45-55, CropMultipleTimes, 15-30km) 0.0, 1.0, 0.0;
  (>55, CropMultipleTimes, 15-30km) 0.0, 1.0, 0.0;
  (25-35, None, 15-30km) 0.09090909, 0.27272727, 0.63636364;
  (35-45, None, 15-30km) 0.3125, 0.4375, 0.2500;
  (45-55, None, 15-30km) 0.4, 0.4, 0.2;
  (>55, None, 15-30km) 0.4285714, 0.2857143, 0.2857143;
  (25-35, UseIrrigation, 15-30km) 0.3333333, 0.3333333, 0.3333333;
  (35-45, UseIrrigation, 15-30km) 0.5, 0.5, 0.0;
  (45-55, UseIrrigation, 15-30km) 0.0, 1.0, 0.0;
  (>55, UseIrrigation, 15-30km) 0.0000000, 0.6666667, 0.3333333;
  (25-35, UseIrrigationAndFertilizerApplication, 15-30km) 0.0, 0.0, 1.0;
  (35-45, UseIrrigationAndFertilizerApplication, 15-30km) 0.0, 1.0, 0.0;
  (45-55, UseIrrigationAndFertilizerApplication, 15-30km) 0.3333333, 0.0000000, 0.6666667;
  (>55, UseIrrigationAndFertilizerApplication, 15-30km) 0.3333333, 0.3333333, 0.3333333;
  (25-35, ApplyFertilizer, >30km) 0.0, 0.0, 1.0;
  (35-45, ApplyFertilizer, >30km) 0.0, 0.5, 0.5;
  (45-55, ApplyFertilizer, >30km) 0.3333333, 0.3333333, 0.3333333;
  (>55, ApplyFertilizer, >30km) 0.3333333, 0.3333333, 0.3333333;
  (25-35, ApplyImprovedSeed, >30km) 0.0000000, 0.6666667, 0.3333333;
  (35-45, ApplyImprovedSeed, >30km) 0.25, 0.50, 0.25;
  (45-55, ApplyImprovedSeed, >30km) 0.0, 1.0, 0.0;
  (>55, ApplyImprovedSeed, >30km) 0.5, 0.0, 0.5;
  (25-35, CropMultipleTimes, >30km) 0.3333333, 0.6666667, 0.0000000;
  (35-45, CropMultipleTimes, >30km) 0.0, 1.0, 0.0;
  (45-55, CropMultipleTimes, >30km) 0.3333333, 0.3333333, 0.3333333;
  (>55, CropMultipleTimes, >30km) 0.4, 0.4, 0.2;
  (25-35, None, >30km) 0.09090909, 0.45454545, 0.45454545;
  (35-45, None, >30km) 0.44, 0.24, 0.32;
  (45-55, None, >30km) 0.2941176, 0.5882353, 0.1176471;
  (>55, None, >30km) 0.25, 0.50, 0.25;
  (25-35, UseIrrigation, >30km) 0.3333333, 0.3333333, 0.3333333;
  (35-45, UseIrrigation, >30km) 0.3333333, 0.3333333, 0.3333333;
  (45-55, UseIrrigation, >30km) 0.3333333, 0.3333333, 0.3333333;
  (>55, UseIrrigation, >30km) 0.3333333, 0.3333333, 0.3333333;
  (25-35, UseIrrigationAndFertilizerApplication, >30km) 0.3333333, 0.3333333, 0.3333333;
  (35-45, UseIrrigationAndFertilizerApplication, >30km) 0.3333333, 0.3333333, 0.3333333;
  (45-55, UseIrrigationAndFertilizerApplication, >30km) 0.0, 0.0, 1.0;
  (>55, UseIrrigationAndFertilizerApplication, >30km) 1.0, 0.0, 0.0;
}
probability ( CropChoice | AgeOfHHHead, ExpectedPriceOfMaize, ExpectedPriceOfRice, TopographicWetnessIndex ) {
  (25-35, 0, 0 to 1000, 14-18) 0.0, 0.0, 0.0, 0.0, 1.0, 0.0, 0.0;
  (35-45, 0, 0 to 1000, 14-18) 0.1428571, 0.1428571, 0.1428571, 0.1428571, 0.1428571, 0.1428571, 0.1428571;
  (45-55, 0, 0 to 1000, 14-18) 0.1428571, 0.1428571, 0.1428571, 0.1428571, 0.1428571, 0.1428571, 0.1428571;
  (>55, 0, 0 to 1000, 14-18) 0.1428571, 0.1428571, 0.1428571, 0.1428571, 0.1428571, 0.1428571, 0.1428571;
  (25-35, 0-800, 0 to 1000, 14-18) 0.1428571, 0.1428571, 0.1428571, 0.1428571, 0.1428571, 0.1428571, 0.1428571;
  (35-45, 0-800, 0 to 1000, 14-18) 0.1428571, 0.1428571, 0.1428571, 0.1428571, 0.1428571, 0.1428571, 0.1428571;
  (45-55, 0-800, 0 to 1000, 14-18) 0.1428571, 0.1428571, 0.1428571, 0.1428571, 0.1428571, 0.1428571, 0.1428571;
  (>55, 0-800, 0 to 1000, 14-18) 0.1428571, 0.1428571, 0.1428571, 0.1428571, 0.1428571, 0.1428571, 0.1428571;
  (25-35, 800-861.111, 0 to 1000, 14-18) 0.1428571, 0.1428571, 0.1428571, 0.1428571, 0.1428571, 0.1428571, 0.1428571;
  (35-45, 800-861.111, 0 to 1000, 14-18) 0.1428571, 0.1428571, 0.1428571, 0.1428571, 0.1428571, 0.1428571, 0.1428571;
  (45-55, 800-861.111, 0 to 1000, 14-18) 0.1428571, 0.1428571, 0.1428571, 0.1428571, 0.1428571, 0.1428571, 0.1428571;
  (>55, 800-861.111, 0 to 1000, 14-18) 0.1428571, 0.1428571, 0.1428571, 0.1428571, 0.1428571, 0.1428571, 0.1428571;
  (25-35, 861.111-1111.11, 0 to 1000, 14-18) 1.0, 0.0, 0.0, 0.0, 0.0, 0.0, 0.0;
  (35-45, 861.111-1111.11, 0 to 1000, 14-18) 1.0, 0.0, 0.0, 0.0, 0.0, 0.0, 0.0;
  (45-55, 861.111-1111.11, 0 to 1000, 14-18) 1.0, 0.0, 0.0, 0.0, 0.0, 0.0, 0.0;
  (>55, 861.111-1111.11, 0 to 1000, 14-18) 0.1428571, 0.1428571, 0.1428571, 0.1428571, 0.1428571, 0.1428571, 0.1428571;
  (25-35, 0, 1000 to 1200, 14-18) 0.0000000, 0.5714286, 0.0000000, 0.0000000, 0.0000000, 0.0000000, 0.4285714;
  (35-45, 0, 1000 to 1200, 14-18) 0.0000000, 0.7142857, 0.0000000, 0.0000000, 0.0000000, 0.0000000, 0.2857143;
  (45-55, 0, 1000 to 1200, 14-18) 0.0, 0.0, 0.0, 0.0, 0.0, 0.0, 1.0;
  (>55, 0, 1000 to 1200, 14-18) 0.0000000, 0.3333333, 0.0000000, 0.0000000, 0.0000000, 0.0000000, 0.6666667;
  (25-35, 0-800, 1000 to 1200, 14-18) 0.1428571, 0.1428571, 0.1428571, 0.1428571, 0.1428571, 0.1428571, 0.1428571;
  (35-45, 0-800, 1000 to 1200, 14-18) 0.0, 0.0, 1.0, 0.0, 0.0, 0.0, 0.0;
  (45-55, 0-800, 1000 to 1200, 14-18) 0.0000000, 0.1428571, 0.4285714, 0.2857143, 0.0000000, 0.1428571, 0.0000000;
  (>55, 0-800, 1000 to 1200, 14-18) 0.0000000, 0.4285714, 0.4285714, 0.1428571, 0.0000000, 0.0000000, 0.0000000;
  (25-35, 800-861.111, 1000 to 1200, 14-18) 0.1428571, 0.1428571, 0.1428571, 0.1428571, 0.1428571, 0.1428571, 0.1428571;
  (35-45, 800-861.111, 1000 to 1200, 14-18) 0.1428571, 0.1428571, 0.1428571, 0.1428571, 0.1428571, 0.1428571, 0.1428571;
  (45-55, 800-861.111, 1000 to 1200, 14-18) 0.1428571, 0.1428571, 0.1428571, 0.1428571, 0.1428571, 0.1428571, 0.1428571;
  (>55, 800-861.111, 1000 to 1200, 14-18) 0.1428571, 0.1428571, 0.1428571, 0.1428571, 0.1428571, 0.1428571, 0.1428571;
  (25-35, 861.111-1111.11, 1000 to 1200, 14-18) 0.0000000, 0.1666667, 0.8333333, 0.0000000, 0.0000000, 0.0000000, 0.0000000;
  (35-45, 861.111-1111.11, 1000 to 1200, 14-18) 0.0000000, 0.0000000, 0.8333333, 0.1666667, 0.0000000, 0.0000000, 0.0000000;
  (45-55, 861.111-1111.11, 1000 to 1200, 14-18) 0.0, 0.0, 0.5, 0.5, 0.0, 0.0, 0.0;
  (>55, 861.111-1111.11, 1000 to 1200, 14-18) 0.0000000, 0.0000000, 0.7777778, 0.2222222, 0.0000000, 0.0000000, 0.0000000;
  (25-35, 0, 1200 to 1500, 14-18) 0.0, 0.8, 0.0, 0.0, 0.0, 0.0, 0.2;
  (35-45, 0, 1200 to 1500, 14-18) 0.0, 1.0, 0.0, 0.0, 0.0, 0.0, 0.0;
  (45-55, 0, 1200 to 1500, 14-18) 0.0, 1.0, 0.0, 0.0, 0.0, 0.0, 0.0;
  (>55, 0, 1200 to 1500, 14-18) 0.0000000, 0.6666667, 0.0000000, 0.0000000, 0.0000000, 0.0000000, 0.3333333;
  (25-35, 0-800, 1200 to 1500, 14-18) 0.1428571, 0.1428571, 0.1428571, 0.1428571, 0.1428571, 0.1428571, 0.1428571;
  (35-45, 0-800, 1200 to 1500, 14-18) 0.0, 0.0, 1.0, 0.0, 0.0, 0.0, 0.0;
  (45-55, 0-800, 1200 to 1500, 14-18) 0.1428571, 0.1428571, 0.1428571, 0.1428571, 0.1428571, 0.1428571, 0.1428571;
  (>55, 0-800, 1200 to 1500, 14-18) 0.0, 0.0, 1.0, 0.0, 0.0, 0.0, 0.0;
  (25-35, 800-861.111, 1200 to 1500, 14-18) 0.0, 0.0, 0.5, 0.5, 0.0, 0.0, 0.0;
  (35-45, 800-861.111, 1200 to 1500, 14-18) 0.0, 0.0, 1.0, 0.0, 0.0, 0.0, 0.0;
  (45-55, 800-861.111, 1200 to 1500, 14-18) 0.1428571, 0.1428571, 0.1428571, 0.1428571, 0.1428571, 0.1428571, 0.1428571;
  (>55, 800-861.111, 1200 to 1500, 14-18) 0.0, 0.0, 0.5, 0.0, 0.0, 0.0, 0.5;
  (25-35, 861.111-1111.11, 1200 to 1500, 14-18) 0.0, 0.0, 1.0, 0.0, 0.0, 0.0, 0.0;
  (35-45, 861.111-1111.11, 1200 to 1500, 14-18) 0.1428571, 0.1428571, 0.1428571, 0.1428571, 0.1428571, 0.1428571, 0.1428571;
  (45-55, 861.111-1111.11, 1200 to 1500, 14-18) 0.0, 0.0, 1.0, 0.0, 0.0, 0.0, 0.0;
  (>55, 861.111-1111.11, 1200 to 1500, 14-18) 0.0, 0.0, 0.5, 0.5, 0.0, 0.0, 0.0;
  (25-35, 0, 1500 to 1900, 14-18) 0.1428571, 0.1428571, 0.1428571, 0.1428571, 0.1428571, 0.1428571, 0.1428571;
  (35-45, 0, 1500 to 1900, 14-18) 0.0, 0.5, 0.0, 0.0, 0.0, 0.0, 0.5;
  (45-55, 0, 1500 to 1900, 14-18) 0.0, 1.0, 0.0, 0.0, 0.0, 0.0, 0.0;
  (>55, 0, 1500 to 1900, 14-18) 0.0, 1.0, 0.0, 0.0, 0.0, 0.0, 0.0;
  (25-35, 0-800, 1500 to 1900, 14-18) 0.1428571, 0.1428571, 0.1428571, 0.1428571, 0.1428571, 0.1428571, 0.1428571;
  (35-45, 0-800, 1500 to 1900, 14-18) 0.1428571, 0.1428571, 0.1428571, 0.1428571, 0.1428571, 0.1428571, 0.1428571;
  (45-55, 0-800, 1500 to 1900, 14-18) 0.1428571, 0.1428571, 0.1428571, 0.1428571, 0.1428571, 0.1428571, 0.1428571;
  (>55, 0-800, 1500 to 1900, 14-18) 0.1428571, 0.1428571, 0.1428571, 0.1428571, 0.1428571, 0.1428571, 0.1428571;
  (25-35, 800-861.111, 1500 to 1900, 14-18) 0.1428571, 0.1428571, 0.1428571, 0.1428571, 0.1428571, 0.1428571, 0.1428571;
  (35-45, 800-861.111, 1500 to 1900, 14-18) 0.1428571, 0.1428571, 0.1428571, 0.1428571, 0.1428571, 0.1428571, 0.1428571;
  (45-55, 800-861.111, 1500 to 1900, 14-18) 0.1428571, 0.1428571, 0.1428571, 0.1428571, 0.1428571, 0.1428571, 0.1428571;
  (>55, 800-861.111, 1500 to 1900, 14-18) 0.1428571, 0.1428571, 0.1428571, 0.1428571, 0.1428571, 0.1428571, 0.1428571;
  (25-35, 861.111-1111.11, 1500 to 1900, 14-18) 0.1428571, 0.1428571, 0.1428571, 0.1428571, 0.1428571, 0.1428571, 0.1428571;
  (35-45, 861.111-1111.11, 1500 to 1900, 14-18) 0.1428571, 0.1428571, 0.1428571, 0.1428571, 0.1428571, 0.1428571, 0.1428571;
  (45-55, 861.111-1111.11, 1500 to 1900, 14-18) 0.1428571, 0.1428571, 0.1428571, 0.1428571, 0.1428571, 0.1428571, 0.1428571;
  (>55, 861.111-1111.11, 1500 to 1900, 14-18) 0.1428571, 0.1428571, 0.1428571, 0.1428571, 0.1428571, 0.1428571, 0.1428571;
  (25-35, 0, 0 to 1000, 18-23) 0.1428571, 0.1428571, 0.1428571, 0.1428571, 0.1428571, 0.1428571, 0.1428571;
  (35-45, 0, 0 to 1000, 18-23) 0.1428571, 0.1428571, 0.1428571, 0.1428571, 0.1428571, 0.1428571, 0.1428571;
  (45-55, 0, 0 to 1000, 18-23) 0.1428571, 0.1428571, 0.1428571, 0.1428571, 0.1428571, 0.1428571, 0.1428571;
  (>55, 0, 0 to 1000, 18-23) 0.1428571, 0.1428571, 0.1428571, 0.1428571, 0.1428571, 0.1428571, 0.1428571;
  (25-35, 0-800, 0 to 1000, 18-23) 0.1428571, 0.1428571, 0.1428571, 0.1428571, 0.1428571, 0.1428571, 0.1428571;
  (35-45, 0-800, 0 to 1000, 18-23) 0.1428571, 0.1428571, 0.1428571, 0.1428571, 0.1428571, 0.1428571, 0.1428571;
  (45-55, 0-800, 0 to 1000, 18-23) 0.1428571, 0.1428571, 0.1428571, 0.1428571, 0.1428571, 0.1428571, 0.1428571;
  (>55, 0-800, 0 to 1000, 18-23) 0.1428571, 0.1428571, 0.1428571, 0.1428571, 0.1428571, 0.1428571, 0.1428571;
  (25-35, 800-861.111, 0 to 1000, 18-23) 0.0, 0.0, 1.0, 0.0, 0.0, 0.0, 0.0;
  (35-45, 800-861.111, 0 to 1000, 18-23) 0.1428571, 0.1428571, 0.1428571, 0.1428571, 0.1428571, 0.1428571, 0.1428571;
  (45-55, 800-861.111, 0 to 1000, 18-23) 0.0, 0.0, 1.0, 0.0, 0.0, 0.0, 0.0;
  (>55, 800-861.111, 0 to 1000, 18-23) 0.1428571, 0.1428571, 0.1428571, 0.1428571, 0.1428571, 0.1428571, 0.1428571;
  (25-35, 861.111-1111.11, 0 to 1000, 18-23) 0.1428571, 0.1428571, 0.1428571, 0.1428571, 0.1428571, 0.1428571, 0.1428571;
  (35-45, 861.111-1111.11, 0 to 1000, 18-23) 0.1428571, 0.1428571, 0.1428571, 0.1428571, 0.1428571, 0.1428571, 0.1428571;
  (45-55, 861.111-1111.11, 0 to 1000, 18-23) 0.1428571, 0.1428571, 0.1428571, 0.1428571, 0.1428571, 0.1428571, 0.1428571;
  (>55, 861.111-1111.11, 0 to 1000, 18-23) 0.1428571, 0.1428571, 0.1428571, 0.1428571, 0.1428571, 0.1428571, 0.1428571;
  (25-35, 0, 1000 to 1200, 18-23) 0.0, 1.0, 0.0, 0.0, 0.0, 0.0, 0.0;
  (35-45, 0, 1000 to 1200, 18-23) 0.0, 1.0, 0.0, 0.0, 0.0, 0.0, 0.0;
  (45-55, 0, 1000 to 1200, 18-23) 0.0, 1.0, 0.0, 0.0, 0.0, 0.0, 0.0;
  (>55, 0, 1000 to 1200, 18-23) 0.0, 1.0, 0.0, 0.0, 0.0, 0.0, 0.0;
  (25-35, 0-800, 1000 to 1200, 18-23) 0.0, 1.0, 0.0, 0.0, 0.0, 0.0, 0.0;
  (35-45, 0-800, 1000 to 1200, 18-23) 0.0000000, 0.3333333, 0.6666667, 0.0000000, 0.0000000, 0.0000000, 0.0000000;
  (45-55, 0-800, 1000 to 1200, 18-23) 0.0000000, 0.0000000, 0.3333333, 0.6666667, 0.0000000, 0.0000000, 0.0000000;
  (>55, 0-800, 1000 to 1200, 18-23) 0.0, 0.0, 1.0, 0.0, 0.0, 0.0, 0.0;
  (25-35, 800-861.111, 1000 to 1200, 18-23) 0.1428571, 0.1428571, 0.1428571, 0.1428571, 0.1428571, 0.1428571, 0.1428571;
  (35-45, 800-861.111, 1000 to 1200, 18-23) 0.1428571, 0.1428571, 0.1428571, 0.1428571, 0.1428571, 0.1428571, 0.1428571;
  (45-55, 800-861.111, 1000 to 1200, 18-23) 0.1428571, 0.1428571, 0.1428571, 0.1428571, 0.1428571, 0.1428571, 0.1428571;
  (>55, 800-861.111, 1000 to 1200, 18-23) 0.1428571, 0.1428571, 0.1428571, 0.1428571, 0.1428571, 0.1428571, 0.1428571;
  (25-35, 861.111-1111.11, 1000 to 1200, 18-23) 0.0, 0.0, 1.0, 0.0, 0.0, 0.0, 0.0;
  (35-45, 861.111-1111.11, 1000 to 1200, 18-23) 0.0000000, 0.1666667, 0.8333333, 0.0000000, 0.0000000, 0.0000000, 0.0000000;
  (45-55, 861.111-1111.11, 1000 to 1200, 18-23) 0.0, 0.0, 0.5, 0.5, 0.0, 0.0, 0.0;
  (>55, 861.111-1111.11, 1000 to 1200, 18-23) 0.1428571, 0.1428571, 0.1428571, 0.1428571, 0.1428571, 0.1428571, 0.1428571;
  (25-35, 0, 1200 to 1500, 18-23) 0.0, 1.0, 0.0, 0.0, 0.0, 0.0, 0.0;
  (35-45, 0, 1200 to 1500, 18-23) 0.00000000, 0.91666667, 0.00000000, 0.00000000, 0.00000000, 0.00000000, 0.08333333;
  (45-55, 0, 1200 to 1500, 18-23) 0.0, 1.0, 0.0, 0.0, 0.0, 0.0, 0.0;
  (>55, 0, 1200 to 1500, 18-23) 0.00, 0.75, 0.00, 0.00, 0.00, 0.00, 0.25;
  (25-35, 0-800, 1200 to 1500, 18-23) 0.1428571, 0.1428571, 0.1428571, 0.1428571, 0.1428571, 0.1428571, 0.1428571;
  (35-45, 0-800, 1200 to 1500, 18-23) 0.1428571, 0.1428571, 0.1428571, 0.1428571, 0.1428571, 0.1428571, 0.1428571;
  (45-55, 0-800, 1200 to 1500, 18-23) 0.1428571, 0.1428571, 0.1428571, 0.1428571, 0.1428571, 0.1428571, 0.1428571;
  (>55, 0-800, 1200 to 1500, 18-23) 0.0, 0.0, 1.0, 0.0, 0.0, 0.0, 0.0;
  (25-35, 800-861.111, 1200 to 1500, 18-23) 0.1428571, 0.1428571, 0.1428571, 0.1428571, 0.1428571, 0.1428571, 0.1428571;
  (35-45, 800-861.111, 1200 to 1500, 18-23) 0.1428571, 0.1428571, 0.1428571, 0.1428571, 0.1428571, 0.1428571, 0.1428571;
  (45-55, 800-861.111, 1200 to 1500, 18-23) 0.1428571, 0.1428571, 0.1428571, 0.1428571, 0.1428571, 0.1428571, 0.1428571;
  (>55, 800-861.111, 1200 to 1500, 18-23) 0.1428571, 0.1428571, 0.1428571, 0.1428571, 0.1428571, 0.1428571, 0.1428571;
  (25-35, 861.111-1111.11, 1200 to 1500, 18-23) 0.1428571, 0.1428571, 0.1428571, 0.1428571, 0.1428571, 0.1428571, 0.1428571;
  (35-45, 861.111-1111.11, 1200 to 1500, 18-23) 0.0000000, 0.0000000, 0.6666667, 0.3333333, 0.0000000, 0.0000000, 0.0000000;
  (45-55, 861.111-1111.11, 1200 to 1500, 18-23) 0.0, 0.0, 1.0, 0.0, 0.0, 0.0, 0.0;
  (>55, 861.111-1111.11, 1200 to 1500, 18-23) 0.0, 0.4, 0.4, 0.2, 0.0, 0.0, 0.0;
  (25-35, 0, 1500 to 1900, 18-23) 0.0, 1.0, 0.0, 0.0, 0.0, 0.0, 0.0;
  (35-45, 0, 1500 to 1900, 18-23) 0.1428571, 0.1428571, 0.1428571, 0.1428571, 0.1428571, 0.1428571, 0.1428571;
  (45-55, 0, 1500 to 1900, 18-23) 0.0, 1.0, 0.0, 0.0, 0.0, 0.0, 0.0;
  (>55, 0, 1500 to 1900, 18-23) 0.1428571, 0.1428571, 0.1428571, 0.1428571, 0.1428571, 0.1428571, 0.1428571;
  (25-35, 0-800, 1500 to 1900, 18-23) 0.1428571, 0.1428571, 0.1428571, 0.1428571, 0.1428571, 0.1428571, 0.1428571;
  (35-45, 0-800, 1500 to 1900, 18-23) 0.1428571, 0.1428571, 0.1428571, 0.1428571, 0.1428571, 0.1428571, 0.1428571;
  (45-55, 0-800, 1500 to 1900, 18-23) 0.1428571, 0.1428571, 0.1428571, 0.1428571, 0.1428571, 0.1428571, 0.1428571;
  (>55, 0-800, 1500 to 1900, 18-23) 0.1428571, 0.1428571, 0.1428571, 0.1428571, 0.1428571, 0.1428571, 0.1428571;
  (25-35, 800-861.111, 1500 to 1900, 18-23) 0.1428571, 0.1428571, 0.1428571, 0.1428571, 0.1428571, 0.1428571, 0.1428571;
  (35-45, 800-861.111, 1500 to 1900, 18-23) 0.1428571, 0.1428571, 0.1428571, 0.1428571, 0.1428571, 0.1428571, 0.1428571;
  (45-55, 800-861.111, 1500 to 1900, 18-23) 0.0, 1.0, 0.0, 0.0, 0.0, 0.0, 0.0;
  (>55, 800-861.111, 1500 to 1900, 18-23) 0.1428571, 0.1428571, 0.1428571, 0.1428571, 0.1428571, 0.1428571, 0.1428571;
  (25-35, 861.111-1111.11, 1500 to 1900, 18-23) 0.1428571, 0.1428571, 0.1428571, 0.1428571, 0.1428571, 0.1428571, 0.1428571;
  (35-45, 861.111-1111.11, 1500 to 1900, 18-23) 0.1428571, 0.1428571, 0.1428571, 0.1428571, 0.1428571, 0.1428571, 0.1428571;
  (45-55, 861.111-1111.11, 1500 to 1900, 18-23) 0.1428571, 0.1428571, 0.1428571, 0.1428571, 0.1428571, 0.1428571, 0.1428571;
  (>55, 861.111-1111.11, 1500 to 1900, 18-23) 0.1428571, 0.1428571, 0.1428571, 0.1428571, 0.1428571, 0.1428571, 0.1428571;
  (25-35, 0, 0 to 1000, 23-32) 0.1428571, 0.1428571, 0.1428571, 0.1428571, 0.1428571, 0.1428571, 0.1428571;
  (35-45, 0, 0 to 1000, 23-32) 0.1428571, 0.1428571, 0.1428571, 0.1428571, 0.1428571, 0.1428571, 0.1428571;
  (45-55, 0, 0 to 1000, 23-32) 0.1428571, 0.1428571, 0.1428571, 0.1428571, 0.1428571, 0.1428571, 0.1428571;
  (>55, 0, 0 to 1000, 23-32) 0.1428571, 0.1428571, 0.1428571, 0.1428571, 0.1428571, 0.1428571, 0.1428571;
  (25-35, 0-800, 0 to 1000, 23-32) 0.1428571, 0.1428571, 0.1428571, 0.1428571, 0.1428571, 0.1428571, 0.1428571;
  (35-45, 0-800, 0 to 1000, 23-32) 0.1428571, 0.1428571, 0.1428571, 0.1428571, 0.1428571, 0.1428571, 0.1428571;
  (45-55, 0-800, 0 to 1000, 23-32) 0.1428571, 0.1428571, 0.1428571, 0.1428571, 0.1428571, 0.1428571, 0.1428571;
  (>55, 0-800, 0 to 1000, 23-32) 0.1428571, 0.1428571, 0.1428571, 0.1428571, 0.1428571, 0.1428571, 0.1428571;
  (25-35, 800-861.111, 0 to 1000, 23-32) 0.1428571, 0.1428571, 0.1428571, 0.1428571, 0.1428571, 0.1428571, 0.1428571;
  (35-45, 800-861.111, 0 to 1000, 23-32) 0.1428571, 0.1428571, 0.1428571, 0.1428571, 0.1428571, 0.1428571, 0.1428571;
  (45-55, 800-861.111, 0 to 1000, 23-32) 0.1428571, 0.1428571, 0.1428571, 0.1428571, 0.1428571, 0.1428571, 0.1428571;
  (>55, 800-861.111, 0 to 1000, 23-32) 0.1428571, 0.1428571, 0.1428571, 0.1428571, 0.1428571, 0.1428571, 0.1428571;
  (25-35, 861.111-1111.11, 0 to 1000, 23-32) 1.0, 0.0, 0.0, 0.0, 0.0, 0.0, 0.0;
  (35-45, 861.111-1111.11, 0 to 1000, 23-32) 0.1428571, 0.1428571, 0.1428571, 0.1428571, 0.1428571, 0.1428571, 0.1428571;
  (45-55, 861.111-1111.11, 0 to 1000, 23-32) 0.1428571, 0.1428571, 0.1428571, 0.1428571, 0.1428571, 0.1428571, 0.1428571;
  (>55, 861.111-1111.11, 0 to 1000, 23-32) 0.1428571, 0.1428571, 0.1428571, 0.1428571, 0.1428571, 0.1428571, 0.1428571;
  (25-35, 0, 1000 to 1200, 23-32) 0.0, 1.0, 0.0, 0.0, 0.0, 0.0, 0.0;
  (35-45, 0, 1000 to 1200, 23-32) 0.0000000, 0.8888889, 0.0000000, 0.0000000, 0.0000000, 0.0000000, 0.1111111;
  (45-55, 0, 1000 to 1200, 23-32) 0.0, 1.0, 0.0, 0.0, 0.0, 0.0, 0.0;
  (>55, 0, 1000 to 1200, 23-32) 0.1428571, 0.1428571, 0.1428571, 0.1428571, 0.1428571, 0.1428571, 0.1428571;
  (25-35, 0-800, 1000 to 1200, 23-32) 0.0, 0.0, 1.0, 0.0, 0.0, 0.0, 0.0;
  (35-45, 0-800, 1000 to 1200, 23-32) 0.0, 0.0, 1.0, 0.0, 0.0, 0.0, 0.0;
  (45-55, 0-800, 1000 to 1200, 23-32) 0.0000000, 0.1666667, 0.5000000, 0.3333333, 0.0000000, 0.0000000, 0.0000000;
  (>55, 0-800, 1000 to 1200, 23-32) 0.0, 0.0, 0.5, 0.5, 0.0, 0.0, 0.0;
  (25-35, 800-861.111, 1000 to 1200, 23-32) 0.1428571, 0.1428571, 0.1428571, 0.1428571, 0.1428571, 0.1428571, 0.1428571;
  (35-45, 800-861.111, 1000 to 1200, 23-32) 0.1428571, 0.1428571, 0.1428571, 0.1428571, 0.1428571, 0.1428571, 0.1428571;
  (45-55, 800-861.111, 1000 to 1200, 23-32) 0.1428571, 0.1428571, 0.1428571, 0.1428571, 0.1428571, 0.1428571, 0.1428571;
  (>55, 800-861.111, 1000 to 1200, 23-32) 0.1428571, 0.1428571, 0.1428571, 0.1428571, 0.1428571, 0.1428571, 0.1428571;
  (25-35, 861.111-1111.11, 1000 to 1200, 23-32) 0.0, 0.0, 1.0, 0.0, 0.0, 0.0, 0.0;
  (35-45, 861.111-1111.11, 1000 to 1200, 23-32) 0.0, 0.0, 1.0, 0.0, 0.0, 0.0, 0.0;
  (45-55, 861.111-1111.11, 1000 to 1200, 23-32) 0.0, 0.0, 1.0, 0.0, 0.0, 0.0, 0.0;
  (>55, 861.111-1111.11, 1000 to 1200, 23-32) 0.0, 0.0, 1.0, 0.0, 0.0, 0.0, 0.0;
  (25-35, 0, 1200 to 1500, 23-32) 0.0, 1.0, 0.0, 0.0, 0.0, 0.0, 0.0;
  (35-45, 0, 1200 to 1500, 23-32) 0.00000000, 0.94444444, 0.00000000, 0.00000000, 0.00000000, 0.00000000, 0.05555556;
  (45-55, 0, 1200 to 1500, 23-32) 0.0000000, 0.8571429, 0.0000000, 0.0000000, 0.0000000, 0.0000000, 0.1428571;
  (>55, 0, 1200 to 1500, 23-32) 0.0, 0.8, 0.0, 0.0, 0.0, 0.0, 0.2;
  (25-35, 0-800, 1200 to 1500, 23-32) 0.0, 0.0, 1.0, 0.0, 0.0, 0.0, 0.0;
  (35-45, 0-800, 1200 to 1500, 23-32) 0.0, 0.0, 1.0, 0.0, 0.0, 0.0, 0.0;
  (45-55, 0-800, 1200 to 1500, 23-32) 0.1428571, 0.1428571, 0.1428571, 0.1428571, 0.1428571, 0.1428571, 0.1428571;
  (>55, 0-800, 1200 to 1500, 23-32) 0.0, 0.0, 1.0, 0.0, 0.0, 0.0, 0.0;
  (25-35, 800-861.111, 1200 to 1500, 23-32) 0.0, 0.0, 1.0, 0.0, 0.0, 0.0, 0.0;
  (35-45, 800-861.111, 1200 to 1500, 23-32) 0.0000000, 0.3333333, 0.6666667, 0.0000000, 0.0000000, 0.0000000, 0.0000000;
  (45-55, 800-861.111, 1200 to 1500, 23-32) 0.0, 0.0, 1.0, 0.0, 0.0, 0.0, 0.0;
  (>55, 800-861.111, 1200 to 1500, 23-32) 0.0, 0.0, 1.0, 0.0, 0.0, 0.0, 0.0;
  (25-35, 861.111-1111.11, 1200 to 1500, 23-32) 0.1428571, 0.1428571, 0.1428571, 0.1428571, 0.1428571, 0.1428571, 0.1428571;
  (35-45, 861.111-1111.11, 1200 to 1500, 23-32) 0.0, 0.0, 0.5, 0.5, 0.0, 0.0, 0.0;
  (45-55, 861.111-1111.11, 1200 to 1500, 23-32) 0.1428571, 0.1428571, 0.1428571, 0.1428571, 0.1428571, 0.1428571, 0.1428571;
  (>55, 861.111-1111.11, 1200 to 1500, 23-32) 0.1428571, 0.1428571, 0.1428571, 0.1428571, 0.1428571, 0.1428571, 0.1428571;
  (25-35, 0, 1500 to 1900, 23-32) 0.1428571, 0.1428571, 0.1428571, 0.1428571, 0.1428571, 0.1428571, 0.1428571;
  (35-45, 0, 1500 to 1900, 23-32) 0.0, 1.0, 0.0, 0.0, 0.0, 0.0, 0.0;
  (45-55, 0, 1500 to 1900, 23-32) 0.0, 1.0, 0.0, 0.0, 0.0, 0.0, 0.0;
  (>55, 0, 1500 to 1900, 23-32) 0.1428571, 0.1428571, 0.1428571, 0.1428571, 0.1428571, 0.1428571, 0.1428571;
  (25-35, 0-800, 1500 to 1900, 23-32) 0.1428571, 0.1428571, 0.1428571, 0.1428571, 0.1428571, 0.1428571, 0.1428571;
  (35-45, 0-800, 1500 to 1900, 23-32) 0.1428571, 0.1428571, 0.1428571, 0.1428571, 0.1428571, 0.1428571, 0.1428571;
  (45-55, 0-800, 1500 to 1900, 23-32) 0.1428571, 0.1428571, 0.1428571, 0.1428571, 0.1428571, 0.1428571, 0.1428571;
  (>55, 0-800, 1500 to 1900, 23-32) 0.1428571, 0.1428571, 0.1428571, 0.1428571, 0.1428571, 0.1428571, 0.1428571;
  (25-35, 800-861.111, 1500 to 1900, 23-32) 0.1428571, 0.1428571, 0.1428571, 0.1428571, 0.1428571, 0.1428571, 0.1428571;
  (35-45, 800-861.111, 1500 to 1900, 23-32) 0.1428571, 0.1428571, 0.1428571, 0.1428571, 0.1428571, 0.1428571, 0.1428571;
  (45-55, 800-861.111, 1500 to 1900, 23-32) 0.0, 0.0, 1.0, 0.0, 0.0, 0.0, 0.0;
  (>55, 800-861.111, 1500 to 1900, 23-32) 0.1428571, 0.1428571, 0.1428571, 0.1428571, 0.1428571, 0.1428571, 0.1428571;
  (25-35, 861.111-1111.11, 1500 to 1900, 23-32) 0.1428571, 0.1428571, 0.1428571, 0.1428571, 0.1428571, 0.1428571, 0.1428571;
  (35-45, 861.111-1111.11, 1500 to 1900, 23-32) 0.1428571, 0.1428571, 0.1428571, 0.1428571, 0.1428571, 0.1428571, 0.1428571;
  (45-55, 861.111-1111.11, 1500 to 1900, 23-32) 0.1428571, 0.1428571, 0.1428571, 0.1428571, 0.1428571, 0.1428571, 0.1428571;
  (>55, 861.111-1111.11, 1500 to 1900, 23-32) 0.1428571, 0.1428571, 0.1428571, 0.1428571, 0.1428571, 0.1428571, 0.1428571;
}
probability ( DistanceToBigMarket | Choice_Of_Intensification_Strategy ) {
  (ApplyFertilizer) 0.2857143, 0.5714286, 0.1428571;
  (ApplyImprovedSeed) 0.4000000, 0.3142857, 0.2857143;
  (CropMultipleTimes) 0.3478261, 0.2608696, 0.3913043;
  (None) 0.3989071, 0.2677596, 0.3333333;
  (UseIrrigation) 0.3636364, 0.6363636, 0.0000000;
  (UseIrrigationAndFertilizerApplication) 0.6, 0.3, 0.1;
}
probability ( ExpectedPriceOfMaize ) {
  table 0.52559727, 0.17064846, 0.07167235, 0.23208191;
}
probability ( ExpectedPriceOfRice ) {
  table 0.03071672, 0.43686007, 0.47098976, 0.06143345;
}
probability ( FarmerType | Choice_Of_Intensification_Strategy, CropChoice ) {
  (ApplyFertilizer, Maize) 0.3333333, 0.3333333, 0.3333333;
  (ApplyImprovedSeed, Maize) 0.3333333, 0.3333333, 0.3333333;
  (CropMultipleTimes, Maize) 0.0, 1.0, 0.0;
  (None, Maize) 0.0, 1.0, 0.0;
  (UseIrrigation, Maize) 0.3333333, 0.3333333, 0.3333333;
  (UseIrrigationAndFertilizerApplication, Maize) 0.3333333, 0.3333333, 0.3333333;
  (ApplyFertilizer, Rice) 0.0, 0.0, 1.0;
  (ApplyImprovedSeed, Rice) 0.05882353, 0.00000000, 0.94117647;
  (CropMultipleTimes, Rice) 0.0, 0.0, 1.0;
  (None, Rice) 0.03809524, 0.00952381, 0.95238095;
  (UseIrrigation, Rice) 0.0, 0.0, 1.0;
  (UseIrrigationAndFertilizerApplication, Rice) 0.0, 0.0, 1.0;
  (ApplyFertilizer, RiceAndMaize) 0.1111111, 0.2222222, 0.6666667;
  (ApplyImprovedSeed, RiceAndMaize) 0.0000000, 0.5384615, 0.4615385;
  (CropMultipleTimes, RiceAndMaize) 0.0000000, 0.6666667, 0.3333333;
  (None, RiceAndMaize) 0.1864407, 0.4745763, 0.3389831;
  (UseIrrigation, RiceAndMaize) 0.0, 1.0, 0.0;
  (UseIrrigationAndFertilizerApplication, RiceAndMaize) 0.0, 1.0, 0.0;
  (ApplyFertilizer, RiceMaizeAndVegit) 0.0000000, 0.6666667, 0.3333333;
  (ApplyImprovedSeed, RiceMaizeAndVegit) 0.0000000, 0.6666667, 0.3333333;
  (CropMultipleTimes, RiceMaizeAndVegit) 0.0, 1.0, 0.0;
  (None, RiceMaizeAndVegit) 0.2, 0.6, 0.2;
  (UseIrrigation, RiceMaizeAndVegit) 0.0, 1.0, 0.0;
  (UseIrrigationAndFertilizerApplication, RiceMaizeAndVegit) 0.0, 1.0, 0.0;
  (ApplyFertilizer, Vegitables) 0.3333333, 0.3333333, 0.3333333;
  (ApplyImprovedSeed, Vegitables) 0.3333333, 0.3333333, 0.3333333;
  (CropMultipleTimes, Vegitables) 0.3333333, 0.3333333, 0.3333333;
  (None, Vegitables) 0.3333333, 0.3333333, 0.3333333;
  (UseIrrigation, Vegitables) 0.3333333, 0.3333333, 0.3333333;
  (UseIrrigationAndFertilizerApplication, Vegitables) 0.0, 1.0, 0.0;
  (ApplyFertilizer, VegitAndMaize) 0.0, 1.0, 0.0;
  (ApplyImprovedSeed, VegitAndMaize) 0.3333333, 0.3333333, 0.3333333;
  (CropMultipleTimes, VegitAndMaize) 0.3333333, 0.3333333, 0.3333333;
  (None, VegitAndMaize) 0.3333333, 0.3333333, 0.3333333;
  (UseIrrigation, VegitAndMaize) 0.3333333, 0.3333333, 0.3333333;
  (UseIrrigationAndFertilizerApplication, VegitAndMaize) 0.3333333, 0.3333333, 0.3333333;
  (ApplyFertilizer, VegitAndRice) 0.0, 0.5, 0.5;
  (ApplyImprovedSeed, VegitAndRice) 0.0, 1.0, 0.0;
  (CropMultipleTimes, VegitAndRice) 0.0, 0.0, 1.0;
  (None, VegitAndRice) 0.09090909, 0.27272727, 0.63636364;
  (UseIrrigation, VegitAndRice) 0.3333333, 0.3333333, 0.3333333;
  (UseIrrigationAndFertilizerApplication, VegitAndRice) 0.0, 0.0, 1.0;
}
probability ( Income | Choice_Of_Intensification_Strategy, CommercializationIndex, ExpectedPriceOfMaize, ExpectedPriceOfRice, LabourInManDays, PercentOfNonFarmIncome ) {
  (ApplyFertilizer, <30_, 0, 0 to 1000, <120, None) 0.25, 0.25, 0.25, 0.25;
  (ApplyImprovedSeed, <30_, 0, 0 to 1000, <120, None) 0.25, 0.25, 0.25, 0.25;
  (CropMultipleTimes, <30_, 0, 0 to 1000, <120, None) 0.25, 0.25, 0.25, 0.25;
  (None, <30_, 0, 0 to 1000, <120, None) 0.25, 0.25, 0.25, 0.25;
  (UseIrrigation, <30_, 0, 0 to 1000, <120, None) 0.25, 0.25, 0.25, 0.25;
  (UseIrrigationAndFertilizerApplication, <30_, 0, 0 to 1000, <120, None) 0.25, 0.25, 0.25, 0.25;
  (ApplyFertilizer, 30-60_, 0, 0 to 1000, <120, None) 0.25, 0.25, 0.25, 0.25;
  (ApplyImprovedSeed, 30-60_, 0, 0 to 1000, <120, None) 0.25, 0.25, 0.25, 0.25;
  (CropMultipleTimes, 30-60_, 0, 0 to 1000, <120, None) 0.25, 0.25, 0.25, 0.25;
  (None, 30-60_, 0, 0 to 1000, <120, None) 0.25, 0.25, 0.25, 0.25;
  (UseIrrigation, 30-60_, 0, 0 to 1000, <120, None) 0.25, 0.25, 0.25, 0.25;
  (UseIrrigationAndFertilizerApplication, 30-60_, 0, 0 to 1000, <120, None) 0.25, 0.25, 0.25, 0.25;
  (ApplyFertilizer, >60_, 0, 0 to 1000, <120, None) 0.25, 0.25, 0.25, 0.25;
  (ApplyImprovedSeed, >60_, 0, 0 to 1000, <120, None) 0.25, 0.25, 0.25, 0.25;
  (CropMultipleTimes, >60_, 0, 0 to 1000, <120, None) 0.25, 0.25, 0.25, 0.25;
  (None, >60_, 0, 0 to 1000, <120, None) 0.25, 0.25, 0.25, 0.25;
  (UseIrrigation, >60_, 0, 0 to 1000, <120, None) 0.25, 0.25, 0.25, 0.25;
  (UseIrrigationAndFertilizerApplication, >60_, 0, 0 to 1000, <120, None) 0.25, 0.25, 0.25, 0.25;
  (ApplyFertilizer, <30_, 0-800, 0 to 1000, <120, None) 0.25, 0.25, 0.25, 0.25;
  (ApplyImprovedSeed, <30_, 0-800, 0 to 1000, <120, None) 0.25, 0.25, 0.25, 0.25;
  (CropMultipleTimes, <30_, 0-800, 0 to 1000, <120, None) 0.25, 0.25, 0.25, 0.25;
  (None, <30_, 0-800, 0 to 1000, <120, None) 0.25, 0.25, 0.25, 0.25;
  (UseIrrigation, <30_, 0-800, 0 to 1000, <120, None) 0.25, 0.25, 0.25, 0.25;
  (UseIrrigationAndFertilizerApplication, <30_, 0-800, 0 to 1000, <120, None) 0.25, 0.25, 0.25, 0.25;
  (ApplyFertilizer, 30-60_, 0-800, 0 to 1000, <120, None) 0.25, 0.25, 0.25, 0.25;
  (ApplyImprovedSeed, 30-60_, 0-800, 0 to 1000, <120, None) 0.25, 0.25, 0.25, 0.25;
  (CropMultipleTimes, 30-60_, 0-800, 0 to 1000, <120, None) 0.25, 0.25, 0.25, 0.25;
  (None, 30-60_, 0-800, 0 to 1000, <120, None) 0.25, 0.25, 0.25, 0.25;
  (UseIrrigation, 30-60_, 0-800, 0 to 1000, <120, None) 0.25, 0.25, 0.25, 0.25;
  (UseIrrigationAndFertilizerApplication, 30-60_, 0-800, 0 to 1000, <120, None) 0.25, 0.25, 0.25, 0.25;
  (ApplyFertilizer, >60_, 0-800, 0 to 1000, <120, None) 0.25, 0.25, 0.25, 0.25;
  (ApplyImprovedSeed, >60_, 0-800, 0 to 1000, <120, None) 0.25, 0.25, 0.25, 0.25;
  (CropMultipleTimes, >60_, 0-800, 0 to 1000, <120, None) 0.25, 0.25, 0.25, 0.25;
  (None, >60_, 0-800, 0 to 1000, <120, None) 0.25, 0.25, 0.25, 0.25;
  (UseIrrigation, >60_, 0-800, 0 to 1000, <120, None) 0.25, 0.25, 0.25, 0.25;
  (UseIrrigationAndFertilizerApplication, >60_, 0-800, 0 to 1000, <120, None) 0.25, 0.25, 0.25, 0.25;
  (ApplyFertilizer, <30_, 800-861.111, 0 to 1000, <120, None) 0.25, 0.25, 0.25, 0.25;
  (ApplyImprovedSeed, <30_, 800-861.111, 0 to 1000, <120, None) 0.25, 0.25, 0.25, 0.25;
  (CropMultipleTimes, <30_, 800-861.111, 0 to 1000, <120, None) 0.25, 0.25, 0.25, 0.25;
  (None, <30_, 800-861.111, 0 to 1000, <120, None) 0.25, 0.25, 0.25, 0.25;
  (UseIrrigation, <30_, 800-861.111, 0 to 1000, <120, None) 0.25, 0.25, 0.25, 0.25;
  (UseIrrigationAndFertilizerApplication, <30_, 800-861.111, 0 to 1000, <120, None) 0.25, 0.25, 0.25, 0.25;
  (ApplyFertilizer, 30-60_, 800-861.111, 0 to 1000, <120, None) 0.25, 0.25, 0.25, 0.25;
  (ApplyImprovedSeed, 30-60_, 800-861.111, 0 to 1000, <120, None) 0.25, 0.25, 0.25, 0.25;
  (CropMultipleTimes, 30-60_, 800-861.111, 0 to 1000, <120, None) 0.25, 0.25, 0.25, 0.25;
  (None, 30-60_, 800-861.111, 0 to 1000, <120, None) 0.25, 0.25, 0.25, 0.25;
  (UseIrrigation, 30-60_, 800-861.111, 0 to 1000, <120, None) 0.25, 0.25, 0.25, 0.25;
  (UseIrrigationAndFertilizerApplication, 30-60_, 800-861.111, 0 to 1000, <120, None) 0.25, 0.25, 0.25, 0.25;
  (ApplyFertilizer, >60_, 800-861.111, 0 to 1000, <120, None) 0.25, 0.25, 0.25, 0.25;
  (ApplyImprovedSeed, >60_, 800-861.111, 0 to 1000, <120, None) 0.25, 0.25, 0.25, 0.25;
  (CropMultipleTimes, >60_, 800-861.111, 0 to 1000, <120, None) 0.25, 0.25, 0.25, 0.25;
  (None, >60_, 800-861.111, 0 to 1000, <120, None) 0.25, 0.25, 0.25, 0.25;
  (UseIrrigation, >60_, 800-861.111, 0 to 1000, <120, None) 0.25, 0.25, 0.25, 0.25;
  (UseIrrigationAndFertilizerApplication, >60_, 800-861.111, 0 to 1000, <120, None) 0.25, 0.25, 0.25, 0.25;
  (ApplyFertilizer, <30_, 861.111-1111.11, 0 to 1000, <120, None) 0.25, 0.25, 0.25, 0.25;
  (ApplyImprovedSeed, <30_, 861.111-1111.11, 0 to 1000, <120, None) 0.25, 0.25, 0.25, 0.25;
  (CropMultipleTimes, <30_, 861.111-1111.11, 0 to 1000, <120, None) 0.25, 0.25, 0.25, 0.25;
  (None, <30_, 861.111-1111.11, 0 to 1000, <120, None) 0.25, 0.25, 0.25, 0.25;
  (UseIrrigation, <30_, 861.111-1111.11, 0 to 1000, <120, None) 0.25, 0.25, 0.25, 0.25;
  (UseIrrigationAndFertilizerApplication, <30_, 861.111-1111.11, 0 to 1000, <120, None) 0.25, 0.25, 0.25, 0.25;
  (ApplyFertilizer, 30-60_, 861.111-1111.11, 0 to 1000, <120, None) 0.25, 0.25, 0.25, 0.25;
  (ApplyImprovedSeed, 30-60_, 861.111-1111.11, 0 to 1000, <120, None) 0.25, 0.25, 0.25, 0.25;
  (CropMultipleTimes, 30-60_, 861.111-1111.11, 0 to 1000, <120, None) 0.25, 0.25, 0.25, 0.25;
  (None, 30-60_, 861.111-1111.11, 0 to 1000, <120, None) 0.25, 0.25, 0.25, 0.25;
  (UseIrrigation, 30-60_, 861.111-1111.11, 0 to 1000, <120, None) 0.25, 0.25, 0.25, 0.25;
  (UseIrrigationAndFertilizerApplication, 30-60_, 861.111-1111.11, 0 to 1000, <120, None) 0.25, 0.25, 0.25, 0.25;
  (ApplyFertilizer, >60_, 861.111-1111.11, 0 to 1000, <120, None) 0.25, 0.25, 0.25, 0.25;
  (ApplyImprovedSeed, >60_, 861.111-1111.11, 0 to 1000, <120, None) 0.25, 0.25, 0.25, 0.25;
  (CropMultipleTimes, >60_, 861.111-1111.11, 0 to 1000, <120, None) 0.25, 0.25, 0.25, 0.25;
  (None, >60_, 861.111-1111.11, 0 to 1000, <120, None) 0.25, 0.25, 0.25, 0.25;
  (UseIrrigation, >60_, 861.111-1111.11, 0 to 1000, <120, None) 0.25, 0.25, 0.25, 0.25;
  (UseIrrigationAndFertilizerApplication, >60_, 861.111-1111.11, 0 to 1000, <120, None) 0.25, 0.25, 0.25, 0.25;
  (ApplyFertilizer, <30_, 0, 1000 to 1200, <120, None) 0.25, 0.25, 0.25, 0.25;
  (ApplyImprovedSeed, <30_, 0, 1000 to 1200, <120, None) 0.25, 0.25, 0.25, 0.25;
  (CropMultipleTimes, <30_, 0, 1000 to 1200, <120, None) 0.25, 0.25, 0.25, 0.25;
  (None, <30_, 0, 1000 to 1200, <120, None) 0.0, 0.0, 1.0, 0.0;
  (UseIrrigation, <30_, 0, 1000 to 1200, <120, None) 1.0, 0.0, 0.0, 0.0;
  (UseIrrigationAndFertilizerApplication, <30_, 0, 1000 to 1200, <120, None) 0.25, 0.25, 0.25, 0.25;
  (ApplyFertilizer, 30-60_, 0, 1000 to 1200, <120, None) 0.25, 0.25, 0.25, 0.25;
  (ApplyImprovedSeed, 30-60_, 0, 1000 to 1200, <120, None) 0.0, 0.0, 1.0, 0.0;
  (CropMultipleTimes, 30-60_, 0, 1000 to 1200, <120, None) 0.25, 0.25, 0.25, 0.25;
  (None, 30-60_, 0, 1000 to 1200, <120, None) 0.25, 0.25, 0.25, 0.25;
  (UseIrrigation, 30-60_, 0, 1000 to 1200, <120, None) 0.25, 0.25, 0.25, 0.25;
  (UseIrrigationAndFertilizerApplication, 30-60_, 0, 1000 to 1200, <120, None) 0.25, 0.25, 0.25, 0.25;
  (ApplyFertilizer, >60_, 0, 1000 to 1200, <120, None) 0.25, 0.25, 0.25, 0.25;
  (ApplyImprovedSeed, >60_, 0, 1000 to 1200, <120, None) 0.0, 0.0, 0.0, 1.0;
  (CropMultipleTimes, >60_, 0, 1000 to 1200, <120, None) 0.25, 0.25, 0.25, 0.25;
  (None, >60_, 0, 1000 to 1200, <120, None) 0.5, 0.0, 0.5, 0.0;
  (UseIrrigation, >60_, 0, 1000 to 1200, <120, None) 0.25, 0.25, 0.25, 0.25;
  (UseIrrigationAndFertilizerApplication, >60_, 0, 1000 to 1200, <120, None) 0.0, 0.0, 1.0, 0.0;
  (ApplyFertilizer, <30_, 0-800, 1000 to 1200, <120, None) 0.25, 0.25, 0.25, 0.25;
  (ApplyImprovedSeed, <30_, 0-800, 1000 to 1200, <120, None) 0.25, 0.25, 0.25, 0.25;
  (CropMultipleTimes, <30_, 0-800, 1000 to 1200, <120, None) 0.25, 0.25, 0.25, 0.25;
  (None, <30_, 0-800, 1000 to 1200, <120, None) 0.4, 0.2, 0.0, 0.4;
  (UseIrrigation, <30_, 0-800, 1000 to 1200, <120, None) 0.25, 0.25, 0.25, 0.25;
  (UseIrrigationAndFertilizerApplication, <30_, 0-800, 1000 to 1200, <120, None) 0.25, 0.25, 0.25, 0.25;
  (ApplyFertilizer, 30-60_, 0-800, 1000 to 1200, <120, None) 0.25, 0.25, 0.25, 0.25;
  (ApplyImprovedSeed, 30-60_, 0-800, 1000 to 1200, <120, None) 0.25, 0.25, 0.25, 0.25;
  (CropMultipleTimes, 30-60_, 0-800, 1000 to 1200, <120, None) 0.25, 0.25, 0.25, 0.25;
  (None, 30-60_, 0-800, 1000 to 1200, <120, None) 0.0, 0.0, 0.0, 1.0;
  (UseIrrigation, 30-60_, 0-800, 1000 to 1200, <120, None) 0.0, 0.0, 1.0, 0.0;
  (UseIrrigationAndFertilizerApplication, 30-60_, 0-800, 1000 to 1200, <120, None) 0.25, 0.25, 0.25, 0.25;
  (ApplyFertilizer, >60_, 0-800, 1000 to 1200, <120, None) 0.25, 0.25, 0.25, 0.25;
  (ApplyImprovedSeed, >60_, 0-800, 1000 to 1200, <120, None) 0.25, 0.25, 0.25, 0.25;
  (CropMultipleTimes, >60_, 0-800, 1000 to 1200, <120, None) 0.25, 0.25, 0.25, 0.25;
  (None, >60_, 0-800, 1000 to 1200, <120, None) 0.25, 0.25, 0.25, 0.25;
  (UseIrrigation, >60_, 0-800, 1000 to 1200, <120, None) 0.25, 0.25, 0.25, 0.25;
  (UseIrrigationAndFertilizerApplication, >60_, 0-800, 1000 to 1200, <120, None) 0.25, 0.25, 0.25, 0.25;
  (ApplyFertilizer, <30_, 800-861.111, 1000 to 1200, <120, None) 0.25, 0.25, 0.25, 0.25;
  (ApplyImprovedSeed, <30_, 800-861.111, 1000 to 1200, <120, None) 0.25, 0.25, 0.25, 0.25;
  (CropMultipleTimes, <30_, 800-861.111, 1000 to 1200, <120, None) 0.25, 0.25, 0.25, 0.25;
  (None, <30_, 800-861.111, 1000 to 1200, <120, None) 0.25, 0.25, 0.25, 0.25;
  (UseIrrigation, <30_, 800-861.111, 1000 to 1200, <120, None) 0.25, 0.25, 0.25, 0.25;
  (UseIrrigationAndFertilizerApplication, <30_, 800-861.111, 1000 to 1200, <120, None) 0.25, 0.25, 0.25, 0.25;
  (ApplyFertilizer, 30-60_, 800-861.111, 1000 to 1200, <120, None) 0.25, 0.25, 0.25, 0.25;
  (ApplyImprovedSeed, 30-60_, 800-861.111, 1000 to 1200, <120, None) 0.25, 0.25, 0.25, 0.25;
  (CropMultipleTimes, 30-60_, 800-861.111, 1000 to 1200, <120, None) 0.25, 0.25, 0.25, 0.25;
  (None, 30-60_, 800-861.111, 1000 to 1200, <120, None) 0.25, 0.25, 0.25, 0.25;
  (UseIrrigation, 30-60_, 800-861.111, 1000 to 1200, <120, None) 0.25, 0.25, 0.25, 0.25;
  (UseIrrigationAndFertilizerApplication, 30-60_, 800-861.111, 1000 to 1200, <120, None) 0.25, 0.25, 0.25, 0.25;
  (ApplyFertilizer, >60_, 800-861.111, 1000 to 1200, <120, None) 0.25, 0.25, 0.25, 0.25;
  (ApplyImprovedSeed, >60_, 800-861.111, 1000 to 1200, <120, None) 0.25, 0.25, 0.25, 0.25;
  (CropMultipleTimes, >60_, 800-861.111, 1000 to 1200, <120, None) 0.25, 0.25, 0.25, 0.25;
  (None, >60_, 800-861.111, 1000 to 1200, <120, None) 0.25, 0.25, 0.25, 0.25;
  (UseIrrigation, >60_, 800-861.111, 1000 to 1200, <120, None) 0.25, 0.25, 0.25, 0.25;
  (UseIrrigationAndFertilizerApplication, >60_, 800-861.111, 1000 to 1200, <120, None) 0.25, 0.25, 0.25, 0.25;
  (ApplyFertilizer, <30_, 861.111-1111.11, 1000 to 1200, <120, None) 0.25, 0.25, 0.25, 0.25;
  (ApplyImprovedSeed, <30_, 861.111-1111.11, 1000 to 1200, <120, None) 0.0, 0.0, 0.0, 1.0;
  (CropMultipleTimes, <30_, 861.111-1111.11, 1000 to 1200, <120, None) 0.25, 0.25, 0.25, 0.25;
  (None, <30_, 861.111-1111.11, 1000 to 1200, <120, None) 0.00, 0.00, 0.75, 0.25;
  (UseIrrigation, <30_, 861.111-1111.11, 1000 to 1200, <120, None) 0.25, 0.25, 0.25, 0.25;
  (UseIrrigationAndFertilizerApplication, <30_, 861.111-1111.11, 1000 to 1200, <120, None) 0.25, 0.25, 0.25, 0.25;
  (ApplyFertilizer, 30-60_, 861.111-1111.11, 1000 to 1200, <120, None) 0.25, 0.25, 0.25, 0.25;
  (ApplyImprovedSeed, 30-60_, 861.111-1111.11, 1000 to 1200, <120, None) 0.25, 0.25, 0.25, 0.25;
  (CropMultipleTimes, 30-60_, 861.111-1111.11, 1000 to 1200, <120, None) 0.25, 0.25, 0.25, 0.25;
  (None, 30-60_, 861.111-1111.11, 1000 to 1200, <120, None) 0.50, 0.25, 0.25, 0.00;
  (UseIrrigation, 30-60_, 861.111-1111.11, 1000 to 1200, <120, None) 0.25, 0.25, 0.25, 0.25;
  (UseIrrigationAndFertilizerApplication, 30-60_, 861.111-1111.11, 1000 to 1200, <120, None) 0.25, 0.25, 0.25, 0.25;
  (ApplyFertilizer, >60_, 861.111-1111.11, 1000 to 1200, <120, None) 0.25, 0.25, 0.25, 0.25;
  (ApplyImprovedSeed, >60_, 861.111-1111.11, 1000 to 1200, <120, None) 0.25, 0.25, 0.25, 0.25;
  (CropMultipleTimes, >60_, 861.111-1111.11, 1000 to 1200, <120, None) 0.25, 0.25, 0.25, 0.25;
  (None, >60_, 861.111-1111.11, 1000 to 1200, <120, None) 0.0, 0.5, 0.5, 0.0;
  (UseIrrigation, >60_, 861.111-1111.11, 1000 to 1200, <120, None) 0.25, 0.25, 0.25, 0.25;
  (UseIrrigationAndFertilizerApplication, >60_, 861.111-1111.11, 1000 to 1200, <120, None) 0.25, 0.25, 0.25, 0.25;
  (ApplyFertilizer, <30_, 0, 1200 to 1500, <120, None) 0.25, 0.25, 0.25, 0.25;
  (ApplyImprovedSeed, <30_, 0, 1200 to 1500, <120, None) 0.0, 1.0, 0.0, 0.0;
  (CropMultipleTimes, <30_, 0, 1200 to 1500, <120, None) 0.25, 0.25, 0.25, 0.25;
  (None, <30_, 0, 1200 to 1500, <120, None) 0.25, 0.25, 0.25, 0.25;
  (UseIrrigation, <30_, 0, 1200 to 1500, <120, None) 0.25, 0.25, 0.25, 0.25;
  (UseIrrigationAndFertilizerApplication, <30_, 0, 1200 to 1500, <120, None) 0.25, 0.25, 0.25, 0.25;
  (ApplyFertilizer, 30-60_, 0, 1200 to 1500, <120, None) 0.25, 0.25, 0.25, 0.25;
  (ApplyImprovedSeed, 30-60_, 0, 1200 to 1500, <120, None) 0.0, 0.0, 1.0, 0.0;
  (CropMultipleTimes, 30-60_, 0, 1200 to 1500, <120, None) 0.0, 0.0, 1.0, 0.0;
  (None, 30-60_, 0, 1200 to 1500, <120, None) 0.5, 0.0, 0.5, 0.0;
  (UseIrrigation, 30-60_, 0, 1200 to 1500, <120, None) 0.0, 1.0, 0.0, 0.0;
  (UseIrrigationAndFertilizerApplication, 30-60_, 0, 1200 to 1500, <120, None) 0.0, 0.0, 0.0, 1.0;
  (ApplyFertilizer, >60_, 0, 1200 to 1500, <120, None) 0.25, 0.25, 0.25, 0.25;
  (ApplyImprovedSeed, >60_, 0, 1200 to 1500, <120, None) 0.25, 0.25, 0.25, 0.25;
  (CropMultipleTimes, >60_, 0, 1200 to 1500, <120, None) 0.25, 0.25, 0.25, 0.25;
  (None, >60_, 0, 1200 to 1500, <120, None) 0.0, 0.0, 1.0, 0.0;
  (UseIrrigation, >60_, 0, 1200 to 1500, <120, None) 0.0, 0.0, 0.0, 1.0;
  (UseIrrigationAndFertilizerApplication, >60_, 0, 1200 to 1500, <120, None) 0.0, 1.0, 0.0, 0.0;
  (ApplyFertilizer, <30_, 0-800, 1200 to 1500, <120, None) 0.25, 0.25, 0.25, 0.25;
  (ApplyImprovedSeed, <30_, 0-800, 1200 to 1500, <120, None) 0.25, 0.25, 0.25, 0.25;
  (CropMultipleTimes, <30_, 0-800, 1200 to 1500, <120, None) 0.25, 0.25, 0.25, 0.25;
  (None, <30_, 0-800, 1200 to 1500, <120, None) 0.25, 0.25, 0.25, 0.25;
  (UseIrrigation, <30_, 0-800, 1200 to 1500, <120, None) 0.25, 0.25, 0.25, 0.25;
  (UseIrrigationAndFertilizerApplication, <30_, 0-800, 1200 to 1500, <120, None) 0.25, 0.25, 0.25, 0.25;
  (ApplyFertilizer, 30-60_, 0-800, 1200 to 1500, <120, None) 0.25, 0.25, 0.25, 0.25;
  (ApplyImprovedSeed, 30-60_, 0-800, 1200 to 1500, <120, None) 0.25, 0.25, 0.25, 0.25;
  (CropMultipleTimes, 30-60_, 0-800, 1200 to 1500, <120, None) 0.25, 0.25, 0.25, 0.25;
  (None, 30-60_, 0-800, 1200 to 1500, <120, None) 0.25, 0.25, 0.25, 0.25;
  (UseIrrigation, 30-60_, 0-800, 1200 to 1500, <120, None) 0.25, 0.25, 0.25, 0.25;
  (UseIrrigationAndFertilizerApplication, 30-60_, 0-800, 1200 to 1500, <120, None) 0.25, 0.25, 0.25, 0.25;
  (ApplyFertilizer, >60_, 0-800, 1200 to 1500, <120, None) 0.25, 0.25, 0.25, 0.25;
  (ApplyImprovedSeed, >60_, 0-800, 1200 to 1500, <120, None) 0.25, 0.25, 0.25, 0.25;
  (CropMultipleTimes, >60_, 0-800, 1200 to 1500, <120, None) 0.25, 0.25, 0.25, 0.25;
  (None, >60_, 0-800, 1200 to 1500, <120, None) 0.25, 0.25, 0.25, 0.25;
  (UseIrrigation, >60_, 0-800, 1200 to 1500, <120, None) 0.25, 0.25, 0.25, 0.25;
  (UseIrrigationAndFertilizerApplication, >60_, 0-800, 1200 to 1500, <120, None) 0.25, 0.25, 0.25, 0.25;
  (ApplyFertilizer, <30_, 800-861.111, 1200 to 1500, <120, None) 0.25, 0.25, 0.25, 0.25;
  (ApplyImprovedSeed, <30_, 800-861.111, 1200 to 1500, <120, None) 0.25, 0.25, 0.25, 0.25;
  (CropMultipleTimes, <30_, 800-861.111, 1200 to 1500, <120, None) 0.25, 0.25, 0.25, 0.25;
  (None, <30_, 800-861.111, 1200 to 1500, <120, None) 0.25, 0.25, 0.25, 0.25;
  (UseIrrigation, <30_, 800-861.111, 1200 to 1500, <120, None) 0.25, 0.25, 0.25, 0.25;
  (UseIrrigationAndFertilizerApplication, <30_, 800-861.111, 1200 to 1500, <120, None) 0.25, 0.25, 0.25, 0.25;
  (ApplyFertilizer, 30-60_, 800-861.111, 1200 to 1500, <120, None) 0.25, 0.25, 0.25, 0.25;
  (ApplyImprovedSeed, 30-60_, 800-861.111, 1200 to 1500, <120, None) 0.25, 0.25, 0.25, 0.25;
  (CropMultipleTimes, 30-60_, 800-861.111, 1200 to 1500, <120, None) 0.25, 0.25, 0.25, 0.25;
  (None, 30-60_, 800-861.111, 1200 to 1500, <120, None) 0.25, 0.25, 0.25, 0.25;
  (UseIrrigation, 30-60_, 800-861.111, 1200 to 1500, <120, None) 0.25, 0.25, 0.25, 0.25;
  (UseIrrigationAndFertilizerApplication, 30-60_, 800-861.111, 1200 to 1500, <120, None) 0.25, 0.25, 0.25, 0.25;
  (ApplyFertilizer, >60_, 800-861.111, 1200 to 1500, <120, None) 0.25, 0.25, 0.25, 0.25;
  (ApplyImprovedSeed, >60_, 800-861.111, 1200 to 1500, <120, None) 0.25, 0.25, 0.25, 0.25;
  (CropMultipleTimes, >60_, 800-861.111, 1200 to 1500, <120, None) 0.25, 0.25, 0.25, 0.25;
  (None, >60_, 800-861.111, 1200 to 1500, <120, None) 0.25, 0.25, 0.25, 0.25;
  (UseIrrigation, >60_, 800-861.111, 1200 to 1500, <120, None) 0.25, 0.25, 0.25, 0.25;
  (UseIrrigationAndFertilizerApplication, >60_, 800-861.111, 1200 to 1500, <120, None) 0.25, 0.25, 0.25, 0.25;
  (ApplyFertilizer, <30_, 861.111-1111.11, 1200 to 1500, <120, None) 0.25, 0.25, 0.25, 0.25;
  (ApplyImprovedSeed, <30_, 861.111-1111.11, 1200 to 1500, <120, None) 1.0, 0.0, 0.0, 0.0;
  (CropMultipleTimes, <30_, 861.111-1111.11, 1200 to 1500, <120, None) 0.0, 0.0, 1.0, 0.0;
  (None, <30_, 861.111-1111.11, 1200 to 1500, <120, None) 0.25, 0.25, 0.25, 0.25;
  (UseIrrigation, <30_, 861.111-1111.11, 1200 to 1500, <120, None) 0.25, 0.25, 0.25, 0.25;
  (UseIrrigationAndFertilizerApplication, <30_, 861.111-1111.11, 1200 to 1500, <120, None) 0.0, 0.0, 0.0, 1.0;
  (ApplyFertilizer, 30-60_, 861.111-1111.11, 1200 to 1500, <120, None) 0.25, 0.25, 0.25, 0.25;
  (ApplyImprovedSeed, 30-60_, 861.111-1111.11, 1200 to 1500, <120, None) 0.25, 0.25, 0.25, 0.25;
  (CropMultipleTimes, 30-60_, 861.111-1111.11, 1200 to 1500, <120, None) 0.25, 0.25, 0.25, 0.25;
  (None, 30-60_, 861.111-1111.11, 1200 to 1500, <120, None) 0.0000000, 0.6666667, 0.0000000, 0.3333333;
  (UseIrrigation, 30-60_, 861.111-1111.11, 1200 to 1500, <120, None) 0.25, 0.25, 0.25, 0.25;
  (UseIrrigationAndFertilizerApplication, 30-60_, 861.111-1111.11, 1200 to 1500, <120, None) 0.25, 0.25, 0.25, 0.25;
  (ApplyFertilizer, >60_, 861.111-1111.11, 1200 to 1500, <120, None) 0.25, 0.25, 0.25, 0.25;
  (ApplyImprovedSeed, >60_, 861.111-1111.11, 1200 to 1500, <120, None) 0.25, 0.25, 0.25, 0.25;
  (CropMultipleTimes, >60_, 861.111-1111.11, 1200 to 1500, <120, None) 0.25, 0.25, 0.25, 0.25;
  (None, >60_, 861.111-1111.11, 1200 to 1500, <120, None) 0.0, 0.0, 1.0, 0.0;
  (UseIrrigation, >60_, 861.111-1111.11, 1200 to 1500, <120, None) 0.25, 0.25, 0.25, 0.25;
  (UseIrrigationAndFertilizerApplication, >60_, 861.111-1111.11, 1200 to 1500, <120, None) 0.25, 0.25, 0.25, 0.25;
  (ApplyFertilizer, <30_, 0, 1500 to 1900, <120, None) 0.25, 0.25, 0.25, 0.25;
  (ApplyImprovedSeed, <30_, 0, 1500 to 1900, <120, None) 0.25, 0.25, 0.25, 0.25;
  (CropMultipleTimes, <30_, 0, 1500 to 1900, <120, None) 0.25, 0.25, 0.25, 0.25;
  (None, <30_, 0, 1500 to 1900, <120, None) 0.25, 0.25, 0.25, 0.25;
  (UseIrrigation, <30_, 0, 1500 to 1900, <120, None) 0.25, 0.25, 0.25, 0.25;
  (UseIrrigationAndFertilizerApplication, <30_, 0, 1500 to 1900, <120, None) 0.25, 0.25, 0.25, 0.25;
  (ApplyFertilizer, 30-60_, 0, 1500 to 1900, <120, None) 0.25, 0.25, 0.25, 0.25;
  (ApplyImprovedSeed, 30-60_, 0, 1500 to 1900, <120, None) 0.25, 0.25, 0.25, 0.25;
  (CropMultipleTimes, 30-60_, 0, 1500 to 1900, <120, None) 0.25, 0.25, 0.25, 0.25;
  (None, 30-60_, 0, 1500 to 1900, <120, None) 0.0, 0.0, 0.0, 1.0;
  (UseIrrigation, 30-60_, 0, 1500 to 1900, <120, None) 0.25, 0.25, 0.25, 0.25;
  (UseIrrigationAndFertilizerApplication, 30-60_, 0, 1500 to 1900, <120, None) 0.25, 0.25, 0.25, 0.25;
  (ApplyFertilizer, >60_, 0, 1500 to 1900, <120, None) 0.25, 0.25, 0.25, 0.25;
  (ApplyImprovedSeed, >60_, 0, 1500 to 1900, <120, None) 0.25, 0.25, 0.25, 0.25;
  (CropMultipleTimes, >60_, 0, 1500 to 1900, <120, None) 0.25, 0.25, 0.25, 0.25;
  (None, >60_, 0, 1500 to 1900, <120, None) 0.25, 0.25, 0.25, 0.25;
  (UseIrrigation, >60_, 0, 1500 to 1900, <120, None) 0.25, 0.25, 0.25, 0.25;
  (UseIrrigationAndFertilizerApplication, >60_, 0, 1500 to 1900, <120, None) 0.25, 0.25, 0.25, 0.25;
  (ApplyFertilizer, <30_, 0-800, 1500 to 1900, <120, None) 0.25, 0.25, 0.25, 0.25;
  (ApplyImprovedSeed, <30_, 0-800, 1500 to 1900, <120, None) 0.25, 0.25, 0.25, 0.25;
  (CropMultipleTimes, <30_, 0-800, 1500 to 1900, <120, None) 0.25, 0.25, 0.25, 0.25;
  (None, <30_, 0-800, 1500 to 1900, <120, None) 0.25, 0.25, 0.25, 0.25;
  (UseIrrigation, <30_, 0-800, 1500 to 1900, <120, None) 0.25, 0.25, 0.25, 0.25;
  (UseIrrigationAndFertilizerApplication, <30_, 0-800, 1500 to 1900, <120, None) 0.25, 0.25, 0.25, 0.25;
  (ApplyFertilizer, 30-60_, 0-800, 1500 to 1900, <120, None) 0.25, 0.25, 0.25, 0.25;
  (ApplyImprovedSeed, 30-60_, 0-800, 1500 to 1900, <120, None) 0.25, 0.25, 0.25, 0.25;
  (CropMultipleTimes, 30-60_, 0-800, 1500 to 1900, <120, None) 0.25, 0.25, 0.25, 0.25;
  (None, 30-60_, 0-800, 1500 to 1900, <120, None) 0.25, 0.25, 0.25, 0.25;
  (UseIrrigation, 30-60_, 0-800, 1500 to 1900, <120, None) 0.25, 0.25, 0.25, 0.25;
  (UseIrrigationAndFertilizerApplication, 30-60_, 0-800, 1500 to 1900, <120, None) 0.25, 0.25, 0.25, 0.25;
  (ApplyFertilizer, >60_, 0-800, 1500 to 1900, <120, None) 0.25, 0.25, 0.25, 0.25;
  (ApplyImprovedSeed, >60_, 0-800, 1500 to 1900, <120, None) 0.25, 0.25, 0.25, 0.25;
  (CropMultipleTimes, >60_, 0-800, 1500 to 1900, <120, None) 0.25, 0.25, 0.25, 0.25;
  (None, >60_, 0-800, 1500 to 1900, <120, None) 0.25, 0.25, 0.25, 0.25;
  (UseIrrigation, >60_, 0-800, 1500 to 1900, <120, None) 0.25, 0.25, 0.25, 0.25;
  (UseIrrigationAndFertilizerApplication, >60_, 0-800, 1500 to 1900, <120, None) 0.25, 0.25, 0.25, 0.25;
  (ApplyFertilizer, <30_, 800-861.111, 1500 to 1900, <120, None) 0.25, 0.25, 0.25, 0.25;
  (ApplyImprovedSeed, <30_, 800-861.111, 1500 to 1900, <120, None) 0.25, 0.25, 0.25, 0.25;
  (CropMultipleTimes, <30_, 800-861.111, 1500 to 1900, <120, None) 0.25, 0.25, 0.25, 0.25;
  (None, <30_, 800-861.111, 1500 to 1900, <120, None) 0.25, 0.25, 0.25, 0.25;
  (UseIrrigation, <30_, 800-861.111, 1500 to 1900, <120, None) 0.25, 0.25, 0.25, 0.25;
  (UseIrrigationAndFertilizerApplication, <30_, 800-861.111, 1500 to 1900, <120, None) 0.25, 0.25, 0.25, 0.25;
  (ApplyFertilizer, 30-60_, 800-861.111, 1500 to 1900, <120, None) 0.25, 0.25, 0.25, 0.25;
  (ApplyImprovedSeed, 30-60_, 800-861.111, 1500 to 1900, <120, None) 0.25, 0.25, 0.25, 0.25;
  (CropMultipleTimes, 30-60_, 800-861.111, 1500 to 1900, <120, None) 0.25, 0.25, 0.25, 0.25;
  (None, 30-60_, 800-861.111, 1500 to 1900, <120, None) 0.25, 0.25, 0.25, 0.25;
  (UseIrrigation, 30-60_, 800-861.111, 1500 to 1900, <120, None) 0.25, 0.25, 0.25, 0.25;
  (UseIrrigationAndFertilizerApplication, 30-60_, 800-861.111, 1500 to 1900, <120, None) 0.25, 0.25, 0.25, 0.25;
  (ApplyFertilizer, >60_, 800-861.111, 1500 to 1900, <120, None) 0.25, 0.25, 0.25, 0.25;
  (ApplyImprovedSeed, >60_, 800-861.111, 1500 to 1900, <120, None) 0.25, 0.25, 0.25, 0.25;
  (CropMultipleTimes, >60_, 800-861.111, 1500 to 1900, <120, None) 0.25, 0.25, 0.25, 0.25;
  (None, >60_, 800-861.111, 1500 to 1900, <120, None) 0.25, 0.25, 0.25, 0.25;
  (UseIrrigation, >60_, 800-861.111, 1500 to 1900, <120, None) 0.25, 0.25, 0.25, 0.25;
  (UseIrrigationAndFertilizerApplication, >60_, 800-861.111, 1500 to 1900, <120, None) 0.25, 0.25, 0.25, 0.25;
  (ApplyFertilizer, <30_, 861.111-1111.11, 1500 to 1900, <120, None) 0.25, 0.25, 0.25, 0.25;
  (ApplyImprovedSeed, <30_, 861.111-1111.11, 1500 to 1900, <120, None) 0.25, 0.25, 0.25, 0.25;
  (CropMultipleTimes, <30_, 861.111-1111.11, 1500 to 1900, <120, None) 0.25, 0.25, 0.25, 0.25;
  (None, <30_, 861.111-1111.11, 1500 to 1900, <120, None) 0.25, 0.25, 0.25, 0.25;
  (UseIrrigation, <30_, 861.111-1111.11, 1500 to 1900, <120, None) 0.25, 0.25, 0.25, 0.25;
  (UseIrrigationAndFertilizerApplication, <30_, 861.111-1111.11, 1500 to 1900, <120, None) 0.25, 0.25, 0.25, 0.25;
  (ApplyFertilizer, 30-60_, 861.111-1111.11, 1500 to 1900, <120, None) 0.25, 0.25, 0.25, 0.25;
  (ApplyImprovedSeed, 30-60_, 861.111-1111.11, 1500 to 1900, <120, None) 0.25, 0.25, 0.25, 0.25;
  (CropMultipleTimes, 30-60_, 861.111-1111.11, 1500 to 1900, <120, None) 0.25, 0.25, 0.25, 0.25;
  (None, 30-60_, 861.111-1111.11, 1500 to 1900, <120, None) 0.25, 0.25, 0.25, 0.25;
  (UseIrrigation, 30-60_, 861.111-1111.11, 1500 to 1900, <120, None) 0.25, 0.25, 0.25, 0.25;
  (UseIrrigationAndFertilizerApplication, 30-60_, 861.111-1111.11, 1500 to 1900, <120, None) 0.25, 0.25, 0.25, 0.25;
  (ApplyFertilizer, >60_, 861.111-1111.11, 1500 to 1900, <120, None) 0.25, 0.25, 0.25, 0.25;
  (ApplyImprovedSeed, >60_, 861.111-1111.11, 1500 to 1900, <120, None) 0.25, 0.25, 0.25, 0.25;
  (CropMultipleTimes, >60_, 861.111-1111.11, 1500 to 1900, <120, None) 0.25, 0.25, 0.25, 0.25;
  (None, >60_, 861.111-1111.11, 1500 to 1900, <120, None) 0.25, 0.25, 0.25, 0.25;
  (UseIrrigation, >60_, 861.111-1111.11, 1500 to 1900, <120, None) 0.25, 0.25, 0.25, 0.25;
  (UseIrrigationAndFertilizerApplication, >60_, 861.111-1111.11, 1500 to 1900, <120, None) 0.25, 0.25, 0.25, 0.25;
  (ApplyFertilizer, <30_, 0, 0 to 1000, 120-220, None) 0.25, 0.25, 0.25, 0.25;
  (ApplyImprovedSeed, <30_, 0, 0 to 1000, 120-220, None) 0.25, 0.25, 0.25, 0.25;
  (CropMultipleTimes, <30_, 0, 0 to 1000, 120-220, None) 0.25, 0.25, 0.25, 0.25;
  (None, <30_, 0, 0 to 1000, 120-220, None) 0.25, 0.25, 0.25, 0.25;
  (UseIrrigation, <30_, 0, 0 to 1000, 120-220, None) 0.25, 0.25, 0.25, 0.25;
  (UseIrrigationAndFertilizerApplication, <30_, 0, 0 to 1000, 120-220, None) 0.25, 0.25, 0.25, 0.25;
  (ApplyFertilizer, 30-60_, 0, 0 to 1000, 120-220, None) 0.25, 0.25, 0.25, 0.25;
  (ApplyImprovedSeed, 30-60_, 0, 0 to 1000, 120-220, None) 0.25, 0.25, 0.25, 0.25;
  (CropMultipleTimes, 30-60_, 0, 0 to 1000, 120-220, None) 0.25, 0.25, 0.25, 0.25;
  (None, 30-60_, 0, 0 to 1000, 120-220, None) 0.25, 0.25, 0.25, 0.25;
  (UseIrrigation, 30-60_, 0, 0 to 1000, 120-220, None) 0.25, 0.25, 0.25, 0.25;
  (UseIrrigationAndFertilizerApplication, 30-60_, 0, 0 to 1000, 120-220, None) 0.25, 0.25, 0.25, 0.25;
  (ApplyFertilizer, >60_, 0, 0 to 1000, 120-220, None) 0.25, 0.25, 0.25, 0.25;
  (ApplyImprovedSeed, >60_, 0, 0 to 1000, 120-220, None) 0.25, 0.25, 0.25, 0.25;
  (CropMultipleTimes, >60_, 0, 0 to 1000, 120-220, None) 0.25, 0.25, 0.25, 0.25;
  (None, >60_, 0, 0 to 1000, 120-220, None) 0.25, 0.25, 0.25, 0.25;
  (UseIrrigation, >60_, 0, 0 to 1000, 120-220, None) 0.25, 0.25, 0.25, 0.25;
  (UseIrrigationAndFertilizerApplication, >60_, 0, 0 to 1000, 120-220, None) 0.25, 0.25, 0.25, 0.25;
  (ApplyFertilizer, <30_, 0-800, 0 to 1000, 120-220, None) 0.25, 0.25, 0.25, 0.25;
  (ApplyImprovedSeed, <30_, 0-800, 0 to 1000, 120-220, None) 0.25, 0.25, 0.25, 0.25;
  (CropMultipleTimes, <30_, 0-800, 0 to 1000, 120-220, None) 0.25, 0.25, 0.25, 0.25;
  (None, <30_, 0-800, 0 to 1000, 120-220, None) 0.25, 0.25, 0.25, 0.25;
  (UseIrrigation, <30_, 0-800, 0 to 1000, 120-220, None) 0.25, 0.25, 0.25, 0.25;
  (UseIrrigationAndFertilizerApplication, <30_, 0-800, 0 to 1000, 120-220, None) 0.25, 0.25, 0.25, 0.25;
  (ApplyFertilizer, 30-60_, 0-800, 0 to 1000, 120-220, None) 0.25, 0.25, 0.25, 0.25;
  (ApplyImprovedSeed, 30-60_, 0-800, 0 to 1000, 120-220, None) 0.25, 0.25, 0.25, 0.25;
  (CropMultipleTimes, 30-60_, 0-800, 0 to 1000, 120-220, None) 0.25, 0.25, 0.25, 0.25;
  (None, 30-60_, 0-800, 0 to 1000, 120-220, None) 0.25, 0.25, 0.25, 0.25;
  (UseIrrigation, 30-60_, 0-800, 0 to 1000, 120-220, None) 0.25, 0.25, 0.25, 0.25;
  (UseIrrigationAndFertilizerApplication, 30-60_, 0-800, 0 to 1000, 120-220, None) 0.25, 0.25, 0.25, 0.25;
  (ApplyFertilizer, >60_, 0-800, 0 to 1000, 120-220, None) 0.25, 0.25, 0.25, 0.25;
  (ApplyImprovedSeed, >60_, 0-800, 0 to 1000, 120-220, None) 0.25, 0.25, 0.25, 0.25;
  (CropMultipleTimes, >60_, 0-800, 0 to 1000, 120-220, None) 0.25, 0.25, 0.25, 0.25;
  (None, >60_, 0-800, 0 to 1000, 120-220, None) 0.25, 0.25, 0.25, 0.25;
  (UseIrrigation, >60_, 0-800, 0 to 1000, 120-220, None) 0.25, 0.25, 0.25, 0.25;
  (UseIrrigationAndFertilizerApplication, >60_, 0-800, 0 to 1000, 120-220, None) 0.25, 0.25, 0.25, 0.25;
  (ApplyFertilizer, <30_, 800-861.111, 0 to 1000, 120-220, None) 0.25, 0.25, 0.25, 0.25;
  (ApplyImprovedSeed, <30_, 800-861.111, 0 to 1000, 120-220, None) 0.25, 0.25, 0.25, 0.25;
  (CropMultipleTimes, <30_, 800-861.111, 0 to 1000, 120-220, None) 0.25, 0.25, 0.25, 0.25;
  (None, <30_, 800-861.111, 0 to 1000, 120-220, None) 0.0, 1.0, 0.0, 0.0;
  (UseIrrigation, <30_, 800-861.111, 0 to 1000, 120-220, None) 0.25, 0.25, 0.25, 0.25;
  (UseIrrigationAndFertilizerApplication, <30_, 800-861.111, 0 to 1000, 120-220, None) 0.25, 0.25, 0.25, 0.25;
  (ApplyFertilizer, 30-60_, 800-861.111, 0 to 1000, 120-220, None) 0.25, 0.25, 0.25, 0.25;
  (ApplyImprovedSeed, 30-60_, 800-861.111, 0 to 1000, 120-220, None) 0.25, 0.25, 0.25, 0.25;
  (CropMultipleTimes, 30-60_, 800-861.111, 0 to 1000, 120-220, None) 0.25, 0.25, 0.25, 0.25;
  (None, 30-60_, 800-861.111, 0 to 1000, 120-220, None) 0.25, 0.25, 0.25, 0.25;
  (UseIrrigation, 30-60_, 800-861.111, 0 to 1000, 120-220, None) 0.25, 0.25, 0.25, 0.25;
  (UseIrrigationAndFertilizerApplication, 30-60_, 800-861.111, 0 to 1000, 120-220, None) 0.25, 0.25, 0.25, 0.25;
  (ApplyFertilizer, >60_, 800-861.111, 0 to 1000, 120-220, None) 0.25, 0.25, 0.25, 0.25;
  (ApplyImprovedSeed, >60_, 800-861.111, 0 to 1000, 120-220, None) 0.25, 0.25, 0.25, 0.25;
  (CropMultipleTimes, >60_, 800-861.111, 0 to 1000, 120-220, None) 0.25, 0.25, 0.25, 0.25;
  (None, >60_, 800-861.111, 0 to 1000, 120-220, None) 0.25, 0.25, 0.25, 0.25;
  (UseIrrigation, >60_, 800-861.111, 0 to 1000, 120-220, None) 0.25, 0.25, 0.25, 0.25;
  (UseIrrigationAndFertilizerApplication, >60_, 800-861.111, 0 to 1000, 120-220, None) 0.25, 0.25, 0.25, 0.25;
  (ApplyFertilizer, <30_, 861.111-1111.11, 0 to 1000, 120-220, None) 0.25, 0.25, 0.25, 0.25;
  (ApplyImprovedSeed, <30_, 861.111-1111.11, 0 to 1000, 120-220, None) 0.25, 0.25, 0.25, 0.25;
  (CropMultipleTimes, <30_, 861.111-1111.11, 0 to 1000, 120-220, None) 0.25, 0.25, 0.25, 0.25;
  (None, <30_, 861.111-1111.11, 0 to 1000, 120-220, None) 0.25, 0.25, 0.25, 0.25;
  (UseIrrigation, <30_, 861.111-1111.11, 0 to 1000, 120-220, None) 0.25, 0.25, 0.25, 0.25;
  (UseIrrigationAndFertilizerApplication, <30_, 861.111-1111.11, 0 to 1000, 120-220, None) 0.25, 0.25, 0.25, 0.25;
  (ApplyFertilizer, 30-60_, 861.111-1111.11, 0 to 1000, 120-220, None) 0.25, 0.25, 0.25, 0.25;
  (ApplyImprovedSeed, 30-60_, 861.111-1111.11, 0 to 1000, 120-220, None) 0.25, 0.25, 0.25, 0.25;
  (CropMultipleTimes, 30-60_, 861.111-1111.11, 0 to 1000, 120-220, None) 0.25, 0.25, 0.25, 0.25;
  (None, 30-60_, 861.111-1111.11, 0 to 1000, 120-220, None) 0.25, 0.25, 0.25, 0.25;
  (UseIrrigation, 30-60_, 861.111-1111.11, 0 to 1000, 120-220, None) 0.25, 0.25, 0.25, 0.25;
  (UseIrrigationAndFertilizerApplication, 30-60_, 861.111-1111.11, 0 to 1000, 120-220, None) 0.25, 0.25, 0.25, 0.25;
  (ApplyFertilizer, >60_, 861.111-1111.11, 0 to 1000, 120-220, None) 0.25, 0.25, 0.25, 0.25;
  (ApplyImprovedSeed, >60_, 861.111-1111.11, 0 to 1000, 120-220, None) 0.25, 0.25, 0.25, 0.25;
  (CropMultipleTimes, >60_, 861.111-1111.11, 0 to 1000, 120-220, None) 0.25, 0.25, 0.25, 0.25;
  (None, >60_, 861.111-1111.11, 0 to 1000, 120-220, None) 0.25, 0.25, 0.25, 0.25;
  (UseIrrigation, >60_, 861.111-1111.11, 0 to 1000, 120-220, None) 0.25, 0.25, 0.25, 0.25;
  (UseIrrigationAndFertilizerApplication, >60_, 861.111-1111.11, 0 to 1000, 120-220, None) 0.25, 0.25, 0.25, 0.25;
  (ApplyFertilizer, <30_, 0, 1000 to 1200, 120-220, None) 0.25, 0.25, 0.25, 0.25;
  (ApplyImprovedSeed, <30_, 0, 1000 to 1200, 120-220, None) 0.25, 0.25, 0.25, 0.25;
  (CropMultipleTimes, <30_, 0, 1000 to 1200, 120-220, None) 0.25, 0.25, 0.25, 0.25;
  (None, <30_, 0, 1000 to 1200, 120-220, None) 0.0, 0.0, 1.0, 0.0;
  (UseIrrigation, <30_, 0, 1000 to 1200, 120-220, None) 0.25, 0.25, 0.25, 0.25;
  (UseIrrigationAndFertilizerApplication, <30_, 0, 1000 to 1200, 120-220, None) 0.25, 0.25, 0.25, 0.25;
  (ApplyFertilizer, 30-60_, 0, 1000 to 1200, 120-220, None) 0.25, 0.25, 0.25, 0.25;
  (ApplyImprovedSeed, 30-60_, 0, 1000 to 1200, 120-220, None) 0.25, 0.25, 0.25, 0.25;
  (CropMultipleTimes, 30-60_, 0, 1000 to 1200, 120-220, None) 0.25, 0.25, 0.25, 0.25;
  (None, 30-60_, 0, 1000 to 1200, 120-220, None) 0.0, 1.0, 0.0, 0.0;
  (UseIrrigation, 30-60_, 0, 1000 to 1200, 120-220, None) 0.25, 0.25, 0.25, 0.25;
  (UseIrrigationAndFertilizerApplication, 30-60_, 0, 1000 to 1200, 120-220, None) 0.25, 0.25, 0.25, 0.25;
  (ApplyFertilizer, >60_, 0, 1000 to 1200, 120-220, None) 0.25, 0.25, 0.25, 0.25;
  (ApplyImprovedSeed, >60_, 0, 1000 to 1200, 120-220, None) 0.0, 0.0, 0.0, 1.0;
  (CropMultipleTimes, >60_, 0, 1000 to 1200, 120-220, None) 0.25, 0.25, 0.25, 0.25;
  (None, >60_, 0, 1000 to 1200, 120-220, None) 0.25, 0.00, 0.75, 0.00;
  (UseIrrigation, >60_, 0, 1000 to 1200, 120-220, None) 0.25, 0.25, 0.25, 0.25;
  (UseIrrigationAndFertilizerApplication, >60_, 0, 1000 to 1200, 120-220, None) 0.25, 0.25, 0.25, 0.25;
  (ApplyFertilizer, <30_, 0-800, 1000 to 1200, 120-220, None) 0.25, 0.25, 0.25, 0.25;
  (ApplyImprovedSeed, <30_, 0-800, 1000 to 1200, 120-220, None) 0.25, 0.25, 0.25, 0.25;
  (CropMultipleTimes, <30_, 0-800, 1000 to 1200, 120-220, None) 0.25, 0.25, 0.25, 0.25;
  (None, <30_, 0-800, 1000 to 1200, 120-220, None) 0.0, 0.5, 0.5, 0.0;
  (UseIrrigation, <30_, 0-800, 1000 to 1200, 120-220, None) 0.25, 0.25, 0.25, 0.25;
  (UseIrrigationAndFertilizerApplication, <30_, 0-800, 1000 to 1200, 120-220, None) 0.25, 0.25, 0.25, 0.25;
  (ApplyFertilizer, 30-60_, 0-800, 1000 to 1200, 120-220, None) 0.25, 0.25, 0.25, 0.25;
  (ApplyImprovedSeed, 30-60_, 0-800, 1000 to 1200, 120-220, None) 0.25, 0.25, 0.25, 0.25;
  (CropMultipleTimes, 30-60_, 0-800, 1000 to 1200, 120-220, None) 0.25, 0.25, 0.25, 0.25;
  (None, 30-60_, 0-800, 1000 to 1200, 120-220, None) 1.0, 0.0, 0.0, 0.0;
  (UseIrrigation, 30-60_, 0-800, 1000 to 1200, 120-220, None) 0.25, 0.25, 0.25, 0.25;
  (UseIrrigationAndFertilizerApplication, 30-60_, 0-800, 1000 to 1200, 120-220, None) 0.25, 0.25, 0.25, 0.25;
  (ApplyFertilizer, >60_, 0-800, 1000 to 1200, 120-220, None) 0.0, 1.0, 0.0, 0.0;
  (ApplyImprovedSeed, >60_, 0-800, 1000 to 1200, 120-220, None) 0.25, 0.25, 0.25, 0.25;
  (CropMultipleTimes, >60_, 0-800, 1000 to 1200, 120-220, None) 0.25, 0.25, 0.25, 0.25;
  (None, >60_, 0-800, 1000 to 1200, 120-220, None) 0.0000000, 0.3333333, 0.3333333, 0.3333333;
  (UseIrrigation, >60_, 0-800, 1000 to 1200, 120-220, None) 0.0, 0.0, 0.0, 1.0;
  (UseIrrigationAndFertilizerApplication, >60_, 0-800, 1000 to 1200, 120-220, None) 0.25, 0.25, 0.25, 0.25;
  (ApplyFertilizer, <30_, 800-861.111, 1000 to 1200, 120-220, None) 0.25, 0.25, 0.25, 0.25;
  (ApplyImprovedSeed, <30_, 800-861.111, 1000 to 1200, 120-220, None) 0.25, 0.25, 0.25, 0.25;
  (CropMultipleTimes, <30_, 800-861.111, 1000 to 1200, 120-220, None) 0.25, 0.25, 0.25, 0.25;
  (None, <30_, 800-861.111, 1000 to 1200, 120-220, None) 0.25, 0.25, 0.25, 0.25;
  (UseIrrigation, <30_, 800-861.111, 1000 to 1200, 120-220, None) 0.25, 0.25, 0.25, 0.25;
  (UseIrrigationAndFertilizerApplication, <30_, 800-861.111, 1000 to 1200, 120-220, None) 0.25, 0.25, 0.25, 0.25;
  (ApplyFertilizer, 30-60_, 800-861.111, 1000 to 1200, 120-220, None) 0.25, 0.25, 0.25, 0.25;
  (ApplyImprovedSeed, 30-60_, 800-861.111, 1000 to 1200, 120-220, None) 0.25, 0.25, 0.25, 0.25;
  (CropMultipleTimes, 30-60_, 800-861.111, 1000 to 1200, 120-220, None) 0.25, 0.25, 0.25, 0.25;
  (None, 30-60_, 800-861.111, 1000 to 1200, 120-220, None) 0.25, 0.25, 0.25, 0.25;
  (UseIrrigation, 30-60_, 800-861.111, 1000 to 1200, 120-220, None) 0.25, 0.25, 0.25, 0.25;
  (UseIrrigationAndFertilizerApplication, 30-60_, 800-861.111, 1000 to 1200, 120-220, None) 0.25, 0.25, 0.25, 0.25;
  (ApplyFertilizer, >60_, 800-861.111, 1000 to 1200, 120-220, None) 0.25, 0.25, 0.25, 0.25;
  (ApplyImprovedSeed, >60_, 800-861.111, 1000 to 1200, 120-220, None) 0.25, 0.25, 0.25, 0.25;
  (CropMultipleTimes, >60_, 800-861.111, 1000 to 1200, 120-220, None) 0.25, 0.25, 0.25, 0.25;
  (None, >60_, 800-861.111, 1000 to 1200, 120-220, None) 0.25, 0.25, 0.25, 0.25;
  (UseIrrigation, >60_, 800-861.111, 1000 to 1200, 120-220, None) 0.25, 0.25, 0.25, 0.25;
  (UseIrrigationAndFertilizerApplication, >60_, 800-861.111, 1000 to 1200, 120-220, None) 0.25, 0.25, 0.25, 0.25;
  (ApplyFertilizer, <30_, 861.111-1111.11, 1000 to 1200, 120-220, None) 0.25, 0.25, 0.25, 0.25;
  (ApplyImprovedSeed, <30_, 861.111-1111.11, 1000 to 1200, 120-220, None) 1.0, 0.0, 0.0, 0.0;
  (CropMultipleTimes, <30_, 861.111-1111.11, 1000 to 1200, 120-220, None) 0.25, 0.25, 0.25, 0.25;
  (None, <30_, 861.111-1111.11, 1000 to 1200, 120-220, None) 0.0, 0.0, 1.0, 0.0;
  (UseIrrigation, <30_, 861.111-1111.11, 1000 to 1200, 120-220, None) 0.25, 0.25, 0.25, 0.25;
  (UseIrrigationAndFertilizerApplication, <30_, 861.111-1111.11, 1000 to 1200, 120-220, None) 0.25, 0.25, 0.25, 0.25;
  (ApplyFertilizer, 30-60_, 861.111-1111.11, 1000 to 1200, 120-220, None) 0.0, 0.0, 0.5, 0.5;
  (ApplyImprovedSeed, 30-60_, 861.111-1111.11, 1000 to 1200, 120-220, None) 0.25, 0.25, 0.25, 0.25;
  (CropMultipleTimes, 30-60_, 861.111-1111.11, 1000 to 1200, 120-220, None) 0.0, 0.0, 0.0, 1.0;
  (None, 30-60_, 861.111-1111.11, 1000 to 1200, 120-220, None) 0.25, 0.25, 0.25, 0.25;
  (UseIrrigation, 30-60_, 861.111-1111.11, 1000 to 1200, 120-220, None) 0.25, 0.25, 0.25, 0.25;
  (UseIrrigationAndFertilizerApplication, 30-60_, 861.111-1111.11, 1000 to 1200, 120-220, None) 0.25, 0.25, 0.25, 0.25;
  (ApplyFertilizer, >60_, 861.111-1111.11, 1000 to 1200, 120-220, None) 0.25, 0.25, 0.25, 0.25;
  (ApplyImprovedSeed, >60_, 861.111-1111.11, 1000 to 1200, 120-220, None) 0.0, 0.0, 1.0, 0.0;
  (CropMultipleTimes, >60_, 861.111-1111.11, 1000 to 1200, 120-220, None) 0.25, 0.25, 0.25, 0.25;
  (None, >60_, 861.111-1111.11, 1000 to 1200, 120-220, None) 0.0, 0.0, 0.0, 1.0;
  (UseIrrigation, >60_, 861.111-1111.11, 1000 to 1200, 120-220, None) 0.25, 0.25, 0.25, 0.25;
  (UseIrrigationAndFertilizerApplication, >60_, 861.111-1111.11, 1000 to 1200, 120-220, None) 0.25, 0.25, 0.25, 0.25;
  (ApplyFertilizer, <30_, 0, 1200 to 1500, 120-220, None) 0.25, 0.25, 0.25, 0.25;
  (ApplyImprovedSeed, <30_, 0, 1200 to 1500, 120-220, None) 1.0, 0.0, 0.0, 0.0;
  (CropMultipleTimes, <30_, 0, 1200 to 1500, 120-220, None) 0.25, 0.25, 0.25, 0.25;
  (None, <30_, 0, 1200 to 1500, 120-220, None) 0.6, 0.2, 0.2, 0.0;
  (UseIrrigation, <30_, 0, 1200 to 1500, 120-220, None) 0.25, 0.25, 0.25, 0.25;
  (UseIrrigationAndFertilizerApplication, <30_, 0, 1200 to 1500, 120-220, None) 0.25, 0.25, 0.25, 0.25;
  (ApplyFertilizer, 30-60_, 0, 1200 to 1500, 120-220, None) 0.25, 0.25, 0.25, 0.25;
  (ApplyImprovedSeed, 30-60_, 0, 1200 to 1500, 120-220, None) 0.0, 1.0, 0.0, 0.0;
  (CropMultipleTimes, 30-60_, 0, 1200 to 1500, 120-220, None) 0.25, 0.25, 0.25, 0.25;
  (None, 30-60_, 0, 1200 to 1500, 120-220, None) 0.75, 0.00, 0.25, 0.00;
  (UseIrrigation, 30-60_, 0, 1200 to 1500, 120-220, None) 0.25, 0.25, 0.25, 0.25;
  (UseIrrigationAndFertilizerApplication, 30-60_, 0, 1200 to 1500, 120-220, None) 0.0, 0.0, 0.0, 1.0;
  (ApplyFertilizer, >60_, 0, 1200 to 1500, 120-220, None) 0.25, 0.25, 0.25, 0.25;
  (ApplyImprovedSeed, >60_, 0, 1200 to 1500, 120-220, None) 0.25, 0.25, 0.25, 0.25;
  (CropMultipleTimes, >60_, 0, 1200 to 1500, 120-220, None) 0.25, 0.25, 0.25, 0.25;
  (None, >60_, 0, 1200 to 1500, 120-220, None) 0.6666667, 0.1666667, 0.1666667, 0.0000000;
  (UseIrrigation, >60_, 0, 1200 to 1500, 120-220, None) 0.25, 0.25, 0.25, 0.25;
  (UseIrrigationAndFertilizerApplication, >60_, 0, 1200 to 1500, 120-220, None) 0.0, 0.0, 0.0, 1.0;
  (ApplyFertilizer, <30_, 0-800, 1200 to 1500, 120-220, None) 0.25, 0.25, 0.25, 0.25;
  (ApplyImprovedSeed, <30_, 0-800, 1200 to 1500, 120-220, None) 0.25, 0.25, 0.25, 0.25;
  (CropMultipleTimes, <30_, 0-800, 1200 to 1500, 120-220, None) 0.25, 0.25, 0.25, 0.25;
  (None, <30_, 0-800, 1200 to 1500, 120-220, None) 0.25, 0.25, 0.25, 0.25;
  (UseIrrigation, <30_, 0-800, 1200 to 1500, 120-220, None) 0.25, 0.25, 0.25, 0.25;
  (UseIrrigationAndFertilizerApplication, <30_, 0-800, 1200 to 1500, 120-220, None) 0.25, 0.25, 0.25, 0.25;
  (ApplyFertilizer, 30-60_, 0-800, 1200 to 1500, 120-220, None) 0.25, 0.25, 0.25, 0.25;
  (ApplyImprovedSeed, 30-60_, 0-800, 1200 to 1500, 120-220, None) 0.25, 0.25, 0.25, 0.25;
  (CropMultipleTimes, 30-60_, 0-800, 1200 to 1500, 120-220, None) 0.25, 0.25, 0.25, 0.25;
  (None, 30-60_, 0-800, 1200 to 1500, 120-220, None) 0.25, 0.25, 0.25, 0.25;
  (UseIrrigation, 30-60_, 0-800, 1200 to 1500, 120-220, None) 0.25, 0.25, 0.25, 0.25;
  (UseIrrigationAndFertilizerApplication, 30-60_, 0-800, 1200 to 1500, 120-220, None) 0.25, 0.25, 0.25, 0.25;
  (ApplyFertilizer, >60_, 0-800, 1200 to 1500, 120-220, None) 0.25, 0.25, 0.25, 0.25;
  (ApplyImprovedSeed, >60_, 0-800, 1200 to 1500, 120-220, None) 0.0, 0.0, 0.0, 1.0;
  (CropMultipleTimes, >60_, 0-800, 1200 to 1500, 120-220, None) 0.25, 0.25, 0.25, 0.25;
  (None, >60_, 0-800, 1200 to 1500, 120-220, None) 0.25, 0.25, 0.25, 0.25;
  (UseIrrigation, >60_, 0-800, 1200 to 1500, 120-220, None) 0.25, 0.25, 0.25, 0.25;
  (UseIrrigationAndFertilizerApplication, >60_, 0-800, 1200 to 1500, 120-220, None) 0.25, 0.25, 0.25, 0.25;
  (ApplyFertilizer, <30_, 800-861.111, 1200 to 1500, 120-220, None) 0.25, 0.25, 0.25, 0.25;
  (ApplyImprovedSeed, <30_, 800-861.111, 1200 to 1500, 120-220, None) 0.25, 0.25, 0.25, 0.25;
  (CropMultipleTimes, <30_, 800-861.111, 1200 to 1500, 120-220, None) 0.25, 0.25, 0.25, 0.25;
  (None, <30_, 800-861.111, 1200 to 1500, 120-220, None) 0.25, 0.25, 0.25, 0.25;
  (UseIrrigation, <30_, 800-861.111, 1200 to 1500, 120-220, None) 0.25, 0.25, 0.25, 0.25;
  (UseIrrigationAndFertilizerApplication, <30_, 800-861.111, 1200 to 1500, 120-220, None) 0.25, 0.25, 0.25, 0.25;
  (ApplyFertilizer, 30-60_, 800-861.111, 1200 to 1500, 120-220, None) 0.0, 1.0, 0.0, 0.0;
  (ApplyImprovedSeed, 30-60_, 800-861.111, 1200 to 1500, 120-220, None) 0.25, 0.25, 0.25, 0.25;
  (CropMultipleTimes, 30-60_, 800-861.111, 1200 to 1500, 120-220, None) 0.25, 0.25, 0.25, 0.25;
  (None, 30-60_, 800-861.111, 1200 to 1500, 120-220, None) 0.0, 0.5, 0.0, 0.5;
  (UseIrrigation, 30-60_, 800-861.111, 1200 to 1500, 120-220, None) 0.25, 0.25, 0.25, 0.25;
  (UseIrrigationAndFertilizerApplication, 30-60_, 800-861.111, 1200 to 1500, 120-220, None) 0.25, 0.25, 0.25, 0.25;
  (ApplyFertilizer, >60_, 800-861.111, 1200 to 1500, 120-220, None) 0.25, 0.25, 0.25, 0.25;
  (ApplyImprovedSeed, >60_, 800-861.111, 1200 to 1500, 120-220, None) 0.25, 0.25, 0.25, 0.25;
  (CropMultipleTimes, >60_, 800-861.111, 1200 to 1500, 120-220, None) 0.25, 0.25, 0.25, 0.25;
  (None, >60_, 800-861.111, 1200 to 1500, 120-220, None) 1.0, 0.0, 0.0, 0.0;
  (UseIrrigation, >60_, 800-861.111, 1200 to 1500, 120-220, None) 0.25, 0.25, 0.25, 0.25;
  (UseIrrigationAndFertilizerApplication, >60_, 800-861.111, 1200 to 1500, 120-220, None) 0.25, 0.25, 0.25, 0.25;
  (ApplyFertilizer, <30_, 861.111-1111.11, 1200 to 1500, 120-220, None) 0.25, 0.25, 0.25, 0.25;
  (ApplyImprovedSeed, <30_, 861.111-1111.11, 1200 to 1500, 120-220, None) 0.25, 0.25, 0.25, 0.25;
  (CropMultipleTimes, <30_, 861.111-1111.11, 1200 to 1500, 120-220, None) 0.25, 0.25, 0.25, 0.25;
  (None, <30_, 861.111-1111.11, 1200 to 1500, 120-220, None) 0.25, 0.25, 0.25, 0.25;
  (UseIrrigation, <30_, 861.111-1111.11, 1200 to 1500, 120-220, None) 1.0, 0.0, 0.0, 0.0;
  (UseIrrigationAndFertilizerApplication, <30_, 861.111-1111.11, 1200 to 1500, 120-220, None) 0.25, 0.25, 0.25, 0.25;
  (ApplyFertilizer, 30-60_, 861.111-1111.11, 1200 to 1500, 120-220, None) 0.25, 0.25, 0.25, 0.25;
  (ApplyImprovedSeed, 30-60_, 861.111-1111.11, 1200 to 1500, 120-220, None) 0.25, 0.25, 0.25, 0.25;
  (CropMultipleTimes, 30-60_, 861.111-1111.11, 1200 to 1500, 120-220, None) 0.25, 0.25, 0.25, 0.25;
  (None, 30-60_, 861.111-1111.11, 1200 to 1500, 120-220, None) 0.3333333, 0.3333333, 0.0000000, 0.3333333;
  (UseIrrigation, 30-60_, 861.111-1111.11, 1200 to 1500, 120-220, None) 0.25, 0.25, 0.25, 0.25;
  (UseIrrigationAndFertilizerApplication, 30-60_, 861.111-1111.11, 1200 to 1500, 120-220, None) 0.0, 1.0, 0.0, 0.0;
  (ApplyFertilizer, >60_, 861.111-1111.11, 1200 to 1500, 120-220, None) 0.25, 0.25, 0.25, 0.25;
  (ApplyImprovedSeed, >60_, 861.111-1111.11, 1200 to 1500, 120-220, None) 0.0, 1.0, 0.0, 0.0;
  (CropMultipleTimes, >60_, 861.111-1111.11, 1200 to 1500, 120-220, None) 0.0, 0.0, 0.0, 1.0;
  (None, >60_, 861.111-1111.11, 1200 to 1500, 120-220, None) 1.0, 0.0, 0.0, 0.0;
  (UseIrrigation, >60_, 861.111-1111.11, 1200 to 1500, 120-220, None) 0.25, 0.25, 0.25, 0.25;
  (UseIrrigationAndFertilizerApplication, >60_, 861.111-1111.11, 1200 to 1500, 120-220, None) 0.25, 0.25, 0.25, 0.25;
  (ApplyFertilizer, <30_, 0, 1500 to 1900, 120-220, None) 0.25, 0.25, 0.25, 0.25;
  (ApplyImprovedSeed, <30_, 0, 1500 to 1900, 120-220, None) 0.25, 0.25, 0.25, 0.25;
  (CropMultipleTimes, <30_, 0, 1500 to 1900, 120-220, None) 0.25, 0.25, 0.25, 0.25;
  (None, <30_, 0, 1500 to 1900, 120-220, None) 1.0, 0.0, 0.0, 0.0;
  (UseIrrigation, <30_, 0, 1500 to 1900, 120-220, None) 0.25, 0.25, 0.25, 0.25;
  (UseIrrigationAndFertilizerApplication, <30_, 0, 1500 to 1900, 120-220, None) 0.25, 0.25, 0.25, 0.25;
  (ApplyFertilizer, 30-60_, 0, 1500 to 1900, 120-220, None) 0.25, 0.25, 0.25, 0.25;
  (ApplyImprovedSeed, 30-60_, 0, 1500 to 1900, 120-220, None) 0.25, 0.25, 0.25, 0.25;
  (CropMultipleTimes, 30-60_, 0, 1500 to 1900, 120-220, None) 0.25, 0.25, 0.25, 0.25;
  (None, 30-60_, 0, 1500 to 1900, 120-220, None) 0.0, 0.0, 0.0, 1.0;
  (UseIrrigation, 30-60_, 0, 1500 to 1900, 120-220, None) 0.25, 0.25, 0.25, 0.25;
  (UseIrrigationAndFertilizerApplication, 30-60_, 0, 1500 to 1900, 120-220, None) 0.25, 0.25, 0.25, 0.25;
  (ApplyFertilizer, >60_, 0, 1500 to 1900, 120-220, None) 0.25, 0.25, 0.25, 0.25;
  (ApplyImprovedSeed, >60_, 0, 1500 to 1900, 120-220, None) 0.25, 0.25, 0.25, 0.25;
  (CropMultipleTimes, >60_, 0, 1500 to 1900, 120-220, None) 0.25, 0.25, 0.25, 0.25;
  (None, >60_, 0, 1500 to 1900, 120-220, None) 0.25, 0.25, 0.25, 0.25;
  (UseIrrigation, >60_, 0, 1500 to 1900, 120-220, None) 0.25, 0.25, 0.25, 0.25;
  (UseIrrigationAndFertilizerApplication, >60_, 0, 1500 to 1900, 120-220, None) 0.25, 0.25, 0.25, 0.25;
  (ApplyFertilizer, <30_, 0-800, 1500 to 1900, 120-220, None) 0.25, 0.25, 0.25, 0.25;
  (ApplyImprovedSeed, <30_, 0-800, 1500 to 1900, 120-220, None) 0.25, 0.25, 0.25, 0.25;
  (CropMultipleTimes, <30_, 0-800, 1500 to 1900, 120-220, None) 0.25, 0.25, 0.25, 0.25;
  (None, <30_, 0-800, 1500 to 1900, 120-220, None) 0.25, 0.25, 0.25, 0.25;
  (UseIrrigation, <30_, 0-800, 1500 to 1900, 120-220, None) 0.25, 0.25, 0.25, 0.25;
  (UseIrrigationAndFertilizerApplication, <30_, 0-800, 1500 to 1900, 120-220, None) 0.25, 0.25, 0.25, 0.25;
  (ApplyFertilizer, 30-60_, 0-800, 1500 to 1900, 120-220, None) 0.25, 0.25, 0.25, 0.25;
  (ApplyImprovedSeed, 30-60_, 0-800, 1500 to 1900, 120-220, None) 0.25, 0.25, 0.25, 0.25;
  (CropMultipleTimes, 30-60_, 0-800, 1500 to 1900, 120-220, None) 0.25, 0.25, 0.25, 0.25;
  (None, 30-60_, 0-800, 1500 to 1900, 120-220, None) 0.25, 0.25, 0.25, 0.25;
  (UseIrrigation, 30-60_, 0-800, 1500 to 1900, 120-220, None) 0.25, 0.25, 0.25, 0.25;
  (UseIrrigationAndFertilizerApplication, 30-60_, 0-800, 1500 to 1900, 120-220, None) 0.25, 0.25, 0.25, 0.25;
  (ApplyFertilizer, >60_, 0-800, 1500 to 1900, 120-220, None) 0.25, 0.25, 0.25, 0.25;
  (ApplyImprovedSeed, >60_, 0-800, 1500 to 1900, 120-220, None) 0.25, 0.25, 0.25, 0.25;
  (CropMultipleTimes, >60_, 0-800, 1500 to 1900, 120-220, None) 0.25, 0.25, 0.25, 0.25;
  (None, >60_, 0-800, 1500 to 1900, 120-220, None) 0.25, 0.25, 0.25, 0.25;
  (UseIrrigation, >60_, 0-800, 1500 to 1900, 120-220, None) 0.25, 0.25, 0.25, 0.25;
  (UseIrrigationAndFertilizerApplication, >60_, 0-800, 1500 to 1900, 120-220, None) 0.25, 0.25, 0.25, 0.25;
  (ApplyFertilizer, <30_, 800-861.111, 1500 to 1900, 120-220, None) 0.25, 0.25, 0.25, 0.25;
  (ApplyImprovedSeed, <30_, 800-861.111, 1500 to 1900, 120-220, None) 0.25, 0.25, 0.25, 0.25;
  (CropMultipleTimes, <30_, 800-861.111, 1500 to 1900, 120-220, None) 0.25, 0.25, 0.25, 0.25;
  (None, <30_, 800-861.111, 1500 to 1900, 120-220, None) 1.0, 0.0, 0.0, 0.0;
  (UseIrrigation, <30_, 800-861.111, 1500 to 1900, 120-220, None) 0.25, 0.25, 0.25, 0.25;
  (UseIrrigationAndFertilizerApplication, <30_, 800-861.111, 1500 to 1900, 120-220, None) 0.25, 0.25, 0.25, 0.25;
  (ApplyFertilizer, 30-60_, 800-861.111, 1500 to 1900, 120-220, None) 0.25, 0.25, 0.25, 0.25;
  (ApplyImprovedSeed, 30-60_, 800-861.111, 1500 to 1900, 120-220, None) 0.25, 0.25, 0.25, 0.25;
  (CropMultipleTimes, 30-60_, 800-861.111, 1500 to 1900, 120-220, None) 0.25, 0.25, 0.25, 0.25;
  (None, 30-60_, 800-861.111, 1500 to 1900, 120-220, None) 0.25, 0.25, 0.25, 0.25;
  (UseIrrigation, 30-60_, 800-861.111, 1500 to 1900, 120-220, None) 0.25, 0.25, 0.25, 0.25;
  (UseIrrigationAndFertilizerApplication, 30-60_, 800-861.111, 1500 to 1900, 120-220, None) 0.25, 0.25, 0.25, 0.25;
  (ApplyFertilizer, >60_, 800-861.111, 1500 to 1900, 120-220, None) 0.25, 0.25, 0.25, 0.25;
  (ApplyImprovedSeed, >60_, 800-861.111, 1500 to 1900, 120-220, None) 0.25, 0.25, 0.25, 0.25;
  (CropMultipleTimes, >60_, 800-861.111, 1500 to 1900, 120-220, None) 0.25, 0.25, 0.25, 0.25;
  (None, >60_, 800-861.111, 1500 to 1900, 120-220, None) 0.25, 0.25, 0.25, 0.25;
  (UseIrrigation, >60_, 800-861.111, 1500 to 1900, 120-220, None) 0.25, 0.25, 0.25, 0.25;
  (UseIrrigationAndFertilizerApplication, >60_, 800-861.111, 1500 to 1900, 120-220, None) 0.25, 0.25, 0.25, 0.25;
  (ApplyFertilizer, <30_, 861.111-1111.11, 1500 to 1900, 120-220, None) 0.25, 0.25, 0.25, 0.25;
  (ApplyImprovedSeed, <30_, 861.111-1111.11, 1500 to 1900, 120-220, None) 0.25, 0.25, 0.25, 0.25;
  (CropMultipleTimes, <30_, 861.111-1111.11, 1500 to 1900, 120-220, None) 0.25, 0.25, 0.25, 0.25;
  (None, <30_, 861.111-1111.11, 1500 to 1900, 120-220, None) 0.25, 0.25, 0.25, 0.25;
  (UseIrrigation, <30_, 861.111-1111.11, 1500 to 1900, 120-220, None) 0.25, 0.25, 0.25, 0.25;
  (UseIrrigationAndFertilizerApplication, <30_, 861.111-1111.11, 1500 to 1900, 120-220, None) 0.25, 0.25, 0.25, 0.25;
  (ApplyFertilizer, 30-60_, 861.111-1111.11, 1500 to 1900, 120-220, None) 0.25, 0.25, 0.25, 0.25;
  (ApplyImprovedSeed, 30-60_, 861.111-1111.11, 1500 to 1900, 120-220, None) 0.25, 0.25, 0.25, 0.25;
  (CropMultipleTimes, 30-60_, 861.111-1111.11, 1500 to 1900, 120-220, None) 0.25, 0.25, 0.25, 0.25;
  (None, 30-60_, 861.111-1111.11, 1500 to 1900, 120-220, None) 0.25, 0.25, 0.25, 0.25;
  (UseIrrigation, 30-60_, 861.111-1111.11, 1500 to 1900, 120-220, None) 0.25, 0.25, 0.25, 0.25;
  (UseIrrigationAndFertilizerApplication, 30-60_, 861.111-1111.11, 1500 to 1900, 120-220, None) 0.25, 0.25, 0.25, 0.25;
  (ApplyFertilizer, >60_, 861.111-1111.11, 1500 to 1900, 120-220, None) 0.25, 0.25, 0.25, 0.25;
  (ApplyImprovedSeed, >60_, 861.111-1111.11, 1500 to 1900, 120-220, None) 0.25, 0.25, 0.25, 0.25;
  (CropMultipleTimes, >60_, 861.111-1111.11, 1500 to 1900, 120-220, None) 0.25, 0.25, 0.25, 0.25;
  (None, >60_, 861.111-1111.11, 1500 to 1900, 120-220, None) 0.25, 0.25, 0.25, 0.25;
  (UseIrrigation, >60_, 861.111-1111.11, 1500 to 1900, 120-220, None) 0.25, 0.25, 0.25, 0.25;
  (UseIrrigationAndFertilizerApplication, >60_, 861.111-1111.11, 1500 to 1900, 120-220, None) 0.25, 0.25, 0.25, 0.25;
  (ApplyFertilizer, <30_, 0, 0 to 1000, 220-400, None) 0.25, 0.25, 0.25, 0.25;
  (ApplyImprovedSeed, <30_, 0, 0 to 1000, 220-400, None) 0.25, 0.25, 0.25, 0.25;
  (CropMultipleTimes, <30_, 0, 0 to 1000, 220-400, None) 0.25, 0.25, 0.25, 0.25;
  (None, <30_, 0, 0 to 1000, 220-400, None) 0.25, 0.25, 0.25, 0.25;
  (UseIrrigation, <30_, 0, 0 to 1000, 220-400, None) 0.25, 0.25, 0.25, 0.25;
  (UseIrrigationAndFertilizerApplication, <30_, 0, 0 to 1000, 220-400, None) 0.25, 0.25, 0.25, 0.25;
  (ApplyFertilizer, 30-60_, 0, 0 to 1000, 220-400, None) 0.25, 0.25, 0.25, 0.25;
  (ApplyImprovedSeed, 30-60_, 0, 0 to 1000, 220-400, None) 0.25, 0.25, 0.25, 0.25;
  (CropMultipleTimes, 30-60_, 0, 0 to 1000, 220-400, None) 0.25, 0.25, 0.25, 0.25;
  (None, 30-60_, 0, 0 to 1000, 220-400, None) 0.25, 0.25, 0.25, 0.25;
  (UseIrrigation, 30-60_, 0, 0 to 1000, 220-400, None) 0.25, 0.25, 0.25, 0.25;
  (UseIrrigationAndFertilizerApplication, 30-60_, 0, 0 to 1000, 220-400, None) 0.25, 0.25, 0.25, 0.25;
  (ApplyFertilizer, >60_, 0, 0 to 1000, 220-400, None) 0.25, 0.25, 0.25, 0.25;
  (ApplyImprovedSeed, >60_, 0, 0 to 1000, 220-400, None) 0.25, 0.25, 0.25, 0.25;
  (CropMultipleTimes, >60_, 0, 0 to 1000, 220-400, None) 0.25, 0.25, 0.25, 0.25;
  (None, >60_, 0, 0 to 1000, 220-400, None) 0.25, 0.25, 0.25, 0.25;
  (UseIrrigation, >60_, 0, 0 to 1000, 220-400, None) 0.25, 0.25, 0.25, 0.25;
  (UseIrrigationAndFertilizerApplication, >60_, 0, 0 to 1000, 220-400, None) 1.0, 0.0, 0.0, 0.0;
  (ApplyFertilizer, <30_, 0-800, 0 to 1000, 220-400, None) 0.25, 0.25, 0.25, 0.25;
  (ApplyImprovedSeed, <30_, 0-800, 0 to 1000, 220-400, None) 0.25, 0.25, 0.25, 0.25;
  (CropMultipleTimes, <30_, 0-800, 0 to 1000, 220-400, None) 0.25, 0.25, 0.25, 0.25;
  (None, <30_, 0-800, 0 to 1000, 220-400, None) 0.25, 0.25, 0.25, 0.25;
  (UseIrrigation, <30_, 0-800, 0 to 1000, 220-400, None) 0.25, 0.25, 0.25, 0.25;
  (UseIrrigationAndFertilizerApplication, <30_, 0-800, 0 to 1000, 220-400, None) 0.25, 0.25, 0.25, 0.25;
  (ApplyFertilizer, 30-60_, 0-800, 0 to 1000, 220-400, None) 0.25, 0.25, 0.25, 0.25;
  (ApplyImprovedSeed, 30-60_, 0-800, 0 to 1000, 220-400, None) 0.25, 0.25, 0.25, 0.25;
  (CropMultipleTimes, 30-60_, 0-800, 0 to 1000, 220-400, None) 0.25, 0.25, 0.25, 0.25;
  (None, 30-60_, 0-800, 0 to 1000, 220-400, None) 0.25, 0.25, 0.25, 0.25;
  (UseIrrigation, 30-60_, 0-800, 0 to 1000, 220-400, None) 0.25, 0.25, 0.25, 0.25;
  (UseIrrigationAndFertilizerApplication, 30-60_, 0-800, 0 to 1000, 220-400, None) 0.25, 0.25, 0.25, 0.25;
  (ApplyFertilizer, >60_, 0-800, 0 to 1000, 220-400, None) 0.25, 0.25, 0.25, 0.25;
  (ApplyImprovedSeed, >60_, 0-800, 0 to 1000, 220-400, None) 0.25, 0.25, 0.25, 0.25;
  (CropMultipleTimes, >60_, 0-800, 0 to 1000, 220-400, None) 0.25, 0.25, 0.25, 0.25;
  (None, >60_, 0-800, 0 to 1000, 220-400, None) 0.25, 0.25, 0.25, 0.25;
  (UseIrrigation, >60_, 0-800, 0 to 1000, 220-400, None) 0.25, 0.25, 0.25, 0.25;
  (UseIrrigationAndFertilizerApplication, >60_, 0-800, 0 to 1000, 220-400, None) 0.25, 0.25, 0.25, 0.25;
  (ApplyFertilizer, <30_, 800-861.111, 0 to 1000, 220-400, None) 0.25, 0.25, 0.25, 0.25;
  (ApplyImprovedSeed, <30_, 800-861.111, 0 to 1000, 220-400, None) 0.25, 0.25, 0.25, 0.25;
  (CropMultipleTimes, <30_, 800-861.111, 0 to 1000, 220-400, None) 0.25, 0.25, 0.25, 0.25;
  (None, <30_, 800-861.111, 0 to 1000, 220-400, None) 0.25, 0.25, 0.25, 0.25;
  (UseIrrigation, <30_, 800-861.111, 0 to 1000, 220-400, None) 0.25, 0.25, 0.25, 0.25;
  (UseIrrigationAndFertilizerApplication, <30_, 800-861.111, 0 to 1000, 220-400, None) 0.25, 0.25, 0.25, 0.25;
  (ApplyFertilizer, 30-60_, 800-861.111, 0 to 1000, 220-400, None) 0.25, 0.25, 0.25, 0.25;
  (ApplyImprovedSeed, 30-60_, 800-861.111, 0 to 1000, 220-400, None) 0.25, 0.25, 0.25, 0.25;
  (CropMultipleTimes, 30-60_, 800-861.111, 0 to 1000, 220-400, None) 0.25, 0.25, 0.25, 0.25;
  (None, 30-60_, 800-861.111, 0 to 1000, 220-400, None) 0.25, 0.25, 0.25, 0.25;
  (UseIrrigation, 30-60_, 800-861.111, 0 to 1000, 220-400, None) 0.25, 0.25, 0.25, 0.25;
  (UseIrrigationAndFertilizerApplication, 30-60_, 800-861.111, 0 to 1000, 220-400, None) 0.25, 0.25, 0.25, 0.25;
  (ApplyFertilizer, >60_, 800-861.111, 0 to 1000, 220-400, None) 0.25, 0.25, 0.25, 0.25;
  (ApplyImprovedSeed, >60_, 800-861.111, 0 to 1000, 220-400, None) 0.25, 0.25, 0.25, 0.25;
  (CropMultipleTimes, >60_, 800-861.111, 0 to 1000, 220-400, None) 0.25, 0.25, 0.25, 0.25;
  (None, >60_, 800-861.111, 0 to 1000, 220-400, None) 0.25, 0.25, 0.25, 0.25;
  (UseIrrigation, >60_, 800-861.111, 0 to 1000, 220-400, None) 0.25, 0.25, 0.25, 0.25;
  (UseIrrigationAndFertilizerApplication, >60_, 800-861.111, 0 to 1000, 220-400, None) 0.25, 0.25, 0.25, 0.25;
  (ApplyFertilizer, <30_, 861.111-1111.11, 0 to 1000, 220-400, None) 0.25, 0.25, 0.25, 0.25;
  (ApplyImprovedSeed, <30_, 861.111-1111.11, 0 to 1000, 220-400, None) 0.25, 0.25, 0.25, 0.25;
  (CropMultipleTimes, <30_, 861.111-1111.11, 0 to 1000, 220-400, None) 1.0, 0.0, 0.0, 0.0;
  (None, <30_, 861.111-1111.11, 0 to 1000, 220-400, None) 0.25, 0.25, 0.25, 0.25;
  (UseIrrigation, <30_, 861.111-1111.11, 0 to 1000, 220-400, None) 0.25, 0.25, 0.25, 0.25;
  (UseIrrigationAndFertilizerApplication, <30_, 861.111-1111.11, 0 to 1000, 220-400, None) 0.25, 0.25, 0.25, 0.25;
  (ApplyFertilizer, 30-60_, 861.111-1111.11, 0 to 1000, 220-400, None) 0.25, 0.25, 0.25, 0.25;
  (ApplyImprovedSeed, 30-60_, 861.111-1111.11, 0 to 1000, 220-400, None) 0.25, 0.25, 0.25, 0.25;
  (CropMultipleTimes, 30-60_, 861.111-1111.11, 0 to 1000, 220-400, None) 0.25, 0.25, 0.25, 0.25;
  (None, 30-60_, 861.111-1111.11, 0 to 1000, 220-400, None) 1.0, 0.0, 0.0, 0.0;
  (UseIrrigation, 30-60_, 861.111-1111.11, 0 to 1000, 220-400, None) 0.25, 0.25, 0.25, 0.25;
  (UseIrrigationAndFertilizerApplication, 30-60_, 861.111-1111.11, 0 to 1000, 220-400, None) 0.25, 0.25, 0.25, 0.25;
  (ApplyFertilizer, >60_, 861.111-1111.11, 0 to 1000, 220-400, None) 0.25, 0.25, 0.25, 0.25;
  (ApplyImprovedSeed, >60_, 861.111-1111.11, 0 to 1000, 220-400, None) 0.25, 0.25, 0.25, 0.25;
  (CropMultipleTimes, >60_, 861.111-1111.11, 0 to 1000, 220-400, None) 0.25, 0.25, 0.25, 0.25;
  (None, >60_, 861.111-1111.11, 0 to 1000, 220-400, None) 0.0, 1.0, 0.0, 0.0;
  (UseIrrigation, >60_, 861.111-1111.11, 0 to 1000, 220-400, None) 0.25, 0.25, 0.25, 0.25;
  (UseIrrigationAndFertilizerApplication, >60_, 861.111-1111.11, 0 to 1000, 220-400, None) 0.25, 0.25, 0.25, 0.25;
  (ApplyFertilizer, <30_, 0, 1000 to 1200, 220-400, None) 0.25, 0.25, 0.25, 0.25;
  (ApplyImprovedSeed, <30_, 0, 1000 to 1200, 220-400, None) 0.25, 0.25, 0.25, 0.25;
  (CropMultipleTimes, <30_, 0, 1000 to 1200, 220-400, None) 0.25, 0.25, 0.25, 0.25;
  (None, <30_, 0, 1000 to 1200, 220-400, None) 0.0, 0.0, 0.0, 1.0;
  (UseIrrigation, <30_, 0, 1000 to 1200, 220-400, None) 0.25, 0.25, 0.25, 0.25;
  (UseIrrigationAndFertilizerApplication, <30_, 0, 1000 to 1200, 220-400, None) 0.25, 0.25, 0.25, 0.25;
  (ApplyFertilizer, 30-60_, 0, 1000 to 1200, 220-400, None) 1.0, 0.0, 0.0, 0.0;
  (ApplyImprovedSeed, 30-60_, 0, 1000 to 1200, 220-400, None) 0.0, 0.0, 1.0, 0.0;
  (CropMultipleTimes, 30-60_, 0, 1000 to 1200, 220-400, None) 0.25, 0.25, 0.25, 0.25;
  (None, 30-60_, 0, 1000 to 1200, 220-400, None) 0.5, 0.0, 0.0, 0.5;
  (UseIrrigation, 30-60_, 0, 1000 to 1200, 220-400, None) 0.25, 0.25, 0.25, 0.25;
  (UseIrrigationAndFertilizerApplication, 30-60_, 0, 1000 to 1200, 220-400, None) 0.25, 0.25, 0.25, 0.25;
  (ApplyFertilizer, >60_, 0, 1000 to 1200, 220-400, None) 0.0, 0.5, 0.0, 0.5;
  (ApplyImprovedSeed, >60_, 0, 1000 to 1200, 220-400, None) 0.25, 0.25, 0.25, 0.25;
  (CropMultipleTimes, >60_, 0, 1000 to 1200, 220-400, None) 0.25, 0.25, 0.25, 0.25;
  (None, >60_, 0, 1000 to 1200, 220-400, None) 0.50, 0.25, 0.00, 0.25;
  (UseIrrigation, >60_, 0, 1000 to 1200, 220-400, None) 0.25, 0.25, 0.25, 0.25;
  (UseIrrigationAndFertilizerApplication, >60_, 0, 1000 to 1200, 220-400, None) 0.25, 0.25, 0.25, 0.25;
  (ApplyFertilizer, <30_, 0-800, 1000 to 1200, 220-400, None) 0.25, 0.25, 0.25, 0.25;
  (ApplyImprovedSeed, <30_, 0-800, 1000 to 1200, 220-400, None) 0.25, 0.25, 0.25, 0.25;
  (CropMultipleTimes, <30_, 0-800, 1000 to 1200, 220-400, None) 0.25, 0.25, 0.25, 0.25;
  (None, <30_, 0-800, 1000 to 1200, 220-400, None) 0.0, 0.0, 1.0, 0.0;
  (UseIrrigation, <30_, 0-800, 1000 to 1200, 220-400, None) 0.25, 0.25, 0.25, 0.25;
  (UseIrrigationAndFertilizerApplication, <30_, 0-800, 1000 to 1200, 220-400, None) 0.25, 0.25, 0.25, 0.25;
  (ApplyFertilizer, 30-60_, 0-800, 1000 to 1200, 220-400, None) 0.25, 0.25, 0.25, 0.25;
  (ApplyImprovedSeed, 30-60_, 0-800, 1000 to 1200, 220-400, None) 0.0000000, 0.3333333, 0.0000000, 0.6666667;
  (CropMultipleTimes, 30-60_, 0-800, 1000 to 1200, 220-400, None) 0.25, 0.25, 0.25, 0.25;
  (None, 30-60_, 0-800, 1000 to 1200, 220-400, None) 0.0, 0.0, 0.0, 1.0;
  (UseIrrigation, 30-60_, 0-800, 1000 to 1200, 220-400, None) 0.25, 0.25, 0.25, 0.25;
  (UseIrrigationAndFertilizerApplication, 30-60_, 0-800, 1000 to 1200, 220-400, None) 0.25, 0.25, 0.25, 0.25;
  (ApplyFertilizer, >60_, 0-800, 1000 to 1200, 220-400, None) 0.25, 0.25, 0.25, 0.25;
  (ApplyImprovedSeed, >60_, 0-800, 1000 to 1200, 220-400, None) 0.0, 0.0, 1.0, 0.0;
  (CropMultipleTimes, >60_, 0-800, 1000 to 1200, 220-400, None) 0.25, 0.25, 0.25, 0.25;
  (None, >60_, 0-800, 1000 to 1200, 220-400, None) 0.0, 0.5, 0.5, 0.0;
  (UseIrrigation, >60_, 0-800, 1000 to 1200, 220-400, None) 0.25, 0.25, 0.25, 0.25;
  (UseIrrigationAndFertilizerApplication, >60_, 0-800, 1000 to 1200, 220-400, None) 0.25, 0.25, 0.25, 0.25;
  (ApplyFertilizer, <30_, 800-861.111, 1000 to 1200, 220-400, None) 0.25, 0.25, 0.25, 0.25;
  (ApplyImprovedSeed, <30_, 800-861.111, 1000 to 1200, 220-400, None) 0.25, 0.25, 0.25, 0.25;
  (CropMultipleTimes, <30_, 800-861.111, 1000 to 1200, 220-400, None) 0.25, 0.25, 0.25, 0.25;
  (None, <30_, 800-861.111, 1000 to 1200, 220-400, None) 0.25, 0.25, 0.25, 0.25;
  (UseIrrigation, <30_, 800-861.111, 1000 to 1200, 220-400, None) 0.25, 0.25, 0.25, 0.25;
  (UseIrrigationAndFertilizerApplication, <30_, 800-861.111, 1000 to 1200, 220-400, None) 0.25, 0.25, 0.25, 0.25;
  (ApplyFertilizer, 30-60_, 800-861.111, 1000 to 1200, 220-400, None) 0.25, 0.25, 0.25, 0.25;
  (ApplyImprovedSeed, 30-60_, 800-861.111, 1000 to 1200, 220-400, None) 0.25, 0.25, 0.25, 0.25;
  (CropMultipleTimes, 30-60_, 800-861.111, 1000 to 1200, 220-400, None) 0.25, 0.25, 0.25, 0.25;
  (None, 30-60_, 800-861.111, 1000 to 1200, 220-400, None) 0.25, 0.25, 0.25, 0.25;
  (UseIrrigation, 30-60_, 800-861.111, 1000 to 1200, 220-400, None) 0.25, 0.25, 0.25, 0.25;
  (UseIrrigationAndFertilizerApplication, 30-60_, 800-861.111, 1000 to 1200, 220-400, None) 0.25, 0.25, 0.25, 0.25;
  (ApplyFertilizer, >60_, 800-861.111, 1000 to 1200, 220-400, None) 0.25, 0.25, 0.25, 0.25;
  (ApplyImprovedSeed, >60_, 800-861.111, 1000 to 1200, 220-400, None) 0.25, 0.25, 0.25, 0.25;
  (CropMultipleTimes, >60_, 800-861.111, 1000 to 1200, 220-400, None) 0.25, 0.25, 0.25, 0.25;
  (None, >60_, 800-861.111, 1000 to 1200, 220-400, None) 0.25, 0.25, 0.25, 0.25;
  (UseIrrigation, >60_, 800-861.111, 1000 to 1200, 220-400, None) 0.25, 0.25, 0.25, 0.25;
  (UseIrrigationAndFertilizerApplication, >60_, 800-861.111, 1000 to 1200, 220-400, None) 0.25, 0.25, 0.25, 0.25;
  (ApplyFertilizer, <30_, 861.111-1111.11, 1000 to 1200, 220-400, None) 0.25, 0.25, 0.25, 0.25;
  (ApplyImprovedSeed, <30_, 861.111-1111.11, 1000 to 1200, 220-400, None) 0.25, 0.25, 0.25, 0.25;
  (CropMultipleTimes, <30_, 861.111-1111.11, 1000 to 1200, 220-400, None) 0.25, 0.25, 0.25, 0.25;
  (None, <30_, 861.111-1111.11, 1000 to 1200, 220-400, None) 1.0, 0.0, 0.0, 0.0;
  (UseIrrigation, <30_, 861.111-1111.11, 1000 to 1200, 220-400, None) 0.25, 0.25, 0.25, 0.25;
  (UseIrrigationAndFertilizerApplication, <30_, 861.111-1111.11, 1000 to 1200, 220-400, None) 0.25, 0.25, 0.25, 0.25;
  (ApplyFertilizer, 30-60_, 861.111-1111.11, 1000 to 1200, 220-400, None) 0.25, 0.25, 0.25, 0.25;
  (ApplyImprovedSeed, 30-60_, 861.111-1111.11, 1000 to 1200, 220-400, None) 0.25, 0.25, 0.25, 0.25;
  (CropMultipleTimes, 30-60_, 861.111-1111.11, 1000 to 1200, 220-400, None) 0.0, 0.0, 1.0, 0.0;
  (None, 30-60_, 861.111-1111.11, 1000 to 1200, 220-400, None) 0.25, 0.25, 0.25, 0.25;
  (UseIrrigation, 30-60_, 861.111-1111.11, 1000 to 1200, 220-400, None) 0.25, 0.25, 0.25, 0.25;
  (UseIrrigationAndFertilizerApplication, 30-60_, 861.111-1111.11, 1000 to 1200, 220-400, None) 0.25, 0.25, 0.25, 0.25;
  (ApplyFertilizer, >60_, 861.111-1111.11, 1000 to 1200, 220-400, None) 0.25, 0.25, 0.25, 0.25;
  (ApplyImprovedSeed, >60_, 861.111-1111.11, 1000 to 1200, 220-400, None) 0.25, 0.25, 0.25, 0.25;
  (CropMultipleTimes, >60_, 861.111-1111.11, 1000 to 1200, 220-400, None) 1.0, 0.0, 0.0, 0.0;
  (None, >60_, 861.111-1111.11, 1000 to 1200, 220-400, None) 0.25, 0.25, 0.25, 0.25;
  (UseIrrigation, >60_, 861.111-1111.11, 1000 to 1200, 220-400, None) 0.25, 0.25, 0.25, 0.25;
  (UseIrrigationAndFertilizerApplication, >60_, 861.111-1111.11, 1000 to 1200, 220-400, None) 0.25, 0.25, 0.25, 0.25;
  (ApplyFertilizer, <30_, 0, 1200 to 1500, 220-400, None) 0.25, 0.25, 0.25, 0.25;
  (ApplyImprovedSeed, <30_, 0, 1200 to 1500, 220-400, None) 0.25, 0.25, 0.25, 0.25;
  (CropMultipleTimes, <30_, 0, 1200 to 1500, 220-400, None) 0.25, 0.25, 0.25, 0.25;
  (None, <30_, 0, 1200 to 1500, 220-400, None) 0.5, 0.5, 0.0, 0.0;
  (UseIrrigation, <30_, 0, 1200 to 1500, 220-400, None) 0.25, 0.25, 0.25, 0.25;
  (UseIrrigationAndFertilizerApplication, <30_, 0, 1200 to 1500, 220-400, None) 0.25, 0.25, 0.25, 0.25;
  (ApplyFertilizer, 30-60_, 0, 1200 to 1500, 220-400, None) 0.25, 0.25, 0.25, 0.25;
  (ApplyImprovedSeed, 30-60_, 0, 1200 to 1500, 220-400, None) 0.0, 0.0, 1.0, 0.0;
  (CropMultipleTimes, 30-60_, 0, 1200 to 1500, 220-400, None) 0.25, 0.25, 0.25, 0.25;
  (None, 30-60_, 0, 1200 to 1500, 220-400, None) 0.4, 0.4, 0.2, 0.0;
  (UseIrrigation, 30-60_, 0, 1200 to 1500, 220-400, None) 1.0, 0.0, 0.0, 0.0;
  (UseIrrigationAndFertilizerApplication, 30-60_, 0, 1200 to 1500, 220-400, None) 0.0, 0.0, 0.0, 1.0;
  (ApplyFertilizer, >60_, 0, 1200 to 1500, 220-400, None) 0.25, 0.25, 0.25, 0.25;
  (ApplyImprovedSeed, >60_, 0, 1200 to 1500, 220-400, None) 0.0, 1.0, 0.0, 0.0;
  (CropMultipleTimes, >60_, 0, 1200 to 1500, 220-400, None) 0.25, 0.25, 0.25, 0.25;
  (None, >60_, 0, 1200 to 1500, 220-400, None) 0.3333333, 0.3333333, 0.3333333, 0.0000000;
  (UseIrrigation, >60_, 0, 1200 to 1500, 220-400, None) 0.25, 0.25, 0.25, 0.25;
  (UseIrrigationAndFertilizerApplication, >60_, 0, 1200 to 1500, 220-400, None) 0.25, 0.25, 0.25, 0.25;
  (ApplyFertilizer, <30_, 0-800, 1200 to 1500, 220-400, None) 0.25, 0.25, 0.25, 0.25;
  (ApplyImprovedSeed, <30_, 0-800, 1200 to 1500, 220-400, None) 0.25, 0.25, 0.25, 0.25;
  (CropMultipleTimes, <30_, 0-800, 1200 to 1500, 220-400, None) 0.25, 0.25, 0.25, 0.25;
  (None, <30_, 0-800, 1200 to 1500, 220-400, None) 1.0, 0.0, 0.0, 0.0;
  (UseIrrigation, <30_, 0-800, 1200 to 1500, 220-400, None) 0.25, 0.25, 0.25, 0.25;
  (UseIrrigationAndFertilizerApplication, <30_, 0-800, 1200 to 1500, 220-400, None) 0.25, 0.25, 0.25, 0.25;
  (ApplyFertilizer, 30-60_, 0-800, 1200 to 1500, 220-400, None) 0.25, 0.25, 0.25, 0.25;
  (ApplyImprovedSeed, 30-60_, 0-800, 1200 to 1500, 220-400, None) 0.25, 0.25, 0.25, 0.25;
  (CropMultipleTimes, 30-60_, 0-800, 1200 to 1500, 220-400, None) 0.25, 0.25, 0.25, 0.25;
  (None, 30-60_, 0-800, 1200 to 1500, 220-400, None) 0.25, 0.25, 0.25, 0.25;
  (UseIrrigation, 30-60_, 0-800, 1200 to 1500, 220-400, None) 0.25, 0.25, 0.25, 0.25;
  (UseIrrigationAndFertilizerApplication, 30-60_, 0-800, 1200 to 1500, 220-400, None) 0.25, 0.25, 0.25, 0.25;
  (ApplyFertilizer, >60_, 0-800, 1200 to 1500, 220-400, None) 0.25, 0.25, 0.25, 0.25;
  (ApplyImprovedSeed, >60_, 0-800, 1200 to 1500, 220-400, None) 0.25, 0.25, 0.25, 0.25;
  (CropMultipleTimes, >60_, 0-800, 1200 to 1500, 220-400, None) 0.25, 0.25, 0.25, 0.25;
  (None, >60_, 0-800, 1200 to 1500, 220-400, None) 0.25, 0.25, 0.25, 0.25;
  (UseIrrigation, >60_, 0-800, 1200 to 1500, 220-400, None) 0.25, 0.25, 0.25, 0.25;
  (UseIrrigationAndFertilizerApplication, >60_, 0-800, 1200 to 1500, 220-400, None) 0.25, 0.25, 0.25, 0.25;
  (ApplyFertilizer, <30_, 800-861.111, 1200 to 1500, 220-400, None) 0.25, 0.25, 0.25, 0.25;
  (ApplyImprovedSeed, <30_, 800-861.111, 1200 to 1500, 220-400, None) 0.25, 0.25, 0.25, 0.25;
  (CropMultipleTimes, <30_, 800-861.111, 1200 to 1500, 220-400, None) 0.25, 0.25, 0.25, 0.25;
  (None, <30_, 800-861.111, 1200 to 1500, 220-400, None) 0.25, 0.25, 0.25, 0.25;
  (UseIrrigation, <30_, 800-861.111, 1200 to 1500, 220-400, None) 0.25, 0.25, 0.25, 0.25;
  (UseIrrigationAndFertilizerApplication, <30_, 800-861.111, 1200 to 1500, 220-400, None) 0.25, 0.25, 0.25, 0.25;
  (ApplyFertilizer, 30-60_, 800-861.111, 1200 to 1500, 220-400, None) 0.25, 0.25, 0.25, 0.25;
  (ApplyImprovedSeed, 30-60_, 800-861.111, 1200 to 1500, 220-400, None) 0.25, 0.25, 0.25, 0.25;
  (CropMultipleTimes, 30-60_, 800-861.111, 1200 to 1500, 220-400, None) 1.0, 0.0, 0.0, 0.0;
  (None, 30-60_, 800-861.111, 1200 to 1500, 220-400, None) 0.25, 0.25, 0.25, 0.25;
  (UseIrrigation, 30-60_, 800-861.111, 1200 to 1500, 220-400, None) 0.25, 0.25, 0.25, 0.25;
  (UseIrrigationAndFertilizerApplication, 30-60_, 800-861.111, 1200 to 1500, 220-400, None) 0.25, 0.25, 0.25, 0.25;
  (ApplyFertilizer, >60_, 800-861.111, 1200 to 1500, 220-400, None) 0.0, 0.0, 1.0, 0.0;
  (ApplyImprovedSeed, >60_, 800-861.111, 1200 to 1500, 220-400, None) 0.25, 0.25, 0.25, 0.25;
  (CropMultipleTimes, >60_, 800-861.111, 1200 to 1500, 220-400, None) 0.25, 0.25, 0.25, 0.25;
  (None, >60_, 800-861.111, 1200 to 1500, 220-400, None) 1.0, 0.0, 0.0, 0.0;
  (UseIrrigation, >60_, 800-861.111, 1200 to 1500, 220-400, None) 0.25, 0.25, 0.25, 0.25;
  (UseIrrigationAndFertilizerApplication, >60_, 800-861.111, 1200 to 1500, 220-400, None) 0.25, 0.25, 0.25, 0.25;
  (ApplyFertilizer, <30_, 861.111-1111.11, 1200 to 1500, 220-400, None) 0.25, 0.25, 0.25, 0.25;
  (ApplyImprovedSeed, <30_, 861.111-1111.11, 1200 to 1500, 220-400, None) 0.25, 0.25, 0.25, 0.25;
  (CropMultipleTimes, <30_, 861.111-1111.11, 1200 to 1500, 220-400, None) 1.0, 0.0, 0.0, 0.0;
  (None, <30_, 861.111-1111.11, 1200 to 1500, 220-400, None) 1.0, 0.0, 0.0, 0.0;
  (UseIrrigation, <30_, 861.111-1111.11, 1200 to 1500, 220-400, None) 0.25, 0.25, 0.25, 0.25;
  (UseIrrigationAndFertilizerApplication, <30_, 861.111-1111.11, 1200 to 1500, 220-400, None) 0.25, 0.25, 0.25, 0.25;
  (ApplyFertilizer, 30-60_, 861.111-1111.11, 1200 to 1500, 220-400, None) 0.25, 0.25, 0.25, 0.25;
