network unknown {
}
variable fam_inc {
  type discrete [ 5 ] { 1, 2, 3, 4, 5 };
}
variable fulltime {
  type discrete [ 2 ] { 1, 2 };
}
variable lsat {
  type discrete [ 2 ] { <=37, >37 };
}
variable male {
  type discrete [ 2 ] { female, male };
}
variable pass_bar {
  type discrete [ 2 ] { negative, positive };
}
variable racetxt {
  type discrete [ 2 ] { non-white, white };
}
variable tier {
  type discrete [ 6 ] { 1, 2, 3, 4, 5, 6 };
}
variable ugpa {
  type discrete [ 2 ] { <3.3, >=3.3 };
}
variable zfygpa {
  type discrete [ 2 ] { <=0, >0 };
}
variable zgpa {
  type discrete [ 2 ] { <=0, >0 };
}
probability ( fam_inc | lsat, racetxt ) {
  (<=37, non-white) 0.08003680, 0.21803128, 0.46734131, 0.21251150, 0.02207912;
  (>37, non-white) 0.10526316, 0.17543860, 0.38596491, 0.30701754, 0.02631579;
  (<=37, white) 0.01350887, 0.08631940, 0.37962221, 0.44876932, 0.07178019;
  (>37, white) 0.01039287, 0.07514847, 0.32149383, 0.48857926, 0.10438556;
}
probability ( fulltime | lsat, tier, ugpa ) {
  (<=37, 1, <3.3) 0.98596491, 0.01403509;
  (>37, 1, <3.3) 0.8965517, 0.1034483;
  (<=37, 2, <3.3) 0.91622481, 0.08377519;
  (>37, 2, <3.3) 0.991304348, 0.008695652;
  (<=37, 3, <3.3) 0.8852519, 0.1147481;
  (>37, 3, <3.3) 0.91127418, 0.08872582;
  (<=37, 4, <3.3) 0.90044743, 0.09955257;
  (>37, 4, <3.3) 0.94991653, 0.05008347;
  (<=37, 5, <3.3) 0.7913793, 0.2086207;
  (>37, 5, <3.3) 0.8702791, 0.1297209;
  (<=37, 6, <3.3) 0.95833333, 0.04166667;
  (>37, 6, <3.3) 0.97252747, 0.02747253;
  (<=37, 1, >=3.3) 0.95384615, 0.04615385;
  (>37, 1, >=3.3) 0.9047619, 0.0952381;
  (<=37, 2, >=3.3) 0.94160584, 0.05839416;
  (>37, 2, >=3.3) 0.884058, 0.115942;
  (<=37, 3, >=3.3) 0.91119691, 0.08880309;
  (>37, 3, >=3.3) 0.93993678, 0.06006322;
  (<=37, 4, >=3.3) 0.95152871, 0.04847129;
  (>37, 4, >=3.3) 0.97351695, 0.02648305;
  (<=37, 5, >=3.3) 0.8728522, 0.1271478;
  (>37, 5, >=3.3) 0.9735007, 0.0264993;
  (<=37, 6, >=3.3) 0.95726496, 0.04273504;
  (>37, 6, >=3.3) 0.994298746, 0.005701254;
}
probability ( lsat | racetxt, tier, ugpa ) {
  (non-white, 1, <3.3) 0.97297297, 0.02702703;
  (white, 1, <3.3) 0.8139535, 0.1860465;
  (non-white, 2, <3.3) 1.0, 0.0;
  (white, 2, <3.3) 0.8863636, 0.1136364;
  (non-white, 3, <3.3) 0.96444444, 0.03555556;
  (white, 3, <3.3) 0.6265965, 0.3734035;
  (non-white, 4, <3.3) 0.91408935, 0.08591065;
  (white, 4, <3.3) 0.3486952, 0.6513048;
  (non-white, 5, <3.3) 0.8345324, 0.1654676;
  (white, 5, <3.3) 0.4419048, 0.5580952;
  (non-white, 6, <3.3) 0.5918367, 0.4081633;
  (white, 6, <3.3) 0.2097561, 0.7902439;
  (non-white, 1, >=3.3) 0.96875, 0.03125;
  (white, 1, >=3.3) 0.6296296, 0.3703704;
  (non-white, 2, >=3.3) 1.0, 0.0;
  (white, 2, >=3.3) 0.8538136, 0.1461864;
  (non-white, 3, >=3.3) 0.94827586, 0.05172414;
  (white, 3, >=3.3) 0.6501479, 0.3498521;
  (non-white, 4, >=3.3) 0.91044776, 0.08955224;
  (white, 4, >=3.3) 0.4048071, 0.5951929;
  (non-white, 5, >=3.3) 0.7794118, 0.2205882;
  (white, 5, >=3.3) 0.2715606, 0.7284394;
  (non-white, 6, >=3.3) 0.7575758, 0.2424242;
  (white, 6, >=3.3) 0.09573361, 0.90426639;
}
probability ( male | lsat, racetxt, ugpa ) {
  (<=37, non-white, <3.3) 0.6135831, 0.3864169;
  (>37, non-white, <3.3) 0.4074074, 0.5925926;
  (<=37, white, <3.3) 0.3645182, 0.6354818;
  (>37, white, <3.3) 0.3275134, 0.6724866;
  (<=37, non-white, >=3.3) 0.7339056, 0.2660944;
  (>37, non-white, >=3.3) 0.6363636, 0.3636364;
  (<=37, white, >=3.3) 0.53125, 0.46875;
  (>37, white, >=3.3) 0.4539866, 0.5460134;
}
probability ( pass_bar | lsat, racetxt, ugpa, zgpa ) {
  (<=37, non-white, <3.3, <=0) 0.4760638, 0.5239362;
  (>37, non-white, <3.3, <=0) 0.171875, 0.828125;
  (<=37, white, <3.3, <=0) 0.2162061, 0.7837939;
  (>37, white, <3.3, <=0) 0.1271456, 0.8728544;
  (<=37, non-white, >=3.3, <=0) 0.3854167, 0.6145833;
  (>37, non-white, >=3.3, <=0) 0.0, 1.0;
  (<=37, white, >=3.3, <=0) 0.1728738, 0.8271262;
  (>37, white, >=3.3, <=0) 0.06586483, 0.93413517;
  (<=37, non-white, <3.3, >0) 0.127451, 0.872549;
  (>37, non-white, <3.3, >0) 0.0, 1.0;
  (<=37, white, <3.3, >0) 0.03875574, 0.96124426;
  (>37, white, <3.3, >0) 0.01365015, 0.98634985;
  (<=37, non-white, >=3.3, >0) 0.07317073, 0.92682927;
  (>37, non-white, >=3.3, >0) 0.0, 1.0;
  (<=37, white, >=3.3, >0) 0.02002612, 0.97997388;
  (>37, white, >=3.3, >0) 0.006649321, 0.993350679;
}
probability ( racetxt | zgpa ) {
  (<=0) 0.1167007, 0.8832993;
  (>0) 0.01733225, 0.98266775;
}
probability ( tier | racetxt, ugpa ) {
  (non-white, <3.3) 0.19786096, 0.04919786, 0.24064171, 0.31122995, 0.14866310, 0.05240642;
  (white, <3.3) 0.01575092, 0.12356532, 0.48754579, 0.21990232, 0.12820513, 0.02503053;
  (non-white, >=3.3) 0.12030075, 0.03007519, 0.21804511, 0.25187970, 0.25563910, 0.12406015;
  (white, >=3.3) 0.005805827, 0.050747231, 0.290721428, 0.339963445, 0.209439845, 0.103322223;
}
probability ( ugpa | racetxt, zgpa ) {
  (non-white, <=0) 0.792233, 0.207767;
  (white, <=0) 0.5452796, 0.4547204;
  (non-white, >0) 0.6959064, 0.3040936;
  (white, >0) 0.4062919, 0.5937081;
}
probability ( zfygpa ) {
  table 0.4442007, 0.5557993;
}
probability ( zgpa | zfygpa ) {
  (<=0) 0.8669156, 0.1330844;
  (>0) 0.1567042, 0.8432958;
}
