network unknown {
}
variable AverageAnnualRainfall {
  type discrete [ 3 ] { High, Medium, Low };
}
variable AverageNumberOfDryDaysPerYear {
  type discrete [ 3 ] { High, Medium, Low };
}
variable RainwaterDemand {
  type discrete [ 4 ] { Demand 20, Demand 30, Demand 40, Demand 50 };
}
variable Representativeness {
  type discrete [ 2 ] { Yes, No };
}
variable SeasonalityIndex {
  type discrete [ 3 ] { High, Medium, Low };
}
variable SeriesLength {
  type discrete [ 12 ] { One Year, Two Year, Three Year, Four Year, Five Year, Six Year, Seven Year, Eight Year, Nine Year, Ten Year, Fifteen Year, Twenty Year };
}
probability ( AverageAnnualRainfall | Representativeness ) {
  (Yes) 0.3417, 0.1959, 0.4624;
  (No) 0.3122, 0.1826, 0.5052;
}
probability ( AverageNumberOfDryDaysPerYear | Representativeness ) {
  (Yes) 0.3407, 0.2502, 0.4091;
  (No) 0.4197, 0.4197, 0.1606;
}
probability ( RainwaterDemand | Representativeness, SeriesLength ) {
  (Yes, One Year) 0.2578, 0.2663, 0.2373, 0.2386;
  (No, One Year) 0.2411, 0.2315, 0.2644, 0.2630;
  (Yes, Two Year) 0.2507, 0.2587, 0.2468, 0.2438;
  (No, Two Year) 0.2485249, 0.2327233, 0.2564256, 0.2623262;
  (Yes, Three Year) 0.2542, 0.2552, 0.2448, 0.2458;
  (No, Three Year) 0.2386, 0.2360, 0.2640, 0.2614;
  (Yes, Four Year) 0.2545, 0.2611, 0.2346, 0.2498;
  (No, Four Year) 0.2363236, 0.2161216, 0.2968297, 0.2507251;
  (Yes, Five Year) 0.2472, 0.2615, 0.2400, 0.2513;
  (No, Five Year) 0.2574257, 0.2198220, 0.2761276, 0.2466247;
  (Yes, Six Year) 0.2438244, 0.2600260, 0.2428243, 0.2533253;
  (No, Six Year) 0.2756, 0.2087, 0.2795, 0.2362;
  (Yes, Seven Year) 0.2387239, 0.2632263, 0.2397240, 0.2583258;
  (No, Seven Year) 0.3008699, 0.1902810, 0.2964704, 0.2123788;
  (Yes, Eight Year) 0.2372, 0.2623, 0.2432, 0.2573;
  (No, Eight Year) 0.3147, 0.1878, 0.2843, 0.2132;
  (Yes, Nine Year) 0.2372, 0.2577, 0.2433, 0.2618;
  (No, Nine Year) 0.3235, 0.2059, 0.2882, 0.1824;
  (Yes, Ten Year) 0.2424, 0.2529, 0.2466, 0.2581;
  (No, Ten Year) 0.3037, 0.2296, 0.2741, 0.1926;
  (Yes, Fifteen Year) 0.2450, 0.2538, 0.2462, 0.2550;
  (No, Fifteen Year) 0.3611, 0.1667, 0.3333, 0.1389;
  (Yes, Twenty Year) 0.2433243, 0.2522252, 0.2522252, 0.2522252;
  (No, Twenty Year) 0.5385539, 0.1538154, 0.1538154, 0.1538154;
}
probability ( Representativeness ) {
  table 0.789, 0.211;
}
probability ( SeasonalityIndex | Representativeness ) {
  (Yes) 0.1874312, 0.2351646, 0.5774042;
  (No) 0.3199, 0.3899, 0.2902;
}
probability ( SeriesLength | Representativeness ) {
  (Yes) 0.0525, 0.0683, 0.0752, 0.0780, 0.0752, 0.0849, 0.0878, 0.0888, 0.0925, 0.0935, 0.1010, 0.1023;
  (No) 0.2217, 0.1525, 0.1219, 0.1093, 0.0870, 0.0794, 0.0667, 0.0621, 0.0459, 0.0414, 0.0087, 0.0034;
}
