network unknown {
}
variable Baseline_Intention {
  type discrete [ 3 ] { high, medium, low };
}
variable Desensitization {
  type discrete [ 3 ] { high, medium, low };
}
variable Diffused_Responsibility {
  type discrete [ 3 ] { high, medium, low };
}
variable Food_Involvment {
  type discrete [ 3 ] { high, medium, low };
}
variable Future_Intention {
  type discrete [ 5 ] { high_positive, low_positive, neutral, low_negative, high_negative };
}
variable Message {
  type discrete [ 4 ] { gain, nonloss, nongain, loss };
}
variable Perceived_Control {
  type discrete [ 3 ] { high, medium, low };
}
variable Perceived_Severity {
  type discrete [ 3 ] { high, medium, low };
}
variable Prevention_Focus {
  type discrete [ 3 ] { high, medium, low };
}
variable Promotion_Focus {
  type discrete [ 3 ] { high, medium, low };
}
variable Systematic_Processing {
  type discrete [ 3 ] { high, medium, low };
}
probability ( Baseline_Intention ) {
  table 0.3600248, 0.3767846, 0.2631906;
}
probability ( Desensitization ) {
  table 0.3581626, 0.3209187, 0.3209187;
}
probability ( Diffused_Responsibility ) {
  table 0.3525760, 0.3954066, 0.2520174;
}
probability ( Food_Involvment ) {
  table 0.3674736, 0.3414029, 0.2911235;
}
probability ( Future_Intention | Baseline_Intention, Diffused_Responsibility, Message, Perceived_Severity, Prevention_Focus, Systematic_Processing ) {
  (high, high, gain, high, high, high) 0.2, 0.2, 0.2, 0.2, 0.2;
  (medium, high, gain, high, high, high) 0.40000000, 0.06666667, 0.40000000, 0.06666667, 0.06666667;
  (low, high, gain, high, high, high) 0.2, 0.2, 0.2, 0.2, 0.2;
  (high, medium, gain, high, high, high) 0.2, 0.2, 0.2, 0.2, 0.2;
  (medium, medium, gain, high, high, high) 0.05, 0.05, 0.30, 0.05, 0.55;
  (low, medium, gain, high, high, high) 0.1, 0.1, 0.6, 0.1, 0.1;
  (high, low, gain, high, high, high) 0.55, 0.05, 0.30, 0.05, 0.05;
  (medium, low, gain, high, high, high) 0.04, 0.04, 0.04, 0.44, 0.44;
  (low, low, gain, high, high, high) 0.2, 0.2, 0.2, 0.2, 0.2;
  (high, high, nonloss, high, high, high) 0.1, 0.6, 0.1, 0.1, 0.1;
  (medium, high, nonloss, high, high, high) 0.05, 0.80, 0.05, 0.05, 0.05;
  (low, high, nonloss, high, high, high) 0.06666667, 0.06666667, 0.06666667, 0.06666667, 0.73333333;
  (high, medium, nonloss, high, high, high) 0.2, 0.2, 0.2, 0.2, 0.2;
  (medium, medium, nonloss, high, high, high) 0.1, 0.1, 0.1, 0.6, 0.1;
  (low, medium, nonloss, high, high, high) 0.06666667, 0.40000000, 0.40000000, 0.06666667, 0.06666667;
  (high, low, nonloss, high, high, high) 0.1, 0.6, 0.1, 0.1, 0.1;
  (medium, low, nonloss, high, high, high) 0.30, 0.30, 0.05, 0.30, 0.05;
  (low, low, nonloss, high, high, high) 0.1, 0.1, 0.6, 0.1, 0.1;
  (high, high, nongain, high, high, high) 0.1, 0.1, 0.1, 0.6, 0.1;
  (medium, high, nongain, high, high, high) 0.2, 0.2, 0.2, 0.2, 0.2;
  (low, high, nongain, high, high, high) 0.2, 0.2, 0.2, 0.2, 0.2;
  (high, medium, nongain, high, high, high) 0.2, 0.2, 0.2, 0.2, 0.2;
  (medium, medium, nongain, high, high, high) 0.2, 0.2, 0.2, 0.2, 0.2;
  (low, medium, nongain, high, high, high) 0.1, 0.1, 0.6, 0.1, 0.1;
  (high, low, nongain, high, high, high) 0.2, 0.2, 0.2, 0.2, 0.2;
  (medium, low, nongain, high, high, high) 0.1, 0.1, 0.1, 0.6, 0.1;
  (low, low, nongain, high, high, high) 0.2, 0.2, 0.2, 0.2, 0.2;
  (high, high, loss, high, high, high) 0.06666667, 0.06666667, 0.06666667, 0.40000000, 0.40000000;
  (medium, high, loss, high, high, high) 0.2, 0.2, 0.2, 0.2, 0.2;
  (low, high, loss, high, high, high) 0.40000000, 0.40000000, 0.06666667, 0.06666667, 0.06666667;
  (high, medium, loss, high, high, high) 0.1, 0.1, 0.1, 0.6, 0.1;
  (medium, medium, loss, high, high, high) 0.1, 0.6, 0.1, 0.1, 0.1;
  (low, medium, loss, high, high, high) 0.1, 0.1, 0.6, 0.1, 0.1;
  (high, low, loss, high, high, high) 0.2, 0.2, 0.2, 0.2, 0.2;
  (medium, low, loss, high, high, high) 0.2, 0.2, 0.2, 0.2, 0.2;
  (low, low, loss, high, high, high) 0.2, 0.2, 0.2, 0.2, 0.2;
  (high, high, gain, medium, high, high) 0.6, 0.1, 0.1, 0.1, 0.1;
  (medium, high, gain, medium, high, high) 0.2, 0.2, 0.2, 0.2, 0.2;
  (low, high, gain, medium, high, high) 0.1, 0.1, 0.6, 0.1, 0.1;
  (high, medium, gain, medium, high, high) 0.6, 0.1, 0.1, 0.1, 0.1;
  (medium, medium, gain, medium, high, high) 0.6, 0.1, 0.1, 0.1, 0.1;
  (low, medium, gain, medium, high, high) 0.2, 0.2, 0.2, 0.2, 0.2;
  (high, low, gain, medium, high, high) 0.06666667, 0.06666667, 0.40000000, 0.40000000, 0.06666667;
  (medium, low, gain, medium, high, high) 0.6, 0.1, 0.1, 0.1, 0.1;
  (low, low, gain, medium, high, high) 0.2, 0.2, 0.2, 0.2, 0.2;
  (high, high, nonloss, medium, high, high) 0.1, 0.6, 0.1, 0.1, 0.1;
  (medium, high, nonloss, medium, high, high) 0.06666667, 0.73333333, 0.06666667, 0.06666667, 0.06666667;
  (low, high, nonloss, medium, high, high) 0.6, 0.1, 0.1, 0.1, 0.1;
  (high, medium, nonloss, medium, high, high) 0.40000000, 0.06666667, 0.40000000, 0.06666667, 0.06666667;
  (medium, medium, nonloss, medium, high, high) 0.06666667, 0.73333333, 0.06666667, 0.06666667, 0.06666667;
  (low, medium, nonloss, medium, high, high) 0.1, 0.6, 0.1, 0.1, 0.1;
  (high, low, nonloss, medium, high, high) 0.1, 0.1, 0.1, 0.1, 0.6;
  (medium, low, nonloss, medium, high, high) 0.2, 0.2, 0.2, 0.2, 0.2;
  (low, low, nonloss, medium, high, high) 0.2, 0.2, 0.2, 0.2, 0.2;
  (high, high, nongain, medium, high, high) 0.1, 0.1, 0.1, 0.1, 0.6;
  (medium, high, nongain, medium, high, high) 0.2, 0.2, 0.2, 0.2, 0.2;
  (low, high, nongain, medium, high, high) 0.1, 0.1, 0.6, 0.1, 0.1;
  (high, medium, nongain, medium, high, high) 0.6, 0.1, 0.1, 0.1, 0.1;
  (medium, medium, nongain, medium, high, high) 0.2, 0.2, 0.2, 0.2, 0.2;
  (low, medium, nongain, medium, high, high) 0.2, 0.2, 0.2, 0.2, 0.2;
  (high, low, nongain, medium, high, high) 0.2, 0.2, 0.2, 0.2, 0.2;
  (medium, low, nongain, medium, high, high) 0.06666667, 0.40000000, 0.06666667, 0.06666667, 0.40000000;
  (low, low, nongain, medium, high, high) 0.40000000, 0.06666667, 0.06666667, 0.40000000, 0.06666667;
  (high, high, loss, medium, high, high) 0.30, 0.55, 0.05, 0.05, 0.05;
  (medium, high, loss, medium, high, high) 0.1, 0.1, 0.1, 0.6, 0.1;
  (low, high, loss, medium, high, high) 0.2, 0.2, 0.2, 0.2, 0.2;
  (high, medium, loss, medium, high, high) 0.2, 0.2, 0.2, 0.2, 0.2;
  (medium, medium, loss, medium, high, high) 0.2, 0.2, 0.2, 0.2, 0.2;
  (low, medium, loss, medium, high, high) 0.1, 0.1, 0.1, 0.6, 0.1;
  (high, low, loss, medium, high, high) 0.2, 0.2, 0.2, 0.2, 0.2;
  (medium, low, loss, medium, high, high) 0.2, 0.2, 0.2, 0.2, 0.2;
  (low, low, loss, medium, high, high) 0.2, 0.2, 0.2, 0.2, 0.2;
  (high, high, gain, low, high, high) 0.1, 0.1, 0.6, 0.1, 0.1;
  (medium, high, gain, low, high, high) 0.6, 0.1, 0.1, 0.1, 0.1;
  (low, high, gain, low, high, high) 0.2, 0.2, 0.2, 0.2, 0.2;
  (high, medium, gain, low, high, high) 0.06666667, 0.40000000, 0.40000000, 0.06666667, 0.06666667;
  (medium, medium, gain, low, high, high) 0.2, 0.2, 0.2, 0.2, 0.2;
  (low, medium, gain, low, high, high) 0.2, 0.2, 0.2, 0.2, 0.2;
  (high, low, gain, low, high, high) 0.06666667, 0.06666667, 0.06666667, 0.40000000, 0.40000000;
  (medium, low, gain, low, high, high) 0.2, 0.2, 0.2, 0.2, 0.2;
  (low, low, gain, low, high, high) 0.1, 0.1, 0.1, 0.6, 0.1;
  (high, high, nonloss, low, high, high) 0.06666667, 0.40000000, 0.40000000, 0.06666667, 0.06666667;
  (medium, high, nonloss, low, high, high) 0.1, 0.1, 0.1, 0.1, 0.6;
  (low, high, nonloss, low, high, high) 0.2, 0.2, 0.2, 0.2, 0.2;
  (high, medium, nonloss, low, high, high) 0.2, 0.2, 0.2, 0.2, 0.2;
  (medium, medium, nonloss, low, high, high) 0.2, 0.2, 0.2, 0.2, 0.2;
  (low, medium, nonloss, low, high, high) 0.2, 0.2, 0.2, 0.2, 0.2;
  (high, low, nonloss, low, high, high) 0.2, 0.2, 0.2, 0.2, 0.2;
  (medium, low, nonloss, low, high, high) 0.2, 0.2, 0.2, 0.2, 0.2;
  (low, low, nonloss, low, high, high) 0.06666667, 0.06666667, 0.73333333, 0.06666667, 0.06666667;
  (high, high, nongain, low, high, high) 0.2, 0.2, 0.2, 0.2, 0.2;
  (medium, high, nongain, low, high, high) 0.2, 0.2, 0.2, 0.2, 0.2;
  (low, high, nongain, low, high, high) 0.2, 0.2, 0.2, 0.2, 0.2;
  (high, medium, nongain, low, high, high) 0.1, 0.1, 0.6, 0.1, 0.1;
  (medium, medium, nongain, low, high, high) 0.2, 0.2, 0.2, 0.2, 0.2;
  (low, medium, nongain, low, high, high) 0.2, 0.2, 0.2, 0.2, 0.2;
  (high, low, nongain, low, high, high) 0.2, 0.2, 0.2, 0.2, 0.2;
  (medium, low, nongain, low, high, high) 0.2, 0.2, 0.2, 0.2, 0.2;
  (low, low, nongain, low, high, high) 0.1, 0.1, 0.1, 0.6, 0.1;
  (high, high, loss, low, high, high) 0.2, 0.2, 0.2, 0.2, 0.2;
  (medium, high, loss, low, high, high) 0.2, 0.2, 0.2, 0.2, 0.2;
  (low, high, loss, low, high, high) 0.2, 0.2, 0.2, 0.2, 0.2;
  (high, medium, loss, low, high, high) 0.2, 0.2, 0.2, 0.2, 0.2;
  (medium, medium, loss, low, high, high) 0.2, 0.2, 0.2, 0.2, 0.2;
  (low, medium, loss, low, high, high) 0.2, 0.2, 0.2, 0.2, 0.2;
  (high, low, loss, low, high, high) 0.1, 0.1, 0.1, 0.6, 0.1;
  (medium, low, loss, low, high, high) 0.2, 0.2, 0.2, 0.2, 0.2;
  (low, low, loss, low, high, high) 0.2, 0.2, 0.2, 0.2, 0.2;
  (high, high, gain, high, medium, high) 0.1, 0.1, 0.1, 0.6, 0.1;
  (medium, high, gain, high, medium, high) 0.6, 0.1, 0.1, 0.1, 0.1;
  (low, high, gain, high, medium, high) 0.2, 0.2, 0.2, 0.2, 0.2;
  (high, medium, gain, high, medium, high) 0.06666667, 0.40000000, 0.40000000, 0.06666667, 0.06666667;
  (medium, medium, gain, high, medium, high) 0.2, 0.2, 0.2, 0.2, 0.2;
  (low, medium, gain, high, medium, high) 0.2, 0.2, 0.2, 0.2, 0.2;
  (high, low, gain, high, medium, high) 0.06666667, 0.73333333, 0.06666667, 0.06666667, 0.06666667;
  (medium, low, gain, high, medium, high) 0.2, 0.2, 0.2, 0.2, 0.2;
  (low, low, gain, high, medium, high) 0.2, 0.2, 0.2, 0.2, 0.2;
  (high, high, nonloss, high, medium, high) 0.40000000, 0.40000000, 0.06666667, 0.06666667, 0.06666667;
  (medium, high, nonloss, high, medium, high) 0.06666667, 0.40000000, 0.06666667, 0.40000000, 0.06666667;
  (low, high, nonloss, high, medium, high) 0.1, 0.1, 0.1, 0.1, 0.6;
  (high, medium, nonloss, high, medium, high) 0.1, 0.6, 0.1, 0.1, 0.1;
  (medium, medium, nonloss, high, medium, high) 0.2, 0.2, 0.2, 0.2, 0.2;
  (low, medium, nonloss, high, medium, high) 0.1, 0.1, 0.1, 0.6, 0.1;
  (high, low, nonloss, high, medium, high) 0.2, 0.2, 0.2, 0.2, 0.2;
  (medium, low, nonloss, high, medium, high) 0.06666667, 0.40000000, 0.40000000, 0.06666667, 0.06666667;
  (low, low, nonloss, high, medium, high) 0.2, 0.2, 0.2, 0.2, 0.2;
  (high, high, nongain, high, medium, high) 0.1, 0.1, 0.6, 0.1, 0.1;
  (medium, high, nongain, high, medium, high) 0.2, 0.2, 0.2, 0.2, 0.2;
  (low, high, nongain, high, medium, high) 0.2, 0.2, 0.2, 0.2, 0.2;
  (high, medium, nongain, high, medium, high) 0.2, 0.2, 0.2, 0.2, 0.2;
  (medium, medium, nongain, high, medium, high) 0.2, 0.2, 0.2, 0.2, 0.2;
  (low, medium, nongain, high, medium, high) 0.2, 0.2, 0.2, 0.2, 0.2;
  (high, low, nongain, high, medium, high) 0.2, 0.2, 0.2, 0.2, 0.2;
  (medium, low, nongain, high, medium, high) 0.1, 0.1, 0.1, 0.1, 0.6;
  (low, low, nongain, high, medium, high) 0.40000000, 0.06666667, 0.06666667, 0.40000000, 0.06666667;
  (high, high, loss, high, medium, high) 0.1, 0.1, 0.1, 0.1, 0.6;
  (medium, high, loss, high, medium, high) 0.6, 0.1, 0.1, 0.1, 0.1;
  (low, high, loss, high, medium, high) 0.2, 0.2, 0.2, 0.2, 0.2;
  (high, medium, loss, high, medium, high) 0.1, 0.1, 0.1, 0.1, 0.6;
  (medium, medium, loss, high, medium, high) 0.2, 0.2, 0.2, 0.2, 0.2;
  (low, medium, loss, high, medium, high) 0.2, 0.2, 0.2, 0.2, 0.2;
  (high, low, loss, high, medium, high) 0.1, 0.6, 0.1, 0.1, 0.1;
  (medium, low, loss, high, medium, high) 0.1, 0.6, 0.1, 0.1, 0.1;
  (low, low, loss, high, medium, high) 0.2, 0.2, 0.2, 0.2, 0.2;
  (high, high, gain, medium, medium, high) 0.80, 0.05, 0.05, 0.05, 0.05;
  (medium, high, gain, medium, medium, high) 0.06666667, 0.73333333, 0.06666667, 0.06666667, 0.06666667;
  (low, high, gain, medium, medium, high) 0.2, 0.2, 0.2, 0.2, 0.2;
  (high, medium, gain, medium, medium, high) 0.2, 0.2, 0.2, 0.2, 0.2;
  (medium, medium, gain, medium, medium, high) 0.1, 0.1, 0.6, 0.1, 0.1;
  (low, medium, gain, medium, medium, high) 0.2, 0.2, 0.2, 0.2, 0.2;
  (high, low, gain, medium, medium, high) 0.1, 0.1, 0.6, 0.1, 0.1;
  (medium, low, gain, medium, medium, high) 0.2, 0.2, 0.2, 0.2, 0.2;
  (low, low, gain, medium, medium, high) 0.2, 0.2, 0.2, 0.2, 0.2;
  (high, high, nonloss, medium, medium, high) 0.1, 0.6, 0.1, 0.1, 0.1;
  (medium, high, nonloss, medium, medium, high) 0.1, 0.6, 0.1, 0.1, 0.1;
  (low, high, nonloss, medium, medium, high) 0.2, 0.2, 0.2, 0.2, 0.2;
  (high, medium, nonloss, medium, medium, high) 0.2, 0.2, 0.2, 0.2, 0.2;
  (medium, medium, nonloss, medium, medium, high) 0.06666667, 0.40000000, 0.06666667, 0.40000000, 0.06666667;
  (low, medium, nonloss, medium, medium, high) 0.2, 0.2, 0.2, 0.2, 0.2;
  (high, low, nonloss, medium, medium, high) 0.2, 0.2, 0.2, 0.2, 0.2;
  (medium, low, nonloss, medium, medium, high) 0.24, 0.04, 0.64, 0.04, 0.04;
  (low, low, nonloss, medium, medium, high) 0.1, 0.6, 0.1, 0.1, 0.1;
  (high, high, nongain, medium, medium, high) 0.2, 0.2, 0.2, 0.2, 0.2;
  (medium, high, nongain, medium, medium, high) 0.2, 0.2, 0.2, 0.2, 0.2;
  (low, high, nongain, medium, medium, high) 0.06666667, 0.06666667, 0.40000000, 0.40000000, 0.06666667;
  (high, medium, nongain, medium, medium, high) 0.2, 0.2, 0.2, 0.2, 0.2;
  (medium, medium, nongain, medium, medium, high) 0.6, 0.1, 0.1, 0.1, 0.1;
  (low, medium, nongain, medium, medium, high) 0.2, 0.2, 0.2, 0.2, 0.2;
  (high, low, nongain, medium, medium, high) 0.6, 0.1, 0.1, 0.1, 0.1;
  (medium, low, nongain, medium, medium, high) 0.2, 0.2, 0.2, 0.2, 0.2;
  (low, low, nongain, medium, medium, high) 0.2, 0.2, 0.2, 0.2, 0.2;
  (high, high, loss, medium, medium, high) 0.2, 0.2, 0.2, 0.2, 0.2;
  (medium, high, loss, medium, medium, high) 0.2, 0.2, 0.2, 0.2, 0.2;
  (low, high, loss, medium, medium, high) 0.2, 0.2, 0.2, 0.2, 0.2;
  (high, medium, loss, medium, medium, high) 0.2, 0.2, 0.2, 0.2, 0.2;
  (medium, medium, loss, medium, medium, high) 0.2, 0.2, 0.2, 0.2, 0.2;
  (low, medium, loss, medium, medium, high) 0.2, 0.2, 0.2, 0.2, 0.2;
  (high, low, loss, medium, medium, high) 0.2, 0.2, 0.2, 0.2, 0.2;
  (medium, low, loss, medium, medium, high) 0.1, 0.1, 0.6, 0.1, 0.1;
  (low, low, loss, medium, medium, high) 0.2, 0.2, 0.2, 0.2, 0.2;
  (high, high, gain, low, medium, high) 0.1, 0.1, 0.6, 0.1, 0.1;
  (medium, high, gain, low, medium, high) 0.1, 0.1, 0.6, 0.1, 0.1;
  (low, high, gain, low, medium, high) 0.2, 0.2, 0.2, 0.2, 0.2;
  (high, medium, gain, low, medium, high) 0.1, 0.1, 0.6, 0.1, 0.1;
  (medium, medium, gain, low, medium, high) 0.2, 0.2, 0.2, 0.2, 0.2;
  (low, medium, gain, low, medium, high) 0.2, 0.2, 0.2, 0.2, 0.2;
  (high, low, gain, low, medium, high) 0.2, 0.2, 0.2, 0.2, 0.2;
  (medium, low, gain, low, medium, high) 0.2, 0.2, 0.2, 0.2, 0.2;
  (low, low, gain, low, medium, high) 0.2, 0.2, 0.2, 0.2, 0.2;
  (high, high, nonloss, low, medium, high) 0.1, 0.1, 0.6, 0.1, 0.1;
  (medium, high, nonloss, low, medium, high) 0.06666667, 0.40000000, 0.40000000, 0.06666667, 0.06666667;
  (low, high, nonloss, low, medium, high) 0.2, 0.2, 0.2, 0.2, 0.2;
  (high, medium, nonloss, low, medium, high) 0.1, 0.1, 0.1, 0.6, 0.1;
  (medium, medium, nonloss, low, medium, high) 0.06666667, 0.06666667, 0.40000000, 0.40000000, 0.06666667;
  (low, medium, nonloss, low, medium, high) 0.2, 0.2, 0.2, 0.2, 0.2;
  (high, low, nonloss, low, medium, high) 0.2, 0.2, 0.2, 0.2, 0.2;
  (medium, low, nonloss, low, medium, high) 0.1, 0.1, 0.6, 0.1, 0.1;
  (low, low, nonloss, low, medium, high) 0.40000000, 0.06666667, 0.06666667, 0.40000000, 0.06666667;
  (high, high, nongain, low, medium, high) 0.2, 0.2, 0.2, 0.2, 0.2;
  (medium, high, nongain, low, medium, high) 0.2, 0.2, 0.2, 0.2, 0.2;
  (low, high, nongain, low, medium, high) 0.06666667, 0.06666667, 0.06666667, 0.06666667, 0.73333333;
  (high, medium, nongain, low, medium, high) 0.2, 0.2, 0.2, 0.2, 0.2;
  (medium, medium, nongain, low, medium, high) 0.2, 0.2, 0.2, 0.2, 0.2;
  (low, medium, nongain, low, medium, high) 0.2, 0.2, 0.2, 0.2, 0.2;
  (high, low, nongain, low, medium, high) 0.2, 0.2, 0.2, 0.2, 0.2;
  (medium, low, nongain, low, medium, high) 0.2, 0.2, 0.2, 0.2, 0.2;
  (low, low, nongain, low, medium, high) 0.2, 0.2, 0.2, 0.2, 0.2;
  (high, high, loss, low, medium, high) 0.06666667, 0.40000000, 0.06666667, 0.40000000, 0.06666667;
  (medium, high, loss, low, medium, high) 0.2, 0.2, 0.2, 0.2, 0.2;
  (low, high, loss, low, medium, high) 0.2, 0.2, 0.2, 0.2, 0.2;
  (high, medium, loss, low, medium, high) 0.1, 0.6, 0.1, 0.1, 0.1;
  (medium, medium, loss, low, medium, high) 0.2, 0.2, 0.2, 0.2, 0.2;
  (low, medium, loss, low, medium, high) 0.2, 0.2, 0.2, 0.2, 0.2;
  (high, low, loss, low, medium, high) 0.1, 0.6, 0.1, 0.1, 0.1;
  (medium, low, loss, low, medium, high) 0.2, 0.2, 0.2, 0.2, 0.2;
  (low, low, loss, low, medium, high) 0.2, 0.2, 0.2, 0.2, 0.2;
  (high, high, gain, high, low, high) 0.06666667, 0.06666667, 0.40000000, 0.06666667, 0.40000000;
  (medium, high, gain, high, low, high) 0.2, 0.2, 0.2, 0.2, 0.2;
  (low, high, gain, high, low, high) 0.1, 0.6, 0.1, 0.1, 0.1;
  (high, medium, gain, high, low, high) 0.2, 0.2, 0.2, 0.2, 0.2;
  (medium, medium, gain, high, low, high) 0.2, 0.2, 0.2, 0.2, 0.2;
  (low, medium, gain, high, low, high) 0.2, 0.2, 0.2, 0.2, 0.2;
  (high, low, gain, high, low, high) 0.2, 0.2, 0.2, 0.2, 0.2;
  (medium, low, gain, high, low, high) 0.1, 0.1, 0.1, 0.6, 0.1;
  (low, low, gain, high, low, high) 0.2, 0.2, 0.2, 0.2, 0.2;
  (high, high, nonloss, high, low, high) 0.1, 0.1, 0.6, 0.1, 0.1;
  (medium, high, nonloss, high, low, high) 0.2, 0.2, 0.2, 0.2, 0.2;
  (low, high, nonloss, high, low, high) 0.2, 0.2, 0.2, 0.2, 0.2;
  (high, medium, nonloss, high, low, high) 0.2, 0.2, 0.2, 0.2, 0.2;
  (medium, medium, nonloss, high, low, high) 0.2, 0.2, 0.2, 0.2, 0.2;
  (low, medium, nonloss, high, low, high) 0.2, 0.2, 0.2, 0.2, 0.2;
  (high, low, nonloss, high, low, high) 0.2, 0.2, 0.2, 0.2, 0.2;
  (medium, low, nonloss, high, low, high) 0.2, 0.2, 0.2, 0.2, 0.2;
  (low, low, nonloss, high, low, high) 0.1, 0.6, 0.1, 0.1, 0.1;
  (high, high, nongain, high, low, high) 0.2, 0.2, 0.2, 0.2, 0.2;
  (medium, high, nongain, high, low, high) 0.1, 0.1, 0.6, 0.1, 0.1;
  (low, high, nongain, high, low, high) 0.2, 0.2, 0.2, 0.2, 0.2;
  (high, medium, nongain, high, low, high) 0.2, 0.2, 0.2, 0.2, 0.2;
  (medium, medium, nongain, high, low, high) 0.1, 0.1, 0.6, 0.1, 0.1;
  (low, medium, nongain, high, low, high) 0.2, 0.2, 0.2, 0.2, 0.2;
  (high, low, nongain, high, low, high) 0.1, 0.1, 0.1, 0.6, 0.1;
  (medium, low, nongain, high, low, high) 0.06666667, 0.06666667, 0.06666667, 0.73333333, 0.06666667;
  (low, low, nongain, high, low, high) 0.1, 0.6, 0.1, 0.1, 0.1;
  (high, high, loss, high, low, high) 0.2, 0.2, 0.2, 0.2, 0.2;
  (medium, high, loss, high, low, high) 0.2, 0.2, 0.2, 0.2, 0.2;
  (low, high, loss, high, low, high) 0.6, 0.1, 0.1, 0.1, 0.1;
  (high, medium, loss, high, low, high) 0.1, 0.1, 0.6, 0.1, 0.1;
  (medium, medium, loss, high, low, high) 0.2, 0.2, 0.2, 0.2, 0.2;
  (low, medium, loss, high, low, high) 0.2, 0.2, 0.2, 0.2, 0.2;
  (high, low, loss, high, low, high) 0.2, 0.2, 0.2, 0.2, 0.2;
  (medium, low, loss, high, low, high) 0.2, 0.2, 0.2, 0.2, 0.2;
  (low, low, loss, high, low, high) 0.2, 0.2, 0.2, 0.2, 0.2;
  (high, high, gain, medium, low, high) 0.1, 0.1, 0.6, 0.1, 0.1;
  (medium, high, gain, medium, low, high) 0.2, 0.2, 0.2, 0.2, 0.2;
  (low, high, gain, medium, low, high) 0.2, 0.2, 0.2, 0.2, 0.2;
  (high, medium, gain, medium, low, high) 0.2, 0.2, 0.2, 0.2, 0.2;
  (medium, medium, gain, medium, low, high) 0.2, 0.2, 0.2, 0.2, 0.2;
  (low, medium, gain, medium, low, high) 0.1, 0.1, 0.1, 0.6, 0.1;
  (high, low, gain, medium, low, high) 0.2, 0.2, 0.2, 0.2, 0.2;
  (medium, low, gain, medium, low, high) 0.24, 0.24, 0.44, 0.04, 0.04;
  (low, low, gain, medium, low, high) 0.2, 0.2, 0.2, 0.2, 0.2;
  (high, high, nonloss, medium, low, high) 0.2, 0.2, 0.2, 0.2, 0.2;
  (medium, high, nonloss, medium, low, high) 0.1, 0.1, 0.6, 0.1, 0.1;
  (low, high, nonloss, medium, low, high) 0.2, 0.2, 0.2, 0.2, 0.2;
  (high, medium, nonloss, medium, low, high) 0.2, 0.2, 0.2, 0.2, 0.2;
  (medium, medium, nonloss, medium, low, high) 0.1, 0.1, 0.1, 0.6, 0.1;
  (low, medium, nonloss, medium, low, high) 0.2, 0.2, 0.2, 0.2, 0.2;
  (high, low, nonloss, medium, low, high) 0.05, 0.05, 0.05, 0.55, 0.30;
  (medium, low, nonloss, medium, low, high) 0.2, 0.2, 0.2, 0.2, 0.2;
  (low, low, nonloss, medium, low, high) 0.1, 0.1, 0.6, 0.1, 0.1;
  (high, high, nongain, medium, low, high) 0.2, 0.2, 0.2, 0.2, 0.2;
  (medium, high, nongain, medium, low, high) 0.06666667, 0.06666667, 0.40000000, 0.40000000, 0.06666667;
  (low, high, nongain, medium, low, high) 0.2, 0.2, 0.2, 0.2, 0.2;
  (high, medium, nongain, medium, low, high) 0.1, 0.1, 0.1, 0.1, 0.6;
  (medium, medium, nongain, medium, low, high) 0.1, 0.1, 0.1, 0.6, 0.1;
  (low, medium, nongain, medium, low, high) 0.2, 0.2, 0.2, 0.2, 0.2;
  (high, low, nongain, medium, low, high) 0.2, 0.2, 0.2, 0.2, 0.2;
  (medium, low, nongain, medium, low, high) 0.1, 0.1, 0.1, 0.6, 0.1;
  (low, low, nongain, medium, low, high) 0.2, 0.2, 0.2, 0.2, 0.2;
  (high, high, loss, medium, low, high) 0.2, 0.2, 0.2, 0.2, 0.2;
  (medium, high, loss, medium, low, high) 0.2, 0.2, 0.2, 0.2, 0.2;
  (low, high, loss, medium, low, high) 0.2, 0.2, 0.2, 0.2, 0.2;
  (high, medium, loss, medium, low, high) 0.2, 0.2, 0.2, 0.2, 0.2;
  (medium, medium, loss, medium, low, high) 0.2, 0.2, 0.2, 0.2, 0.2;
  (low, medium, loss, medium, low, high) 0.2, 0.2, 0.2, 0.2, 0.2;
  (high, low, loss, medium, low, high) 0.2, 0.2, 0.2, 0.2, 0.2;
  (medium, low, loss, medium, low, high) 0.2, 0.2, 0.2, 0.2, 0.2;
  (low, low, loss, medium, low, high) 0.2, 0.2, 0.2, 0.2, 0.2;
  (high, high, gain, low, low, high) 0.2, 0.2, 0.2, 0.2, 0.2;
  (medium, high, gain, low, low, high) 0.2, 0.2, 0.2, 0.2, 0.2;
  (low, high, gain, low, low, high) 0.2, 0.2, 0.2, 0.2, 0.2;
  (high, medium, gain, low, low, high) 0.2, 0.2, 0.2, 0.2, 0.2;
  (medium, medium, gain, low, low, high) 0.2, 0.2, 0.2, 0.2, 0.2;
  (low, medium, gain, low, low, high) 0.2, 0.2, 0.2, 0.2, 0.2;
  (high, low, gain, low, low, high) 0.1, 0.1, 0.1, 0.1, 0.6;
  (medium, low, gain, low, low, high) 0.06666667, 0.06666667, 0.06666667, 0.73333333, 0.06666667;
  (low, low, gain, low, low, high) 0.40000000, 0.40000000, 0.06666667, 0.06666667, 0.06666667;
  (high, high, nonloss, low, low, high) 0.2, 0.2, 0.2, 0.2, 0.2;
  (medium, high, nonloss, low, low, high) 0.2, 0.2, 0.2, 0.2, 0.2;
  (low, high, nonloss, low, low, high) 0.6, 0.1, 0.1, 0.1, 0.1;
  (high, medium, nonloss, low, low, high) 0.2, 0.2, 0.2, 0.2, 0.2;
  (medium, medium, nonloss, low, low, high) 0.2, 0.2, 0.2, 0.2, 0.2;
  (low, medium, nonloss, low, low, high) 0.1, 0.1, 0.1, 0.1, 0.6;
  (high, low, nonloss, low, low, high) 0.2, 0.2, 0.2, 0.2, 0.2;
  (medium, low, nonloss, low, low, high) 0.2, 0.2, 0.2, 0.2, 0.2;
  (low, low, nonloss, low, low, high) 0.2, 0.2, 0.2, 0.2, 0.2;
  (high, high, nongain, low, low, high) 0.2, 0.2, 0.2, 0.2, 0.2;
  (medium, high, nongain, low, low, high) 0.1, 0.6, 0.1, 0.1, 0.1;
  (low, high, nongain, low, low, high) 0.1, 0.1, 0.1, 0.1, 0.6;
  (high, medium, nongain, low, low, high) 0.2, 0.2, 0.2, 0.2, 0.2;
  (medium, medium, nongain, low, low, high) 0.2, 0.2, 0.2, 0.2, 0.2;
  (low, medium, nongain, low, low, high) 0.2, 0.2, 0.2, 0.2, 0.2;
  (high, low, nongain, low, low, high) 0.2, 0.2, 0.2, 0.2, 0.2;
  (medium, low, nongain, low, low, high) 0.2, 0.2, 0.2, 0.2, 0.2;
  (low, low, nongain, low, low, high) 0.2, 0.2, 0.2, 0.2, 0.2;
  (high, high, loss, low, low, high) 0.2, 0.2, 0.2, 0.2, 0.2;
  (medium, high, loss, low, low, high) 0.2, 0.2, 0.2, 0.2, 0.2;
  (low, high, loss, low, low, high) 0.2, 0.2, 0.2, 0.2, 0.2;
  (high, medium, loss, low, low, high) 0.2, 0.2, 0.2, 0.2, 0.2;
  (medium, medium, loss, low, low, high) 0.2, 0.2, 0.2, 0.2, 0.2;
  (low, medium, loss, low, low, high) 0.1, 0.1, 0.1, 0.1, 0.6;
  (high, low, loss, low, low, high) 0.2, 0.2, 0.2, 0.2, 0.2;
  (medium, low, loss, low, low, high) 0.1, 0.1, 0.6, 0.1, 0.1;
  (low, low, loss, low, low, high) 0.1, 0.1, 0.1, 0.1, 0.6;
  (high, high, gain, high, high, medium) 0.6, 0.1, 0.1, 0.1, 0.1;
  (medium, high, gain, high, high, medium) 0.1, 0.1, 0.1, 0.1, 0.6;
  (low, high, gain, high, high, medium) 0.2, 0.2, 0.2, 0.2, 0.2;
  (high, medium, gain, high, high, medium) 0.1, 0.6, 0.1, 0.1, 0.1;
  (medium, medium, gain, high, high, medium) 0.2, 0.2, 0.2, 0.2, 0.2;
  (low, medium, gain, high, high, medium) 0.1, 0.1, 0.1, 0.6, 0.1;
  (high, low, gain, high, high, medium) 0.2, 0.2, 0.2, 0.2, 0.2;
  (medium, low, gain, high, high, medium) 0.2, 0.2, 0.2, 0.2, 0.2;
  (low, low, gain, high, high, medium) 0.2, 0.2, 0.2, 0.2, 0.2;
  (high, high, nonloss, high, high, medium) 0.2, 0.2, 0.2, 0.2, 0.2;
  (medium, high, nonloss, high, high, medium) 0.06666667, 0.73333333, 0.06666667, 0.06666667, 0.06666667;
  (low, high, nonloss, high, high, medium) 0.1, 0.1, 0.1, 0.6, 0.1;
  (high, medium, nonloss, high, high, medium) 0.2, 0.2, 0.2, 0.2, 0.2;
  (medium, medium, nonloss, high, high, medium) 0.06666667, 0.73333333, 0.06666667, 0.06666667, 0.06666667;
  (low, medium, nonloss, high, high, medium) 0.1, 0.1, 0.6, 0.1, 0.1;
  (high, low, nonloss, high, high, medium) 0.2, 0.2, 0.2, 0.2, 0.2;
  (medium, low, nonloss, high, high, medium) 0.2, 0.2, 0.2, 0.2, 0.2;
  (low, low, nonloss, high, high, medium) 0.1, 0.1, 0.1, 0.6, 0.1;
  (high, high, nongain, high, high, medium) 0.2, 0.2, 0.2, 0.2, 0.2;
  (medium, high, nongain, high, high, medium) 0.6, 0.1, 0.1, 0.1, 0.1;
  (low, high, nongain, high, high, medium) 0.2, 0.2, 0.2, 0.2, 0.2;
  (high, medium, nongain, high, high, medium) 0.1, 0.6, 0.1, 0.1, 0.1;
  (medium, medium, nongain, high, high, medium) 0.2, 0.2, 0.2, 0.2, 0.2;
  (low, medium, nongain, high, high, medium) 0.2, 0.2, 0.2, 0.2, 0.2;
  (high, low, nongain, high, high, medium) 0.1, 0.1, 0.1, 0.6, 0.1;
  (medium, low, nongain, high, high, medium) 0.06666667, 0.73333333, 0.06666667, 0.06666667, 0.06666667;
  (low, low, nongain, high, high, medium) 0.2, 0.2, 0.2, 0.2, 0.2;
  (high, high, loss, high, high, medium) 0.06666667, 0.06666667, 0.73333333, 0.06666667, 0.06666667;
  (medium, high, loss, high, high, medium) 0.1, 0.1, 0.6, 0.1, 0.1;
  (low, high, loss, high, high, medium) 0.2, 0.2, 0.2, 0.2, 0.2;
  (high, medium, loss, high, high, medium) 0.1, 0.1, 0.1, 0.6, 0.1;
  (medium, medium, loss, high, high, medium) 0.06666667, 0.40000000, 0.06666667, 0.40000000, 0.06666667;
  (low, medium, loss, high, high, medium) 0.2, 0.2, 0.2, 0.2, 0.2;
  (high, low, loss, high, high, medium) 0.06666667, 0.06666667, 0.06666667, 0.73333333, 0.06666667;
  (medium, low, loss, high, high, medium) 0.2, 0.2, 0.2, 0.2, 0.2;
  (low, low, loss, high, high, medium) 0.1, 0.6, 0.1, 0.1, 0.1;
  (high, high, gain, medium, high, medium) 0.6, 0.1, 0.1, 0.1, 0.1;
  (medium, high, gain, medium, high, medium) 0.2, 0.2, 0.2, 0.2, 0.2;
  (low, high, gain, medium, high, medium) 0.2, 0.2, 0.2, 0.2, 0.2;
  (high, medium, gain, medium, high, medium) 0.1, 0.1, 0.6, 0.1, 0.1;
  (medium, medium, gain, medium, high, medium) 0.2, 0.2, 0.2, 0.2, 0.2;
  (low, medium, gain, medium, high, medium) 0.2, 0.2, 0.2, 0.2, 0.2;
  (high, low, gain, medium, high, medium) 0.2, 0.2, 0.2, 0.2, 0.2;
  (medium, low, gain, medium, high, medium) 0.2, 0.2, 0.2, 0.2, 0.2;
  (low, low, gain, medium, high, medium) 0.2, 0.2, 0.2, 0.2, 0.2;
  (high, high, nonloss, medium, high, medium) 0.6, 0.1, 0.1, 0.1, 0.1;
  (medium, high, nonloss, medium, high, medium) 0.06666667, 0.73333333, 0.06666667, 0.06666667, 0.06666667;
  (low, high, nonloss, medium, high, medium) 0.2, 0.2, 0.2, 0.2, 0.2;
  (high, medium, nonloss, medium, high, medium) 0.2, 0.2, 0.2, 0.2, 0.2;
  (medium, medium, nonloss, medium, high, medium) 0.2, 0.2, 0.2, 0.2, 0.2;
  (low, medium, nonloss, medium, high, medium) 0.2, 0.2, 0.2, 0.2, 0.2;
  (high, low, nonloss, medium, high, medium) 0.2, 0.2, 0.2, 0.2, 0.2;
  (medium, low, nonloss, medium, high, medium) 0.6, 0.1, 0.1, 0.1, 0.1;
  (low, low, nonloss, medium, high, medium) 0.2, 0.2, 0.2, 0.2, 0.2;
  (high, high, nongain, medium, high, medium) 0.2, 0.2, 0.2, 0.2, 0.2;
  (medium, high, nongain, medium, high, medium) 0.2, 0.2, 0.2, 0.2, 0.2;
  (low, high, nongain, medium, high, medium) 0.1, 0.1, 0.6, 0.1, 0.1;
  (high, medium, nongain, medium, high, medium) 0.2, 0.2, 0.2, 0.2, 0.2;
  (medium, medium, nongain, medium, high, medium) 0.2, 0.2, 0.2, 0.2, 0.2;
  (low, medium, nongain, medium, high, medium) 0.6, 0.1, 0.1, 0.1, 0.1;
  (high, low, nongain, medium, high, medium) 0.1, 0.1, 0.1, 0.1, 0.6;
  (medium, low, nongain, medium, high, medium) 0.2, 0.2, 0.2, 0.2, 0.2;
  (low, low, nongain, medium, high, medium) 0.1, 0.1, 0.1, 0.6, 0.1;
  (high, high, loss, medium, high, medium) 0.06666667, 0.40000000, 0.06666667, 0.40000000, 0.06666667;
  (medium, high, loss, medium, high, medium) 0.1, 0.1, 0.1, 0.1, 0.6;
  (low, high, loss, medium, high, medium) 0.2, 0.2, 0.2, 0.2, 0.2;
  (high, medium, loss, medium, high, medium) 0.73333333, 0.06666667, 0.06666667, 0.06666667, 0.06666667;
  (medium, medium, loss, medium, high, medium) 0.2, 0.2, 0.2, 0.2, 0.2;
  (low, medium, loss, medium, high, medium) 0.2, 0.2, 0.2, 0.2, 0.2;
  (high, low, loss, medium, high, medium) 0.2, 0.2, 0.2, 0.2, 0.2;
  (medium, low, loss, medium, high, medium) 0.2, 0.2, 0.2, 0.2, 0.2;
  (low, low, loss, medium, high, medium) 0.2, 0.2, 0.2, 0.2, 0.2;
  (high, high, gain, low, high, medium) 0.1, 0.1, 0.1, 0.6, 0.1;
  (medium, high, gain, low, high, medium) 0.2, 0.2, 0.2, 0.2, 0.2;
  (low, high, gain, low, high, medium) 0.2, 0.2, 0.2, 0.2, 0.2;
  (high, medium, gain, low, high, medium) 0.04, 0.04, 0.44, 0.44, 0.04;
  (medium, medium, gain, low, high, medium) 0.40000000, 0.06666667, 0.06666667, 0.40000000, 0.06666667;
  (low, medium, gain, low, high, medium) 0.2, 0.2, 0.2, 0.2, 0.2;
  (high, low, gain, low, high, medium) 0.1, 0.1, 0.1, 0.1, 0.6;
  (medium, low, gain, low, high, medium) 0.2, 0.2, 0.2, 0.2, 0.2;
  (low, low, gain, low, high, medium) 0.1, 0.1, 0.6, 0.1, 0.1;
  (high, high, nonloss, low, high, medium) 0.2, 0.2, 0.2, 0.2, 0.2;
  (medium, high, nonloss, low, high, medium) 0.2, 0.2, 0.2, 0.2, 0.2;
  (low, high, nonloss, low, high, medium) 0.1, 0.6, 0.1, 0.1, 0.1;
  (high, medium, nonloss, low, high, medium) 0.1, 0.1, 0.1, 0.6, 0.1;
  (medium, medium, nonloss, low, high, medium) 0.1, 0.1, 0.6, 0.1, 0.1;
  (low, medium, nonloss, low, high, medium) 0.2, 0.2, 0.2, 0.2, 0.2;
  (high, low, nonloss, low, high, medium) 0.2, 0.2, 0.2, 0.2, 0.2;
  (medium, low, nonloss, low, high, medium) 0.1, 0.1, 0.1, 0.6, 0.1;
  (low, low, nonloss, low, high, medium) 0.6, 0.1, 0.1, 0.1, 0.1;
  (high, high, nongain, low, high, medium) 0.2, 0.2, 0.2, 0.2, 0.2;
  (medium, high, nongain, low, high, medium) 0.2, 0.2, 0.2, 0.2, 0.2;
  (low, high, nongain, low, high, medium) 0.1, 0.6, 0.1, 0.1, 0.1;
  (high, medium, nongain, low, high, medium) 0.2, 0.2, 0.2, 0.2, 0.2;
  (medium, medium, nongain, low, high, medium) 0.1, 0.1, 0.1, 0.6, 0.1;
  (low, medium, nongain, low, high, medium) 0.1, 0.1, 0.1, 0.6, 0.1;
  (high, low, nongain, low, high, medium) 0.2, 0.2, 0.2, 0.2, 0.2;
  (medium, low, nongain, low, high, medium) 0.2, 0.2, 0.2, 0.2, 0.2;
  (low, low, nongain, low, high, medium) 0.2, 0.2, 0.2, 0.2, 0.2;
  (high, high, loss, low, high, medium) 0.2, 0.2, 0.2, 0.2, 0.2;
  (medium, high, loss, low, high, medium) 0.6, 0.1, 0.1, 0.1, 0.1;
  (low, high, loss, low, high, medium) 0.2, 0.2, 0.2, 0.2, 0.2;
  (high, medium, loss, low, high, medium) 0.2, 0.2, 0.2, 0.2, 0.2;
  (medium, medium, loss, low, high, medium) 0.2, 0.2, 0.2, 0.2, 0.2;
  (low, medium, loss, low, high, medium) 0.2, 0.2, 0.2, 0.2, 0.2;
  (high, low, loss, low, high, medium) 0.1, 0.6, 0.1, 0.1, 0.1;
  (medium, low, loss, low, high, medium) 0.1, 0.6, 0.1, 0.1, 0.1;
  (low, low, loss, low, high, medium) 0.1, 0.1, 0.1, 0.6, 0.1;
  (high, high, gain, high, medium, medium) 0.2, 0.2, 0.2, 0.2, 0.2;
  (medium, high, gain, high, medium, medium) 0.1, 0.1, 0.1, 0.1, 0.6;
  (low, high, gain, high, medium, medium) 0.06666667, 0.06666667, 0.40000000, 0.40000000, 0.06666667;
  (high, medium, gain, high, medium, medium) 0.06666667, 0.40000000, 0.06666667, 0.40000000, 0.06666667;
  (medium, medium, gain, high, medium, medium) 0.2, 0.2, 0.2, 0.2, 0.2;
  (low, medium, gain, high, medium, medium) 0.1, 0.1, 0.1, 0.6, 0.1;
  (high, low, gain, high, medium, medium) 0.2, 0.2, 0.2, 0.2, 0.2;
  (medium, low, gain, high, medium, medium) 0.2, 0.2, 0.2, 0.2, 0.2;
  (low, low, gain, high, medium, medium) 0.2, 0.2, 0.2, 0.2, 0.2;
  (high, high, nonloss, high, medium, medium) 0.6, 0.1, 0.1, 0.1, 0.1;
  (medium, high, nonloss, high, medium, medium) 0.40000000, 0.06666667, 0.40000000, 0.06666667, 0.06666667;
  (low, high, nonloss, high, medium, medium) 0.2, 0.2, 0.2, 0.2, 0.2;
  (high, medium, nonloss, high, medium, medium) 0.2, 0.2, 0.2, 0.2, 0.2;
  (medium, medium, nonloss, high, medium, medium) 0.2, 0.2, 0.2, 0.2, 0.2;
  (low, medium, nonloss, high, medium, medium) 0.2, 0.2, 0.2, 0.2, 0.2;
  (high, low, nonloss, high, medium, medium) 0.2, 0.2, 0.2, 0.2, 0.2;
  (medium, low, nonloss, high, medium, medium) 0.2, 0.2, 0.2, 0.2, 0.2;
  (low, low, nonloss, high, medium, medium) 0.2, 0.2, 0.2, 0.2, 0.2;
  (high, high, nongain, high, medium, medium) 0.40000000, 0.06666667, 0.06666667, 0.06666667, 0.40000000;
  (medium, high, nongain, high, medium, medium) 0.40000000, 0.06666667, 0.40000000, 0.06666667, 0.06666667;
  (low, high, nongain, high, medium, medium) 0.2, 0.2, 0.2, 0.2, 0.2;
  (high, medium, nongain, high, medium, medium) 0.1, 0.6, 0.1, 0.1, 0.1;
  (medium, medium, nongain, high, medium, medium) 0.2, 0.2, 0.2, 0.2, 0.2;
  (low, medium, nongain, high, medium, medium) 0.06666667, 0.73333333, 0.06666667, 0.06666667, 0.06666667;
  (high, low, nongain, high, medium, medium) 0.1, 0.1, 0.1, 0.1, 0.6;
  (medium, low, nongain, high, medium, medium) 0.1, 0.1, 0.6, 0.1, 0.1;
  (low, low, nongain, high, medium, medium) 0.2, 0.2, 0.2, 0.2, 0.2;
  (high, high, loss, high, medium, medium) 0.2, 0.2, 0.2, 0.2, 0.2;
  (medium, high, loss, high, medium, medium) 0.2, 0.2, 0.2, 0.2, 0.2;
  (low, high, loss, high, medium, medium) 0.2, 0.2, 0.2, 0.2, 0.2;
  (high, medium, loss, high, medium, medium) 0.1, 0.1, 0.1, 0.1, 0.6;
  (medium, medium, loss, high, medium, medium) 0.2, 0.2, 0.2, 0.2, 0.2;
  (low, medium, loss, high, medium, medium) 0.1, 0.1, 0.1, 0.6, 0.1;
  (high, low, loss, high, medium, medium) 0.2, 0.2, 0.2, 0.2, 0.2;
  (medium, low, loss, high, medium, medium) 0.2, 0.2, 0.2, 0.2, 0.2;
  (low, low, loss, high, medium, medium) 0.2, 0.2, 0.2, 0.2, 0.2;
  (high, high, gain, medium, medium, medium) 0.2, 0.2, 0.2, 0.2, 0.2;
  (medium, high, gain, medium, medium, medium) 0.2, 0.2, 0.2, 0.2, 0.2;
  (low, high, gain, medium, medium, medium) 0.2, 0.2, 0.2, 0.2, 0.2;
  (high, medium, gain, medium, medium, medium) 0.2, 0.2, 0.2, 0.2, 0.2;
  (medium, medium, gain, medium, medium, medium) 0.2, 0.2, 0.2, 0.2, 0.2;
  (low, medium, gain, medium, medium, medium) 0.2, 0.2, 0.2, 0.2, 0.2;
  (high, low, gain, medium, medium, medium) 0.2, 0.2, 0.2, 0.2, 0.2;
  (medium, low, gain, medium, medium, medium) 0.1, 0.1, 0.6, 0.1, 0.1;
  (low, low, gain, medium, medium, medium) 0.1, 0.1, 0.6, 0.1, 0.1;
  (high, high, nonloss, medium, medium, medium) 0.04, 0.44, 0.24, 0.24, 0.04;
  (medium, high, nonloss, medium, medium, medium) 0.40000000, 0.40000000, 0.06666667, 0.06666667, 0.06666667;
  (low, high, nonloss, medium, medium, medium) 0.40000000, 0.06666667, 0.06666667, 0.40000000, 0.06666667;
  (high, medium, nonloss, medium, medium, medium) 0.06666667, 0.40000000, 0.40000000, 0.06666667, 0.06666667;
  (medium, medium, nonloss, medium, medium, medium) 0.1, 0.6, 0.1, 0.1, 0.1;
  (low, medium, nonloss, medium, medium, medium) 0.06666667, 0.40000000, 0.06666667, 0.40000000, 0.06666667;
  (high, low, nonloss, medium, medium, medium) 0.2, 0.2, 0.2, 0.2, 0.2;
  (medium, low, nonloss, medium, medium, medium) 0.2, 0.2, 0.2, 0.2, 0.2;
  (low, low, nonloss, medium, medium, medium) 0.2, 0.2, 0.2, 0.2, 0.2;
  (high, high, nongain, medium, medium, medium) 0.1, 0.1, 0.1, 0.6, 0.1;
  (medium, high, nongain, medium, medium, medium) 0.2, 0.2, 0.2, 0.2, 0.2;
  (low, high, nongain, medium, medium, medium) 0.1, 0.6, 0.1, 0.1, 0.1;
  (high, medium, nongain, medium, medium, medium) 0.2, 0.2, 0.2, 0.2, 0.2;
  (medium, medium, nongain, medium, medium, medium) 0.1, 0.1, 0.6, 0.1, 0.1;
  (low, medium, nongain, medium, medium, medium) 0.06666667, 0.40000000, 0.06666667, 0.40000000, 0.06666667;
  (high, low, nongain, medium, medium, medium) 0.2, 0.2, 0.2, 0.2, 0.2;
  (medium, low, nongain, medium, medium, medium) 0.1, 0.6, 0.1, 0.1, 0.1;
  (low, low, nongain, medium, medium, medium) 0.2, 0.2, 0.2, 0.2, 0.2;
  (high, high, loss, medium, medium, medium) 0.2, 0.2, 0.2, 0.2, 0.2;
  (medium, high, loss, medium, medium, medium) 0.2, 0.2, 0.2, 0.2, 0.2;
  (low, high, loss, medium, medium, medium) 0.1, 0.1, 0.6, 0.1, 0.1;
  (high, medium, loss, medium, medium, medium) 0.2, 0.2, 0.2, 0.2, 0.2;
  (medium, medium, loss, medium, medium, medium) 0.1, 0.1, 0.1, 0.1, 0.6;
  (low, medium, loss, medium, medium, medium) 0.1, 0.6, 0.1, 0.1, 0.1;
  (high, low, loss, medium, medium, medium) 0.1, 0.6, 0.1, 0.1, 0.1;
  (medium, low, loss, medium, medium, medium) 0.2, 0.2, 0.2, 0.2, 0.2;
  (low, low, loss, medium, medium, medium) 0.2, 0.2, 0.2, 0.2, 0.2;
  (high, high, gain, low, medium, medium) 0.1, 0.1, 0.1, 0.6, 0.1;
  (medium, high, gain, low, medium, medium) 0.2, 0.2, 0.2, 0.2, 0.2;
  (low, high, gain, low, medium, medium) 0.2, 0.2, 0.2, 0.2, 0.2;
  (high, medium, gain, low, medium, medium) 0.2, 0.2, 0.2, 0.2, 0.2;
  (medium, medium, gain, low, medium, medium) 0.1, 0.6, 0.1, 0.1, 0.1;
  (low, medium, gain, low, medium, medium) 0.40000000, 0.06666667, 0.40000000, 0.06666667, 0.06666667;
  (high, low, gain, low, medium, medium) 0.06666667, 0.06666667, 0.06666667, 0.06666667, 0.73333333;
  (medium, low, gain, low, medium, medium) 0.2, 0.2, 0.2, 0.2, 0.2;
  (low, low, gain, low, medium, medium) 0.1, 0.6, 0.1, 0.1, 0.1;
  (high, high, nonloss, low, medium, medium) 0.2, 0.2, 0.2, 0.2, 0.2;
  (medium, high, nonloss, low, medium, medium) 0.6, 0.1, 0.1, 0.1, 0.1;
  (low, high, nonloss, low, medium, medium) 0.2, 0.2, 0.2, 0.2, 0.2;
  (high, medium, nonloss, low, medium, medium) 0.1, 0.1, 0.1, 0.6, 0.1;
  (medium, medium, nonloss, low, medium, medium) 0.2, 0.2, 0.2, 0.2, 0.2;
  (low, medium, nonloss, low, medium, medium) 0.1, 0.1, 0.1, 0.6, 0.1;
  (high, low, nonloss, low, medium, medium) 0.2, 0.2, 0.2, 0.2, 0.2;
  (medium, low, nonloss, low, medium, medium) 0.06666667, 0.40000000, 0.06666667, 0.06666667, 0.40000000;
  (low, low, nonloss, low, medium, medium) 0.1, 0.1, 0.1, 0.6, 0.1;
  (high, high, nongain, low, medium, medium) 0.1, 0.1, 0.1, 0.6, 0.1;
  (medium, high, nongain, low, medium, medium) 0.2, 0.2, 0.2, 0.2, 0.2;
  (low, high, nongain, low, medium, medium) 0.2, 0.2, 0.2, 0.2, 0.2;
  (high, medium, nongain, low, medium, medium) 0.2, 0.2, 0.2, 0.2, 0.2;
  (medium, medium, nongain, low, medium, medium) 0.2, 0.2, 0.2, 0.2, 0.2;
  (low, medium, nongain, low, medium, medium) 0.06666667, 0.06666667, 0.06666667, 0.73333333, 0.06666667;
  (high, low, nongain, low, medium, medium) 0.1, 0.1, 0.1, 0.6, 0.1;
  (medium, low, nongain, low, medium, medium) 0.1, 0.1, 0.1, 0.1, 0.6;
  (low, low, nongain, low, medium, medium) 0.2, 0.2, 0.2, 0.2, 0.2;
  (high, high, loss, low, medium, medium) 0.2, 0.2, 0.2, 0.2, 0.2;
  (medium, high, loss, low, medium, medium) 0.2, 0.2, 0.2, 0.2, 0.2;
  (low, high, loss, low, medium, medium) 0.2, 0.2, 0.2, 0.2, 0.2;
  (high, medium, loss, low, medium, medium) 0.2, 0.2, 0.2, 0.2, 0.2;
  (medium, medium, loss, low, medium, medium) 0.1, 0.1, 0.6, 0.1, 0.1;
  (low, medium, loss, low, medium, medium) 0.1, 0.1, 0.6, 0.1, 0.1;
  (high, low, loss, low, medium, medium) 0.1, 0.6, 0.1, 0.1, 0.1;
  (medium, low, loss, low, medium, medium) 0.2, 0.2, 0.2, 0.2, 0.2;
  (low, low, loss, low, medium, medium) 0.1, 0.1, 0.1, 0.6, 0.1;
  (high, high, gain, high, low, medium) 0.6, 0.1, 0.1, 0.1, 0.1;
  (medium, high, gain, high, low, medium) 0.2, 0.2, 0.2, 0.2, 0.2;
  (low, high, gain, high, low, medium) 0.2, 0.2, 0.2, 0.2, 0.2;
  (high, medium, gain, high, low, medium) 0.2, 0.2, 0.2, 0.2, 0.2;
  (medium, medium, gain, high, low, medium) 0.1, 0.6, 0.1, 0.1, 0.1;
  (low, medium, gain, high, low, medium) 0.2, 0.2, 0.2, 0.2, 0.2;
  (high, low, gain, high, low, medium) 0.6, 0.1, 0.1, 0.1, 0.1;
  (medium, low, gain, high, low, medium) 0.2, 0.2, 0.2, 0.2, 0.2;
  (low, low, gain, high, low, medium) 0.2, 0.2, 0.2, 0.2, 0.2;
  (high, high, nonloss, high, low, medium) 0.06666667, 0.40000000, 0.40000000, 0.06666667, 0.06666667;
  (medium, high, nonloss, high, low, medium) 0.2, 0.2, 0.2, 0.2, 0.2;
  (low, high, nonloss, high, low, medium) 0.2, 0.2, 0.2, 0.2, 0.2;
  (high, medium, nonloss, high, low, medium) 0.06666667, 0.06666667, 0.40000000, 0.06666667, 0.40000000;
  (medium, medium, nonloss, high, low, medium) 0.1, 0.1, 0.6, 0.1, 0.1;
  (low, medium, nonloss, high, low, medium) 0.2, 0.2, 0.2, 0.2, 0.2;
  (high, low, nonloss, high, low, medium) 0.2, 0.2, 0.2, 0.2, 0.2;
  (medium, low, nonloss, high, low, medium) 0.2, 0.2, 0.2, 0.2, 0.2;
  (low, low, nonloss, high, low, medium) 0.1, 0.1, 0.1, 0.1, 0.6;
  (high, high, nongain, high, low, medium) 0.06666667, 0.06666667, 0.73333333, 0.06666667, 0.06666667;
  (medium, high, nongain, high, low, medium) 0.1, 0.1, 0.1, 0.6, 0.1;
  (low, high, nongain, high, low, medium) 0.2, 0.2, 0.2, 0.2, 0.2;
  (high, medium, nongain, high, low, medium) 0.2, 0.2, 0.2, 0.2, 0.2;
  (medium, medium, nongain, high, low, medium) 0.2, 0.2, 0.2, 0.2, 0.2;
  (low, medium, nongain, high, low, medium) 0.2, 0.2, 0.2, 0.2, 0.2;
  (high, low, nongain, high, low, medium) 0.2, 0.2, 0.2, 0.2, 0.2;
  (medium, low, nongain, high, low, medium) 0.2, 0.2, 0.2, 0.2, 0.2;
  (low, low, nongain, high, low, medium) 0.2, 0.2, 0.2, 0.2, 0.2;
  (high, high, loss, high, low, medium) 0.1, 0.1, 0.1, 0.1, 0.6;
  (medium, high, loss, high, low, medium) 0.2, 0.2, 0.2, 0.2, 0.2;
  (low, high, loss, high, low, medium) 0.2, 0.2, 0.2, 0.2, 0.2;
  (high, medium, loss, high, low, medium) 0.1, 0.1, 0.6, 0.1, 0.1;
  (medium, medium, loss, high, low, medium) 0.2, 0.2, 0.2, 0.2, 0.2;
  (low, medium, loss, high, low, medium) 0.06666667, 0.06666667, 0.06666667, 0.40000000, 0.40000000;
  (high, low, loss, high, low, medium) 0.2, 0.2, 0.2, 0.2, 0.2;
  (medium, low, loss, high, low, medium) 0.2, 0.2, 0.2, 0.2, 0.2;
  (low, low, loss, high, low, medium) 0.2, 0.2, 0.2, 0.2, 0.2;
  (high, high, gain, medium, low, medium) 0.06666667, 0.40000000, 0.40000000, 0.06666667, 0.06666667;
  (medium, high, gain, medium, low, medium) 0.2, 0.2, 0.2, 0.2, 0.2;
  (low, high, gain, medium, low, medium) 0.2, 0.2, 0.2, 0.2, 0.2;
  (high, medium, gain, medium, low, medium) 0.2, 0.2, 0.2, 0.2, 0.2;
  (medium, medium, gain, medium, low, medium) 0.2, 0.2, 0.2, 0.2, 0.2;
  (low, medium, gain, medium, low, medium) 0.2, 0.2, 0.2, 0.2, 0.2;
  (high, low, gain, medium, low, medium) 0.6, 0.1, 0.1, 0.1, 0.1;
  (medium, low, gain, medium, low, medium) 0.2, 0.2, 0.2, 0.2, 0.2;
  (low, low, gain, medium, low, medium) 0.1, 0.6, 0.1, 0.1, 0.1;
  (high, high, nonloss, medium, low, medium) 0.2, 0.2, 0.2, 0.2, 0.2;
  (medium, high, nonloss, medium, low, medium) 0.40000000, 0.06666667, 0.40000000, 0.06666667, 0.06666667;
  (low, high, nonloss, medium, low, medium) 0.2, 0.2, 0.2, 0.2, 0.2;
  (high, medium, nonloss, medium, low, medium) 0.1, 0.1, 0.1, 0.6, 0.1;
  (medium, medium, nonloss, medium, low, medium) 0.1, 0.1, 0.6, 0.1, 0.1;
  (low, medium, nonloss, medium, low, medium) 0.40000000, 0.06666667, 0.40000000, 0.06666667, 0.06666667;
  (high, low, nonloss, medium, low, medium) 0.2, 0.2, 0.2, 0.2, 0.2;
  (medium, low, nonloss, medium, low, medium) 0.1, 0.6, 0.1, 0.1, 0.1;
  (low, low, nonloss, medium, low, medium) 0.1, 0.6, 0.1, 0.1, 0.1;
  (high, high, nongain, medium, low, medium) 0.2, 0.2, 0.2, 0.2, 0.2;
  (medium, high, nongain, medium, low, medium) 0.2, 0.2, 0.2, 0.2, 0.2;
  (low, high, nongain, medium, low, medium) 0.2, 0.2, 0.2, 0.2, 0.2;
  (high, medium, nongain, medium, low, medium) 0.2, 0.2, 0.2, 0.2, 0.2;
  (medium, medium, nongain, medium, low, medium) 0.2, 0.2, 0.2, 0.2, 0.2;
  (low, medium, nongain, medium, low, medium) 0.2, 0.2, 0.2, 0.2, 0.2;
  (high, low, nongain, medium, low, medium) 0.1, 0.1, 0.1, 0.1, 0.6;
  (medium, low, nongain, medium, low, medium) 0.1, 0.1, 0.1, 0.1, 0.6;
  (low, low, nongain, medium, low, medium) 0.2, 0.2, 0.2, 0.2, 0.2;
  (high, high, loss, medium, low, medium) 0.1, 0.6, 0.1, 0.1, 0.1;
  (medium, high, loss, medium, low, medium) 0.2, 0.2, 0.2, 0.2, 0.2;
  (low, high, loss, medium, low, medium) 0.2, 0.2, 0.2, 0.2, 0.2;
  (high, medium, loss, medium, low, medium) 0.2, 0.2, 0.2, 0.2, 0.2;
  (medium, medium, loss, medium, low, medium) 0.2, 0.2, 0.2, 0.2, 0.2;
  (low, medium, loss, medium, low, medium) 0.06666667, 0.06666667, 0.73333333, 0.06666667, 0.06666667;
  (high, low, loss, medium, low, medium) 0.2, 0.2, 0.2, 0.2, 0.2;
  (medium, low, loss, medium, low, medium) 0.2, 0.2, 0.2, 0.2, 0.2;
  (low, low, loss, medium, low, medium) 0.2, 0.2, 0.2, 0.2, 0.2;
  (high, high, gain, low, low, medium) 0.2, 0.2, 0.2, 0.2, 0.2;
  (medium, high, gain, low, low, medium) 0.2, 0.2, 0.2, 0.2, 0.2;
  (low, high, gain, low, low, medium) 0.1, 0.6, 0.1, 0.1, 0.1;
  (high, medium, gain, low, low, medium) 0.1, 0.1, 0.1, 0.6, 0.1;
  (medium, medium, gain, low, low, medium) 0.06666667, 0.06666667, 0.73333333, 0.06666667, 0.06666667;
  (low, medium, gain, low, low, medium) 0.2, 0.2, 0.2, 0.2, 0.2;
  (high, low, gain, low, low, medium) 0.2, 0.2, 0.2, 0.2, 0.2;
  (medium, low, gain, low, low, medium) 0.2, 0.2, 0.2, 0.2, 0.2;
  (low, low, gain, low, low, medium) 0.2, 0.2, 0.2, 0.2, 0.2;
  (high, high, nonloss, low, low, medium) 0.1, 0.6, 0.1, 0.1, 0.1;
  (medium, high, nonloss, low, low, medium) 0.06666667, 0.06666667, 0.06666667, 0.73333333, 0.06666667;
  (low, high, nonloss, low, low, medium) 0.2, 0.2, 0.2, 0.2, 0.2;
  (high, medium, nonloss, low, low, medium) 0.2, 0.2, 0.2, 0.2, 0.2;
  (medium, medium, nonloss, low, low, medium) 0.40000000, 0.06666667, 0.40000000, 0.06666667, 0.06666667;
  (low, medium, nonloss, low, low, medium) 0.06666667, 0.06666667, 0.40000000, 0.40000000, 0.06666667;
  (high, low, nonloss, low, low, medium) 0.2, 0.2, 0.2, 0.2, 0.2;
  (medium, low, nonloss, low, low, medium) 0.1, 0.6, 0.1, 0.1, 0.1;
  (low, low, nonloss, low, low, medium) 0.1, 0.6, 0.1, 0.1, 0.1;
  (high, high, nongain, low, low, medium) 0.1, 0.1, 0.6, 0.1, 0.1;
  (medium, high, nongain, low, low, medium) 0.2, 0.2, 0.2, 0.2, 0.2;
  (low, high, nongain, low, low, medium) 0.2, 0.2, 0.2, 0.2, 0.2;
  (high, medium, nongain, low, low, medium) 0.2, 0.2, 0.2, 0.2, 0.2;
  (medium, medium, nongain, low, low, medium) 0.1, 0.1, 0.1, 0.1, 0.6;
  (low, medium, nongain, low, low, medium) 0.2, 0.2, 0.2, 0.2, 0.2;
  (high, low, nongain, low, low, medium) 0.1, 0.1, 0.6, 0.1, 0.1;
  (medium, low, nongain, low, low, medium) 0.2, 0.2, 0.2, 0.2, 0.2;
  (low, low, nongain, low, low, medium) 0.2, 0.2, 0.2, 0.2, 0.2;
  (high, high, loss, low, low, medium) 0.2, 0.2, 0.2, 0.2, 0.2;
  (medium, high, loss, low, low, medium) 0.2, 0.2, 0.2, 0.2, 0.2;
  (low, high, loss, low, low, medium) 0.2, 0.2, 0.2, 0.2, 0.2;
  (high, medium, loss, low, low, medium) 0.2, 0.2, 0.2, 0.2, 0.2;
  (medium, medium, loss, low, low, medium) 0.2, 0.2, 0.2, 0.2, 0.2;
  (low, medium, loss, low, low, medium) 0.2, 0.2, 0.2, 0.2, 0.2;
  (high, low, loss, low, low, medium) 0.2, 0.2, 0.2, 0.2, 0.2;
  (medium, low, loss, low, low, medium) 0.2, 0.2, 0.2, 0.2, 0.2;
  (low, low, loss, low, low, medium) 0.2, 0.2, 0.2, 0.2, 0.2;
  (high, high, gain, high, high, low) 0.2, 0.2, 0.2, 0.2, 0.2;
  (medium, high, gain, high, high, low) 0.1, 0.6, 0.1, 0.1, 0.1;
  (low, high, gain, high, high, low) 0.2, 0.2, 0.2, 0.2, 0.2;
  (high, medium, gain, high, high, low) 0.2, 0.2, 0.2, 0.2, 0.2;
  (medium, medium, gain, high, high, low) 0.2, 0.2, 0.2, 0.2, 0.2;
  (low, medium, gain, high, high, low) 0.1, 0.6, 0.1, 0.1, 0.1;
  (high, low, gain, high, high, low) 0.2, 0.2, 0.2, 0.2, 0.2;
  (medium, low, gain, high, high, low) 0.2, 0.2, 0.2, 0.2, 0.2;
  (low, low, gain, high, high, low) 0.1, 0.1, 0.1, 0.1, 0.6;
  (high, high, nonloss, high, high, low) 0.2, 0.2, 0.2, 0.2, 0.2;
  (medium, high, nonloss, high, high, low) 0.2, 0.2, 0.2, 0.2, 0.2;
  (low, high, nonloss, high, high, low) 0.2, 0.2, 0.2, 0.2, 0.2;
  (high, medium, nonloss, high, high, low) 0.1, 0.6, 0.1, 0.1, 0.1;
  (medium, medium, nonloss, high, high, low) 0.06666667, 0.40000000, 0.40000000, 0.06666667, 0.06666667;
  (low, medium, nonloss, high, high, low) 0.2, 0.2, 0.2, 0.2, 0.2;
  (high, low, nonloss, high, high, low) 0.2, 0.2, 0.2, 0.2, 0.2;
  (medium, low, nonloss, high, high, low) 0.2, 0.2, 0.2, 0.2, 0.2;
  (low, low, nonloss, high, high, low) 0.2, 0.2, 0.2, 0.2, 0.2;
  (high, high, nongain, high, high, low) 0.6, 0.1, 0.1, 0.1, 0.1;
  (medium, high, nongain, high, high, low) 0.2, 0.2, 0.2, 0.2, 0.2;
  (low, high, nongain, high, high, low) 0.2, 0.2, 0.2, 0.2, 0.2;
  (high, medium, nongain, high, high, low) 0.1, 0.1, 0.1, 0.6, 0.1;
  (medium, medium, nongain, high, high, low) 0.6, 0.1, 0.1, 0.1, 0.1;
  (low, medium, nongain, high, high, low) 0.2, 0.2, 0.2, 0.2, 0.2;
  (high, low, nongain, high, high, low) 0.1, 0.1, 0.1, 0.6, 0.1;
  (medium, low, nongain, high, high, low) 0.2, 0.2, 0.2, 0.2, 0.2;
  (low, low, nongain, high, high, low) 0.2, 0.2, 0.2, 0.2, 0.2;
  (high, high, loss, high, high, low) 0.2, 0.2, 0.2, 0.2, 0.2;
  (medium, high, loss, high, high, low) 0.1, 0.1, 0.1, 0.6, 0.1;
  (low, high, loss, high, high, low) 0.1, 0.6, 0.1, 0.1, 0.1;
  (high, medium, loss, high, high, low) 0.2, 0.2, 0.2, 0.2, 0.2;
  (medium, medium, loss, high, high, low) 0.1, 0.1, 0.1, 0.6, 0.1;
  (low, medium, loss, high, high, low) 0.2, 0.2, 0.2, 0.2, 0.2;
  (high, low, loss, high, high, low) 0.1, 0.6, 0.1, 0.1, 0.1;
  (medium, low, loss, high, high, low) 0.1, 0.1, 0.1, 0.1, 0.6;
  (low, low, loss, high, high, low) 0.1, 0.6, 0.1, 0.1, 0.1;
  (high, high, gain, medium, high, low) 0.2, 0.2, 0.2, 0.2, 0.2;
  (medium, high, gain, medium, high, low) 0.2, 0.2, 0.2, 0.2, 0.2;
  (low, high, gain, medium, high, low) 0.1, 0.1, 0.1, 0.1, 0.6;
  (high, medium, gain, medium, high, low) 0.06666667, 0.06666667, 0.73333333, 0.06666667, 0.06666667;
  (medium, medium, gain, medium, high, low) 0.2, 0.2, 0.2, 0.2, 0.2;
  (low, medium, gain, medium, high, low) 0.2, 0.2, 0.2, 0.2, 0.2;
  (high, low, gain, medium, high, low) 0.1, 0.1, 0.1, 0.1, 0.6;
  (medium, low, gain, medium, high, low) 0.2, 0.2, 0.2, 0.2, 0.2;
  (low, low, gain, medium, high, low) 0.2, 0.2, 0.2, 0.2, 0.2;
  (high, high, nonloss, medium, high, low) 0.2, 0.2, 0.2, 0.2, 0.2;
  (medium, high, nonloss, medium, high, low) 0.1, 0.6, 0.1, 0.1, 0.1;
  (low, high, nonloss, medium, high, low) 0.2, 0.2, 0.2, 0.2, 0.2;
  (high, medium, nonloss, medium, high, low) 0.2, 0.2, 0.2, 0.2, 0.2;
  (medium, medium, nonloss, medium, high, low) 0.6, 0.1, 0.1, 0.1, 0.1;
  (low, medium, nonloss, medium, high, low) 0.2, 0.2, 0.2, 0.2, 0.2;
  (high, low, nonloss, medium, high, low) 0.2, 0.2, 0.2, 0.2, 0.2;
  (medium, low, nonloss, medium, high, low) 0.1, 0.6, 0.1, 0.1, 0.1;
  (low, low, nonloss, medium, high, low) 0.2, 0.2, 0.2, 0.2, 0.2;
  (high, high, nongain, medium, high, low) 0.2, 0.2, 0.2, 0.2, 0.2;
  (medium, high, nongain, medium, high, low) 0.2, 0.2, 0.2, 0.2, 0.2;
  (low, high, nongain, medium, high, low) 0.1, 0.1, 0.6, 0.1, 0.1;
  (high, medium, nongain, medium, high, low) 0.2, 0.2, 0.2, 0.2, 0.2;
  (medium, medium, nongain, medium, high, low) 0.2, 0.2, 0.2, 0.2, 0.2;
  (low, medium, nongain, medium, high, low) 0.06666667, 0.06666667, 0.40000000, 0.40000000, 0.06666667;
  (high, low, nongain, medium, high, low) 0.2, 0.2, 0.2, 0.2, 0.2;
  (medium, low, nongain, medium, high, low) 0.2, 0.2, 0.2, 0.2, 0.2;
  (low, low, nongain, medium, high, low) 0.6, 0.1, 0.1, 0.1, 0.1;
  (high, high, loss, medium, high, low) 0.6, 0.1, 0.1, 0.1, 0.1;
  (medium, high, loss, medium, high, low) 0.1, 0.1, 0.1, 0.6, 0.1;
  (low, high, loss, medium, high, low) 0.06666667, 0.40000000, 0.06666667, 0.06666667, 0.40000000;
  (high, medium, loss, medium, high, low) 0.6, 0.1, 0.1, 0.1, 0.1;
  (medium, medium, loss, medium, high, low) 0.2, 0.2, 0.2, 0.2, 0.2;
  (low, medium, loss, medium, high, low) 0.2, 0.2, 0.2, 0.2, 0.2;
  (high, low, loss, medium, high, low) 0.2, 0.2, 0.2, 0.2, 0.2;
  (medium, low, loss, medium, high, low) 0.2, 0.2, 0.2, 0.2, 0.2;
  (low, low, loss, medium, high, low) 0.06666667, 0.06666667, 0.06666667, 0.73333333, 0.06666667;
  (high, high, gain, low, high, low) 0.30, 0.55, 0.05, 0.05, 0.05;
  (medium, high, gain, low, high, low) 0.40000000, 0.06666667, 0.40000000, 0.06666667, 0.06666667;
  (low, high, gain, low, high, low) 0.6, 0.1, 0.1, 0.1, 0.1;
  (high, medium, gain, low, high, low) 0.2, 0.2, 0.2, 0.2, 0.2;
  (medium, medium, gain, low, high, low) 0.2, 0.2, 0.2, 0.2, 0.2;
  (low, medium, gain, low, high, low) 0.1, 0.6, 0.1, 0.1, 0.1;
  (high, low, gain, low, high, low) 0.2, 0.2, 0.2, 0.2, 0.2;
  (medium, low, gain, low, high, low) 0.1, 0.1, 0.1, 0.6, 0.1;
  (low, low, gain, low, high, low) 0.2, 0.2, 0.2, 0.2, 0.2;
  (high, high, nonloss, low, high, low) 0.06666667, 0.40000000, 0.06666667, 0.06666667, 0.40000000;
  (medium, high, nonloss, low, high, low) 0.2, 0.2, 0.2, 0.2, 0.2;
  (low, high, nonloss, low, high, low) 0.1, 0.6, 0.1, 0.1, 0.1;
  (high, medium, nonloss, low, high, low) 0.1, 0.1, 0.1, 0.1, 0.6;
  (medium, medium, nonloss, low, high, low) 0.2, 0.2, 0.2, 0.2, 0.2;
  (low, medium, nonloss, low, high, low) 0.2, 0.2, 0.2, 0.2, 0.2;
  (high, low, nonloss, low, high, low) 0.2, 0.2, 0.2, 0.2, 0.2;
  (medium, low, nonloss, low, high, low) 0.2, 0.2, 0.2, 0.2, 0.2;
  (low, low, nonloss, low, high, low) 0.1, 0.6, 0.1, 0.1, 0.1;
  (high, high, nongain, low, high, low) 0.1, 0.6, 0.1, 0.1, 0.1;
  (medium, high, nongain, low, high, low) 0.1, 0.1, 0.1, 0.1, 0.6;
  (low, high, nongain, low, high, low) 0.2, 0.2, 0.2, 0.2, 0.2;
  (high, medium, nongain, low, high, low) 0.2, 0.2, 0.2, 0.2, 0.2;
  (medium, medium, nongain, low, high, low) 0.1, 0.1, 0.1, 0.6, 0.1;
  (low, medium, nongain, low, high, low) 0.6, 0.1, 0.1, 0.1, 0.1;
  (high, low, nongain, low, high, low) 0.6, 0.1, 0.1, 0.1, 0.1;
  (medium, low, nongain, low, high, low) 0.2, 0.2, 0.2, 0.2, 0.2;
  (low, low, nongain, low, high, low) 0.1, 0.1, 0.1, 0.1, 0.6;
  (high, high, loss, low, high, low) 0.2, 0.2, 0.2, 0.2, 0.2;
  (medium, high, loss, low, high, low) 0.2, 0.2, 0.2, 0.2, 0.2;
  (low, high, loss, low, high, low) 0.2, 0.2, 0.2, 0.2, 0.2;
  (high, medium, loss, low, high, low) 0.2, 0.2, 0.2, 0.2, 0.2;
  (medium, medium, loss, low, high, low) 0.2, 0.2, 0.2, 0.2, 0.2;
  (low, medium, loss, low, high, low) 0.2, 0.2, 0.2, 0.2, 0.2;
  (high, low, loss, low, high, low) 0.2, 0.2, 0.2, 0.2, 0.2;
  (medium, low, loss, low, high, low) 0.2, 0.2, 0.2, 0.2, 0.2;
  (low, low, loss, low, high, low) 0.1, 0.1, 0.6, 0.1, 0.1;
  (high, high, gain, high, medium, low) 0.40000000, 0.06666667, 0.40000000, 0.06666667, 0.06666667;
  (medium, high, gain, high, medium, low) 0.1, 0.1, 0.1, 0.1, 0.6;
  (low, high, gain, high, medium, low) 0.2, 0.2, 0.2, 0.2, 0.2;
  (high, medium, gain, high, medium, low) 0.2, 0.2, 0.2, 0.2, 0.2;
  (medium, medium, gain, high, medium, low) 0.1, 0.1, 0.6, 0.1, 0.1;
  (low, medium, gain, high, medium, low) 0.1, 0.1, 0.1, 0.6, 0.1;
  (high, low, gain, high, medium, low) 0.1, 0.1, 0.6, 0.1, 0.1;
  (medium, low, gain, high, medium, low) 0.2, 0.2, 0.2, 0.2, 0.2;
  (low, low, gain, high, medium, low) 0.2, 0.2, 0.2, 0.2, 0.2;
  (high, high, nonloss, high, medium, low) 0.2, 0.2, 0.2, 0.2, 0.2;
  (medium, high, nonloss, high, medium, low) 0.06666667, 0.40000000, 0.06666667, 0.40000000, 0.06666667;
  (low, high, nonloss, high, medium, low) 0.1, 0.1, 0.1, 0.1, 0.6;
  (high, medium, nonloss, high, medium, low) 0.1, 0.1, 0.1, 0.6, 0.1;
  (medium, medium, nonloss, high, medium, low) 0.1, 0.1, 0.6, 0.1, 0.1;
  (low, medium, nonloss, high, medium, low) 0.1, 0.6, 0.1, 0.1, 0.1;
  (high, low, nonloss, high, medium, low) 0.6, 0.1, 0.1, 0.1, 0.1;
  (medium, low, nonloss, high, medium, low) 0.2, 0.2, 0.2, 0.2, 0.2;
  (low, low, nonloss, high, medium, low) 0.1, 0.6, 0.1, 0.1, 0.1;
  (high, high, nongain, high, medium, low) 0.2, 0.2, 0.2, 0.2, 0.2;
  (medium, high, nongain, high, medium, low) 0.1, 0.1, 0.6, 0.1, 0.1;
  (low, high, nongain, high, medium, low) 0.1, 0.6, 0.1, 0.1, 0.1;
  (high, medium, nongain, high, medium, low) 0.05, 0.30, 0.30, 0.30, 0.05;
  (medium, medium, nongain, high, medium, low) 0.1, 0.1, 0.1, 0.6, 0.1;
  (low, medium, nongain, high, medium, low) 0.2, 0.2, 0.2, 0.2, 0.2;
  (high, low, nongain, high, medium, low) 0.2, 0.2, 0.2, 0.2, 0.2;
  (medium, low, nongain, high, medium, low) 0.1, 0.1, 0.6, 0.1, 0.1;
  (low, low, nongain, high, medium, low) 0.2, 0.2, 0.2, 0.2, 0.2;
  (high, high, loss, high, medium, low) 0.2, 0.2, 0.2, 0.2, 0.2;
  (medium, high, loss, high, medium, low) 0.2, 0.2, 0.2, 0.2, 0.2;
  (low, high, loss, high, medium, low) 0.1, 0.6, 0.1, 0.1, 0.1;
  (high, medium, loss, high, medium, low) 0.2, 0.2, 0.2, 0.2, 0.2;
  (medium, medium, loss, high, medium, low) 0.2, 0.2, 0.2, 0.2, 0.2;
  (low, medium, loss, high, medium, low) 0.1, 0.1, 0.1, 0.6, 0.1;
  (high, low, loss, high, medium, low) 0.2, 0.2, 0.2, 0.2, 0.2;
  (medium, low, loss, high, medium, low) 0.06666667, 0.06666667, 0.06666667, 0.06666667, 0.73333333;
  (low, low, loss, high, medium, low) 0.6, 0.1, 0.1, 0.1, 0.1;
  (high, high, gain, medium, medium, low) 0.2, 0.2, 0.2, 0.2, 0.2;
  (medium, high, gain, medium, medium, low) 0.2, 0.2, 0.2, 0.2, 0.2;
  (low, high, gain, medium, medium, low) 0.2, 0.2, 0.2, 0.2, 0.2;
  (high, medium, gain, medium, medium, low) 0.2, 0.2, 0.2, 0.2, 0.2;
  (medium, medium, gain, medium, medium, low) 0.2, 0.2, 0.2, 0.2, 0.2;
  (low, medium, gain, medium, medium, low) 0.2, 0.2, 0.2, 0.2, 0.2;
  (high, low, gain, medium, medium, low) 0.2, 0.2, 0.2, 0.2, 0.2;
  (medium, low, gain, medium, medium, low) 0.1, 0.6, 0.1, 0.1, 0.1;
  (low, low, gain, medium, medium, low) 0.2, 0.2, 0.2, 0.2, 0.2;
  (high, high, nonloss, medium, medium, low) 0.2, 0.2, 0.2, 0.2, 0.2;
  (medium, high, nonloss, medium, medium, low) 0.06666667, 0.06666667, 0.73333333, 0.06666667, 0.06666667;
  (low, high, nonloss, medium, medium, low) 0.1, 0.1, 0.1, 0.6, 0.1;
  (high, medium, nonloss, medium, medium, low) 0.2, 0.2, 0.2, 0.2, 0.2;
  (medium, medium, nonloss, medium, medium, low) 0.1, 0.1, 0.6, 0.1, 0.1;
  (low, medium, nonloss, medium, medium, low) 0.2, 0.2, 0.2, 0.2, 0.2;
  (high, low, nonloss, medium, medium, low) 0.1, 0.1, 0.1, 0.6, 0.1;
  (medium, low, nonloss, medium, medium, low) 0.1, 0.6, 0.1, 0.1, 0.1;
  (low, low, nonloss, medium, medium, low) 0.1, 0.1, 0.6, 0.1, 0.1;
  (high, high, nongain, medium, medium, low) 0.1, 0.1, 0.1, 0.1, 0.6;
  (medium, high, nongain, medium, medium, low) 0.06666667, 0.73333333, 0.06666667, 0.06666667, 0.06666667;
  (low, high, nongain, medium, medium, low) 0.2, 0.2, 0.2, 0.2, 0.2;
  (high, medium, nongain, medium, medium, low) 0.1, 0.1, 0.1, 0.1, 0.6;
  (medium, medium, nongain, medium, medium, low) 0.2, 0.2, 0.2, 0.2, 0.2;
  (low, medium, nongain, medium, medium, low) 0.1, 0.6, 0.1, 0.1, 0.1;
  (high, low, nongain, medium, medium, low) 0.1, 0.6, 0.1, 0.1, 0.1;
  (medium, low, nongain, medium, medium, low) 0.1, 0.1, 0.1, 0.1, 0.6;
  (low, low, nongain, medium, medium, low) 0.2, 0.2, 0.2, 0.2, 0.2;
  (high, high, loss, medium, medium, low) 0.1, 0.1, 0.6, 0.1, 0.1;
  (medium, high, loss, medium, medium, low) 0.2, 0.2, 0.2, 0.2, 0.2;
  (low, high, loss, medium, medium, low) 0.1, 0.1, 0.1, 0.6, 0.1;
  (high, medium, loss, medium, medium, low) 0.2, 0.2, 0.2, 0.2, 0.2;
  (medium, medium, loss, medium, medium, low) 0.2, 0.2, 0.2, 0.2, 0.2;
  (low, medium, loss, medium, medium, low) 0.1, 0.1, 0.1, 0.1, 0.6;
  (high, low, loss, medium, medium, low) 0.2, 0.2, 0.2, 0.2, 0.2;
  (medium, low, loss, medium, medium, low) 0.2, 0.2, 0.2, 0.2, 0.2;
  (low, low, loss, medium, medium, low) 0.1, 0.1, 0.1, 0.1, 0.6;
  (high, high, gain, low, medium, low) 0.1, 0.1, 0.1, 0.6, 0.1;
  (medium, high, gain, low, medium, low) 0.2, 0.2, 0.2, 0.2, 0.2;
  (low, high, gain, low, medium, low) 0.2, 0.2, 0.2, 0.2, 0.2;
  (high, medium, gain, low, medium, low) 0.2, 0.2, 0.2, 0.2, 0.2;
  (medium, medium, gain, low, medium, low) 0.6, 0.1, 0.1, 0.1, 0.1;
  (low, medium, gain, low, medium, low) 0.1, 0.6, 0.1, 0.1, 0.1;
  (high, low, gain, low, medium, low) 0.2, 0.2, 0.2, 0.2, 0.2;
  (medium, low, gain, low, medium, low) 0.1, 0.1, 0.1, 0.6, 0.1;
  (low, low, gain, low, medium, low) 0.2, 0.2, 0.2, 0.2, 0.2;
  (high, high, nonloss, low, medium, low) 0.2, 0.2, 0.2, 0.2, 0.2;
  (medium, high, nonloss, low, medium, low) 0.1, 0.1, 0.6, 0.1, 0.1;
  (low, high, nonloss, low, medium, low) 0.2, 0.2, 0.2, 0.2, 0.2;
  (high, medium, nonloss, low, medium, low) 0.2, 0.2, 0.2, 0.2, 0.2;
  (medium, medium, nonloss, low, medium, low) 0.2, 0.2, 0.2, 0.2, 0.2;
  (low, medium, nonloss, low, medium, low) 0.1, 0.6, 0.1, 0.1, 0.1;
  (high, low, nonloss, low, medium, low) 0.1, 0.1, 0.1, 0.6, 0.1;
  (medium, low, nonloss, low, medium, low) 0.06666667, 0.06666667, 0.40000000, 0.06666667, 0.40000000;
  (low, low, nonloss, low, medium, low) 0.1, 0.1, 0.1, 0.6, 0.1;
  (high, high, nongain, low, medium, low) 0.1, 0.1, 0.6, 0.1, 0.1;
  (medium, high, nongain, low, medium, low) 0.1, 0.6, 0.1, 0.1, 0.1;
  (low, high, nongain, low, medium, low) 0.2, 0.2, 0.2, 0.2, 0.2;
  (high, medium, nongain, low, medium, low) 0.05, 0.05, 0.80, 0.05, 0.05;
  (medium, medium, nongain, low, medium, low) 0.2, 0.2, 0.2, 0.2, 0.2;
  (low, medium, nongain, low, medium, low) 0.1, 0.1, 0.1, 0.6, 0.1;
  (high, low, nongain, low, medium, low) 0.2, 0.2, 0.2, 0.2, 0.2;
  (medium, low, nongain, low, medium, low) 0.2, 0.2, 0.2, 0.2, 0.2;
  (low, low, nongain, low, medium, low) 0.2, 0.2, 0.2, 0.2, 0.2;
  (high, high, loss, low, medium, low) 0.2, 0.2, 0.2, 0.2, 0.2;
  (medium, high, loss, low, medium, low) 0.2, 0.2, 0.2, 0.2, 0.2;
  (low, high, loss, low, medium, low) 0.2, 0.2, 0.2, 0.2, 0.2;
  (high, medium, loss, low, medium, low) 0.6, 0.1, 0.1, 0.1, 0.1;
  (medium, medium, loss, low, medium, low) 0.2, 0.2, 0.2, 0.2, 0.2;
  (low, medium, loss, low, medium, low) 0.2, 0.2, 0.2, 0.2, 0.2;
  (high, low, loss, low, medium, low) 0.2, 0.2, 0.2, 0.2, 0.2;
  (medium, low, loss, low, medium, low) 0.6, 0.1, 0.1, 0.1, 0.1;
  (low, low, loss, low, medium, low) 0.2, 0.2, 0.2, 0.2, 0.2;
  (high, high, gain, high, low, low) 0.2, 0.2, 0.2, 0.2, 0.2;
  (medium, high, gain, high, low, low) 0.2, 0.2, 0.2, 0.2, 0.2;
  (low, high, gain, high, low, low) 0.1, 0.6, 0.1, 0.1, 0.1;
  (high, medium, gain, high, low, low) 0.06666667, 0.40000000, 0.06666667, 0.40000000, 0.06666667;
  (medium, medium, gain, high, low, low) 0.2, 0.2, 0.2, 0.2, 0.2;
  (low, medium, gain, high, low, low) 0.2, 0.2, 0.2, 0.2, 0.2;
  (high, low, gain, high, low, low) 0.06666667, 0.40000000, 0.40000000, 0.06666667, 0.06666667;
  (medium, low, gain, high, low, low) 0.2, 0.2, 0.2, 0.2, 0.2;
  (low, low, gain, high, low, low) 0.2, 0.2, 0.2, 0.2, 0.2;
  (high, high, nonloss, high, low, low) 0.1, 0.1, 0.1, 0.6, 0.1;
  (medium, high, nonloss, high, low, low) 0.1, 0.1, 0.6, 0.1, 0.1;
  (low, high, nonloss, high, low, low) 0.2, 0.2, 0.2, 0.2, 0.2;
  (high, medium, nonloss, high, low, low) 0.2, 0.2, 0.2, 0.2, 0.2;
  (medium, medium, nonloss, high, low, low) 0.06666667, 0.40000000, 0.06666667, 0.40000000, 0.06666667;
  (low, medium, nonloss, high, low, low) 0.1, 0.1, 0.1, 0.1, 0.6;
  (high, low, nonloss, high, low, low) 0.2, 0.2, 0.2, 0.2, 0.2;
  (medium, low, nonloss, high, low, low) 0.06666667, 0.06666667, 0.73333333, 0.06666667, 0.06666667;
  (low, low, nonloss, high, low, low) 0.2, 0.2, 0.2, 0.2, 0.2;
  (high, high, nongain, high, low, low) 0.1, 0.6, 0.1, 0.1, 0.1;
  (medium, high, nongain, high, low, low) 0.1, 0.1, 0.6, 0.1, 0.1;
  (low, high, nongain, high, low, low) 0.2, 0.2, 0.2, 0.2, 0.2;
  (high, medium, nongain, high, low, low) 0.2, 0.2, 0.2, 0.2, 0.2;
  (medium, medium, nongain, high, low, low) 0.1, 0.6, 0.1, 0.1, 0.1;
  (low, medium, nongain, high, low, low) 0.2, 0.2, 0.2, 0.2, 0.2;
  (high, low, nongain, high, low, low) 0.6, 0.1, 0.1, 0.1, 0.1;
  (medium, low, nongain, high, low, low) 0.06666667, 0.40000000, 0.06666667, 0.06666667, 0.40000000;
  (low, low, nongain, high, low, low) 0.1, 0.6, 0.1, 0.1, 0.1;
  (high, high, loss, high, low, low) 0.2, 0.2, 0.2, 0.2, 0.2;
  (medium, high, loss, high, low, low) 0.2, 0.2, 0.2, 0.2, 0.2;
  (low, high, loss, high, low, low) 0.2, 0.2, 0.2, 0.2, 0.2;
  (high, medium, loss, high, low, low) 0.06666667, 0.73333333, 0.06666667, 0.06666667, 0.06666667;
  (medium, medium, loss, high, low, low) 0.2, 0.2, 0.2, 0.2, 0.2;
  (low, medium, loss, high, low, low) 0.1, 0.1, 0.1, 0.6, 0.1;
  (high, low, loss, high, low, low) 0.2, 0.2, 0.2, 0.2, 0.2;
  (medium, low, loss, high, low, low) 0.1, 0.1, 0.1, 0.6, 0.1;
  (low, low, loss, high, low, low) 0.2, 0.2, 0.2, 0.2, 0.2;
  (high, high, gain, medium, low, low) 0.2, 0.2, 0.2, 0.2, 0.2;
  (medium, high, gain, medium, low, low) 0.2, 0.2, 0.2, 0.2, 0.2;
  (low, high, gain, medium, low, low) 0.2, 0.2, 0.2, 0.2, 0.2;
  (high, medium, gain, medium, low, low) 0.1, 0.1, 0.1, 0.1, 0.6;
  (medium, medium, gain, medium, low, low) 0.6, 0.1, 0.1, 0.1, 0.1;
  (low, medium, gain, medium, low, low) 0.2, 0.2, 0.2, 0.2, 0.2;
  (high, low, gain, medium, low, low) 0.2, 0.2, 0.2, 0.2, 0.2;
  (medium, low, gain, medium, low, low) 0.1, 0.6, 0.1, 0.1, 0.1;
  (low, low, gain, medium, low, low) 0.1, 0.1, 0.1, 0.6, 0.1;
  (high, high, nonloss, medium, low, low) 0.1, 0.1, 0.1, 0.6, 0.1;
  (medium, high, nonloss, medium, low, low) 0.2, 0.2, 0.2, 0.2, 0.2;
  (low, high, nonloss, medium, low, low) 0.1, 0.1, 0.6, 0.1, 0.1;
  (high, medium, nonloss, medium, low, low) 0.1, 0.1, 0.1, 0.6, 0.1;
  (medium, medium, nonloss, medium, low, low) 0.2, 0.2, 0.2, 0.2, 0.2;
  (low, medium, nonloss, medium, low, low) 0.1, 0.6, 0.1, 0.1, 0.1;
  (high, low, nonloss, medium, low, low) 0.2, 0.2, 0.2, 0.2, 0.2;
  (medium, low, nonloss, medium, low, low) 0.2, 0.2, 0.2, 0.2, 0.2;
  (low, low, nonloss, medium, low, low) 0.1, 0.6, 0.1, 0.1, 0.1;
  (high, high, nongain, medium, low, low) 0.2, 0.2, 0.2, 0.2, 0.2;
  (medium, high, nongain, medium, low, low) 0.2, 0.2, 0.2, 0.2, 0.2;
  (low, high, nongain, medium, low, low) 0.1, 0.1, 0.1, 0.6, 0.1;
  (high, medium, nongain, medium, low, low) 0.2, 0.2, 0.2, 0.2, 0.2;
  (medium, medium, nongain, medium, low, low) 0.6, 0.1, 0.1, 0.1, 0.1;
  (low, medium, nongain, medium, low, low) 0.2, 0.2, 0.2, 0.2, 0.2;
  (high, low, nongain, medium, low, low) 0.2, 0.2, 0.2, 0.2, 0.2;
  (medium, low, nongain, medium, low, low) 0.2, 0.2, 0.2, 0.2, 0.2;
  (low, low, nongain, medium, low, low) 0.6, 0.1, 0.1, 0.1, 0.1;
  (high, high, loss, medium, low, low) 0.2, 0.2, 0.2, 0.2, 0.2;
  (medium, high, loss, medium, low, low) 0.2, 0.2, 0.2, 0.2, 0.2;
  (low, high, loss, medium, low, low) 0.1, 0.1, 0.6, 0.1, 0.1;
  (high, medium, loss, medium, low, low) 0.06666667, 0.06666667, 0.73333333, 0.06666667, 0.06666667;
  (medium, medium, loss, medium, low, low) 0.2, 0.2, 0.2, 0.2, 0.2;
  (low, medium, loss, medium, low, low) 0.2, 0.2, 0.2, 0.2, 0.2;
  (high, low, loss, medium, low, low) 0.2, 0.2, 0.2, 0.2, 0.2;
  (medium, low, loss, medium, low, low) 0.2, 0.2, 0.2, 0.2, 0.2;
  (low, low, loss, medium, low, low) 0.1, 0.6, 0.1, 0.1, 0.1;
  (high, high, gain, low, low, low) 0.1, 0.6, 0.1, 0.1, 0.1;
  (medium, high, gain, low, low, low) 0.2, 0.2, 0.2, 0.2, 0.2;
  (low, high, gain, low, low, low) 0.1, 0.1, 0.1, 0.6, 0.1;
  (high, medium, gain, low, low, low) 0.1, 0.1, 0.6, 0.1, 0.1;
  (medium, medium, gain, low, low, low) 0.2, 0.2, 0.2, 0.2, 0.2;
  (low, medium, gain, low, low, low) 0.06666667, 0.06666667, 0.73333333, 0.06666667, 0.06666667;
  (high, low, gain, low, low, low) 0.2, 0.2, 0.2, 0.2, 0.2;
  (medium, low, gain, low, low, low) 0.1, 0.6, 0.1, 0.1, 0.1;
  (low, low, gain, low, low, low) 0.40000000, 0.40000000, 0.06666667, 0.06666667, 0.06666667;
  (high, high, nonloss, low, low, low) 0.2, 0.2, 0.2, 0.2, 0.2;
  (medium, high, nonloss, low, low, low) 0.2, 0.2, 0.2, 0.2, 0.2;
  (low, high, nonloss, low, low, low) 0.2, 0.2, 0.2, 0.2, 0.2;
  (high, medium, nonloss, low, low, low) 0.2, 0.2, 0.2, 0.2, 0.2;
  (medium, medium, nonloss, low, low, low) 0.2, 0.2, 0.2, 0.2, 0.2;
  (low, medium, nonloss, low, low, low) 0.1, 0.1, 0.6, 0.1, 0.1;
  (high, low, nonloss, low, low, low) 0.06666667, 0.06666667, 0.40000000, 0.40000000, 0.06666667;
  (medium, low, nonloss, low, low, low) 0.2, 0.2, 0.2, 0.2, 0.2;
  (low, low, nonloss, low, low, low) 0.2, 0.2, 0.2, 0.2, 0.2;
  (high, high, nongain, low, low, low) 0.2, 0.2, 0.2, 0.2, 0.2;
  (medium, high, nongain, low, low, low) 0.2, 0.2, 0.2, 0.2, 0.2;
  (low, high, nongain, low, low, low) 0.2, 0.2, 0.2, 0.2, 0.2;
  (high, medium, nongain, low, low, low) 0.2, 0.2, 0.2, 0.2, 0.2;
  (medium, medium, nongain, low, low, low) 0.1, 0.1, 0.1, 0.1, 0.6;
  (low, medium, nongain, low, low, low) 0.1, 0.1, 0.1, 0.6, 0.1;
  (high, low, nongain, low, low, low) 0.1, 0.1, 0.1, 0.6, 0.1;
  (medium, low, nongain, low, low, low) 0.1, 0.1, 0.1, 0.6, 0.1;
  (low, low, nongain, low, low, low) 0.2, 0.2, 0.2, 0.2, 0.2;
  (high, high, loss, low, low, low) 0.1, 0.6, 0.1, 0.1, 0.1;
  (medium, high, loss, low, low, low) 0.2, 0.2, 0.2, 0.2, 0.2;
  (low, high, loss, low, low, low) 0.2, 0.2, 0.2, 0.2, 0.2;
  (high, medium, loss, low, low, low) 0.2, 0.2, 0.2, 0.2, 0.2;
  (medium, medium, loss, low, low, low) 0.2, 0.2, 0.2, 0.2, 0.2;
  (low, medium, loss, low, low, low) 0.2, 0.2, 0.2, 0.2, 0.2;
  (high, low, loss, low, low, low) 0.2, 0.2, 0.2, 0.2, 0.2;
  (medium, low, loss, low, low, low) 0.2, 0.2, 0.2, 0.2, 0.2;
  (low, low, loss, low, low, low) 0.2, 0.2, 0.2, 0.2, 0.2;
}
probability ( Message ) {
  table 0.2481378, 0.2425512, 0.2500000, 0.2593110;
}
probability ( Perceived_Control ) {
  table 0.3637492, 0.3209187, 0.3153321;
}
probability ( Perceived_Severity ) {
  table 0.4307883, 0.2743637, 0.2948479;
}
probability ( Prevention_Focus ) {
  table 0.3488516, 0.3302297, 0.3209187;
}
probability ( Promotion_Focus ) {
  table 0.3563004, 0.3171943, 0.3265053;
}
probability ( Systematic_Processing | Desensitization, Food_Involvment, Message, Perceived_Control, Promotion_Focus ) {
  (high, high, gain, high, high) 0.1111111, 0.7777778, 0.1111111;
  (medium, high, gain, high, high) 0.66666667, 0.06666667, 0.26666667;
  (low, high, gain, high, high) 0.1666667, 0.6666667, 0.1666667;
  (high, medium, gain, high, high) 0.3333333, 0.3333333, 0.3333333;
  (medium, medium, gain, high, high) 0.1111111, 0.4444444, 0.4444444;
  (low, medium, gain, high, high) 0.1111111, 0.1111111, 0.7777778;
  (high, low, gain, high, high) 0.08333333, 0.33333333, 0.58333333;
  (medium, low, gain, high, high) 0.6666667, 0.1666667, 0.1666667;
  (low, low, gain, high, high) 0.4444444, 0.4444444, 0.1111111;
  (high, high, nonloss, high, high) 0.58333333, 0.08333333, 0.33333333;
  (medium, high, nonloss, high, high) 0.1111111, 0.4444444, 0.4444444;
  (low, high, nonloss, high, high) 0.1666667, 0.1666667, 0.6666667;
  (high, medium, nonloss, high, high) 0.66666667, 0.26666667, 0.06666667;
  (medium, medium, nonloss, high, high) 0.1666667, 0.1666667, 0.6666667;
  (low, medium, nonloss, high, high) 0.3333333, 0.3333333, 0.3333333;
  (high, low, nonloss, high, high) 0.1111111, 0.7777778, 0.1111111;
  (medium, low, nonloss, high, high) 0.1111111, 0.4444444, 0.4444444;
  (low, low, nonloss, high, high) 0.6666667, 0.1666667, 0.1666667;
  (high, high, nongain, high, high) 0.06666667, 0.26666667, 0.66666667;
  (medium, high, nongain, high, high) 0.4444444, 0.1111111, 0.4444444;
  (low, high, nongain, high, high) 0.3333333, 0.3333333, 0.3333333;
  (high, medium, nongain, high, high) 0.3333333, 0.3333333, 0.3333333;
  (medium, medium, nongain, high, high) 0.4444444, 0.1111111, 0.4444444;
  (low, medium, nongain, high, high) 0.3333333, 0.3333333, 0.3333333;
  (high, low, nongain, high, high) 0.6666667, 0.1666667, 0.1666667;
  (medium, low, nongain, high, high) 0.86666667, 0.06666667, 0.06666667;
  (low, low, nongain, high, high) 0.1666667, 0.6666667, 0.1666667;
  (high, high, loss, high, high) 0.1666667, 0.1666667, 0.6666667;
  (medium, high, loss, high, high) 0.58333333, 0.33333333, 0.08333333;
  (low, high, loss, high, high) 0.06666667, 0.46666667, 0.46666667;
  (high, medium, loss, high, high) 0.38888889, 0.55555556, 0.05555556;
  (medium, medium, loss, high, high) 0.4444444, 0.4444444, 0.1111111;
  (low, medium, loss, high, high) 0.3333333, 0.3333333, 0.3333333;
  (high, low, loss, high, high) 0.3333333, 0.3333333, 0.3333333;
  (medium, low, loss, high, high) 0.1111111, 0.7777778, 0.1111111;
  (low, low, loss, high, high) 0.6666667, 0.1666667, 0.1666667;
  (high, high, gain, medium, high) 0.3333333, 0.3333333, 0.3333333;
  (medium, high, gain, medium, high) 0.1666667, 0.6666667, 0.1666667;
  (low, high, gain, medium, high) 0.1666667, 0.1666667, 0.6666667;
  (high, medium, gain, medium, high) 0.4444444, 0.1111111, 0.4444444;
  (medium, medium, gain, medium, high) 0.1666667, 0.6666667, 0.1666667;
  (low, medium, gain, medium, high) 0.58333333, 0.08333333, 0.33333333;
  (high, low, gain, medium, high) 0.08333333, 0.83333333, 0.08333333;
  (medium, low, gain, medium, high) 0.1666667, 0.6666667, 0.1666667;
  (low, low, gain, medium, high) 0.6666667, 0.1666667, 0.1666667;
  (high, high, nonloss, medium, high) 0.6666667, 0.1666667, 0.1666667;
  (medium, high, nonloss, medium, high) 0.4444444, 0.4444444, 0.1111111;
  (low, high, nonloss, medium, high) 0.3333333, 0.3333333, 0.3333333;
  (high, medium, nonloss, medium, high) 0.1111111, 0.7777778, 0.1111111;
  (medium, medium, nonloss, medium, high) 0.2666667, 0.4666667, 0.2666667;
  (low, medium, nonloss, medium, high) 0.46666667, 0.06666667, 0.46666667;
  (high, low, nonloss, medium, high) 0.1111111, 0.4444444, 0.4444444;
  (medium, low, nonloss, medium, high) 0.6666667, 0.1666667, 0.1666667;
  (low, low, nonloss, medium, high) 0.1666667, 0.1666667, 0.6666667;
  (high, high, nongain, medium, high) 0.4444444, 0.4444444, 0.1111111;
  (medium, high, nongain, medium, high) 0.3333333, 0.3333333, 0.3333333;
  (low, high, nongain, medium, high) 0.72222222, 0.22222222, 0.05555556;
  (high, medium, nongain, medium, high) 0.1666667, 0.6666667, 0.1666667;
  (medium, medium, nongain, medium, high) 0.58333333, 0.33333333, 0.08333333;
  (low, medium, nongain, medium, high) 0.1111111, 0.7777778, 0.1111111;
  (high, low, nongain, medium, high) 0.1666667, 0.6666667, 0.1666667;
  (medium, low, nongain, medium, high) 0.3333333, 0.3333333, 0.3333333;
  (low, low, nongain, medium, high) 0.1111111, 0.7777778, 0.1111111;
  (high, high, loss, medium, high) 0.4444444, 0.1111111, 0.4444444;
  (medium, high, loss, medium, high) 0.6666667, 0.1666667, 0.1666667;
  (low, high, loss, medium, high) 0.1666667, 0.1666667, 0.6666667;
  (high, medium, loss, medium, high) 0.6666667, 0.1666667, 0.1666667;
  (medium, medium, loss, medium, high) 0.1666667, 0.1666667, 0.6666667;
  (low, medium, loss, medium, high) 0.1666667, 0.6666667, 0.1666667;
  (high, low, loss, medium, high) 0.3333333, 0.3333333, 0.3333333;
  (medium, low, loss, medium, high) 0.6666667, 0.1666667, 0.1666667;
  (low, low, loss, medium, high) 0.3333333, 0.3333333, 0.3333333;
  (high, high, gain, low, high) 0.1111111, 0.4444444, 0.4444444;
  (medium, high, gain, low, high) 0.4444444, 0.1111111, 0.4444444;
  (low, high, gain, low, high) 0.3333333, 0.3333333, 0.3333333;
  (high, medium, gain, low, high) 0.3333333, 0.3333333, 0.3333333;
  (medium, medium, gain, low, high) 0.08333333, 0.33333333, 0.58333333;
  (low, medium, gain, low, high) 0.3333333, 0.3333333, 0.3333333;
  (high, low, gain, low, high) 0.1666667, 0.6666667, 0.1666667;
  (medium, low, gain, low, high) 0.58333333, 0.08333333, 0.33333333;
  (low, low, gain, low, high) 0.58333333, 0.08333333, 0.33333333;
  (high, high, nonloss, low, high) 0.1666667, 0.1666667, 0.6666667;
  (medium, high, nonloss, low, high) 0.3333333, 0.3333333, 0.3333333;
  (low, high, nonloss, low, high) 0.1666667, 0.1666667, 0.6666667;
  (high, medium, nonloss, low, high) 0.7777778, 0.1111111, 0.1111111;
  (medium, medium, nonloss, low, high) 0.1111111, 0.7777778, 0.1111111;
  (low, medium, nonloss, low, high) 0.6666667, 0.1666667, 0.1666667;
  (high, low, nonloss, low, high) 0.66666667, 0.26666667, 0.06666667;
  (medium, low, nonloss, low, high) 0.1666667, 0.1666667, 0.6666667;
  (low, low, nonloss, low, high) 0.46666667, 0.46666667, 0.06666667;
  (high, high, nongain, low, high) 0.4444444, 0.4444444, 0.1111111;
  (medium, high, nongain, low, high) 0.26666667, 0.66666667, 0.06666667;
  (low, high, nongain, low, high) 0.3333333, 0.3333333, 0.3333333;
  (high, medium, nongain, low, high) 0.6666667, 0.1666667, 0.1666667;
  (medium, medium, nongain, low, high) 0.1666667, 0.1666667, 0.6666667;
  (low, medium, nongain, low, high) 0.58333333, 0.08333333, 0.33333333;
  (high, low, nongain, low, high) 0.83333333, 0.08333333, 0.08333333;
  (medium, low, nongain, low, high) 0.3333333, 0.3333333, 0.3333333;
  (low, low, nongain, low, high) 0.6666667, 0.1666667, 0.1666667;
  (high, high, loss, low, high) 0.3333333, 0.3333333, 0.3333333;
  (medium, high, loss, low, high) 0.2666667, 0.4666667, 0.2666667;
  (low, high, loss, low, high) 0.4444444, 0.4444444, 0.1111111;
  (high, medium, loss, low, high) 0.1666667, 0.1666667, 0.6666667;
  (medium, medium, loss, low, high) 0.1666667, 0.6666667, 0.1666667;
  (low, medium, loss, low, high) 0.1111111, 0.1111111, 0.7777778;
  (high, low, loss, low, high) 0.3333333, 0.3333333, 0.3333333;
  (medium, low, loss, low, high) 0.26666667, 0.06666667, 0.66666667;
  (low, low, loss, low, high) 0.6666667, 0.1666667, 0.1666667;
  (high, high, gain, high, medium) 0.3888889, 0.2222222, 0.3888889;
  (medium, high, gain, high, medium) 0.58333333, 0.33333333, 0.08333333;
  (low, high, gain, high, medium) 0.7777778, 0.1111111, 0.1111111;
  (high, medium, gain, high, medium) 0.7777778, 0.1111111, 0.1111111;
  (medium, medium, gain, high, medium) 0.6666667, 0.1666667, 0.1666667;
  (low, medium, gain, high, medium) 0.6666667, 0.1666667, 0.1666667;
  (high, low, gain, high, medium) 0.1666667, 0.1666667, 0.6666667;
  (medium, low, gain, high, medium) 0.1666667, 0.6666667, 0.1666667;
  (low, low, gain, high, medium) 0.3333333, 0.3333333, 0.3333333;
  (high, high, nonloss, high, medium) 0.1111111, 0.1111111, 0.7777778;
  (medium, high, nonloss, high, medium) 0.3333333, 0.3333333, 0.3333333;
  (low, high, nonloss, high, medium) 0.66666667, 0.26666667, 0.06666667;
  (high, medium, nonloss, high, medium) 0.1111111, 0.7777778, 0.1111111;
  (medium, medium, nonloss, high, medium) 0.6666667, 0.1666667, 0.1666667;
  (low, medium, nonloss, high, medium) 0.3333333, 0.3333333, 0.3333333;
  (high, low, nonloss, high, medium) 0.3333333, 0.3333333, 0.3333333;
  (medium, low, nonloss, high, medium) 0.3333333, 0.3333333, 0.3333333;
  (low, low, nonloss, high, medium) 0.3333333, 0.3333333, 0.3333333;
  (high, high, nongain, high, medium) 0.6666667, 0.1666667, 0.1666667;
  (medium, high, nongain, high, medium) 0.4444444, 0.1111111, 0.4444444;
  (low, high, nongain, high, medium) 0.1111111, 0.1111111, 0.7777778;
  (high, medium, nongain, high, medium) 0.3333333, 0.3333333, 0.3333333;
  (medium, medium, nongain, high, medium) 0.1111111, 0.4444444, 0.4444444;
  (low, medium, nongain, high, medium) 0.1111111, 0.4444444, 0.4444444;
  (high, low, nongain, high, medium) 0.4444444, 0.4444444, 0.1111111;
  (medium, low, nongain, high, medium) 0.1666667, 0.6666667, 0.1666667;
  (low, low, nongain, high, medium) 0.3333333, 0.3333333, 0.3333333;
  (high, high, loss, high, medium) 0.2666667, 0.4666667, 0.2666667;
  (medium, high, loss, high, medium) 0.4444444, 0.4444444, 0.1111111;
  (low, high, loss, high, medium) 0.1666667, 0.1666667, 0.6666667;
  (high, medium, loss, high, medium) 0.1666667, 0.6666667, 0.1666667;
  (medium, medium, loss, high, medium) 0.1666667, 0.6666667, 0.1666667;
  (low, medium, loss, high, medium) 0.1666667, 0.1666667, 0.6666667;
  (high, low, loss, high, medium) 0.3333333, 0.3333333, 0.3333333;
  (medium, low, loss, high, medium) 0.1666667, 0.6666667, 0.1666667;
  (low, low, loss, high, medium) 0.06666667, 0.66666667, 0.26666667;
  (high, high, gain, medium, medium) 0.3333333, 0.3333333, 0.3333333;
  (medium, high, gain, medium, medium) 0.3333333, 0.3333333, 0.3333333;
  (low, high, gain, medium, medium) 0.33333333, 0.08333333, 0.58333333;
  (high, medium, gain, medium, medium) 0.72222222, 0.22222222, 0.05555556;
  (medium, medium, gain, medium, medium) 0.1666667, 0.6666667, 0.1666667;
  (low, medium, gain, medium, medium) 0.4444444, 0.4444444, 0.1111111;
  (high, low, gain, medium, medium) 0.58333333, 0.33333333, 0.08333333;
  (medium, low, gain, medium, medium) 0.7777778, 0.1111111, 0.1111111;
  (low, low, gain, medium, medium) 0.4444444, 0.4444444, 0.1111111;
  (high, high, nonloss, medium, medium) 0.83333333, 0.08333333, 0.08333333;
  (medium, high, nonloss, medium, medium) 0.86666667, 0.06666667, 0.06666667;
  (low, high, nonloss, medium, medium) 0.6666667, 0.1666667, 0.1666667;
  (high, medium, nonloss, medium, medium) 0.1666667, 0.6666667, 0.1666667;
  (medium, medium, nonloss, medium, medium) 0.1666667, 0.1666667, 0.6666667;
  (low, medium, nonloss, medium, medium) 0.1666667, 0.6666667, 0.1666667;
  (high, low, nonloss, medium, medium) 0.1666667, 0.1666667, 0.6666667;
  (medium, low, nonloss, medium, medium) 0.3333333, 0.3333333, 0.3333333;
  (low, low, nonloss, medium, medium) 0.6666667, 0.1666667, 0.1666667;
  (high, high, nongain, medium, medium) 0.4444444, 0.4444444, 0.1111111;
  (medium, high, nongain, medium, medium) 0.6666667, 0.1666667, 0.1666667;
  (low, high, nongain, medium, medium) 0.1111111, 0.1111111, 0.7777778;
  (high, medium, nongain, medium, medium) 0.1111111, 0.4444444, 0.4444444;
  (medium, medium, nongain, medium, medium) 0.1666667, 0.1666667, 0.6666667;
  (low, medium, nongain, medium, medium) 0.3333333, 0.3333333, 0.3333333;
  (high, low, nongain, medium, medium) 0.3333333, 0.3333333, 0.3333333;
  (medium, low, nongain, medium, medium) 0.58333333, 0.33333333, 0.08333333;
  (low, low, nongain, medium, medium) 0.3333333, 0.3333333, 0.3333333;
  (high, high, loss, medium, medium) 0.6666667, 0.1666667, 0.1666667;
  (medium, high, loss, medium, medium) 0.3333333, 0.3333333, 0.3333333;
  (low, high, loss, medium, medium) 0.1111111, 0.4444444, 0.4444444;
  (high, medium, loss, medium, medium) 0.3333333, 0.3333333, 0.3333333;
  (medium, medium, loss, medium, medium) 0.1111111, 0.4444444, 0.4444444;
  (low, medium, loss, medium, medium) 0.1111111, 0.1111111, 0.7777778;
  (high, low, loss, medium, medium) 0.6666667, 0.1666667, 0.1666667;
  (medium, low, loss, medium, medium) 0.1666667, 0.6666667, 0.1666667;
  (low, low, loss, medium, medium) 0.1666667, 0.6666667, 0.1666667;
  (high, high, gain, low, medium) 0.4444444, 0.1111111, 0.4444444;
  (medium, high, gain, low, medium) 0.6666667, 0.1666667, 0.1666667;
  (low, high, gain, low, medium) 0.1666667, 0.1666667, 0.6666667;
  (high, medium, gain, low, medium) 0.6666667, 0.1666667, 0.1666667;
  (medium, medium, gain, low, medium) 0.1666667, 0.1666667, 0.6666667;
  (low, medium, gain, low, medium) 0.1666667, 0.6666667, 0.1666667;
  (high, low, gain, low, medium) 0.3333333, 0.3333333, 0.3333333;
  (medium, low, gain, low, medium) 0.6666667, 0.1666667, 0.1666667;
  (low, low, gain, low, medium) 0.6666667, 0.1666667, 0.1666667;
  (high, high, nonloss, low, medium) 0.6666667, 0.1666667, 0.1666667;
  (medium, high, nonloss, low, medium) 0.3333333, 0.3333333, 0.3333333;
  (low, high, nonloss, low, medium) 0.1666667, 0.1666667, 0.6666667;
  (high, medium, nonloss, low, medium) 0.4444444, 0.1111111, 0.4444444;
  (medium, medium, nonloss, low, medium) 0.1666667, 0.6666667, 0.1666667;
  (low, medium, nonloss, low, medium) 0.3333333, 0.3333333, 0.3333333;
  (high, low, nonloss, low, medium) 0.3333333, 0.3333333, 0.3333333;
  (medium, low, nonloss, low, medium) 0.1111111, 0.4444444, 0.4444444;
  (low, low, nonloss, low, medium) 0.1111111, 0.1111111, 0.7777778;
  (high, high, nongain, low, medium) 0.4444444, 0.4444444, 0.1111111;
  (medium, high, nongain, low, medium) 0.6666667, 0.1666667, 0.1666667;
  (low, high, nongain, low, medium) 0.1111111, 0.7777778, 0.1111111;
  (high, medium, nongain, low, medium) 0.3333333, 0.3333333, 0.3333333;
  (medium, medium, nongain, low, medium) 0.83333333, 0.08333333, 0.08333333;
  (low, medium, nongain, low, medium) 0.1111111, 0.4444444, 0.4444444;
  (high, low, nongain, low, medium) 0.6666667, 0.1666667, 0.1666667;
  (medium, low, nongain, low, medium) 0.3333333, 0.3333333, 0.3333333;
  (low, low, nongain, low, medium) 0.3333333, 0.3333333, 0.3333333;
  (high, high, loss, low, medium) 0.3333333, 0.3333333, 0.3333333;
  (medium, high, loss, low, medium) 0.3333333, 0.3333333, 0.3333333;
  (low, high, loss, low, medium) 0.1666667, 0.6666667, 0.1666667;
  (high, medium, loss, low, medium) 0.1111111, 0.4444444, 0.4444444;
  (medium, medium, loss, low, medium) 0.1111111, 0.1111111, 0.7777778;
  (low, medium, loss, low, medium) 0.1111111, 0.7777778, 0.1111111;
  (high, low, loss, low, medium) 0.3333333, 0.3333333, 0.3333333;
  (medium, low, loss, low, medium) 0.2666667, 0.2666667, 0.4666667;
  (low, low, loss, low, medium) 0.1666667, 0.1666667, 0.6666667;
  (high, high, gain, high, low) 0.46666667, 0.06666667, 0.46666667;
  (medium, high, gain, high, low) 0.1666667, 0.6666667, 0.1666667;
  (low, high, gain, high, low) 0.4444444, 0.4444444, 0.1111111;
  (high, medium, gain, high, low) 0.4444444, 0.4444444, 0.1111111;
  (medium, medium, gain, high, low) 0.1666667, 0.1666667, 0.6666667;
  (low, medium, gain, high, low) 0.1666667, 0.1666667, 0.6666667;
  (high, low, gain, high, low) 0.1111111, 0.4444444, 0.4444444;
  (medium, low, gain, high, low) 0.1666667, 0.1666667, 0.6666667;
  (low, low, gain, high, low) 0.1666667, 0.1666667, 0.6666667;
  (high, high, nonloss, high, low) 0.3333333, 0.3333333, 0.3333333;
  (medium, high, nonloss, high, low) 0.6666667, 0.1666667, 0.1666667;
  (low, high, nonloss, high, low) 0.3333333, 0.3333333, 0.3333333;
  (high, medium, nonloss, high, low) 0.1111111, 0.4444444, 0.4444444;
  (medium, medium, nonloss, high, low) 0.58333333, 0.08333333, 0.33333333;
  (low, medium, nonloss, high, low) 0.05555556, 0.38888889, 0.55555556;
  (high, low, nonloss, high, low) 0.1666667, 0.1666667, 0.6666667;
  (medium, low, nonloss, high, low) 0.3333333, 0.3333333, 0.3333333;
  (low, low, nonloss, high, low) 0.08333333, 0.58333333, 0.33333333;
  (high, high, nongain, high, low) 0.1111111, 0.7777778, 0.1111111;
  (medium, high, nongain, high, low) 0.33333333, 0.08333333, 0.58333333;
  (low, high, nongain, high, low) 0.3333333, 0.3333333, 0.3333333;
  (high, medium, nongain, high, low) 0.6666667, 0.1666667, 0.1666667;
  (medium, medium, nongain, high, low) 0.4444444, 0.1111111, 0.4444444;
  (low, medium, nongain, high, low) 0.4444444, 0.4444444, 0.1111111;
  (high, low, nongain, high, low) 0.1111111, 0.7777778, 0.1111111;
  (medium, low, nongain, high, low) 0.08333333, 0.83333333, 0.08333333;
  (low, low, nongain, high, low) 0.4444444, 0.4444444, 0.1111111;
  (high, high, loss, high, low) 0.38888889, 0.55555556, 0.05555556;
  (medium, high, loss, high, low) 0.08333333, 0.08333333, 0.83333333;
  (low, high, loss, high, low) 0.3333333, 0.3333333, 0.3333333;
  (high, medium, loss, high, low) 0.3333333, 0.3333333, 0.3333333;
  (medium, medium, loss, high, low) 0.4444444, 0.1111111, 0.4444444;
  (low, medium, loss, high, low) 0.1666667, 0.1666667, 0.6666667;
  (high, low, loss, high, low) 0.3333333, 0.3333333, 0.3333333;
  (medium, low, loss, high, low) 0.1111111, 0.4444444, 0.4444444;
  (low, low, loss, high, low) 0.1111111, 0.1111111, 0.7777778;
  (high, high, gain, medium, low) 0.08333333, 0.83333333, 0.08333333;
  (medium, high, gain, medium, low) 0.2666667, 0.4666667, 0.2666667;
  (low, high, gain, medium, low) 0.1666667, 0.6666667, 0.1666667;
  (high, medium, gain, medium, low) 0.4444444, 0.4444444, 0.1111111;
  (medium, medium, gain, medium, low) 0.7777778, 0.1111111, 0.1111111;
  (low, medium, gain, medium, low) 0.33333333, 0.58333333, 0.08333333;
  (high, low, gain, medium, low) 0.1111111, 0.7777778, 0.1111111;
  (medium, low, gain, medium, low) 0.08333333, 0.83333333, 0.08333333;
  (low, low, gain, medium, low) 0.1666667, 0.6666667, 0.1666667;
  (high, high, nonloss, medium, low) 0.46666667, 0.46666667, 0.06666667;
  (medium, high, nonloss, medium, low) 0.6666667, 0.1666667, 0.1666667;
  (low, high, nonloss, medium, low) 0.1666667, 0.1666667, 0.6666667;
  (high, medium, nonloss, medium, low) 0.1666667, 0.6666667, 0.1666667;
  (medium, medium, nonloss, medium, low) 0.08333333, 0.33333333, 0.58333333;
  (low, medium, nonloss, medium, low) 0.58333333, 0.33333333, 0.08333333;
  (high, low, nonloss, medium, low) 0.7777778, 0.1111111, 0.1111111;
  (medium, low, nonloss, medium, low) 0.1666667, 0.1666667, 0.6666667;
  (low, low, nonloss, medium, low) 0.3333333, 0.3333333, 0.3333333;
  (high, high, nongain, medium, low) 0.6666667, 0.1666667, 0.1666667;
  (medium, high, nongain, medium, low) 0.06666667, 0.86666667, 0.06666667;
  (low, high, nongain, medium, low) 0.4444444, 0.4444444, 0.1111111;
  (high, medium, nongain, medium, low) 0.1666667, 0.1666667, 0.6666667;
  (medium, medium, nongain, medium, low) 0.3333333, 0.3333333, 0.3333333;
  (low, medium, nongain, medium, low) 0.3333333, 0.3333333, 0.3333333;
  (high, low, nongain, medium, low) 0.6666667, 0.1666667, 0.1666667;
  (medium, low, nongain, medium, low) 0.3333333, 0.3333333, 0.3333333;
  (low, low, nongain, medium, low) 0.3333333, 0.3333333, 0.3333333;
  (high, high, loss, medium, low) 0.1666667, 0.6666667, 0.1666667;
  (medium, high, loss, medium, low) 0.1111111, 0.7777778, 0.1111111;
  (low, high, loss, medium, low) 0.08333333, 0.58333333, 0.33333333;
  (high, medium, loss, medium, low) 0.08333333, 0.33333333, 0.58333333;
  (medium, medium, loss, medium, low) 0.08333333, 0.58333333, 0.33333333;
  (low, medium, loss, medium, low) 0.3333333, 0.3333333, 0.3333333;
  (high, low, loss, medium, low) 0.4444444, 0.4444444, 0.1111111;
  (medium, low, loss, medium, low) 0.58333333, 0.33333333, 0.08333333;
  (low, low, loss, medium, low) 0.6666667, 0.1666667, 0.1666667;
  (high, high, gain, low, low) 0.4444444, 0.4444444, 0.1111111;
  (medium, high, gain, low, low) 0.3333333, 0.3333333, 0.3333333;
  (low, high, gain, low, low) 0.08333333, 0.83333333, 0.08333333;
  (high, medium, gain, low, low) 0.1111111, 0.7777778, 0.1111111;
  (medium, medium, gain, low, low) 0.3333333, 0.3333333, 0.3333333;
  (low, medium, gain, low, low) 0.06666667, 0.06666667, 0.86666667;
  (high, low, gain, low, low) 0.4444444, 0.4444444, 0.1111111;
  (medium, low, gain, low, low) 0.6666667, 0.1666667, 0.1666667;
  (low, low, gain, low, low) 0.72222222, 0.05555556, 0.22222222;
  (high, high, nonloss, low, low) 0.1666667, 0.6666667, 0.1666667;
  (medium, high, nonloss, low, low) 0.2222222, 0.2222222, 0.5555556;
  (low, high, nonloss, low, low) 0.4444444, 0.4444444, 0.1111111;
  (high, medium, nonloss, low, low) 0.1111111, 0.7777778, 0.1111111;
  (medium, medium, nonloss, low, low) 0.7777778, 0.1111111, 0.1111111;
  (low, medium, nonloss, low, low) 0.6666667, 0.1666667, 0.1666667;
  (high, low, nonloss, low, low) 0.33333333, 0.58333333, 0.08333333;
  (medium, low, nonloss, low, low) 0.1666667, 0.6666667, 0.1666667;
  (low, low, nonloss, low, low) 0.3333333, 0.3333333, 0.3333333;
  (high, high, nongain, low, low) 0.38888889, 0.55555556, 0.05555556;
  (medium, high, nongain, low, low) 0.83333333, 0.08333333, 0.08333333;
  (low, high, nongain, low, low) 0.1666667, 0.6666667, 0.1666667;
  (high, medium, nongain, low, low) 0.33333333, 0.58333333, 0.08333333;
  (medium, medium, nongain, low, low) 0.4444444, 0.4444444, 0.1111111;
  (low, medium, nongain, low, low) 0.3333333, 0.3333333, 0.3333333;
  (high, low, nongain, low, low) 0.3333333, 0.3333333, 0.3333333;
  (medium, low, nongain, low, low) 0.4444444, 0.1111111, 0.4444444;
  (low, low, nongain, low, low) 0.4444444, 0.1111111, 0.4444444;
  (high, high, loss, low, low) 0.08333333, 0.33333333, 0.58333333;
  (medium, high, loss, low, low) 0.7777778, 0.1111111, 0.1111111;
  (low, high, loss, low, low) 0.1666667, 0.6666667, 0.1666667;
  (high, medium, loss, low, low) 0.58333333, 0.08333333, 0.33333333;
  (medium, medium, loss, low, low) 0.1111111, 0.7777778, 0.1111111;
  (low, medium, loss, low, low) 0.1111111, 0.4444444, 0.4444444;
  (high, low, loss, low, low) 0.1666667, 0.1666667, 0.6666667;
  (medium, low, loss, low, low) 0.33333333, 0.08333333, 0.58333333;
  (low, low, loss, low, low) 0.33333333, 0.08333333, 0.58333333;
}
